{
  "model_architecture": {
    "input_size": 72,
    "hidden_size": 64,
    "output_size": 24,
    "num_layers": 1
  },
  "parameters": {
    "lstm.weight_ih_l0": [
      [
        -0.09235435724258423,
        0.1069447249174118,
        -0.004607517272233963,
        -0.03549009561538696,
        0.12687808275222778,
        -0.028441956266760826,
        0.02058793604373932,
        0.08160992711782455,
        -0.034643009305000305,
        0.017501961439847946,
        0.0810340940952301,
        -0.012762965634465218,
        0.14437510073184967,
        0.06495045870542526,
        -0.09626221656799316,
        0.1428564190864563,
        0.05182304233312607,
        0.03990380838513374,
        -0.09955421090126038,
        0.0013903699582442641,
        -0.09325994551181793,
        0.031995367258787155,
        0.0832998976111412,
        0.009822786785662174,
        -0.0910826101899147,
        0.10083264857530594,
        -0.09797488898038864,
        -0.056190088391304016,
        0.02847522497177124,
        0.0031619921792298555,
        -0.02863936685025692,
        -0.06374329328536987,
        0.0697937086224556,
        0.019102847203612328,
        0.08125535398721695,
        -0.019284626469016075,
        -0.0073901331052184105,
        -0.04249095171689987,
        0.050441499799489975,
        0.09694433212280273,
        0.07444244623184204,
        0.028490658849477768,
        -0.005375853274017572,
        -0.045672640204429626,
        -0.08162090927362442,
        0.07945742458105087,
        0.028370732441544533,
        0.0804254561662674,
        -0.05321439355611801,
        0.08536797761917114,
        0.052460476756095886,
        0.13353011012077332,
        0.08650828897953033,
        0.09566600620746613,
        -0.011800811626017094,
        0.14842383563518524,
        -0.0508568100631237,
        0.07342894375324249,
        -0.024554064497351646,
        -0.05382809042930603,
        -0.062444817274808884,
        0.010380793362855911,
        0.06697037816047668,
        0.010358890518546104,
        0.019422587007284164,
        0.10255131125450134,
        0.15729442238807678,
        0.10645706951618195,
        0.017500150948762894,
        0.038383450359106064,
        -0.08735614269971848,
        -0.06707154959440231
      ],
      [
        -0.0064389812760055065,
        -0.10097969323396683,
        0.10120830684900284,
        -0.021233180537819862,
        0.06746893376111984,
        0.05001840740442276,
        0.06843780726194382,
        -0.07628631591796875,
        0.06677592545747757,
        0.0029735807329416275,
        0.00836950447410345,
        0.09166858345270157,
        -0.07113462686538696,
        0.08601242303848267,
        -0.08452989906072617,
        -0.0773761048913002,
        -0.1074572205543518,
        0.0321107842028141,
        0.03140130266547203,
        -0.02983899414539337,
        -0.0013033624272793531,
        0.08349009603261948,
        -0.1048598662018776,
        0.05345950275659561,
        -0.028328780084848404,
        0.0031779035925865173,
        0.08490413427352905,
        -0.0428045392036438,
        -0.052954915910959244,
        0.09813033044338226,
        -0.06893844902515411,
        -0.07593477517366409,
        0.02524312026798725,
        -0.028446005657315254,
        -0.03499127924442291,
        -0.04800712317228317,
        -0.01562093198299408,
        0.012455105781555176,
        -0.0433693490922451,
        0.12210625410079956,
        0.10086827725172043,
        0.11971063911914825,
        0.022844264283776283,
        0.10867930948734283,
        -0.047297973185777664,
        0.06687133759260178,
        -0.11109859496355057,
        -0.08647806197404861,
        0.12926140427589417,
        0.1220703274011612,
        -0.03540443629026413,
        -0.0037827943451702595,
        0.10855822265148163,
        -0.03879633918404579,
        0.029495399445295334,
        -0.0044043888337910175,
        -0.07957170903682709,
        0.11923979222774506,
        -0.05800526589155197,
        0.1266370713710785,
        0.031072746962308884,
        -0.10260645300149918,
        0.005787539295852184,
        -0.002111837500706315,
        0.03575146570801735,
        0.07570038735866547,
        -0.0142965167760849,
        0.006621155887842178,
        -0.06875456124544144,
        0.021032409742474556,
        -0.03317888081073761,
        0.02696310356259346
      ],
      [
        0.006895012222230434,
        0.09067927300930023,
        0.022559646517038345,
        -0.08405395597219467,
        0.0778241977095604,
        -0.004704548045992851,
        0.08066302537918091,
        0.021894222125411034,
        -0.1117619127035141,
        -0.009866386651992798,
        0.11899431049823761,
        -0.08318254351615906,
        0.10158973932266235,
        -0.018468135967850685,
        -0.0211788360029459,
        0.0038627246394753456,
        0.03858944773674011,
        0.08824717998504639,
        0.055369604378938675,
        0.09427504986524582,
        -0.003632092149928212,
        -0.05209213122725487,
        -0.016648082062602043,
        0.07630114257335663,
        -0.00203301222063601,
        -0.09105920046567917,
        -0.06219559907913208,
        0.07138660550117493,
        0.018430586904287338,
        -0.0187299232929945,
        -0.09773962199687958,
        0.0988144725561142,
        -0.025070922449231148,
        -0.09458360821008682,
        0.040515556931495667,
        -0.10639039427042007,
        0.11679769307374954,
        0.09779588878154755,
        0.06370261311531067,
        -0.06896531581878662,
        -0.10844523459672928,
        -0.04385417327284813,
        0.025362739339470863,
        -0.11036266386508942,
        -0.05171963945031166,
        0.09933032840490341,
        0.11575670540332794,
        -0.06751387566328049,
        0.13641688227653503,
        0.06437297910451889,
        0.033110056072473526,
        -0.005133430473506451,
        -0.04614377021789551,
        0.05394931882619858,
        -0.03256819397211075,
        -0.07261309772729874,
        -0.03713614121079445,
        -0.025478584691882133,
        0.12722603976726532,
        0.05017787218093872,
        0.12568295001983643,
        0.13215409219264984,
        -0.046861980110406876,
        0.09752157330513,
        0.008942554704844952,
        0.0120934983715415,
        0.14030639827251434,
        0.05860332027077675,
        0.006989695131778717,
        -0.09364622086286545,
        0.05128295347094536,
        0.09334544092416763
      ],
      [
        0.04143426939845085,
        -0.11315522342920303,
        -0.0687292218208313,
        0.08441465348005295,
        0.02935858815908432,
        -0.07832369953393936,
        0.08638542145490646,
        -0.061524175107479095,
        0.021289696916937828,
        0.06859659403562546,
        -0.06900111585855484,
        0.02950618602335453,
        0.09787171334028244,
        0.0034759636037051678,
        0.09511466324329376,
        0.09673358500003815,
        0.06638588756322861,
        0.05854443833231926,
        0.10831301659345627,
        -0.07784595340490341,
        0.07403573393821716,
        -0.055658988654613495,
        -0.10515274852514267,
        -0.037362098693847656,
        0.009468695148825645,
        0.019938156008720398,
        -0.07498961687088013,
        -0.07771231234073639,
        -0.09396570920944214,
        -0.03884081915020943,
        0.04787587746977806,
        0.08294350653886795,
        -0.0774252712726593,
        0.10378032177686691,
        0.04019540920853615,
        0.05145176500082016,
        0.039438869804143906,
        -0.11171519011259079,
        -0.02514786273241043,
        0.032080259174108505,
        0.06486061960458755,
        -0.10265246778726578,
        0.08289485424757004,
        -0.0021351217292249203,
        -0.10744563490152359,
        -0.027400581166148186,
        0.11956781148910522,
        0.04166249930858612,
        -0.022079067304730415,
        0.0814252719283104,
        0.10948140919208527,
        0.04983709007501602,
        -0.03833386301994324,
        -0.014422408305108547,
        -0.03356586769223213,
        0.11182749271392822,
        0.07299482822418213,
        -0.1165774017572403,
        -0.08472920209169388,
        0.04406479746103287,
        -0.04352737218141556,
        0.11884751915931702,
        -0.05385149270296097,
        -0.008056692779064178,
        0.07745067775249481,
        0.02860872447490692,
        0.0926266685128212,
        0.015820655971765518,
        0.05501808971166611,
        -0.0004222434072289616,
        -0.07940558344125748,
        -0.07537707686424255
      ],
      [
        0.018398376181721687,
        -0.02073843590915203,
        0.04740118980407715,
        0.04121531546115875,
        -0.07652051001787186,
        -0.06600438803434372,
        -0.02583167515695095,
        -0.14174191653728485,
        -0.1207379698753357,
        -0.14101815223693848,
        -0.129940003156662,
        -0.0561424158513546,
        0.04472856596112251,
        -0.11155987530946732,
        -0.035394374281167984,
        -0.04185151308774948,
        -0.12721675634384155,
        -0.018521690741181374,
        0.02155723236501217,
        0.015646828338503838,
        0.010011598467826843,
        0.00847180001437664,
        -0.019589118659496307,
        -0.036487992852926254,
        -0.06277092546224594,
        -0.016453858464956284,
        0.0041796923615038395,
        -0.006229107733815908,
        -0.024997293949127197,
        -0.014363648369908333,
        0.07173725217580795,
        -0.1259802281856537,
        -0.04121645539999008,
        -0.1297214925289154,
        -0.11624667048454285,
        -0.039310455322265625,
        -0.1297937035560608,
        -0.005949921440333128,
        -0.12300930917263031,
        0.06872744858264923,
        -0.06411365419626236,
        -0.10244283825159073,
        -0.10293973982334137,
        -0.056288812309503555,
        -0.02509884350001812,
        -0.023537563160061836,
        -0.003420980414375663,
        -0.05724664777517319,
        -0.053100183606147766,
        0.06478724628686905,
        -0.03553297743201256,
        -0.07180149108171463,
        -0.018508728593587875,
        -0.08198411017656326,
        -0.08517788350582123,
        0.08312997221946716,
        0.09201747179031372,
        -0.13264328241348267,
        -0.04762626066803932,
        0.029771557077765465,
        -0.022552339360117912,
        -0.0028148682322353125,
        0.05813563987612724,
        -0.023253943771123886,
        -0.0028034024871885777,
        0.08975794166326523,
        -0.07570129632949829,
        -0.06711643934249878,
        0.06412599235773087,
        -0.08720966428518295,
        -0.05858427286148071,
        -0.11625256389379501
      ],
      [
        0.09812197834253311,
        0.1158362329006195,
        -0.009148667566478252,
        0.027231743559241295,
        0.04097091034054756,
        0.1331397294998169,
        -0.008243863470852375,
        -0.017671888694167137,
        -0.11121727526187897,
        -0.03996492922306061,
        0.07233534753322601,
        0.07829394191503525,
        0.004469508305191994,
        -0.0402393601834774,
        0.1097986176609993,
        -0.008749251253902912,
        -0.0861186608672142,
        0.03444872796535492,
        0.12729091942310333,
        0.10029583424329758,
        -0.07506608963012695,
        -0.04896705970168114,
        -0.05144716426730156,
        0.09624920785427094,
        -0.09131766855716705,
        0.03535887598991394,
        0.05882685258984566,
        -0.08194717764854431,
        0.11581892520189285,
        -0.04658035188913345,
        -0.04653515666723251,
        0.10130532085895538,
        0.07602133601903915,
        0.031866125762462616,
        -0.09877412766218185,
        0.10168009996414185,
        0.039877694100141525,
        0.1356678307056427,
        0.03343696892261505,
        0.1052384153008461,
        -0.024392887949943542,
        -0.044623371213674545,
        0.058410756289958954,
        -0.0755733922123909,
        -0.054469335824251175,
        0.026545140892267227,
        0.13500618934631348,
        -0.07787217199802399,
        0.026749374344944954,
        0.0012472678208723664,
        -0.06254485994577408,
        0.03739052265882492,
        -0.0045270235277712345,
        -0.07190248370170593,
        -0.08537305891513824,
        -0.07972881942987442,
        -0.041693758219480515,
        0.047958631068468094,
        -0.1091938391327858,
        -0.10579950362443924,
        0.011781533248722553,
        -0.0200148057192564,
        0.06098269298672676,
        -0.0900464728474617,
        -0.024298574775457382,
        -0.00972758512943983,
        0.038819681853055954,
        0.12562566995620728,
        -0.010307913646101952,
        -0.0889522135257721,
        0.01325000450015068,
        0.14088483154773712
      ],
      [
        -0.06889085471630096,
        0.07915998995304108,
        -0.019947474822402,
        -0.03896946832537651,
        0.1151542067527771,
        0.07182882726192474,
        0.10745678097009659,
        -0.016440745443105698,
        0.09393831342458725,
        -0.07231172919273376,
        -0.08892878890037537,
        -0.045319877564907074,
        -0.06536326557397842,
        -0.09481600672006607,
        0.1127709224820137,
        -0.0341651476919651,
        0.09111731499433517,
        -0.02898865006864071,
        0.08366040140390396,
        0.02195674739778042,
        0.10148300230503082,
        -0.038991186767816544,
        -0.059939492493867874,
        -0.06079033762216568,
        -0.014942074194550514,
        0.06824391335248947,
        -0.06706163287162781,
        0.05518047884106636,
        -0.0427992157638073,
        -0.1010034829378128,
        0.07023070752620697,
        -0.11247983574867249,
        0.05946946516633034,
        -0.07199419289827347,
        0.11719013750553131,
        -0.008671975694596767,
        0.09886018931865692,
        0.07124055176973343,
        -0.08566265553236008,
        0.05114147067070007,
        -0.07938365638256073,
        0.006696338299661875,
        0.07947666198015213,
        -0.0124894417822361,
        -0.03005349263548851,
        -0.06479673832654953,
        -0.014582585543394089,
        -0.05677850544452667,
        -0.052180930972099304,
        -0.11113220453262329,
        0.04201221466064453,
        -0.10763803869485855,
        0.053400009870529175,
        0.07403415441513062,
        -0.039057452231645584,
        0.12094804644584656,
        0.1197734996676445,
        -0.03286447748541832,
        0.0034290326293557882,
        0.05111560598015785,
        0.14164511859416962,
        -0.019076278433203697,
        0.033365294337272644,
        0.011391771025955677,
        0.10747160762548447,
        0.13266177475452423,
        -0.014999969862401485,
        0.10967416316270828,
        0.0560544915497303,
        -0.016196463257074356,
        0.05280506610870361,
        -0.08990147709846497
      ],
      [
        0.0376434288918972,
        -0.07746245712041855,
        -0.09589133411645889,
        -0.01452285423874855,
        0.04177077114582062,
        -0.13745029270648956,
        -0.040251269936561584,
        -0.10453714430332184,
        -0.01820557191967964,
        -0.09346148371696472,
        -0.13995634019374847,
        0.03113219514489174,
        0.046641722321510315,
        0.0022753607481718063,
        -0.08644949644804001,
        0.03679388016462326,
        0.03092198632657528,
        -0.08255614340305328,
        -0.12789468467235565,
        0.03251780942082405,
        0.0497220978140831,
        0.10282981395721436,
        -0.0874905064702034,
        0.04134444519877434,
        0.03370385244488716,
        0.0712154433131218,
        -0.06364027410745621,
        -0.060511015355587006,
        0.041074831038713455,
        0.05844171345233917,
        0.0353868193924427,
        -0.07690012454986572,
        0.0923355221748352,
        0.035472091287374496,
        0.06395284831523895,
        -0.042411401867866516,
        -0.13009607791900635,
        -0.08972436934709549,
        -0.10655073076486588,
        -0.1368342787027359,
        -0.12005828320980072,
        -0.08531541377305984,
        -0.11996982991695404,
        0.02732395939528942,
        0.0580756738781929,
        -0.1399335265159607,
        -0.07787788659334183,
        0.09079080820083618,
        -0.09823527932167053,
        0.04777663201093674,
        -0.08788382261991501,
        -0.03537429869174957,
        0.015061605721712112,
        -0.06406690180301666,
        -0.09496107697486877,
        -0.04288512095808983,
        0.09609625488519669,
        0.09562063217163086,
        0.08477597683668137,
        -0.06110737845301628,
        0.015509886667132378,
        -0.08392994850873947,
        0.0447981022298336,
        -0.04686707258224487,
        -0.07199615985155106,
        -0.04615619406104088,
        -0.04848475381731987,
        -0.03902464359998703,
        0.059526652097702026,
        0.05412156879901886,
        -0.07257059961557388,
        -0.017753170803189278
      ],
      [
        0.07950278371572495,
        -0.029951872304081917,
        0.0050667361356318,
        -0.048239387571811676,
        -0.03545947000384331,
        0.07363714277744293,
        0.04433610662817955,
        -0.005654825828969479,
        -0.10846704989671707,
        -0.011342990212142467,
        -0.09608609229326248,
        0.016033684834837914,
        -0.07613476365804672,
        -0.13439416885375977,
        0.0845646858215332,
        0.08645477145910263,
        -0.03127770870923996,
        -0.03166035935282707,
        -0.0802764818072319,
        0.03325008600950241,
        -0.038781698793172836,
        -0.1438080221414566,
        -0.028813807293772697,
        -0.07033935934305191,
        0.04252126067876816,
        -0.014886502176523209,
        0.02911686711013317,
        0.017388321459293365,
        0.006569942459464073,
        0.09614890813827515,
        -0.003877930575981736,
        0.01648940145969391,
        -0.004650673363357782,
        -0.011922074481844902,
        0.07171627134084702,
        0.05861518904566765,
        0.002165268175303936,
        -0.07316462695598602,
        -0.14825209975242615,
        -0.11250095069408417,
        -0.10210500657558441,
        -0.017288770526647568,
        0.028933808207511902,
        0.072268545627594,
        -0.05505083128809929,
        -0.09379758685827255,
        0.0033560956362634897,
        0.03496380150318146,
        0.005136440508067608,
        0.036797117441892624,
        0.006139708682894707,
        0.06628674268722534,
        0.007484197150915861,
        -0.08836882561445236,
        0.040707603096961975,
        0.10236771404743195,
        0.03342214226722717,
        -0.13658751547336578,
        -0.10650716722011566,
        0.08443555980920792,
        -0.025886524468660355,
        -0.010265961289405823,
        -0.029884980991482735,
        -0.11497559398412704,
        0.09604871273040771,
        -0.04642031714320183,
        0.07725369185209274,
        -0.04278534650802612,
        -0.05849917605519295,
        -0.07785487174987793,
        0.0259401798248291,
        -0.00815447699278593
      ],
      [
        0.07876047492027283,
        -0.0574200376868248,
        0.07971230894327164,
        0.09244359284639359,
        0.11090264469385147,
        0.01638682931661606,
        0.021423770114779472,
        0.036472387611866,
        0.12305635958909988,
        0.056938644498586655,
        0.1174415722489357,
        -0.044205181300640106,
        0.00029722717590630054,
        0.014031167142093182,
        0.06767654418945312,
        -0.07584474980831146,
        0.06058116629719734,
        -0.07696114480495453,
        0.0921282023191452,
        -0.08740101754665375,
        0.14098450541496277,
        0.010376367717981339,
        0.007123815361410379,
        0.13735827803611755,
        0.12314681708812714,
        0.0121668865904212,
        -0.05508371815085411,
        -0.014066079631447792,
        -0.094173364341259,
        0.03262666240334511,
        0.01492099929600954,
        -0.07382683455944061,
        -0.09239007532596588,
        -0.09091969579458237,
        -0.014648232609033585,
        -0.053355224430561066,
        -0.0404658243060112,
        0.02605809085071087,
        -0.07757709920406342,
        0.12968726456165314,
        0.06890808045864105,
        0.03898356482386589,
        -0.05743557959794998,
        -0.08943197131156921,
        -0.07840054482221603,
        0.02596784196794033,
        -0.07630275934934616,
        -0.011950623244047165,
        -0.06438519060611725,
        -0.06861189007759094,
        -0.045100584626197815,
        0.1356072574853897,
        -0.060539789497852325,
        0.057963013648986816,
        -0.05317703261971474,
        0.00035029827267862856,
        0.05087713152170181,
        -0.05195185914635658,
        0.11536441743373871,
        -0.09781202673912048,
        -0.026616636663675308,
        -0.025617917999625206,
        0.12055789679288864,
        -0.08287646621465683,
        0.042751245200634,
        -0.08059315383434296,
        -0.07255824655294418,
        0.05690586566925049,
        0.008841660805046558,
        0.06895748525857925,
        0.15062060952186584,
        -0.028874298557639122
      ],
      [
        0.06467074155807495,
        -0.05372510477900505,
        -0.09058603644371033,
        0.05616028234362602,
        0.03201135993003845,
        0.03631947934627533,
        -0.07347913086414337,
        -0.09179369360208511,
        0.08431939780712128,
        0.06321843713521957,
        0.06316832453012466,
        -0.033471740782260895,
        0.05071069300174713,
        -0.09501606225967407,
        -0.08833026885986328,
        -0.1271556168794632,
        0.03180265799164772,
        -0.0830555409193039,
        0.06728465110063553,
        0.03752301633358002,
        -0.045171331614255905,
        -0.046540822833776474,
        -0.09277287870645523,
        -0.05809620022773743,
        -0.04371190071105957,
        -0.006314259022474289,
        -0.14235760271549225,
        -0.14225338399410248,
        0.05925219506025314,
        0.08751507103443146,
        0.05660003796219826,
        -0.1402970403432846,
        -0.1178974062204361,
        0.06503167748451233,
        0.006517843343317509,
        -0.11939968913793564,
        0.06423892825841904,
        -0.08482620120048523,
        -0.1329767405986786,
        0.09764736890792847,
        -0.03018028475344181,
        0.046523720026016235,
        -0.0444532111287117,
        -0.02062941901385784,
        0.053659893572330475,
        -0.05512235313653946,
        0.015294848941266537,
        0.0043799178674817085,
        0.005817841272801161,
        -0.020214417949318886,
        -0.10384386032819748,
        0.07341405749320984,
        -0.025645021349191666,
        -0.14050163328647614,
        -0.11310593783855438,
        -0.054868750274181366,
        -0.02898169681429863,
        0.0005256127333268523,
        0.020888900384306908,
        -0.11906994879245758,
        0.10736186057329178,
        0.0036293345037847757,
        0.1056034043431282,
        0.026054974645376205,
        0.001510543399490416,
        -0.05460695922374725,
        -0.023285720497369766,
        -0.05002724379301071,
        0.028889143839478493,
        0.03337375819683075,
        0.10462570190429688,
        -0.046393752098083496
      ],
      [
        -0.018786799162626266,
        0.10838668793439865,
        -0.05748872831463814,
        -0.03966623172163963,
        -0.07975861430168152,
        -0.07207995653152466,
        -0.09783283621072769,
        -0.01793462596833706,
        0.08165844529867172,
        -0.07973431795835495,
        -0.08653074502944946,
        -0.04572863131761551,
        0.06510775536298752,
        -0.0378035306930542,
        0.06657601147890091,
        0.04996379464864731,
        0.12780286371707916,
        -0.051641300320625305,
        0.040197573602199554,
        0.12016448378562927,
        -0.08679894357919693,
        0.12258660793304443,
        -0.03928324207663536,
        0.09421706199645996,
        0.12066005915403366,
        -0.041570182889699936,
        0.08025270700454712,
        -0.03562231361865997,
        -0.020224040374159813,
        0.0279679037630558,
        0.12290948629379272,
        0.014327067881822586,
        -0.0075332168489694595,
        0.058332476764917374,
        -0.020654188469052315,
        0.12888100743293762,
        0.025599388405680656,
        -0.05617184937000275,
        -0.05195268243551254,
        0.09722144156694412,
        0.09201362729072571,
        0.10790961980819702,
        -0.09366723150014877,
        -0.030479738488793373,
        0.016928786411881447,
        0.0015559638850390911,
        -0.10703305155038834,
        0.11939284950494766,
        -0.10465465486049652,
        0.087101511657238,
        0.035112231969833374,
        0.036579739302396774,
        -0.08001396805047989,
        0.046237971633672714,
        -0.01137099415063858,
        -0.04216008260846138,
        -0.06739634275436401,
        -0.005112985149025917,
        0.0679268166422844,
        0.09771563857793808,
        0.10611417144536972,
        0.025509370490908623,
        0.11786764115095139,
        -0.00789041630923748,
        0.004691368900239468,
        0.07672152668237686,
        0.10618024319410324,
        0.03950675576925278,
        0.08755601942539215,
        -0.08302810043096542,
        0.020077405497431755,
        -0.011943887919187546
      ],
      [
        0.12495018541812897,
        0.11243677139282227,
        0.044958487153053284,
        0.11598227173089981,
        0.06800393760204315,
        -0.08825498074293137,
        0.07096260786056519,
        0.04793684929609299,
        0.12699124217033386,
        -0.05687906593084335,
        0.0009144602809101343,
        -0.05225468426942825,
        0.012662461027503014,
        0.07127130031585693,
        0.06419438868761063,
        -0.09681595861911774,
        0.012539324350655079,
        -0.08972220122814178,
        -0.11667248606681824,
        0.04546315595507622,
        0.003968206234276295,
        -0.045798417180776596,
        0.07840648293495178,
        0.12930022180080414,
        0.1111328974366188,
        -0.09405934810638428,
        -0.08214928209781647,
        0.06767671555280685,
        0.07396981120109558,
        -0.06415656208992004,
        -0.01688365824520588,
        0.12489186227321625,
        -0.06118529662489891,
        0.12385093420743942,
        -0.10210057348012924,
        0.05968426540493965,
        0.1356809288263321,
        0.10401178151369095,
        0.09683499485254288,
        0.00860502663999796,
        0.04892697185277939,
        0.0992102399468422,
        0.006989761255681515,
        0.011147985234856606,
        -0.05686596408486366,
        -0.03116760589182377,
        -0.10515229403972626,
        -0.041860226541757584,
        -0.06726423650979996,
        0.10010858625173569,
        -0.09910151362419128,
        -0.05688875913619995,
        0.1211167573928833,
        0.055348508059978485,
        0.0765528678894043,
        0.10327060520648956,
        -0.08891931921243668,
        0.13160096108913422,
        0.13420256972312927,
        -0.09795369952917099,
        0.09421024471521378,
        0.12428165227174759,
        -0.054302141070365906,
        -0.05620140582323074,
        -0.05132860317826271,
        -0.03049321286380291,
        -0.07087145745754242,
        -0.00498709874227643,
        0.04886583983898163,
        0.11057790368795395,
        0.0719832330942154,
        0.07425308227539062
      ],
      [
        0.15257084369659424,
        0.09585325419902802,
        -0.09478235244750977,
        0.0755239799618721,
        -0.002291688695549965,
        0.0633726716041565,
        0.14196337759494781,
        0.06550144404172897,
        -0.04925849288702011,
        -0.0816444680094719,
        -0.036442119628190994,
        -0.05746258795261383,
        0.03880052641034126,
        0.020048532634973526,
        0.13201329112052917,
        -0.009578261524438858,
        0.0714862123131752,
        0.14473074674606323,
        0.08133956789970398,
        0.044534675776958466,
        0.12307144701480865,
        0.1346275508403778,
        -0.021679788827896118,
        -0.06802266091108322,
        0.07067239284515381,
        -0.05539816617965698,
        0.054120175540447235,
        -0.014410816133022308,
        -0.06501326709985733,
        0.05598684772849083,
        0.1267956644296646,
        -0.059043437242507935,
        0.05007965862751007,
        0.055021174252033234,
        0.11175180971622467,
        -0.04676667973399162,
        0.11753485351800919,
        0.11386226117610931,
        0.03259255364537239,
        0.0022864395286887884,
        -0.03812442347407341,
        0.11902806907892227,
        0.010289108380675316,
        0.06890251487493515,
        -0.024736657738685608,
        -0.04871004819869995,
        0.10155647248029709,
        0.032955270260572433,
        0.07826030254364014,
        0.06156913563609123,
        -0.050083331763744354,
        0.007493840996176004,
        0.12832970917224884,
        0.071937195956707,
        0.061869844794273376,
        0.014017874374985695,
        0.14796951413154602,
        0.07117108255624771,
        -0.06540209800004959,
        0.07527425140142441,
        -0.024861283600330353,
        0.08590155839920044,
        -0.07330115884542465,
        0.011501900851726532,
        0.05265882611274719,
        0.05714377388358116,
        0.07369250804185867,
        -0.07321971654891968,
        0.06832235306501389,
        0.1084330826997757,
        0.07202675193548203,
        0.07230562716722488
      ],
      [
        0.11669012159109116,
        0.10545368492603302,
        -0.06253834068775177,
        0.06432675570249557,
        -0.053790297359228134,
        0.0965949147939682,
        -0.022026164457201958,
        0.1214781403541565,
        0.0414423830807209,
        -0.05533048138022423,
        0.06631743907928467,
        0.009282233193516731,
        0.10091281682252884,
        -0.10865188390016556,
        -0.03194277361035347,
        0.08950665593147278,
        -0.07888010889291763,
        0.08622483164072037,
        -0.10680761933326721,
        -0.048653244972229004,
        0.12207638472318649,
        -0.044676728546619415,
        0.0906483381986618,
        -0.0581580214202404,
        -0.02465187758207321,
        -0.10695355385541916,
        0.014992523938417435,
        0.11892091482877731,
        0.0630648285150528,
        -0.05915330722928047,
        0.07873257994651794,
        0.027329012751579285,
        -0.02423040196299553,
        0.03712667524814606,
        0.03745805099606514,
        -0.017155392095446587,
        0.08931631594896317,
        0.018671564757823944,
        0.04098210856318474,
        -0.11118099838495255,
        -0.05098104849457741,
        0.011676287278532982,
        0.09907439351081848,
        -0.1075708344578743,
        -0.07765879482030869,
        0.0504753515124321,
        -0.09930294007062912,
        0.1247113049030304,
        -0.050293002277612686,
        -0.04325849935412407,
        -0.006814090069383383,
        -0.05944163724780083,
        -0.023004477843642235,
        0.060190703719854355,
        -0.10056373476982117,
        -0.0057331533171236515,
        -0.07476183772087097,
        0.11879435926675797,
        0.039798859506845474,
        0.01845608837902546,
        0.09509003162384033,
        -0.07230771332979202,
        0.09761032462120056,
        -0.0661969780921936,
        -0.08193626254796982,
        0.018476130440831184,
        -0.08235403150320053,
        -0.06928865611553192,
        0.02120986394584179,
        0.03968236595392227,
        -0.06148717552423477,
        0.07063761353492737
      ],
      [
        0.09831859916448593,
        -0.09188762307167053,
        0.0958670899271965,
        0.004707813262939453,
        -0.10358290374279022,
        0.046036165207624435,
        -0.06412763148546219,
        -0.11006879806518555,
        0.033906932920217514,
        -0.05837799981236458,
        -0.010842329822480679,
        -0.10021087527275085,
        0.10629042237997055,
        -0.02918800339102745,
        -0.10294514894485474,
        0.10453329235315323,
        0.040786657482385635,
        0.00029935705242678523,
        -0.11803989857435226,
        -0.07330538332462311,
        -0.08413632214069366,
        0.007850732654333115,
        -0.023281754925847054,
        0.0891570895910263,
        -0.1219935417175293,
        0.0695461556315422,
        0.0909181609749794,
        -0.011633321642875671,
        0.03794237598776817,
        -0.14164480566978455,
        0.0013492616126313806,
        -0.011207821778953075,
        -0.10637646913528442,
        -0.030777618288993835,
        -0.0025167292915284634,
        0.049038127064704895,
        -0.04373638331890106,
        -0.07263403385877609,
        -0.07388829439878464,
        0.013846843503415585,
        0.01661944016814232,
        -0.09249512106180191,
        0.04000072181224823,
        -0.05875140428543091,
        0.05290815606713295,
        0.05613776296377182,
        -0.05415434390306473,
        -0.07146729528903961,
        0.06277771294116974,
        0.03191696107387543,
        0.04737162962555885,
        -0.13467007875442505,
        -0.0479179248213768,
        -0.00983216892927885,
        0.08722507208585739,
        -0.07781457155942917,
        -0.0827278345823288,
        -0.00520707992836833,
        -0.09840903431177139,
        -0.07227898389101028,
        0.09992146492004395,
        0.029133131727576256,
        -0.1157032772898674,
        0.023265739902853966,
        -0.12852947413921356,
        0.03933316469192505,
        0.10169826447963715,
        -0.04583648219704628,
        -0.10772300511598587,
        -0.04460170865058899,
        0.016367847099900246,
        0.01315342728048563
      ],
      [
        -0.009586014784872532,
        0.03132150322198868,
        -0.04547012224793434,
        0.09084948152303696,
        0.11138911545276642,
        -0.07338359206914902,
        -0.01791459694504738,
        0.08074129372835159,
        0.007883313111960888,
        -0.029742224141955376,
        -0.04581458866596222,
        0.13931752741336823,
        -0.03727024048566818,
        0.11230263113975525,
        -0.04802745208144188,
        0.11602933704853058,
        0.1157345175743103,
        -0.03570788726210594,
        0.0993276983499527,
        -0.09260762482881546,
        -0.10845112055540085,
        0.000771079387050122,
        -0.0910070464015007,
        0.11840801686048508,
        0.048142194747924805,
        0.10575629770755768,
        -0.001807240303605795,
        0.034257180988788605,
        0.06835472583770752,
        0.02652882970869541,
        0.005617072340101004,
        0.08716654777526855,
        0.025291115045547485,
        0.03483588993549347,
        0.10971204936504364,
        -0.08243349939584732,
        0.01741553470492363,
        -0.08106519281864166,
        0.1297275274991989,
        0.002741042757406831,
        -0.056933287531137466,
        0.12676140666007996,
        -0.07687061280012131,
        -0.03769182413816452,
        -0.026796024292707443,
        -0.07187973707914352,
        0.0016299098497256637,
        0.10036170482635498,
        -0.01318399515002966,
        0.018550999462604523,
        0.0230482779443264,
        -0.03427605330944061,
        -0.05209822207689285,
        -0.11001323163509369,
        -0.033873699605464935,
        0.05097319185733795,
        0.01765117421746254,
        0.08742529153823853,
        0.07440339028835297,
        0.0009886424522846937,
        0.031151967123150826,
        -0.07136765122413635,
        -0.020566681399941444,
        -0.07899253815412521,
        -0.08486109226942062,
        0.13279953598976135,
        -0.04009014368057251,
        0.11599364876747131,
        0.0709770992398262,
        0.0704997181892395,
        0.06606939435005188,
        0.13628368079662323
      ],
      [
        0.14371131360530853,
        0.09058654308319092,
        0.057727351784706116,
        -0.0737059935927391,
        0.01647171378135681,
        -0.07138297706842422,
        -0.09830138087272644,
        0.11672910302877426,
        -0.10884680598974228,
        0.0037153323646634817,
        0.06688686460256577,
        -0.017676375806331635,
        0.07301570475101471,
        -0.10120553523302078,
        0.09681032598018646,
        -0.01126658171415329,
        0.14111772179603577,
        -0.0651460587978363,
        0.010806757025420666,
        0.012864570133388042,
        0.04329213872551918,
        0.06327297538518906,
        0.13935667276382446,
        0.12141678482294083,
        0.10702269524335861,
        0.12879382073879242,
        -0.044824954122304916,
        0.10340620577335358,
        0.12972576916217804,
        6.346199370454997e-06,
        0.052902985364198685,
        0.053785838186740875,
        0.04817824810743332,
        0.06719657778739929,
        -0.018325315788388252,
        0.09643044322729111,
        -0.05462406203150749,
        0.044785164296627045,
        0.09000524133443832,
        0.09189367294311523,
        -0.053861357271671295,
        -0.0701771080493927,
        -0.07676379382610321,
        0.01378882210701704,
        -0.02398487739264965,
        0.1460801362991333,
        0.06681786477565765,
        0.03711158409714699,
        0.11082953214645386,
        0.14040182530879974,
        -0.04822252690792084,
        0.023848168551921844,
        0.06131232529878616,
        -0.005451676901429892,
        -0.07080298662185669,
        -0.023167546838521957,
        0.01821066439151764,
        0.0018574869027361274,
        0.10512176156044006,
        0.11823016405105591,
        0.0017111232737079263,
        -0.01678563840687275,
        -0.028064865618944168,
        0.008255286142230034,
        -0.07224803417921066,
        -0.035563480108976364,
        0.023396946489810944,
        -0.05307846516370773,
        0.09473875164985657,
        0.04479990899562836,
        0.10684608668088913,
        -0.08916446566581726
      ],
      [
        0.01854226365685463,
        0.06537503004074097,
        -0.05570017173886299,
        0.07716577500104904,
        -0.05600370839238167,
        -0.06748565286397934,
        -0.06721913814544678,
        -0.12100841104984283,
        -0.10049720853567123,
        -0.025406958535313606,
        -0.009111444465816021,
        -0.028325987979769707,
        -0.11528559774160385,
        0.01917998120188713,
        0.11580964922904968,
        -0.12276513129472733,
        -0.07183339446783066,
        -0.053460605442523956,
        -0.05324504151940346,
        -0.06179158017039299,
        -0.02015588991343975,
        0.11145966500043869,
        -0.013312341645359993,
        -0.0071015567518770695,
        -0.09632053971290588,
        0.006403956096619368,
        -0.04805773124098778,
        -0.06968265026807785,
        0.023870492354035378,
        0.05654703080654144,
        0.0626707598567009,
        -0.08434010297060013,
        -0.10296061635017395,
        0.11578988283872604,
        -0.07331368327140808,
        0.005522172898054123,
        0.07121296972036362,
        0.06231028214097023,
        -0.04532754048705101,
        0.007482411805540323,
        0.00681423582136631,
        -0.059542279690504074,
        0.024082686752080917,
        -0.04139890894293785,
        -0.10300124436616898,
        -0.03328227624297142,
        -0.05906156823039055,
        0.09619241207838058,
        0.0344245582818985,
        0.09575167298316956,
        -0.012186503037810326,
        -0.02877401001751423,
        0.12557905912399292,
        -0.06783975660800934,
        0.013273173943161964,
        -0.1108122244477272,
        0.03743838146328926,
        -0.0665229931473732,
        0.001645679702050984,
        -0.09784377366304398,
        0.09154845774173737,
        -0.10919246077537537,
        -0.06901701539754868,
        0.1022498607635498,
        -0.0467660017311573,
        0.0010394188575446606,
        -0.030051378533244133,
        0.08302661031484604,
        0.07252246141433716,
        0.15058229863643646,
        -0.011334413662552834,
        0.021537814289331436
      ],
      [
        0.02067856304347515,
        -0.04901658743619919,
        -0.0030321297235786915,
        0.03097253292798996,
        0.05320371314883232,
        0.08272805064916611,
        -0.037747129797935486,
        0.05042612925171852,
        0.06467662751674652,
        0.0007891760324127972,
        -0.019961658865213394,
        -0.009605924598872662,
        0.002563838381320238,
        -0.040935441851615906,
        -0.09525889903306961,
        0.021251320838928223,
        0.06845977902412415,
        0.07684272527694702,
        0.13642607629299164,
        0.11068231612443924,
        0.14029596745967865,
        -0.08548091351985931,
        0.12720802426338196,
        -0.10505570471286774,
        -0.09529690444469452,
        0.1184210553765297,
        0.09825721383094788,
        -0.03942101448774338,
        -0.006661497987806797,
        -0.018572838976979256,
        -0.028697844594717026,
        0.072805255651474,
        0.09783223271369934,
        0.05248158425092697,
        0.108133465051651,
        -0.017016315832734108,
        -0.051461756229400635,
        -0.08853613585233688,
        -0.040303636342287064,
        -0.00040786113822832704,
        0.012730449438095093,
        -0.033972300589084625,
        0.0985432118177414,
        -0.017714131623506546,
        -0.024402791634202003,
        0.024847833439707756,
        0.02696637436747551,
        -0.06597652286291122,
        0.1251365840435028,
        -0.05678892135620117,
        0.05783911421895027,
        0.022190071642398834,
        -0.01865747570991516,
        -0.05637815594673157,
        -0.05575629323720932,
        0.06633460521697998,
        0.09134767204523087,
        0.10896562039852142,
        -0.02856477163732052,
        0.1475430279970169,
        0.11394127458333969,
        0.02546015754342079,
        -0.01892322488129139,
        -0.027308672666549683,
        0.008529282175004482,
        0.12834535539150238,
        0.0696885883808136,
        -0.07889017462730408,
        0.04781727492809296,
        -0.004660495091229677,
        0.003912046086043119,
        0.02158898301422596
      ],
      [
        -0.05831358954310417,
        -0.006051785312592983,
        -0.06130204722285271,
        -0.10803136974573135,
        0.07945211976766586,
        0.03328591585159302,
        0.05871718376874924,
        -0.1028892770409584,
        -0.06949854642152786,
        -0.10572725534439087,
        -0.11169138550758362,
        -0.005699961446225643,
        0.017128484323620796,
        0.09818154573440552,
        0.0986921414732933,
        0.059596117585897446,
        -0.018157199025154114,
        -0.07382988184690475,
        -0.06547287106513977,
        -0.012276371009647846,
        0.08981949090957642,
        0.09482374787330627,
        0.09041254222393036,
        0.03354029729962349,
        -0.00335674243979156,
        0.031190775334835052,
        0.11590173095464706,
        0.032832808792591095,
        -0.07777868956327438,
        -0.020137671381235123,
        -0.08970297127962112,
        0.049882277846336365,
        -0.001071609789505601,
        -0.06099390983581543,
        -0.0814228281378746,
        0.0787413939833641,
        -0.05397135019302368,
        0.012115953490138054,
        0.10010004043579102,
        0.03219123184680939,
        -0.07987700402736664,
        -0.04679238423705101,
        -0.07317300140857697,
        0.08065056800842285,
        -0.023243781179189682,
        0.08752434700727463,
        0.06317474693059921,
        -0.0698799416422844,
        -0.10195022076368332,
        0.09524127095937729,
        -0.11011049151420593,
        0.11395201086997986,
        0.038009483367204666,
        0.010884000919759274,
        0.05183015391230583,
        -0.022136559709906578,
        -0.04220310226082802,
        0.024745382368564606,
        0.09967827796936035,
        0.11643585562705994,
        0.12247827649116516,
        0.05979935824871063,
        -0.016094466671347618,
        -0.10035236179828644,
        -0.1042843908071518,
        -0.08240136504173279,
        -0.10483107715845108,
        0.11618897318840027,
        -0.032156918197870255,
        0.11691591888666153,
        0.06748299300670624,
        -0.10181489586830139
      ],
      [
        0.007514746394008398,
        0.0168670155107975,
        0.050599925220012665,
        0.05547653138637543,
        -0.13209344446659088,
        0.10240629315376282,
        0.05606378987431526,
        0.06436073035001755,
        -0.11872007697820663,
        -0.07529697567224503,
        0.01707378774881363,
        -0.06471540778875351,
        0.10439573973417282,
        0.029455021023750305,
        -0.00338001293130219,
        0.026042865589261055,
        -0.011424845084547997,
        -0.046188343316316605,
        0.0372917540371418,
        -0.06163184344768524,
        -0.12109381705522537,
        -0.0007669220794923604,
        -0.06866566836833954,
        -0.06079760193824768,
        0.08269507437944412,
        0.07427754998207092,
        0.016833219677209854,
        -0.042768023908138275,
        -0.0416896715760231,
        -0.08455590158700943,
        0.0399792306125164,
        -0.0973033532500267,
        -0.1086530089378357,
        0.01612216606736183,
        0.06341677159070969,
        0.08938055485486984,
        0.09236207604408264,
        0.0582442507147789,
        0.03241686150431633,
        0.01452095340937376,
        -0.08937393128871918,
        -0.0021400735713541508,
        -0.09322334080934525,
        0.05491040274500847,
        0.06089400872588158,
        0.06906222552061081,
        -0.14132149517536163,
        0.003094384679570794,
        -0.03985600546002388,
        -0.14062242209911346,
        -0.09847192466259003,
        -0.03673908859491348,
        -0.11194075644016266,
        0.010723455809056759,
        -0.09684477746486664,
        0.09285474568605423,
        -0.11244715750217438,
        0.0543510876595974,
        0.07986465096473694,
        0.05067531391978264,
        0.010837865993380547,
        -0.06319110840559006,
        -0.0823175311088562,
        0.07306627184152603,
        0.074901282787323,
        0.0939735621213913,
        -0.04776949808001518,
        0.03239065408706665,
        -0.05360933765769005,
        -0.04140453413128853,
        -0.13556280732154846,
        0.01394205167889595
      ],
      [
        -0.07369843870401382,
        0.07819163799285889,
        0.09897126257419586,
        0.012319491244852543,
        0.08525063842535019,
        -0.06647538393735886,
        -0.04813580587506294,
        -0.11810670047998428,
        -0.08535682410001755,
        -0.004416266921907663,
        0.10729066282510757,
        0.020063277333974838,
        -0.09755397588014603,
        -0.03897213935852051,
        -0.030229715630412102,
        -0.12769509851932526,
        0.06084737926721573,
        -0.10223230719566345,
        -0.0411832295358181,
        -0.12501242756843567,
        0.003948918543756008,
        -0.10823876410722733,
        0.08716818690299988,
        0.056021835654973984,
        0.05541530251502991,
        0.030541930347681046,
        0.018967870622873306,
        -0.05125633627176285,
        -0.022813936695456505,
        0.07333806157112122,
        0.04879876226186752,
        -0.08306621760129929,
        -0.0019707786850631237,
        0.04601025581359863,
        0.02925376407802105,
        0.07321853935718536,
        -0.030060898512601852,
        -0.13386382162570953,
        0.04165910929441452,
        -0.04372401162981987,
        -0.004428671672940254,
        0.033167410641908646,
        0.030744519084692,
        0.020951714366674423,
        0.0848870575428009,
        -0.0013326583430171013,
        0.08141106367111206,
        -0.07183237373828888,
        0.07906108349561691,
        -0.054340165108442307,
        0.015671681612730026,
        -0.030946090817451477,
        0.03859812021255493,
        0.07161036878824234,
        -0.08724527060985565,
        -0.1287825107574463,
        0.0165281780064106,
        -0.07677312940359116,
        -0.06756052374839783,
        0.04549510404467583,
        0.07550208270549774,
        0.04424990713596344,
        -0.13285017013549805,
        -0.11566878855228424,
        0.03888416290283203,
        -0.11610051989555359,
        0.08565846085548401,
        0.00798082910478115,
        -0.12579596042633057,
        -0.10066220909357071,
        0.07731702923774719,
        0.09552445262670517
      ],
      [
        0.03223980590701103,
        0.08854933828115463,
        0.13724569976329803,
        0.09853826463222504,
        0.12205076962709427,
        -0.06892488896846771,
        0.01238169427961111,
        0.09834933280944824,
        0.009129409678280354,
        0.04082336649298668,
        0.06990107148885727,
        0.004715911578387022,
        0.05275942012667656,
        0.04158623144030571,
        0.05896010622382164,
        0.022450247779488564,
        0.0091139767318964,
        0.0988379418849945,
        0.11932888627052307,
        0.03414466232061386,
        -0.09250294417142868,
        0.019128357991576195,
        0.11408165097236633,
        0.12096712738275528,
        0.13762468099594116,
        0.04797298461198807,
        0.03893580287694931,
        0.09598595649003983,
        0.12689967453479767,
        0.1220472976565361,
        0.017258930951356888,
        -0.035605255514383316,
        0.04674520716071129,
        0.1121392548084259,
        -0.025615867227315903,
        -0.033247388899326324,
        0.10787513852119446,
        0.028426436707377434,
        0.14071528613567352,
        0.11629410833120346,
        -0.011832312680780888,
        -0.05185669660568237,
        -0.020145708695054054,
        0.021381625905632973,
        0.01593596115708351,
        0.0059848325327038765,
        -0.038474421948194504,
        -0.05122273042798042,
        -0.014276759698987007,
        0.13065804541110992,
        0.0652095228433609,
        -0.0783839300274849,
        -0.08142028748989105,
        0.12938013672828674,
        0.07866711169481277,
        0.0344838984310627,
        0.017923664301633835,
        0.07804207503795624,
        0.06002224609255791,
        0.11853986233472824,
        0.09826923906803131,
        -0.023737898096442223,
        0.04074244201183319,
        0.004420544020831585,
        0.0035294992849230766,
        0.10214422643184662,
        0.024825695902109146,
        0.11825427412986755,
        -0.08133049309253693,
        0.006751896347850561,
        -0.012194553390145302,
        -0.06154036894440651
      ],
      [
        0.07553394883871078,
        0.09313154220581055,
        -0.03644177317619324,
        -0.0842113345861435,
        0.004355334676802158,
        -0.08131059259176254,
        0.02749020606279373,
        0.13690966367721558,
        0.043913584202528,
        -0.04429593309760094,
        -0.004965564701706171,
        0.07457257062196732,
        -0.061262499541044235,
        -0.06159992143511772,
        -0.07223393023014069,
        -0.006371453404426575,
        -0.07579606026411057,
        0.11975592374801636,
        -0.06938754767179489,
        0.10919602960348129,
        -0.045204680413007736,
        0.09742400050163269,
        0.10325434803962708,
        -0.03867017477750778,
        0.11470048874616623,
        0.00905650109052658,
        0.11647823452949524,
        -0.09988569468259811,
        0.048087820410728455,
        0.005332991015166044,
        0.05702429264783859,
        -0.00014165366883389652,
        0.12934523820877075,
        0.010912553407251835,
        0.0899948999285698,
        -0.09949877113103867,
        0.10917948186397552,
        -0.05286429822444916,
        -0.046851396560668945,
        0.09364405274391174,
        0.009612025693058968,
        -0.03977490961551666,
        -0.08034145832061768,
        0.0715765655040741,
        -0.06351261585950851,
        -0.027926228940486908,
        -0.054203521460294724,
        0.11669593304395676,
        0.10501349717378616,
        0.06963897496461868,
        0.012138028629124165,
        -0.035754576325416565,
        0.04712323844432831,
        0.020493846386671066,
        -0.0018554513808339834,
        -0.07831902801990509,
        -0.06761264055967331,
        -0.053401194512844086,
        -0.06005077064037323,
        0.11464759707450867,
        -0.041159044951200485,
        0.11451863497495651,
        0.05504070222377777,
        0.10609342157840729,
        0.14129073917865753,
        -0.0257270447909832,
        -0.04918908327817917,
        0.10929421335458755,
        -0.027574677020311356,
        0.03923482447862625,
        0.1105453222990036,
        0.1161818578839302
      ],
      [
        -0.04680617153644562,
        0.09659789502620697,
        0.06276406347751617,
        0.12932685017585754,
        0.13136178255081177,
        0.13840673863887787,
        0.006048054434359074,
        -0.07738130539655685,
        0.018330084159970284,
        0.1196257695555687,
        -0.0866304486989975,
        -0.004955088719725609,
        0.07090827822685242,
        0.0415186733007431,
        -0.01249707955867052,
        -0.09979985654354095,
        0.08750247210264206,
        0.10939718782901764,
        -0.049018435180187225,
        -0.06390193849802017,
        0.0672670528292656,
        -0.02031751163303852,
        0.08130352199077606,
        0.13754509389400482,
        -0.0574176125228405,
        0.08556374907493591,
        0.1060841754078865,
        0.07371225208044052,
        -0.08006726205348969,
        0.13698242604732513,
        0.1169479489326477,
        -0.09802373498678207,
        0.0685930997133255,
        0.017916642129421234,
        0.06616570800542831,
        -0.04788273200392723,
        -0.04328601434826851,
        0.11807984858751297,
        -0.10484039783477783,
        -0.10591322183609009,
        -0.01279645785689354,
        0.05022842437028885,
        0.05218752473592758,
        0.12491131573915482,
        0.10326871275901794,
        0.14266546070575714,
        0.01464927289634943,
        -0.04013476148247719,
        0.0023462295066565275,
        0.11260226368904114,
        0.025886809453368187,
        0.019658301025629044,
        0.1298602819442749,
        0.05361052602529526,
        0.03635277971625328,
        0.023834221065044403,
        -0.024958636611700058,
        -0.07656754553318024,
        -0.008361365646123886,
        -0.10118304193019867,
        -0.011136936023831367,
        -0.07585760205984116,
        0.06517434120178223,
        0.05332726612687111,
        0.0005553039954975247,
        -0.09342250227928162,
        0.11529850959777832,
        0.007413167506456375,
        -0.05765882879495621,
        0.03053983859717846,
        0.0769641324877739,
        0.03919152170419693
      ],
      [
        0.04938532039523125,
        -0.0636778324842453,
        0.00822431966662407,
        0.07087242603302002,
        0.013638051226735115,
        -0.0401148721575737,
        0.025077469646930695,
        -0.05487137287855148,
        -0.07036910206079483,
        -0.0845128670334816,
        -0.07189980894327164,
        0.10536789894104004,
        -0.0517544187605381,
        -0.06300732493400574,
        0.08088244497776031,
        -0.05910554900765419,
        -0.03579112887382507,
        0.09562073647975922,
        -0.05921391397714615,
        0.08399029821157455,
        0.1079351082444191,
        0.0307010430842638,
        0.0014832662418484688,
        0.06681283563375473,
        -0.0628465861082077,
        0.08284702897071838,
        -0.034222304821014404,
        -0.04120643809437752,
        -0.05835229530930519,
        -0.09782220423221588,
        0.020526230335235596,
        0.08983774483203888,
        0.07664412260055542,
        -0.08268994092941284,
        0.049787819385528564,
        -0.0930292084813118,
        -0.09353337436914444,
        0.10128290206193924,
        -0.07828094065189362,
        0.03918908163905144,
        -0.002182685537263751,
        0.04008980095386505,
        0.04044688865542412,
        0.10009599477052689,
        0.06927676498889923,
        -0.05402107909321785,
        -0.09562912583351135,
        0.11668722331523895,
        -0.06353501975536346,
        -0.01876133307814598,
        -0.018325792625546455,
        0.009327019564807415,
        -0.019360551610589027,
        -0.07376908510923386,
        -0.11130053550004959,
        0.10587428510189056,
        -0.026932785287499428,
        -0.11263660341501236,
        -0.000674275797791779,
        0.09120415151119232,
        -0.05714663118124008,
        0.016388365998864174,
        -0.005074968095868826,
        0.12733283638954163,
        -0.05359318479895592,
        -0.019963251426815987,
        0.10225403308868408,
        -0.028525445610284805,
        -0.02546251006424427,
        -0.026061052456498146,
        0.12485053390264511,
        -0.09270430356264114
      ],
      [
        -0.0516013540327549,
        0.05972353368997574,
        -0.027265524491667747,
        0.06559925526380539,
        0.0474793016910553,
        0.016509979963302612,
        -0.023527374491095543,
        0.13905341923236847,
        -0.016433198004961014,
        0.04009852930903435,
        -0.006175244227051735,
        -0.06838694214820862,
        0.1221330538392067,
        0.1332995444536209,
        -0.05383980646729469,
        0.11006753146648407,
        0.02654026448726654,
        0.0475144200026989,
        -0.06080092117190361,
        -0.03377716243267059,
        0.029405858367681503,
        -0.01503685861825943,
        -0.04192858934402466,
        -0.06741555035114288,
        -0.07438748329877853,
        -0.044460684061050415,
        -0.04156818985939026,
        -0.025159763172268867,
        0.0096986573189497,
        -0.05177781730890274,
        -0.10197499394416809,
        -0.05026194080710411,
        0.057105652987957,
        0.03861047327518463,
        0.014199350029230118,
        -0.09118452668190002,
        -0.09536538273096085,
        -0.04213942214846611,
        0.09560992568731308,
        -0.025889256969094276,
        0.09478918462991714,
        0.015071780420839787,
        0.13063453137874603,
        -0.012000605463981628,
        0.013757869601249695,
        -0.04786253347992897,
        0.07332584261894226,
        0.003911961801350117,
        -0.008851991966366768,
        -0.09791628271341324,
        -0.09082598984241486,
        0.12462681531906128,
        -0.003853721311315894,
        0.021004732698202133,
        0.036529019474983215,
        -0.06180057302117348,
        -0.014790544286370277,
        0.07592345774173737,
        0.05227372422814369,
        0.041916366666555405,
        -0.04149056598544121,
        0.0016740161227062345,
        0.09419003129005432,
        -0.012767157517373562,
        0.09973710030317307,
        0.15541334450244904,
        -0.06765216588973999,
        -0.05490667745471001,
        0.05092126131057739,
        0.1443255990743637,
        0.07939405739307404,
        0.08187676221132278
      ],
      [
        0.12209931761026382,
        0.03617884963750839,
        0.028279105201363564,
        0.012832383625209332,
        0.10410840064287186,
        0.020101750269532204,
        0.04507831111550331,
        0.05286888778209686,
        -0.004689862951636314,
        -0.11005094647407532,
        0.08408819139003754,
        0.019479971379041672,
        -0.04157264158129692,
        0.1277090311050415,
        -0.08675115555524826,
        -0.03830990567803383,
        0.11422266066074371,
        0.11172888427972794,
        -0.07576489448547363,
        -0.11502833664417267,
        0.008449064567685127,
        0.003580518066883087,
        0.030544312670826912,
        -0.09062925726175308,
        -0.03383243456482887,
        0.12117783725261688,
        -0.11317960172891617,
        -0.02909131720662117,
        -0.11974158883094788,
        0.11772313714027405,
        -0.11794877797365189,
        -0.08316000550985336,
        -0.09870775043964386,
        -0.011523877270519733,
        0.05602721869945526,
        0.05021290108561516,
        -0.03367828205227852,
        0.12688879668712616,
        0.07969702035188675,
        0.02383781038224697,
        0.08082540333271027,
        0.11120153218507767,
        -0.027254847809672356,
        -0.0830010175704956,
        0.04191473498940468,
        -0.011148913763463497,
        0.09670344740152359,
        -0.050132330507040024,
        -0.06055297330021858,
        0.07552915811538696,
        0.011876693926751614,
        -0.09292290359735489,
        -0.06638169288635254,
        0.07261951267719269,
        0.015572411008179188,
        -0.10952960699796677,
        -0.022604450583457947,
        0.07861005514860153,
        0.10536664724349976,
        0.002160795498639345,
        0.0737946555018425,
        -0.05274248495697975,
        -0.09793031215667725,
        0.04400753229856491,
        0.13263529539108276,
        0.003539564786478877,
        0.11137843877077103,
        -0.039995916187763214,
        0.07625119388103485,
        0.039273519068956375,
        0.08310117572546005,
        -0.052662305533885956
      ],
      [
        -0.07344972342252731,
        -0.05532290041446686,
        0.07649815827608109,
        0.08088382333517075,
        -0.042353030294179916,
        -0.05648626387119293,
        0.08032886683940887,
        -0.10949210822582245,
        0.11379895359277725,
        0.06389020383358002,
        -0.10758581757545471,
        0.010523009113967419,
        0.1172986552119255,
        0.12879832088947296,
        -0.02126776985824108,
        0.05824241787195206,
        -0.0962434858083725,
        0.013768503442406654,
        0.13342887163162231,
        0.046963177621364594,
        -0.05868953838944435,
        0.01708938740193844,
        -0.011221757158637047,
        0.12659871578216553,
        0.019249510020017624,
        -0.01583986170589924,
        -0.04642792046070099,
        0.10310301929712296,
        -0.00098619912751019,
        -0.06251565366983414,
        -0.05253707990050316,
        0.06490685790777206,
        -0.011445149779319763,
        0.037351787090301514,
        0.13634856045246124,
        -0.11013173311948776,
        0.12963049113750458,
        0.01727951318025589,
        -0.10582388937473297,
        -0.046203915029764175,
        0.10161739587783813,
        -0.09990803152322769,
        -0.04173791781067848,
        -0.04734393581748009,
        0.02483213134109974,
        0.08042021095752716,
        -0.004935183096677065,
        0.020301196724176407,
        0.033043213188648224,
        0.03265657648444176,
        -0.0037282572593539953,
        0.008208213374018669,
        -0.059078097343444824,
        -0.07712175697088242,
        0.13500595092773438,
        -0.04994687810540199,
        -0.09564849734306335,
        -0.0977526605129242,
        0.02478928677737713,
        0.012725203298032284,
        0.0634816437959671,
        -0.05166836082935333,
        -0.08926829695701599,
        -0.09560589492321014,
        -0.09782028198242188,
        0.12949155271053314,
        0.052726056426763535,
        0.06784538179636002,
        -0.012313567101955414,
        -0.04509778693318367,
        -0.07590039074420929,
        -0.06946919858455658
      ],
      [
        -0.03912676125764847,
        -0.11568687111139297,
        -0.08955815434455872,
        -0.07469244301319122,
        -0.08146516233682632,
        0.08150157332420349,
        -0.054913997650146484,
        -0.06882363557815552,
        -0.009360605850815773,
        0.09544605761766434,
        0.12204842269420624,
        0.10783543437719345,
        0.058867741376161575,
        -0.10607237368822098,
        0.0098876953125,
        -0.023676281794905663,
        0.00846153125166893,
        -0.08683068305253983,
        0.09391572326421738,
        -0.02773364819586277,
        -0.04214183986186981,
        -0.12104333937168121,
        0.07145716995000839,
        0.11333294957876205,
        -0.003953336738049984,
        0.027723731473088264,
        0.07784560322761536,
        -0.049024082720279694,
        -0.08454962074756622,
        0.10272900015115738,
        -0.00017381427460350096,
        0.08580856770277023,
        0.049247901886701584,
        -0.053325120359659195,
        0.10814756155014038,
        0.09262223541736603,
        -0.06176986172795296,
        0.08683280646800995,
        -0.05383015051484108,
        -0.032454803586006165,
        -0.0787191390991211,
        -0.04859670624136925,
        0.06859393417835236,
        -0.09365162253379822,
        -0.018834007903933525,
        0.11238602548837662,
        0.06259428709745407,
        0.009443440474569798,
        -0.08570912480354309,
        0.025956086814403534,
        0.10005398839712143,
        0.05168028920888901,
        -0.07820066064596176,
        -0.018754566088318825,
        -0.07807496935129166,
        -0.09219057857990265,
        0.09100110828876495,
        0.0566212497651577,
        0.02333945594727993,
        0.04267661273479462,
        -0.04694416746497154,
        -0.011859957128763199,
        0.07448963820934296,
        0.0008777838665992022,
        0.06988141685724258,
        0.10611257702112198,
        -0.07527726143598557,
        0.022014770656824112,
        -0.024007625877857208,
        0.007557341828942299,
        -0.05638689920306206,
        0.046179503202438354
      ],
      [
        -0.08890879899263382,
        0.0009205369278788567,
        0.06957854330539703,
        -0.0726112350821495,
        -0.04465297609567642,
        -0.06658194214105606,
        0.0628553256392479,
        -0.010812746360898018,
        -0.08268995583057404,
        0.012735474854707718,
        0.011002017185091972,
        0.1213020458817482,
        -0.05687273293733597,
        0.07712671905755997,
        0.04553283751010895,
        -0.05653056129813194,
        0.05386302247643471,
        0.04623638838529587,
        -0.072473905980587,
        -0.0664215162396431,
        -0.0805530846118927,
        0.07618196308612823,
        -0.07359042763710022,
        0.14226895570755005,
        0.055822864174842834,
        0.054649222642183304,
        0.10884702950716019,
        0.021851051598787308,
        -0.054409757256507874,
        0.01686103269457817,
        0.07455552369356155,
        0.025967849418520927,
        0.10551147162914276,
        -0.008230195380747318,
        0.045986343175172806,
        0.09876305609941483,
        0.012521768920123577,
        0.11598140746355057,
        -0.087592713534832,
        -0.012486942112445831,
        0.07780162245035172,
        0.1421339213848114,
        0.04374280571937561,
        -0.004389442503452301,
        0.07980360090732574,
        0.05432543531060219,
        0.13811390101909637,
        0.08637406677007675,
        -0.036196671426296234,
        -0.011266215704381466,
        0.10511036217212677,
        0.1367841362953186,
        0.12096399068832397,
        -0.001394515042193234,
        0.10364016145467758,
        0.018439004197716713,
        0.1370549350976944,
        0.10734277218580246,
        0.00024206282978411764,
        -0.04871094971895218,
        0.060835614800453186,
        0.05276135727763176,
        0.011048562824726105,
        -0.08637243509292603,
        -0.05642830207943916,
        0.08110464364290237,
        0.03824008256196976,
        -0.046275392174720764,
        0.15209126472473145,
        0.03543200343847275,
        -0.06555807590484619,
        0.06574583798646927
      ],
      [
        -0.010775251314043999,
        0.11986584216356277,
        0.026115860790014267,
        -0.02352723479270935,
        -0.07194840908050537,
        0.13651306927204132,
        0.08376222103834152,
        0.1408073902130127,
        0.015010715462267399,
        0.028907032683491707,
        0.12991578876972198,
        0.04162687063217163,
        0.0106771569699049,
        0.12095675617456436,
        -0.0656517893075943,
        0.13365976512432098,
        0.03422947973012924,
        -0.06413380056619644,
        0.1111326590180397,
        -0.01371784321963787,
        0.03836716711521149,
        -0.023899663239717484,
        0.11237413436174393,
        -0.047524645924568176,
        0.12587538361549377,
        0.07043221592903137,
        -0.02453088015317917,
        -0.10256605595350266,
        0.030970146879553795,
        0.10535810142755508,
        0.04787377268075943,
        0.10769979655742645,
        -0.07347355782985687,
        0.09456096589565277,
        -0.06460202485322952,
        0.06827438622713089,
        0.12583611905574799,
        -0.074142687022686,
        0.06440644711256027,
        -0.008045935072004795,
        0.006891078781336546,
        0.09971579909324646,
        -0.05359296500682831,
        0.04467164725065231,
        -0.07733884453773499,
        0.06424066424369812,
        0.006716592703014612,
        0.062071774154901505,
        0.0084670539945364,
        0.074640654027462,
        0.05934695899486542,
        0.13535907864570618,
        0.0584188774228096,
        0.09136258065700531,
        0.06056930497288704,
        -0.016930507495999336,
        -0.02994377538561821,
        -0.10699467360973358,
        0.12313484400510788,
        0.025012949481606483,
        0.1215205267071724,
        0.10064071416854858,
        0.055896833539009094,
        -0.06254296749830246,
        -0.0406443290412426,
        0.014932935126125813,
        0.13902868330478668,
        -0.03172850236296654,
        -0.01725712977349758,
        -0.04317984730005264,
        0.055671047419309616,
        0.0216396264731884
      ],
      [
        0.07863681018352509,
        -0.08612777292728424,
        0.07751757651567459,
        0.061940621584653854,
        0.056223370134830475,
        -0.055537085980176926,
        0.1414249986410141,
        -0.095611073076725,
        0.018038969486951828,
        -0.0077091995626688,
        -0.09464451670646667,
        -0.08846341818571091,
        -0.08390793204307556,
        0.06166356801986694,
        0.09735564887523651,
        -0.0013637655647471547,
        -0.03603396564722061,
        0.08689261972904205,
        0.12153222411870956,
        -0.09988135099411011,
        -0.080377496778965,
        -0.07518928498029709,
        -0.06906608492136002,
        0.06985409557819366,
        -0.0845564752817154,
        0.1357974112033844,
        0.0597880519926548,
        0.11552397906780243,
        -0.08589091897010803,
        -0.07275710254907608,
        0.006243634503334761,
        0.03253582864999771,
        0.116154745221138,
        -0.016631044447422028,
        -0.10095856338739395,
        0.018409544602036476,
        -0.09770356863737106,
        -0.029362229630351067,
        -0.09383723884820938,
        0.07405779510736465,
        -0.09287706017494202,
        0.10449551790952682,
        0.007823008112609386,
        0.039526499807834625,
        -0.07539410889148712,
        0.11634335666894913,
        -0.018294811248779297,
        0.1046907976269722,
        0.04643061384558678,
        -0.030763015151023865,
        0.13612356781959534,
        0.045649752020835876,
        -0.08817879855632782,
        0.14030244946479797,
        -0.0738750696182251,
        0.11758469045162201,
        0.11894535273313522,
        -0.09444604814052582,
        -0.0044964756816625595,
        0.1367994099855423,
        0.03226029500365257,
        0.031652554869651794,
        -0.06609807163476944,
        0.04169969633221626,
        -0.007359592244029045,
        -0.0664040818810463,
        -0.011736778542399406,
        -0.06740348786115646,
        -0.06195778027176857,
        -0.06940675526857376,
        -0.05041654780507088,
        0.13917212188243866
      ],
      [
        -0.08854831755161285,
        -0.005207552574574947,
        -0.04213932156562805,
        0.028815701603889465,
        0.048546623438596725,
        0.0717371329665184,
        0.03291779011487961,
        -0.09130355715751648,
        0.044476475566625595,
        -0.042856067419052124,
        0.10163384675979614,
        -0.0929599404335022,
        0.03857695311307907,
        0.14002887904644012,
        0.07678932696580887,
        0.04896512255072594,
        -0.0303285364061594,
        0.04235345870256424,
        0.06567736715078354,
        -0.07709529250860214,
        -0.03186384215950966,
        0.0973128005862236,
        0.005282675381749868,
        0.127595916390419,
        0.1098242998123169,
        -0.02911258675158024,
        -0.0854792594909668,
        0.011948173865675926,
        -0.08768868446350098,
        -0.07055509835481644,
        0.08727296441793442,
        0.08873190730810165,
        -0.04271272197365761,
        0.040501948446035385,
        -0.05836305767297745,
        0.001379378722049296,
        0.004932873882353306,
        0.10478410869836807,
        -0.018408555537462234,
        0.0005619529983960092,
        -0.030883900821208954,
        -0.07967104762792587,
        0.09608610719442368,
        -0.02897718921303749,
        0.13334433734416962,
        0.012960279360413551,
        0.12791526317596436,
        -0.06264787912368774,
        -0.01097578089684248,
        0.04281115159392357,
        -0.0971624106168747,
        0.057761967182159424,
        -0.0982930064201355,
        0.09146237373352051,
        0.11139382421970367,
        0.1403350979089737,
        -0.054083529859781265,
        0.11498410999774933,
        -0.08651208877563477,
        -0.07539093494415283,
        0.09657551348209381,
        0.11533206701278687,
        -0.020412201061844826,
        -0.004359733778983355,
        -0.038859955966472626,
        0.09664053469896317,
        0.1220618486404419,
        0.042048726230859756,
        0.06325262039899826,
        -0.0700288638472557,
        0.016465239226818085,
        0.03953816369175911
      ],
      [
        -0.11713802814483643,
        -0.06741002947092056,
        -0.06941455602645874,
        -0.10731130093336105,
        -0.03340563923120499,
        0.05268962308764458,
        -0.13370436429977417,
        -0.010838153772056103,
        0.0943903997540474,
        0.029494233429431915,
        0.09128855168819427,
        -0.1312294751405716,
        0.08442222326993942,
        0.020805565640330315,
        0.023714330047369003,
        -0.05752350762486458,
        -0.10124947875738144,
        -0.07427775859832764,
        -0.11424596607685089,
        -0.03840086981654167,
        -0.10072992742061615,
        -0.05334208160638809,
        -0.08300631493330002,
        0.05652130767703056,
        -0.08024285733699799,
        0.06215013936161995,
        -0.049957603216171265,
        -0.06700572371482849,
        0.1045350581407547,
        -0.09745153784751892,
        0.02268238738179207,
        -0.06469174474477768,
        0.07895038276910782,
        -0.10295511782169342,
        0.03489448130130768,
        -0.051113810390233994,
        -0.13626566529273987,
        -0.11269944161176682,
        -0.10634701699018478,
        -0.04772733896970749,
        0.08389179408550262,
        -0.03317687287926674,
        0.04911800101399422,
        -0.08639056980609894,
        0.08693303912878036,
        0.04626038670539856,
        -0.1266375333070755,
        -0.1373448222875595,
        0.006797236390411854,
        -0.11765596270561218,
        0.05249814689159393,
        0.010190309025347233,
        -0.017104975879192352,
        -0.010475496761500835,
        0.018102776259183884,
        0.017885208129882812,
        -0.11715926975011826,
        -0.13852475583553314,
        -0.09993639588356018,
        0.045487213879823685,
        -0.059449680149555206,
        0.0023741836193948984,
        -0.11416544020175934,
        -0.08971371501684189,
        0.09904307126998901,
        0.10643365979194641,
        0.09345566481351852,
        -0.11024793982505798,
        0.08109482377767563,
        -0.05239551514387131,
        -0.025492161512374878,
        0.00782180018723011
      ],
      [
        0.06139679253101349,
        0.037142086774110794,
        -0.08518487960100174,
        -0.08770650625228882,
        0.13127505779266357,
        0.12900957465171814,
        0.025435788556933403,
        0.020400451496243477,
        0.10657574236392975,
        0.08927438408136368,
        -0.021786047145724297,
        0.14166857302188873,
        -0.060865726321935654,
        0.1313338279724121,
        -0.09367703646421432,
        0.011143612675368786,
        -0.03976869583129883,
        -0.05481082946062088,
        0.13275451958179474,
        -0.10386353731155396,
        0.12335499376058578,
        -0.10161139070987701,
        -0.09623995423316956,
        0.04137742891907692,
        0.13326142728328705,
        -0.007105300202965736,
        -0.010301884263753891,
        -0.04378274455666542,
        -0.0654590055346489,
        0.08509330451488495,
        0.08434733003377914,
        0.09045054018497467,
        0.054709821939468384,
        0.0393948070704937,
        -0.04398617148399353,
        -0.055222488939762115,
        0.1375686079263687,
        0.021278031170368195,
        -0.0647667720913887,
        -0.0858050137758255,
        -0.01406802423298359,
        0.03753603249788284,
        0.08091835677623749,
        -0.043550729751586914,
        -0.10333164781332016,
        -0.07186204195022583,
        -0.06944341957569122,
        -0.00954960472881794,
        -0.04727594181895256,
        -0.052871230989694595,
        0.09530345350503922,
        0.09529567509889603,
        -0.029407616704702377,
        0.12723125517368317,
        0.08701667189598083,
        0.06515208631753922,
        0.1151781752705574,
        0.1349257379770279,
        -0.08099490404129028,
        -0.03997686877846718,
        0.014184719882905483,
        -0.04468870535492897,
        0.11340709030628204,
        0.04516124725341797,
        0.017735926434397697,
        0.09832313656806946,
        -0.03953678160905838,
        0.14537863433361053,
        -0.08740280568599701,
        0.002384536899626255,
        0.0411951020359993,
        0.04994482919573784
      ],
      [
        0.12465419620275497,
        -0.10419496148824692,
        0.08829016238451004,
        -0.0018161125481128693,
        -0.11213881522417068,
        -0.004939601756632328,
        0.07980476319789886,
        0.036717694252729416,
        -0.10773653537034988,
        -0.08850651234388351,
        0.12312518805265427,
        -4.943493695463985e-05,
        -0.0048071048222482204,
        0.0775885283946991,
        0.034954119473695755,
        0.04869722202420235,
        0.053535811603069305,
        -0.09783821552991867,
        -0.016733601689338684,
        0.1110682487487793,
        0.007544190622866154,
        -0.013209396041929722,
        0.029287761077284813,
        0.035691116005182266,
        0.13066869974136353,
        -0.08526487648487091,
        0.11201699823141098,
        0.014537931419909,
        0.12674926221370697,
        -0.07336114346981049,
        0.07070132344961166,
        -0.061478301882743835,
        0.11563920229673386,
        -0.08548714220523834,
        0.030251394957304,
        0.0011212569661438465,
        0.1220681369304657,
        0.058961547911167145,
        -0.033288177102804184,
        0.010931448079645634,
        -0.06440466642379761,
        0.09036177396774292,
        0.013523656874895096,
        0.1380070447921753,
        0.0675494521856308,
        0.11440342664718628,
        -0.09396445751190186,
        0.11129258573055267,
        -0.0415043830871582,
        -0.024979060515761375,
        -0.026983151212334633,
        0.025553284212946892,
        -0.02954992838203907,
        -0.0052904728800058365,
        0.0994049608707428,
        0.07014192640781403,
        0.026644771918654442,
        0.012771901674568653,
        0.020818883553147316,
        0.04509405419230461,
        -0.055426400154829025,
        0.03424908220767975,
        -0.021860219538211823,
        -0.09359554201364517,
        0.1403285413980484,
        -0.04309937357902527,
        -0.021982306614518166,
        0.10566189140081406,
        0.09509804844856262,
        0.1411113440990448,
        -0.03631025552749634,
        0.11353051662445068
      ],
      [
        -0.025852695107460022,
        0.04972248524427414,
        0.13428451120853424,
        -0.02836696244776249,
        0.13752038776874542,
        0.06988570094108582,
        0.07937594503164291,
        -0.002233739010989666,
        0.14278410375118256,
        -0.045831650495529175,
        0.09260191023349762,
        -0.08278560638427734,
        0.12334466725587845,
        0.133965864777565,
        0.020354807376861572,
        -0.10275578498840332,
        -0.033476341515779495,
        0.06342997401952744,
        0.1444457471370697,
        0.11064615845680237,
        -0.08635981380939484,
        -0.024122590199112892,
        -0.0768623873591423,
        -0.03545135632157326,
        0.11452337354421616,
        -0.021321985870599747,
        0.01778949610888958,
        0.13994675874710083,
        0.034056734293699265,
        -0.06396784633398056,
        0.011802456341683865,
        0.025310685858130455,
        -0.0874922052025795,
        0.08392472565174103,
        -0.09612609446048737,
        -0.0030029723420739174,
        0.07669197767972946,
        -0.06624174863100052,
        0.03753409907221794,
        0.1391591876745224,
        0.04814767837524414,
        -0.05886995419859886,
        -0.021412016823887825,
        0.11938739567995071,
        0.06598641723394394,
        0.11754920333623886,
        0.031265947967767715,
        -0.01312439888715744,
        0.1141514852643013,
        -0.03441634774208069,
        -0.029846860095858574,
        0.08437716960906982,
        0.11150432378053665,
        -0.0961332693696022,
        0.08727758377790451,
        0.07791203260421753,
        0.0415927991271019,
        0.12241128832101822,
        0.00917547382414341,
        0.07354624569416046,
        0.06849049776792526,
        0.07679145038127899,
        0.06730423122644424,
        5.469547977554612e-05,
        0.08337575197219849,
        -0.061233099550008774,
        0.12863194942474365,
        -0.09025147557258606,
        0.03061285987496376,
        0.08593475818634033,
        0.10120049118995667,
        0.019883692264556885
      ],
      [
        -0.06077565252780914,
        0.1243203729391098,
        0.07293816655874252,
        -0.010735203512012959,
        -0.04245765879750252,
        0.09066428244113922,
        0.0014807583065703511,
        -0.04767286404967308,
        -0.04456104338169098,
        -0.010200454853475094,
        0.14575529098510742,
        -0.035738926380872726,
        0.012145644053816795,
        -0.05073077231645584,
        0.039691247045993805,
        0.03992759808897972,
        -0.07314873486757278,
        0.08871666342020035,
        -0.015962829813361168,
        -0.06612865626811981,
        -0.09685226529836655,
        0.09758611023426056,
        0.0733877569437027,
        0.1307419240474701,
        0.03252344951033592,
        0.10718631744384766,
        0.02190590091049671,
        -0.05031641200184822,
        -0.019494278356432915,
        0.05018021538853645,
        0.08985456824302673,
        0.10344018042087555,
        0.019588645547628403,
        -0.004666560795158148,
        -0.0038853068836033344,
        -0.09737694263458252,
        0.09147839993238449,
        -0.07538411021232605,
        -0.0005700779147446156,
        0.08613604307174683,
        0.04792588949203491,
        -0.03113734908401966,
        0.11505723744630814,
        0.14825014770030975,
        0.12987808883190155,
        0.02757365070283413,
        -0.09332363307476044,
        0.13010452687740326,
        0.09797539561986923,
        0.021499857306480408,
        -0.04242530092597008,
        -0.011364417150616646,
        -0.015100075863301754,
        0.03482406958937645,
        -0.03948073461651802,
        0.1259779930114746,
        -0.03145322576165199,
        -0.04899309203028679,
        -0.07663359493017197,
        0.12550106644630432,
        0.08069958537817001,
        0.13706234097480774,
        0.0017466680146753788,
        0.14989523589611053,
        0.15217359364032745,
        0.007122749928385019,
        0.10673198103904724,
        -0.091862253844738,
        0.15087413787841797,
        0.0869431272149086,
        0.03038621135056019,
        -0.02089599519968033
      ],
      [
        -0.11783971637487411,
        -0.0002759927592705935,
        -0.12611952424049377,
        0.03197050839662552,
        -0.0638987198472023,
        -0.0915331020951271,
        0.10215745121240616,
        -0.09531223773956299,
        -0.12216215580701828,
        0.10199747234582901,
        -0.09148616343736649,
        0.027342412620782852,
        0.03498074784874916,
        -0.10600075125694275,
        -0.005044620018452406,
        -0.09003586322069168,
        0.07878592610359192,
        -0.047050341963768005,
        -0.021058322861790657,
        0.09241518378257751,
        0.025550950318574905,
        -0.022838782519102097,
        0.09478054195642471,
        -0.04091452807188034,
        -0.0373079739511013,
        0.04329835623502731,
        0.10158833861351013,
        0.04739249497652054,
        -0.08611524105072021,
        0.039655350148677826,
        0.03004489466547966,
        0.07124580442905426,
        0.06258292496204376,
        0.08786290884017944,
        -0.11670810729265213,
        -0.07425538450479507,
        -0.07574868202209473,
        -0.008071910589933395,
        -0.1145557388663292,
        0.07671021670103073,
        -0.101204514503479,
        -0.008462399244308472,
        -0.11352279037237167,
        -0.07824840396642685,
        0.04091930761933327,
        -0.12523169815540314,
        0.08102622628211975,
        0.031185569241642952,
        -0.06863973289728165,
        -0.043220438063144684,
        0.012738318182528019,
        -0.1156909391283989,
        0.0983414500951767,
        0.045457154512405396,
        -0.05538540333509445,
        0.09489499032497406,
        0.09789341688156128,
        -0.021226782351732254,
        -0.0993705466389656,
        -0.06019165366888046,
        0.03047875501215458,
        0.09986628592014313,
        0.000643207982648164,
        0.06532749533653259,
        -0.0721556544303894,
        -0.08196977525949478,
        -0.1174507886171341,
        0.02138521894812584,
        0.08400940150022507,
        -0.08009122312068939,
        -0.1293569654226303,
        -0.12105342745780945
      ],
      [
        -0.05564509704709053,
        0.1271178275346756,
        -0.07748652249574661,
        -0.07007765769958496,
        -0.048883795738220215,
        -0.035965196788311005,
        0.05056434124708176,
        -0.06118856370449066,
        0.011339684017002583,
        0.007890122011303902,
        0.017061293125152588,
        -0.04089308902621269,
        -0.042031429708004,
        0.07940482348203659,
        -0.07306601852178574,
        -0.098395936191082,
        -0.04043557867407799,
        -0.0302775576710701,
        0.11018776148557663,
        -0.0050537483766674995,
        0.07550660520792007,
        -0.01627383753657341,
        0.023746298626065254,
        -0.07897792756557465,
        -0.04880859702825546,
        0.048156172037124634,
        0.13029643893241882,
        -0.0013679302064701915,
        0.05961745232343674,
        0.14620254933834076,
        -0.07510993629693985,
        0.05748162046074867,
        -0.036869116127491,
        -0.014611477963626385,
        -0.046140801161527634,
        0.1072269082069397,
        0.09988129138946533,
        0.09960933029651642,
        0.007470852695405483,
        -0.08668690919876099,
        0.09653567522764206,
        0.00794652197510004,
        -0.049775317311286926,
        0.0028401012532413006,
        0.0810498595237732,
        -0.011899705044925213,
        -0.07263323664665222,
        0.1262761503458023,
        0.031705789268016815,
        -0.0731654241681099,
        0.04025353491306305,
        -0.023114630952477455,
        0.14957617223262787,
        0.006137338001281023,
        -0.07590052485466003,
        0.0398370660841465,
        -0.06774727255105972,
        0.025863870978355408,
        0.1260826736688614,
        0.11907903105020523,
        0.12005233019590378,
        0.13385221362113953,
        0.03456300124526024,
        -0.0043435851112008095,
        0.11077911406755447,
        -0.06476444005966187,
        0.0801585465669632,
        -0.07845743745565414,
        0.06373042613267899,
        0.0792904943227768,
        -0.06385727971792221,
        0.14620353281497955
      ],
      [
        0.13230082392692566,
        -0.06798076629638672,
        0.11631575971841812,
        0.048173218965530396,
        -0.08990824967622757,
        0.07744759321212769,
        -0.10500511527061462,
        -0.0690164789557457,
        0.010497963055968285,
        0.01262746937572956,
        0.11374811083078384,
        -0.0016400688327848911,
        0.035767409950494766,
        0.04181453958153725,
        -0.09686224162578583,
        -0.07765308022499084,
        0.06577129662036896,
        -0.030964696779847145,
        0.1282779723405838,
        0.013898876495659351,
        0.1133575364947319,
        -0.09220141172409058,
        -0.03534786030650139,
        -0.022872157394886017,
        -0.04939447343349457,
        0.05838115140795708,
        0.13390405476093292,
        0.11194927990436554,
        -0.048365648835897446,
        0.011207292787730694,
        -0.08959672600030899,
        0.09421997517347336,
        0.03444639965891838,
        0.1309235841035843,
        -0.07045768946409225,
        0.017943833023309708,
        -0.07571324706077576,
        0.12362624704837799,
        -0.08871077001094818,
        0.12021622806787491,
        0.016543403267860413,
        -0.046915143728256226,
        -0.04402029141783714,
        0.09072208404541016,
        0.08163042366504669,
        -0.005505496636033058,
        -0.0016311465296894312,
        -0.04253750294446945,
        -0.1003887876868248,
        0.09989999979734421,
        0.008431361988186836,
        -0.022620687261223793,
        0.13217276334762573,
        0.1193823590874672,
        0.07234074920415878,
        0.13216647505760193,
        -0.05793633684515953,
        -0.04110272601246834,
        0.05356628820300102,
        -0.040136296302080154,
        0.11723379045724869,
        -0.040902189910411835,
        0.012068234384059906,
        0.13245058059692383,
        0.13530807197093964,
        0.11805101484060287,
        0.06306324154138565,
        0.14020438492298126,
        -0.04924073442816734,
        0.058705225586891174,
        0.06422232836484909,
        0.009107877500355244
      ],
      [
        0.02033136785030365,
        0.07193276286125183,
        0.0011590321082621813,
        -0.0021912127267569304,
        0.013295982033014297,
        -0.10949033498764038,
        0.007240119390189648,
        -0.06185215711593628,
        -0.035994261503219604,
        0.0445496030151844,
        0.08903618901968002,
        -0.07456992566585541,
        -0.014309960417449474,
        -0.07423170655965805,
        0.10330235958099365,
        0.041764236986637115,
        0.02106591872870922,
        -0.003530238987877965,
        -0.007414456456899643,
        0.11298789829015732,
        0.04941313713788986,
        0.11666598170995712,
        0.03700371831655502,
        0.037782974541187286,
        -0.028719747439026833,
        0.06087368726730347,
        0.12198755890130997,
        0.032026827335357666,
        -0.0015393377980217338,
        -0.05322486162185669,
        0.09157910197973251,
        -0.025578778237104416,
        0.11316885054111481,
        0.06575869023799896,
        0.12363895028829575,
        0.07426732778549194,
        -0.08230806142091751,
        0.09855686873197556,
        0.10459010303020477,
        -0.00521887419745326,
        -0.09379507601261139,
        0.04913202300667763,
        -0.06939873099327087,
        0.1306697130203247,
        0.08112261444330215,
        0.06921925395727158,
        -0.033301856368780136,
        0.13057850301265717,
        0.06404191255569458,
        0.1294269859790802,
        0.0663704127073288,
        -0.08821767568588257,
        0.08620074391365051,
        0.05146842449903488,
        -0.030142299830913544,
        0.07660288363695145,
        -0.04886091873049736,
        -0.0048926700837910175,
        0.10687657445669174,
        0.036302175372838974,
        0.0077550713904201984,
        0.02531343325972557,
        -0.07758395373821259,
        -0.08670555800199509,
        0.04188848286867142,
        0.0741162970662117,
        -0.052159808576107025,
        -0.016358930617570877,
        -0.06886164844036102,
        -0.09717457741498947,
        -0.005013201851397753,
        -0.043024610728025436
      ],
      [
        0.13801001012325287,
        0.04803500324487686,
        0.10543954372406006,
        -0.05936050787568092,
        0.013279284350574017,
        0.06969878077507019,
        0.11754486709833145,
        0.14671289920806885,
        0.10650920122861862,
        0.041024141013622284,
        0.11339694261550903,
        -0.012736992910504341,
        0.05780297890305519,
        0.14247961342334747,
        0.06368357688188553,
        -0.06840962916612625,
        -0.08686128258705139,
        0.09736533463001251,
        -0.05062006786465645,
        -0.047348156571388245,
        -0.04784306138753891,
        0.0004874041769653559,
        -0.021229220554232597,
        -0.06135396659374237,
        -0.06228159740567207,
        0.052708566188812256,
        0.09003431349992752,
        -0.0712958574295044,
        -0.018424751237034798,
        0.033495720475912094,
        0.059343501925468445,
        0.11074502021074295,
        0.004003465175628662,
        0.05668579414486885,
        -0.08631725609302521,
        0.03362956643104553,
        -0.0028225185815244913,
        -0.09480229765176773,
        -0.09246134757995605,
        -0.10647965222597122,
        0.08359330892562866,
        -0.04147588461637497,
        -0.04207141697406769,
        -0.10318406671285629,
        0.06207023561000824,
        0.1243593692779541,
        -0.061693571507930756,
        0.14508384466171265,
        0.022184481844305992,
        0.01783362403512001,
        -0.04705316200852394,
        0.15190845727920532,
        0.10849057137966156,
        -0.06496597826480865,
        0.022570323199033737,
        0.0923074409365654,
        0.04339001327753067,
        0.024210724979639053,
        0.11600158363580704,
        -0.05926646664738655,
        0.004408546723425388,
        0.10368108749389648,
        0.014479309320449829,
