{
  "model_architecture": {
    "input_size": 72,
    "hidden_size": 64,
    "output_size": 24,
    "num_layers": 1
  },
  "parameters": {
    "lstm.weight_ih_l0": [
      [
        0.0262288935482502,
        -0.07474423199892044,
        -0.0488443523645401,
        0.1059323251247406,
        0.11601600050926208,
        0.05894914269447327,
        0.009476962499320507,
        0.11740482598543167,
        0.07005134224891663,
        -0.035013340413570404,
        0.08867638558149338,
        -0.08774692565202713,
        0.14139826595783234,
        0.12772376835346222,
        0.0973154678940773,
        -0.038319412618875504,
        -0.011782417073845863,
        -0.0045767975971102715,
        -0.0675281211733818,
        0.024382920935750008,
        0.03231661394238472,
        0.033610135316848755,
        0.0627506896853447,
        0.07014859467744827,
        0.08630549907684326,
        -0.09804053604602814,
        0.12247470766305923,
        0.08755546808242798,
        0.028813233599066734,
        0.11193028837442398,
        0.06769852340221405,
        0.06489568948745728,
        0.0012112529948353767,
        0.05058444291353226,
        0.1429857760667801,
        -0.03964272886514664,
        0.07249367982149124,
        -0.01170934084802866,
        -0.09123115241527557,
        -0.08982794731855392,
        -0.03322965279221535,
        0.0042053996585309505,
        -0.028788799419999123,
        0.09949978440999985,
        -0.016059326007962227,
        -0.044386208057403564,
        0.1296468824148178,
        -0.043543796986341476,
        0.04190782085061073,
        -0.05069782957434654,
        -0.10426376760005951,
        0.0625929906964302,
        0.10250531136989594,
        0.011017179116606712,
        0.1383398324251175,
        -0.02339407615363598,
        -0.007445663213729858,
        0.016125282272696495,
        0.04945754632353783,
        -0.06698891520500183,
        -0.08645178377628326,
        -0.01713142916560173,
        -0.025379139930009842,
        0.12988680601119995,
        0.11324404925107956,
        -0.00127082085236907,
        0.04605385661125183,
        0.06572744995355606,
        0.03430940583348274,
        0.04895470291376114,
        0.16066285967826843,
        0.03302296623587608
      ],
      [
        0.03648409992456436,
        -0.04443124681711197,
        -0.0439087338745594,
        0.10810903459787369,
        0.07405483722686768,
        -0.022550784051418304,
        0.08382878452539444,
        0.008136674761772156,
        -0.06023835390806198,
        0.027123654261231422,
        0.017052985727787018,
        0.05083552002906799,
        0.0921017974615097,
        0.009630263783037663,
        0.07008720189332962,
        -0.06455743312835693,
        0.11355068534612656,
        0.005481102503836155,
        -0.11438124626874924,
        0.047403484582901,
        0.05024248734116554,
        -0.09141334891319275,
        -0.07353314012289047,
        0.08183906972408295,
        -0.10153739899396896,
        -0.042513661086559296,
        -0.08387159556150436,
        -0.03192772716283798,
        -0.011795369908213615,
        0.10762207210063934,
        -0.12799955904483795,
        0.10181380063295364,
        -0.08063795417547226,
        -0.06777074933052063,
        0.125680610537529,
        -0.0496349111199379,
        0.08966206014156342,
        0.09156680107116699,
        0.03386249765753746,
        0.04886762052774429,
        0.1322120726108551,
        -0.02167353220283985,
        -0.058828454464673996,
        -0.08534430712461472,
        -0.022983115166425705,
        -0.028018468990921974,
        -0.049690116196870804,
        -0.0969318300485611,
        -0.07949715107679367,
        -0.03877118229866028,
        -0.0788564682006836,
        -0.12022091448307037,
        0.07814940065145493,
        -0.10984966158866882,
        -0.011107800528407097,
        0.055234041064977646,
        -0.10479317605495453,
        0.14307279884815216,
        0.03401418775320053,
        -0.0322638601064682,
        -0.05046487972140312,
        0.08045164495706558,
        -0.06620656698942184,
        0.15494422614574432,
        0.05581531673669815,
        0.08313210308551788,
        0.05959807708859444,
        0.02886921353638172,
        0.037023190408945084,
        0.10945368558168411,
        0.06359439343214035,
        -0.003542372491210699
      ],
      [
        -0.036030542105436325,
        0.012966321781277657,
        0.06937053799629211,
        0.08942877501249313,
        -0.13632270693778992,
        -0.06479015201330185,
        -0.024652980268001556,
        0.05077841132879257,
        -0.05796656385064125,
        -0.0032652122899889946,
        0.0115199638530612,
        0.04576669633388519,
        0.0021090735681355,
        0.02324080653488636,
        0.09862905740737915,
        -0.06346739083528519,
        0.0014329850673675537,
        0.08332812786102295,
        -0.09981351345777512,
        -0.1029590591788292,
        -0.04467301815748215,
        0.010970501229166985,
        0.05011733993887901,
        -0.08557809144258499,
        -0.028433319181203842,
        -0.1009809821844101,
        0.04513536021113396,
        0.034421492367982864,
        0.03384369984269142,
        0.016868149861693382,
        -0.037831347435712814,
        0.07421078532934189,
        -0.04493491351604462,
        -0.09962687641382217,
        0.10933386534452438,
        0.11854330450296402,
        -0.010607348755002022,
        0.1368095874786377,
        0.05352404713630676,
        -0.0898570567369461,
        0.032956287264823914,
        -0.069126658141613,
        0.016636688262224197,
        -0.09762971848249435,
        0.09234762191772461,
        0.09160084277391434,
        0.06388930231332779,
        0.04609188809990883,
        0.04515090584754944,
        -0.14532095193862915,
        0.04906583949923515,
        0.043229300528764725,
        -0.05338256061077118,
        0.01221484411507845,
        -0.010154337622225285,
        0.03991074860095978,
        -0.07825544476509094,
        0.18148477375507355,
        0.11020543426275253,
        0.14223814010620117,
        0.16101503372192383,
        0.05678081139922142,
        0.13287125527858734,
        0.17352095246315002,
        0.11035176366567612,
        0.03235473483800888,
        -0.0476931594312191,
        -0.07229509204626083,
        0.04879521578550339,
        0.03055337257683277,
        0.09729067981243134,
        -0.01654280349612236
      ],
      [
        0.005672807339578867,
        0.002604798646643758,
        0.06155100092291832,
        -0.08207815885543823,
        0.14851976931095123,
        -0.08410746604204178,
        0.1370757818222046,
        0.03864159807562828,
        -0.03427928313612938,
        -0.013055115938186646,
        -0.01478627324104309,
        0.0985414981842041,
        -0.043528228998184204,
        0.15572810173034668,
        0.1427270472049713,
        0.03821876272559166,
        -0.05012143403291702,
        0.02622811496257782,
        -0.005837421398609877,
        0.052223090082407,
        0.13290958106517792,
        -0.03577403724193573,
        0.0557125061750412,
        0.06644505262374878,
        -0.06039497256278992,
        -0.10564542561769485,
        0.09792987257242203,
        -0.08932960778474808,
        0.008270910009741783,
        0.13929027318954468,
        0.10045599192380905,
        0.01128194946795702,
        -0.008730489760637283,
        0.07038082182407379,
        0.15166807174682617,
        0.004716048017144203,
        0.04474867880344391,
        -0.014675788581371307,
        0.1112319678068161,
        0.12087628990411758,
        0.020500369369983673,
        -0.010725436732172966,
        0.17660582065582275,
        0.02058538980782032,
        0.15349730849266052,
        0.04982722923159599,
        -0.028588442131876945,
        0.0035645782481878996,
        -0.09448432177305222,
        -0.023738067597150803,
        0.028559867292642593,
        -0.0906917080283165,
        -0.05199746787548065,
        -0.03449303284287453,
        0.05196410045027733,
        0.08758287876844406,
        0.18596476316452026,
        0.03752024099230766,
        0.20010007917881012,
        0.005984938237816095,
        0.06877315044403076,
        0.1899912804365158,
        0.1327647864818573,
        0.06449378281831741,
        0.1335095763206482,
        0.024882405996322632,
        0.05344047769904137,
        -0.00847915094345808,
        0.09802781045436859,
        0.14652827382087708,
        -0.07512038201093674,
        0.12501955032348633
      ],
      [
        0.06706774979829788,
        0.07484538108110428,
        0.007466205861419439,
        -0.08076322823762894,
        -0.041250746697187424,
        0.002347544999793172,
        0.12498254328966141,
        -0.06232050061225891,
        -0.10311883687973022,
        -0.11021114885807037,
        -0.010742398910224438,
        0.08216585218906403,
        0.07369983941316605,
        0.0021091285161674023,
        -0.08018474280834198,
        0.04002596065402031,
        -0.04584148898720741,
        -0.12631918489933014,
        -0.07166378945112228,
        0.0949290469288826,
        -0.07528718560934067,
        0.07076109200716019,
        0.0375153049826622,
        0.025467801839113235,
        -0.11005685478448868,
        0.050677184015512466,
        0.038563210517168045,
        -0.045850083231925964,
        0.003760773688554764,
        0.00603071041405201,
        0.0037203067913651466,
        0.006068509072065353,
        0.11755739152431488,
        -0.10955922305583954,
        -0.09705401957035065,
        -0.055208005011081696,
        -0.06328378617763519,
        -0.005062855314463377,
        -0.11846181005239487,
        -0.0757494568824768,
        0.071943499147892,
        -0.10588864982128143,
        -0.017090486362576485,
        0.023622294887900352,
        -0.11139395087957382,
        0.03560725599527359,
        -0.03995361179113388,
        0.03536657616496086,
        -0.06485283374786377,
        -0.07943643629550934,
        -0.03438800945878029,
        0.012995293363928795,
        0.028175635263323784,
        0.12852764129638672,
        0.12903378903865814,
        -0.0630226880311966,
        -0.06310644000768661,
        0.14073042571544647,
        0.06244194507598877,
        -0.054271649569272995,
        0.13314427435398102,
        -0.08330816775560379,
        -0.004032163415104151,
        0.03098033182322979,
        0.010645437054336071,
        0.011691933497786522,
        -0.021997440606355667,
        -0.08527515083551407,
        0.11646705865859985,
        -0.0202985480427742,
        -0.019533976912498474,
        0.06119303032755852
      ],
      [
        -0.11384664475917816,
        -0.1011560708284378,
        -0.07870052009820938,
        0.04672197625041008,
        -0.019566021859645844,
        0.0087692029774189,
        0.0726037323474884,
        0.11136867105960846,
        0.005392361432313919,
        -0.09373258799314499,
        0.06302358955144882,
        -0.028011033311486244,
        -0.1315523386001587,
        0.09309067577123642,
        -0.12297522276639938,
        0.09063833951950073,
        0.06217809394001961,
        0.007774765137583017,
        0.06962860375642776,
        -0.11362038552761078,
        -0.03831212595105171,
        -0.018032914027571678,
        0.017872275784611702,
        -0.09868057817220688,
        0.08260270208120346,
        0.12378492206335068,
        0.06319444626569748,
        -0.09295455366373062,
        -0.044539157301187515,
        0.10785342752933502,
        -0.018981434404850006,
        -0.0397578664124012,
        -0.02904679998755455,
        0.10568074136972427,
        -0.008578398264944553,
        -0.12499098479747772,
        -0.05773662403225899,
        -0.03815985098481178,
        0.04259044677019119,
        0.008137134835124016,
        -0.018754709511995316,
        -0.08915062993764877,
        0.012981814332306385,
        0.08621068298816681,
        0.039986833930015564,
        -0.09151683747768402,
        -0.020215241238474846,
        -0.10781339555978775,
        0.01836952567100525,
        0.0638926774263382,
        0.07350341230630875,
        0.09078436344861984,
        -0.07191792130470276,
        0.0897497907280922,
        0.05899636074900627,
        -0.07971704751253128,
        0.1055375412106514,
        0.0354202575981617,
        -0.06085895746946335,
        -0.0011860806262120605,
        -0.08210989087820053,
        0.09692506492137909,
        -0.08582384139299393,
        0.026599086821079254,
        0.14289091527462006,
        0.07007744163274765,
        0.07997073233127594,
        0.12872575223445892,
        0.023448744788765907,
        0.009655951522290707,
        0.12037942558526993,
        0.18133726716041565
      ],
      [
        0.021886523813009262,
        -0.07715483754873276,
        0.10194429755210876,
        -0.04298878461122513,
        -0.018588386476039886,
        0.09889461100101471,
        -0.01774817891418934,
        -0.06783507764339447,
        -0.10775145888328552,
        -0.03386153280735016,
        0.013942748308181763,
        -0.07820668816566467,
        0.05322030186653137,
        -0.03802761435508728,
        -0.06030459702014923,
        0.04771455004811287,
        0.07869136333465576,
        -0.11158344149589539,
        0.06301701813936234,
        0.03609592467546463,
        -0.11850830912590027,
        0.110674649477005,
        -0.10527365654706955,
        0.11110670119524002,
        -0.05993477255105972,
        0.01529505755752325,
        -0.018097231164574623,
        0.03131713345646858,
        -0.10043173283338547,
        -0.12272931635379791,
        -0.05011330544948578,
        0.022342734038829803,
        -0.03463878482580185,
        -0.09630241990089417,
        -0.03622443228960037,
        -0.06251481175422668,
        -0.0383940264582634,
        -0.09849211573600769,
        -0.05645511671900749,
        0.12767723202705383,
        0.02258642576634884,
        -0.095912404358387,
        0.12970584630966187,
        0.004135096911340952,
        -0.06578949093818665,
        -0.07186327129602432,
        -0.09088726341724396,
        -0.07009074091911316,
        0.04175199940800667,
        -0.12756171822547913,
        -0.04172467440366745,
        -0.07896846532821655,
        0.06264577805995941,
        -0.10861136764287949,
        0.062020912766456604,
        -0.035937290638685226,
        0.03143525496125221,
        -0.033715780824422836,
        -0.0925169438123703,
        0.04047885164618492,
        -0.0798933133482933,
        0.05424625799059868,
        0.13233232498168945,
        -0.10484239459037781,
        0.03183864429593086,
        0.01822754181921482,
        -0.1112707331776619,
        0.015138180926442146,
        -0.04179856553673744,
        0.02711801789700985,
        -0.04171440005302429,
        -0.00652403524145484
      ],
      [
        -0.03377823531627655,
        -0.0025892830453813076,
        0.029367463663220406,
        0.062419790774583817,
        -0.16201360523700714,
        0.030579429119825363,
        -0.0753970667719841,
        -0.16068783402442932,
        0.02040764130651951,
        0.041867323219776154,
        -0.07781809568405151,
        0.04817347228527069,
        0.08395092189311981,
        0.010305955074727535,
        -0.0914570689201355,
        0.10739722102880478,
        0.03908620402216911,
        -0.03325992450118065,
        -0.060452546924352646,
        -0.05565565079450607,
        0.05862309783697128,
        0.10697828978300095,
        -0.08333148807287216,
        -0.027795905247330666,
        -0.10605691373348236,
        -0.1394595056772232,
        -0.08509636670351028,
        -0.13697542250156403,
        -0.1726517379283905,
        -0.003220503916963935,
        -0.0695338100194931,
        -0.10365347564220428,
        0.06572737544775009,
        -0.07112807035446167,
        -0.10808277875185013,
        0.05781382694840431,
        0.1030699759721756,
        0.08073462545871735,
        -0.12176639586687088,
        -0.05417158082127571,
        -0.0930916965007782,
        -0.03233842924237251,
        0.09773541986942291,
        0.0922488421201706,
        0.06141502037644386,
        -0.10730784386396408,
        0.07496381551027298,
        0.04141874983906746,
        -0.09486175328493118,
        -0.11789663881063461,
        0.018361801281571388,
        0.0675094947218895,
        -0.11238325387239456,
        -0.04635484144091606,
        -0.1624322235584259,
        0.0032286650966852903,
        0.07896498590707779,
        -0.0563681423664093,
        0.10677026212215424,
        0.0005632877582684159,
        0.058345623314380646,
        -0.08602676540613174,
        -0.01351143978536129,
        -0.11332729458808899,
        0.002403670223429799,
        0.0448453314602375,
        -0.010728960856795311,
        -0.06042526662349701,
        0.02892189472913742,
        -0.0052153426222503185,
        -0.029772592708468437,
        0.09652983397245407
      ],
      [
        0.11638959497213364,
        0.013932547532022,
        0.10627520084381104,
        -0.0020289875101298094,
        0.16022345423698425,
        -0.057787127792835236,
        0.016217660158872604,
        -0.07866081595420837,
        0.09846919775009155,
        -0.0015285207191482186,
        -0.11430440098047256,
        0.07402480393648148,
        -0.132449209690094,
        -0.12939295172691345,
        -0.055479586124420166,
        -0.012204413302242756,
        0.012604326009750366,
        0.0034777680411934853,
        0.11858123540878296,
        -0.02181662805378437,
        -0.06338634341955185,
        0.0162198469042778,
        0.07124091684818268,
        0.05381149798631668,
        -0.005412493832409382,
        0.07128965109586716,
        -0.0112391896545887,
        0.029014436528086662,
        -0.04956524819135666,
        -0.07493526488542557,
        0.06829911470413208,
        0.039279188960790634,
        0.11178171634674072,
        -0.10925883054733276,
        -0.07395157217979431,
        0.04997728765010834,
        -0.015633180737495422,
        0.1012238934636116,
        -0.033719468861818314,
        0.10359985381364822,
        -0.10294436663389206,
        -0.02489371970295906,
        0.13392941653728485,
        0.0683109313249588,
        -0.04115620627999306,
        0.027364781126379967,
        0.07380779832601547,
        0.036502908915281296,
        0.03608153387904167,
        0.13197924196720123,
        0.12796524167060852,
        0.06827067583799362,
        0.01772441156208515,
        0.03251243755221367,
        -0.053991347551345825,
        -0.004649528302252293,
        0.03640131279826164,
        -0.07416311651468277,
        -0.03592287376523018,
        0.05378047004342079,
        0.08636212348937988,
        -0.12217221409082413,
        -0.11164247989654541,
        -0.06916321814060211,
        0.05241963639855385,
        0.14591871201992035,
        0.12047024071216583,
        0.0038911388255655766,
        0.034040823578834534,
        0.16394774615764618,
        0.18757499754428864,
        -0.004433016292750835
      ],
      [
        0.17277294397354126,
        0.03446199744939804,
        0.06733057647943497,
        0.06479935348033905,
        0.15683813393115997,
        -0.058823321014642715,
        -0.08441044390201569,
        0.08699504286050797,
        0.13704703748226166,
        0.1328764259815216,
        0.08399695158004761,
        0.165524423122406,
        0.023030221462249756,
        0.0255112424492836,
        0.1570134460926056,
        0.0962040051817894,
        0.040685053914785385,
        0.19628390669822693,
        0.01317888405174017,
        0.0620606429874897,
        0.18750770390033722,
        0.04565567523241043,
        0.054859280586242676,
        0.14139676094055176,
        0.11059107631444931,
        -0.04079916700720787,
        0.11031106114387512,
        -0.0350976400077343,
        0.014453362673521042,
        0.045504067093133926,
        -0.05000682920217514,
        0.09051442891359329,
        0.06319811195135117,
        0.14076028764247894,
        -0.04466227442026138,
        -0.050943948328495026,
        0.11078310757875443,
        0.05445956066250801,
        0.10042744129896164,
        0.13415370881557465,
        0.012526697479188442,
        -0.030683228746056557,
        0.15275061130523682,
        0.041006848216056824,
        0.17196984589099884,
        0.08689209818840027,
        0.13118909299373627,
        0.1928042471408844,
        0.10791227221488953,
        0.09656057506799698,
        0.08457732945680618,
        -0.050787873566150665,
        -0.052321042865514755,
        -0.045356765389442444,
        -0.020067667588591576,
        -0.024165723472833633,
        0.11691147089004517,
        0.05266815796494484,
        -0.003760324791073799,
        0.17400458455085754,
        0.009316040202975273,
        0.09785146266222,
        0.025828171521425247,
        0.035427916795015335,
        0.09117651730775833,
        0.09628535807132721,
        0.054852019995450974,
        0.202128604054451,
        0.045139048248529434,
        0.05415293574333191,
        0.2023041695356369,
        0.14862003922462463
      ],
      [
        -0.04636433720588684,
        -0.13585714995861053,
        -0.140399768948555,
        -0.13939885795116425,
        -0.09156938642263412,
        0.09964270144701004,
        -0.046622034162282944,
        0.050590600818395615,
        -0.06715279072523117,
        -0.1411415934562683,
        -0.027848755940794945,
        0.05547879636287689,
        -0.098843052983284,
        0.05138092860579491,
        -0.1251290887594223,
        0.08099697530269623,
        -0.06998373568058014,
        -0.03944798931479454,
        -0.07715476304292679,
        -0.03140229731798172,
        -0.05078655853867531,
        -0.026097944006323814,
        0.06997707486152649,
        -0.06991671770811081,
        0.023284561932086945,
        -0.10925595462322235,
        -0.004318869672715664,
        -0.02052268199622631,
        -0.07216301560401917,
        -0.1060800775885582,
        -0.07903927564620972,
        0.05944844335317612,
        -0.1417393535375595,
        -0.1284160166978836,
        -0.04134209081530571,
        -0.012210479006171227,
        -0.08790015429258347,
        -0.020029468461871147,
        -0.11900478601455688,
        -0.038918428122997284,
        0.05408153310418129,
        -0.09803979843854904,
        0.005178019870072603,
        -0.0993989035487175,
        0.118836909532547,
        0.03402971103787422,
        -0.11130590736865997,
        -0.06292901933193207,
        -0.06278512626886368,
        -0.024257425218820572,
        -0.08299277722835541,
        -0.015365338884294033,
        -0.04409722238779068,
        0.03739321231842041,
        -0.06142778694629669,
        -0.014239147305488586,
        0.07965034991502762,
        0.07553020119667053,
        0.004886724520474672,
        -0.026334188878536224,
        0.10159794241189957,
        -0.02114158496260643,
        -0.11178649961948395,
        0.1195850670337677,
        -0.07577408105134964,
        -0.0875256285071373,
        0.03985686972737312,
        0.10876554250717163,
        0.12615691125392914,
        -0.06441871076822281,
        0.10839440673589706,
        0.02801191434264183
      ],
      [
        0.12650330364704132,
        -0.017773941159248352,
        -0.07808290421962738,
        0.06926587224006653,
        0.053964581340551376,
        -0.1079559251666069,
        0.06556697189807892,
        -0.10097947716712952,
        -0.08352135121822357,
        -0.050196852535009384,
        -0.07447128742933273,
        -0.130674347281456,
        -0.05876641348004341,
        0.09331151843070984,
        -0.031410180032253265,
        -0.015155777335166931,
        -0.06818464398384094,
        -0.051854733377695084,
        0.003664182499051094,
        0.010633592493832111,
        -0.030467674136161804,
        0.06889345496892929,
        0.00039936494431458414,
        -0.052766501903533936,
        -0.03564363345503807,
        0.08482873439788818,
        0.09837455302476883,
        0.005328681785613298,
        0.045716430991888046,
        -0.022706830874085426,
        -0.05706586316227913,
        -0.020458687096834183,
        -0.04215245693922043,
        -0.07481687515974045,
        0.05149703845381737,
        -0.09416168183088303,
        -0.06763976067304611,
        -0.04146150127053261,
        -0.03626934066414833,
        0.0322984904050827,
        0.08620569854974747,
        -0.03797760605812073,
        0.015301977284252644,
        0.0034885781351476908,
        0.0886709988117218,
        -0.06731971353292465,
        -0.04828330874443054,
        0.12814252078533173,
        0.03557697683572769,
        -0.04634298011660576,
        0.03647078201174736,
        0.06995105743408203,
        -0.02427026629447937,
        0.026768209412693977,
        0.006221296265721321,
        0.016814079135656357,
        0.01748889498412609,
        -0.08613413572311401,
        0.062395405024290085,
        -0.11975349485874176,
        0.09368976950645447,
        0.07322750985622406,
        0.10552012175321579,
        0.04837694764137268,
        0.0032539628446102142,
        0.030143888667225838,
        -0.08400636911392212,
        -0.023850854486227036,
        0.078597791492939,
        0.1254010647535324,
        -0.020097509026527405,
        -0.05659930408000946
      ],
      [
        -0.046363987028598785,
        0.061027608811855316,
        -0.04343660548329353,
        -0.003242770442739129,
        -0.10579892247915268,
        0.05116007849574089,
        0.032081425189971924,
        -0.06900874525308609,
        0.01232303585857153,
        -0.08764970302581787,
        -0.04821201413869858,
        0.0782715380191803,
        0.03573984652757645,
        0.08154433220624924,
        -0.07366295158863068,
        -0.001230739988386631,
        0.09251201152801514,
        0.08001511543989182,
        0.0993533805012703,
        -0.07548023015260696,
        0.04434589669108391,
        0.036317020654678345,
        -0.12606027722358704,
        0.09520263224840164,
        -0.05819996818900108,
        0.08843040466308594,
        0.013097529299557209,
        0.10673876106739044,
        0.053595203906297684,
        0.009173251688480377,
        -0.08620467782020569,
        -0.07082345336675644,
        0.10929322987794876,
        0.0884774774312973,
        -0.0008051543845795095,
        -0.06607639789581299,
        0.14382752776145935,
        0.14669707417488098,
        0.031127212569117546,
        0.0416954942047596,
        0.13769398629665375,
        0.018365709111094475,
        0.008273312821984291,
        0.12371955066919327,
        0.09288064390420914,
        0.03522424027323723,
        -0.09934108704328537,
        0.03321194276213646,
        0.020418711006641388,
        -0.04227854311466217,
        -0.07729662954807281,
        0.09906719624996185,
        0.0096329590305686,
        0.034297194331884384,
        -0.03600308299064636,
        0.1450437307357788,
        0.06858675181865692,
        -0.06071866303682327,
        -0.07341747730970383,
        0.09524031728506088,
        0.06672283262014389,
        0.07293317466974258,
        0.011137892492115498,
        0.12254248559474945,
        0.13086135685443878,
        -0.007347601931542158,
        0.06292322278022766,
        -0.011674366891384125,
        -0.06932723522186279,
        0.12310226261615753,
        0.10811495780944824,
        0.1390201598405838
      ],
      [
        0.1036643534898758,
        0.050803717225790024,
        0.004267459735274315,
        0.02486301027238369,
        -0.03654450923204422,
        -0.13233184814453125,
        0.04553750157356262,
        0.03666970133781433,
        0.052602045238018036,
        -0.12655383348464966,
        -0.11403820663690567,
        -0.07103175669908524,
        -0.06300726532936096,
        -0.1169380471110344,
        0.07781630009412766,
        -0.06512778997421265,
        0.10173380374908447,
        0.036911915987730026,
        0.12391550093889236,
        -0.010677823796868324,
        0.0535680390894413,
        0.116287961602211,
        0.08596079796552658,
        0.04278828948736191,
        -0.0584036223590374,
        -0.028220100328326225,
        -0.005798598285764456,
        -0.015302659012377262,
        -0.048006560653448105,
        -0.019479142501950264,
        -0.09865399450063705,
        0.008138207718729973,
        -0.08125752210617065,
        0.003263094462454319,
        -0.05660757049918175,
        -0.11308573186397552,
        0.09870003908872604,
        -0.11148735880851746,
        0.05026746913790703,
        0.04978354275226593,
        0.06168747693300247,
        -0.11916635930538177,
        0.11393383145332336,
        -0.029381541535258293,
        0.04402245208621025,
        0.045801687985658646,
        0.022250564768910408,
        0.10158482939004898,
        -0.03851788118481636,
        -0.06472310423851013,
        -0.05154038220643997,
        0.06922154873609543,
        0.04062546789646149,
        0.06881337612867355,
        -0.15315254032611847,
        0.07619877904653549,
        0.04157792776823044,
        -0.13907490670681,
        -0.09930043667554855,
        -0.1027446836233139,
        -0.06545639038085938,
        0.11651690304279327,
        -0.004935584031045437,
        0.15820305049419403,
        0.12093231827020645,
        0.09987607598304749,
        -0.03810863941907883,
        0.051700614392757416,
        0.15498876571655273,
        0.1362219750881195,
        -0.013301348313689232,
        -0.05580507218837738
      ],
      [
        0.0058540464378893375,
        0.06654898822307587,
        0.10829002410173416,
        0.008439905010163784,
        0.028548359870910645,
        -0.003471706062555313,
        -0.14419841766357422,
        -0.04986826702952385,
        -0.0431353822350502,
        -0.034686971455812454,
        -0.06544289737939835,
        -0.06577593833208084,
        0.03425183892250061,
        -0.08943583816289902,
        0.1118050292134285,
        0.039226971566677094,
        0.042929209768772125,
        0.11925451457500458,
        -0.05878991261124611,
        0.06330755352973938,
        0.0947507694363594,
        -0.06319237500429153,
        0.0366663821041584,
        0.11309705674648285,
        -0.023594649508595467,
        -0.10528327524662018,
        -0.008836885914206505,
        -0.09694447368383408,
        0.10422133654356003,
        -0.01891832798719406,
        0.08891948312520981,
        0.035115621984004974,
        -0.09398652613162994,
        -0.009231487289071083,
        0.0030882537830621004,
        0.036668647080659866,
        -0.11229817569255829,
        0.11938135325908661,
        -0.10138875246047974,
        0.06269952654838562,
        0.08091866225004196,
        0.04034142568707466,
        -0.053537867963314056,
        -0.07923074066638947,
        0.07032480090856552,
        -0.029065944254398346,
        -0.025893915444612503,
        0.10101936757564545,
        -0.0973372831940651,
        0.041885778307914734,
        0.0255076102912426,
        0.00950330775231123,
        0.10619600117206573,
        -0.07078617066144943,
        -0.09654618054628372,
        -0.01175815798342228,
        -0.08312922716140747,
        -0.09197385609149933,
        0.09053757786750793,
        0.07662927359342575,
        -0.0625571683049202,
        -0.06799683719873428,
        0.08825480192899704,
        0.05831129103899002,
        -0.06681247055530548,
        0.008795256726443768,
        0.14377041161060333,
        0.1617467850446701,
        -0.05784570053219795,
        0.023613732308149338,
        0.11679814755916595,
        0.10044869035482407
      ],
      [
        -0.09420724213123322,
        -0.004298629239201546,
        -0.05587492138147354,
        -0.07363946735858917,
        -0.00982506200671196,
        -0.006566501222550869,
        -0.1016073003411293,
        0.02805708535015583,
        0.07882459461688995,
        0.014739432372152805,
        -0.1031700000166893,
        0.08092294633388519,
        0.025109993293881416,
        0.07783634960651398,
        0.06445128470659256,
        0.09022928774356842,
        0.06089374050498009,
        -0.04094819724559784,
        -0.10732777416706085,
        -0.07125388830900192,
        -0.08847206085920334,
        0.038637012243270874,
        0.09990745782852173,
        -0.059191152453422546,
        -0.11830126494169235,
        0.08458641171455383,
        -0.02947998233139515,
        -0.07014688104391098,
        0.0906437411904335,
        0.06934748589992523,
        0.022779833525419235,
        -0.10907785594463348,
        -0.051049042493104935,
        -0.016411777585744858,
        -0.017866814509034157,
        0.09853760898113251,
        0.06798390299081802,
        -0.0988759994506836,
        -0.07501433044672012,
        -0.05518936365842819,
        0.06697922199964523,
        0.0640534907579422,
        -0.02909691445529461,
        0.006201422773301601,
        0.06363003700971603,
        -0.023725535720586777,
        -0.09079168736934662,
        -0.0651390329003334,
        -0.07746491581201553,
        0.08697647601366043,
        0.026839932426810265,
        -0.051776524633169174,
        0.11756615340709686,
        0.07770386338233948,
        0.019754936918616295,
        0.06997452676296234,
        0.12201341241598129,
        -0.045459479093551636,
        -0.05606049299240112,
        0.02995450049638748,
        0.14305566251277924,
        0.14906901121139526,
        -0.02720543183386326,
        0.07322671264410019,
        -0.04382844641804695,
        0.0968748927116394,
        0.05843818560242653,
        0.09113804250955582,
        0.0027706203982234,
        0.03964456543326378,
        0.11004026979207993,
        0.14270935952663422
      ],
      [
        0.08679511398077011,
        -0.09461471438407898,
        -0.0993589237332344,
        -0.022677453234791756,
        0.04200362786650658,
        0.03632519766688347,
        -0.12657706439495087,
        -0.016904037445783615,
        0.012107823975384235,
        -0.01950356736779213,
        -0.0028374965768307447,
        0.10482443124055862,
        -0.04825971648097038,
        0.06975170224905014,
        -0.06349418312311172,
        -0.03234085068106651,
        -0.0625167116522789,
        0.005385199096053839,
        -0.0015336684882640839,
        0.04167461022734642,
        -0.01970631815493107,
        0.01678609475493431,
        0.09019438177347183,
        0.012676500715315342,
        -0.07402937114238739,
        -0.08044525980949402,
        -0.024802610278129578,
        -0.12277203053236008,
        -0.10938584059476852,
        -0.02638252079486847,
        -0.00784812681376934,
        -0.06043413281440735,
        0.08016950637102127,
        -0.06368352472782135,
        0.026577379554510117,
        -0.06253044307231903,
        -0.030932767316699028,
        0.11675378680229187,
        -0.027906831353902817,
        0.08668933063745499,
        0.025346115231513977,
        -0.024203317239880562,
        0.1033482477068901,
        -0.06859982758760452,
        -0.07681407779455185,
        -0.06761731952428818,
        0.039944447576999664,
        0.10714748501777649,
        0.02085699699819088,
        -0.06894847005605698,
        -0.09042573720216751,
        -0.11333096027374268,
        0.014055643230676651,
        -0.07740910351276398,
        0.08729790151119232,
        -0.07755281031131744,
        -0.09028756618499756,
        0.09612829983234406,
        0.05808097869157791,
        -0.08771916478872299,
        -0.07123924046754837,
        0.08955681324005127,
        0.12215149402618408,
        0.05585130676627159,
        0.1575876921415329,
        0.0697157233953476,
        -0.06906389445066452,
        0.13192658126354218,
        -0.06893214583396912,
        -0.03969145938754082,
        0.048617035150527954,
        0.14832864701747894
      ],
      [
        -0.08818631619215012,
        0.08037298172712326,
        0.030505681410431862,
        0.12897461652755737,
        0.008029071614146233,
        -0.018070541322231293,
        -0.04518749192357063,
        -0.06748785823583603,
        -0.020596100017428398,
        0.0932636633515358,
        0.17122909426689148,
        0.13047659397125244,
        -0.06593029201030731,
        -0.005601322278380394,
        0.11382375657558441,
        0.12877599895000458,
        0.04916471987962723,
        -0.04133957251906395,
        -0.024479413405060768,
        0.08885113894939423,
        -0.06361366808414459,
        -0.002118692034855485,
        -0.08918590098619461,
        0.04503750056028366,
        0.08022672683000565,
        0.08997206389904022,
        0.09877985715866089,
        -0.08103418350219727,
        -0.0761171355843544,
        0.03936958685517311,
        -0.06747198849916458,
        0.0035512219183146954,
        0.009713058359920979,
        0.17174562811851501,
        0.17499274015426636,
        0.1745123267173767,
        0.15904557704925537,
        -0.047668009996414185,
        0.05443946272134781,
        -0.02239951491355896,
        0.08978162705898285,
        0.11861628293991089,
        0.08008810877799988,
        -0.012798342853784561,
        0.10818540304899216,
        -0.06337805837392807,
        0.1267748326063156,
        0.045062512159347534,
        0.06588007509708405,
        -0.07821504771709442,
        -0.08424188941717148,
        -0.042141351848840714,
        0.14515182375907898,
        0.08629400283098221,
        0.07129345834255219,
        0.1372026801109314,
        0.08438882976770401,
        0.04880606383085251,
        -0.0300617516040802,
        0.07053662091493607,
        0.13342727720737457,
        0.15560489892959595,
        -0.04727815091609955,
        -0.010613041929900646,
        0.08873351663351059,
        0.06088462099432945,
        0.14205551147460938,
        -0.04045071825385094,
        -0.06604322046041489,
        0.006694671232253313,
        0.06536070257425308,
        -0.06627386808395386
      ],
      [
        0.0927368775010109,
        -0.013241498731076717,
        -0.09062059223651886,
        0.03912842646241188,
        -0.09556533396244049,
        0.042639218270778656,
        0.051011551171541214,
        -0.0020678192377090454,
        0.026875361800193787,
        0.07792308926582336,
        0.1251879334449768,
        0.11452940851449966,
        0.014410462230443954,
        0.12342331558465958,
        -0.058692771941423416,
        0.12403322756290436,
        -0.08076466619968414,
        -0.005306437145918608,
        -0.14051654934883118,
        0.08989903330802917,
        -0.08124297857284546,
        0.09110145270824432,
        0.07713078707456589,
        -0.012437035329639912,
        -0.08852417767047882,
        -0.12941409647464752,
        0.015371638350188732,
        -0.014985334128141403,
        0.0462547242641449,
        -0.08667927235364914,
        0.022124765440821648,
        -0.05342112109065056,
        -0.00032199450652115047,
        -0.016546327620744705,
        0.05799967050552368,
        -0.035669632256031036,
        0.15534929931163788,
        0.14426706731319427,
        -0.022910814732313156,
        -0.08483479917049408,
        0.0484878309071064,
        0.01076233945786953,
        0.07272032648324966,
        -0.033720433712005615,
        0.03702984377741814,
        -0.08908669650554657,
        -0.054702695459127426,
        0.036660827696323395,
        -0.09958693385124207,
        0.10026641190052032,
        0.03865719214081764,
        0.0766637772321701,
        -0.08946637809276581,
        0.15147411823272705,
        -0.06174464151263237,
        -0.023342305794358253,
        0.16826380789279938,
        -0.003142306115478277,
        -0.05624312534928322,
        0.020390791818499565,
        0.09333333373069763,
        0.14153824746608734,
        0.010770737193524837,
        -0.07170505076646805,
        0.1535615175962448,
        -0.10108056664466858,
        0.0808103084564209,
        -0.051402486860752106,
        0.07533372193574905,
        0.03654208779335022,
        0.02731722593307495,
        -0.06663590669631958
      ],
      [
        -0.10481146723031998,
        -0.09126551449298859,
        -0.09425953775644302,
        0.10130908340215683,
        -0.07049980014562607,
        0.08669427037239075,
        -0.0290979016572237,
        0.05712369456887245,
        0.02936161309480667,
        0.10697855055332184,
        0.017933817580342293,
        -0.05995895341038704,
        0.06031142175197601,
        -0.12178846448659897,
        0.02452228032052517,
        0.05459006130695343,
        -0.0037708289455622435,
        -0.06658808887004852,
        -0.02307860180735588,
        0.125929057598114,
        0.08633201569318771,
        0.019653653725981712,
        -0.0426071360707283,
        -0.0641804188489914,
        0.12062373012304306,
        -0.042544201016426086,
        0.09736364334821701,
        -0.10522719472646713,
        0.09013467282056808,
        -0.03594202920794487,
        0.11102433502674103,
        -0.09099497646093369,
        0.11274158209562302,
        -0.09601837396621704,
        0.04390775412321091,
        0.041800834238529205,
        -0.03783107176423073,
        -0.0991005152463913,
        -0.010419739410281181,
        -0.043416693806648254,
        0.05002693831920624,
        -0.10840041935443878,
        -0.08597628772258759,
        -0.07077055424451828,
        0.05885167047381401,
        0.0054100267589092255,
        0.058640751987695694,
        0.08875326067209244,
        0.12315573543310165,
        -0.08253032714128494,
        -0.022612741217017174,
        0.0804838314652443,
        0.08983302861452103,
        0.010805347934365273,
        -0.11592771112918854,
        -0.11626489460468292,
        0.09699780493974686,
        -0.006076850928366184,
        -0.11087509989738464,
        -0.01094619557261467,
        -0.08994868397712708,
        -0.04297328740358353,
        0.11170126497745514,
        -0.08564655482769012,
        -0.0530465729534626,
        0.0016292118234559894,
        -0.08689572662115097,
        -0.06459847837686539,
        -0.0655335783958435,
        -0.009681643918156624,
        -0.08935339003801346,
        0.10957830399274826
      ],
      [
        -0.05637969821691513,
        -0.06958232074975967,
        -0.07036638259887695,
        -0.0901939868927002,
        -0.08017121255397797,
        -0.09967086464166641,
        0.13553465902805328,
        0.13194365799427032,
        0.12162729352712631,
        -0.03271259367465973,
        -0.09891846030950546,
        0.043334562331438065,
        -0.01398536842316389,
        0.05422121286392212,
        0.036996886134147644,
        0.06415882706642151,
        0.09175855666399002,
        0.09000368416309357,
        -0.02475772425532341,
        -0.06878064572811127,
        -0.054024189710617065,
        0.031244851648807526,
        -0.026660209521651268,
        0.08578278869390488,
        0.045268382877111435,
        -0.08718893676996231,
        -0.04167516902089119,
        0.07505720853805542,
        -0.04443100839853287,
        0.022798141464591026,
        0.10030210763216019,
        -0.03246783837676048,
        0.14478695392608643,
        0.12156254053115845,
        -0.0450158566236496,
        -0.05936353653669357,
        -0.05436263605952263,
        0.005820244550704956,
        0.09878046065568924,
        0.023254241794347763,
        0.1267312914133072,
        0.009405435062944889,
        -0.04655015468597412,
        0.08266516029834747,
        0.04568018764257431,
        0.12248171865940094,
        0.0442972294986248,
        -0.04733394458889961,
        -0.06941355019807816,
        0.08865636587142944,
        -0.09335073828697205,
        0.13687489926815033,
        0.018403641879558563,
        -0.022578779608011246,
        0.1430332511663437,
        -0.028500117361545563,
        0.008904297836124897,
        -0.03819010779261589,
        0.07930354028940201,
        0.054732758551836014,
        0.13537104427814484,
        -0.043348658829927444,
        -0.08545392006635666,
        0.000894328230060637,
        0.14784717559814453,
        -0.021743349730968475,
        -0.0465988889336586,
        0.01765768975019455,
        0.11520977318286896,
        0.1399967223405838,
        -0.05082191154360771,
        0.15783031284809113
      ],
      [
        0.11416728794574738,
        0.03234316036105156,
        0.1263008713722229,
        0.09273270517587662,
        -0.0279429629445076,
        0.05144140496850014,
        0.04073382914066315,
        -0.03493809700012207,
        0.06304631382226944,
        -0.03627758473157883,
        0.043001290410757065,
        0.01309790275990963,
        0.04539674520492554,
        0.02654721587896347,
        0.11138308793306351,
        0.10025571286678314,
        0.06241341680288315,
        0.061588309705257416,
        0.04695699363946915,
        -0.007625912316143513,
        0.04617021605372429,
        -0.08188995718955994,
        0.0808039978146553,
        -0.06541956961154938,
        -0.12049084156751633,
        -0.05036832392215729,
        0.08452216535806656,
        0.10312273353338242,
        -0.009076602756977081,
        -0.06715211272239685,
        -0.06834996491670609,
        -0.08423449099063873,
        -0.015351428650319576,
        0.010586787946522236,
        -0.011450071819126606,
        0.004966341890394688,
        0.10049442946910858,
        0.09676510095596313,
        -0.06879405677318573,
        0.1232614666223526,
        0.014320236630737782,
        0.12716184556484222,
        -0.06211584061384201,
        -0.1026831865310669,
        0.05324913561344147,
        0.051041532307863235,
        -0.024552656337618828,
        -0.016897637397050858,
        0.12228325754404068,
        -0.08202682435512543,
        -0.026162894442677498,
        0.06282824277877808,
        0.04226464778184891,
        0.13573750853538513,
        0.0007062272634357214,
        -0.022911928594112396,
        0.024446574971079826,
        -0.008816920220851898,
        0.05645696073770523,
        0.05536415055394173,
        0.023896800354123116,
        0.0019285365706309676,
        0.1439209282398224,
        -0.08659309148788452,
        0.016479089856147766,
        0.1479322910308838,
        0.07205955684185028,
        -0.050999995321035385,
        -0.07786138355731964,
        -0.07398761063814163,
        -0.009096802212297916,
        0.0015869367634877563
      ],
      [
        -0.07969370484352112,
        0.14644257724285126,
        0.09863756597042084,
        0.023382728919386864,
        -0.04490615427494049,
        0.04465765133500099,
        -0.00862817745655775,
        0.04432770237326622,
        -0.133310928940773,
        0.017329296097159386,
        0.0941389724612236,
        -0.13619957864284515,
        -0.051045700907707214,
        -0.0645311251282692,
        0.0703694224357605,
        0.09529538452625275,
        -0.030724886804819107,
        -0.09453105926513672,
        -0.0351649634540081,
        -0.1170048788189888,
        0.12006515264511108,
        0.1383296549320221,
        0.09055852890014648,
        0.024874743074178696,
        0.053133826702833176,
        -0.09541624784469604,
        0.06106797605752945,
        -0.03227430582046509,
        -0.1084238812327385,
        0.003221937222406268,
        -0.10011548548936844,
        0.04616864398121834,
        -0.08912714570760727,
        0.05429386347532272,
        -0.053577717393636703,
        -0.035550206899642944,
        0.08516145497560501,
        0.009976506233215332,
        0.05464782938361168,
        0.09214099496603012,
        0.010643579997122288,
        0.028880326077342033,
        -0.08462397009134293,
        0.0792461708188057,
        -0.019489075988531113,
        0.027669383212924004,
        -0.004670820198953152,
        0.15194812417030334,
        0.028349587693810463,
        -0.09144344925880432,
        0.013241961598396301,
        0.03315506875514984,
        -0.02771265245974064,
        -0.0934409350156784,
        0.10160332173109055,
        0.12714369595050812,
        0.03537309914827347,
        0.014180631376802921,
        -0.02056632749736309,
        -0.10089220106601715,
        0.05756523087620735,
        0.05181974917650223,
        -0.10212733596563339,
        0.027747252956032753,
        0.07686134427785873,
        0.12765616178512573,
        -0.009575660340487957,
        0.0873817726969719,
        0.003557699266821146,
        0.04455674812197685,
        0.091159887611866,
        0.1337229460477829
      ],
      [
        -0.04802775755524635,
        -0.0251954086124897,
        0.01520475558936596,
        0.0865018367767334,
        0.09834276139736176,
        0.10272509604692459,
        -0.09438169747591019,
        0.09936857968568802,
        -0.06845802068710327,
        0.05652527138590813,
        0.10307548195123672,
        -0.008128959685564041,
        -0.021139511838555336,
        0.07892365008592606,
        0.04286748543381691,
        0.06926494836807251,
        -0.10145988315343857,
        0.038370244204998016,
        0.061147961765527725,
        -0.05977179855108261,
        0.09829442948102951,
        0.010987095534801483,
        -0.04991599917411804,
        0.0818941667675972,
        0.020723745226860046,
        0.14143119752407074,
        -0.07964533567428589,
        -0.08063874393701553,
        0.10093527287244797,
        0.10527278482913971,
        0.12711094319820404,
        0.008174499496817589,
        -0.08310472965240479,
        0.056074634194374084,
        0.05170874297618866,
        -0.08379515260457993,
        -0.06986256688833237,
        -0.05075380206108093,
        -0.12657251954078674,
        -0.017780138179659843,
        0.05741940811276436,
        0.03166686370968819,
        0.04341467469930649,
        0.07212354987859726,
        0.16471174359321594,
        0.11401847749948502,
        0.16275028884410858,
        0.07713154703378677,
        0.05143588408827782,
        0.08346700668334961,
        0.1606217473745346,
        -0.05159378796815872,
        -0.008472396060824394,
        0.07739496976137161,
        -0.0421505942940712,
        -0.07881847023963928,
        -0.0833125188946724,
        -0.075047567486763,
        -0.015114911831915379,
        -0.08376532793045044,
        0.010058722458779812,
        -0.051068633794784546,
        -0.08169175684452057,
        0.10759567469358444,
        0.0038136860821396112,
        0.07589738070964813,
        0.0002924738801084459,
        0.09862923622131348,
        0.11744197458028793,
        0.17543360590934753,
        0.0703335553407669,
        0.03983526676893234
      ],
      [
        0.005941361654549837,
        -0.14916305243968964,
        -0.13701079785823822,
        -0.0032542007975280285,
        -0.06943093985319138,
        -0.14276039600372314,
        -0.03408229351043701,
        -0.14009928703308105,
        -0.09920479357242584,
        0.0469057559967041,
        0.018063168972730637,
        -0.07697226107120514,
        0.049506716430187225,
        -0.12058126926422119,
        0.09332054853439331,
        -0.1020929366350174,
        -0.01821884699165821,
        0.08738644421100616,
        -0.09921370446681976,
        -0.0450468435883522,
        0.07055456936359406,
        -0.11748933792114258,
        -0.09099768102169037,
        -0.0061774174682796,
        0.06217751279473305,
        -0.10022608190774918,
        0.02374381199479103,
        0.04278704524040222,
        -0.11358571797609329,
        -0.06624287366867065,
        0.07106189429759979,
        0.04011313244700432,
        -0.060717854648828506,
        0.050533656030893326,
        -0.01825890876352787,
        -0.1148957908153534,
        0.08359969407320023,
        -0.07354825735092163,
        -0.11469347029924393,
        -0.010808789171278477,
        -0.0522499717772007,
        -0.02130160667002201,
        0.021296018734574318,
        -0.04760323837399483,
        0.04079917445778847,
        -0.08936531841754913,
        -0.1332891285419464,
        0.0807085856795311,
        -0.13569070398807526,
        -0.016538036987185478,
        -0.11238297820091248,
        -0.14447899162769318,
        -0.09566197544336319,
        -0.10636988282203674,
        -0.07670564204454422,
        0.10749662667512894,
        -0.04317868500947952,
        -0.12260910868644714,
        0.10934983938932419,
        0.0763116180896759,
        -0.01958787441253662,
        0.04565165191888809,
        -0.08956076204776764,
        -0.06649269163608551,
        -0.10567568987607956,
        0.05113542079925537,
        0.08577214181423187,
        -0.06991994380950928,
        0.026717107743024826,
        -0.029511457309126854,
        -0.12894561886787415,
        0.02284393087029457
      ],
      [
        0.019001103937625885,
        -0.02771129459142685,
        0.08899125456809998,
        0.004105240572243929,
        0.08549711108207703,
        0.032327961176633835,
        -0.07941890507936478,
        -0.033554572612047195,
        0.07371237874031067,
        0.06762009859085083,
        -0.07644540816545486,
        -0.013841074891388416,
        -0.07437029480934143,
        0.08840692043304443,
        0.10729372501373291,
        -0.024811968207359314,
        0.08277878165245056,
        -0.04769417643547058,
        0.0664714127779007,
        -0.0017892519244924188,
        0.07444913685321808,
        0.017408233135938644,
        0.05383177846670151,
        0.13479137420654297,
        -0.025400986894965172,
        0.10276161879301071,
        0.11245560646057129,
        0.04088320955634117,
        0.022553086280822754,
        0.0735316276550293,
        0.14671216905117035,
        0.005026162602007389,
        -0.0776909813284874,
        -0.04089849814772606,
        -0.012473462149500847,
        -0.10562826693058014,
        0.054138291627168655,
        -0.04692450910806656,
        -0.1265791654586792,
        -0.0748569592833519,
        -0.04812803119421005,
        0.021750433370471,
        0.034291286021471024,
        0.04125341400504112,
        -0.04116181284189224,
        0.05501075088977814,
        0.08214510977268219,
        0.01971147209405899,
        0.1680706888437271,
        0.03863326832652092,
        0.17916880548000336,
        0.14071406424045563,
        0.11187529563903809,
        0.026808565482497215,
        -0.0016239691758528352,
        0.03816859796643257,
        -0.03853918984532356,
        0.09156034886837006,
        -0.03496263176202774,
        -0.12635555863380432,
        -0.15182894468307495,
        -0.10491891205310822,
        -0.04831704869866371,
        0.07021193206310272,
        0.10519275814294815,
        0.12130837887525558,
        0.11985588818788528,
        0.10779006779193878,
        -0.017659958451986313,
        0.013284302316606045,
        0.06463944911956787,
        0.20354333519935608
      ],
      [
        0.11986397951841354,
        -0.06762734055519104,
        0.0552901066839695,
        -0.05019524693489075,
        -0.028229836374521255,
        0.08922450244426727,
        -0.07251499593257904,
        -0.04307316616177559,
        0.07925865054130554,
        -0.09284695237874985,
        -0.05204272270202637,
        -0.058682095259428024,
        -0.04186137393116951,
        0.07767350971698761,
        -0.03674358129501343,
        0.11963506042957306,
        -0.041848134249448776,
        -0.09577976167201996,
        -0.11520840227603912,
        -0.010450650006532669,
        0.04563695192337036,
        -0.012874741107225418,
        -0.05117660388350487,
        0.09596079587936401,
        0.1311240792274475,
        0.142879456281662,
        -0.059912074357271194,
        -0.08692941069602966,
        0.15407748520374298,
        0.10728518664836884,
        0.08278524875640869,
        0.01796015352010727,
        0.05689600110054016,
        0.0049825492314994335,
        -0.04664790630340576,
        -0.045893363654613495,
        -0.05118948593735695,
        -0.02410246431827545,
        0.0935153067111969,
        -0.05181186646223068,
        -0.0442563071846962,
        -0.05825942009687424,
        0.02269991859793663,
        -0.11283140629529953,
        -0.0921851322054863,
        0.056312769651412964,
        -0.10170555859804153,
        0.060828160494565964,
        -0.011453511193394661,
        -0.09388528019189835,
        0.001888653147034347,
        -0.0816936269402504,
        0.022746216505765915,
        0.01375787053257227,
        -0.07126893848180771,
        0.11573071777820587,
        0.1423283815383911,
        0.11106140911579132,
        0.04612428694963455,
        0.13434915244579315,
        0.023226313292980194,
        0.003392347600311041,
        0.03279272839426994,
        -0.026055248454213142,
        0.02749241515994072,
        0.09197372943162918,
        0.07879876345396042,
        -0.07270605117082596,
        -0.03751096501946449,
        -0.06779281795024872,
        0.09226104617118835,
        0.09525000303983688
      ],
      [
        0.10389070212841034,
        -0.08003437519073486,
        0.09380020201206207,
        -0.04089135304093361,
        0.06421558558940887,
        0.03302554413676262,
        0.09301126003265381,
        -0.08218994736671448,
        -0.13847707211971283,
        -0.07595574855804443,
        0.004025333561003208,
        -0.0646430253982544,
        -0.10754373669624329,
        -0.011182884685695171,
        -0.10679445415735245,
        -0.018506333231925964,
        0.08823366463184357,
        -0.02594277635216713,
        0.09793572872877121,
        0.01714101806282997,
        -0.05298381671309471,
        0.03438689559698105,
        0.029733294621109962,
        0.06190979480743408,
        -0.1382153332233429,
        -0.1109323501586914,
        0.029647083953022957,
        -0.0027902883011847734,
        0.08221209794282913,
        -0.0022842944599688053,
        0.00982699729502201,
        -0.004354940727353096,
        0.10418795794248581,
        0.0630657970905304,
        -0.05089762806892395,
        -0.013887757435441017,
        -0.06850189715623856,
        0.07730300724506378,
        -0.019442055374383926,
        -0.01034262403845787,
        0.020385216921567917,
        0.0591282919049263,
        -0.06289507448673248,
        0.05477820336818695,
        -0.020866788923740387,
        -0.08286421746015549,
        0.003561398945748806,
        -0.06269824504852295,
        0.044504303485155106,
        0.06234940513968468,
        -0.10832782834768295,
        -0.021437617018818855,
        -0.05177927389740944,
        -0.12380772083997726,
        0.10390479117631912,
        0.0643281415104866,
        -0.10523469001054764,
        0.01045522466301918,
        -0.12977147102355957,
        -0.04980805143713951,
        -0.09271032363176346,
        0.09316059947013855,
        0.055568575859069824,
        -0.05827855318784714,
        -0.03198409825563431,
        -0.06717220693826675,
        -0.06538105010986328,
        -0.0012388363247737288,
        -0.060034699738025665,
        -0.1429152935743332,
        0.053024549037218094,
        -0.0886402279138565
      ],
      [
        0.18461836874485016,
        -0.07801216840744019,
        -0.032102394849061966,
        -0.06379101425409317,
        0.022878991439938545,
        -0.024042917415499687,
        0.012240421026945114,
        -0.08256705850362778,
        -0.11080785095691681,
        -0.030087746679782867,
        0.04742274805903435,
        -0.013262677006423473,
        0.08040648698806763,
        -0.012789883650839329,
        0.05523477494716644,
        0.1260613352060318,
        0.1322454959154129,
        0.16373580694198608,
        0.1719416081905365,
        0.0484461709856987,
        0.10242684185504913,
        0.03770243376493454,
        0.10685672610998154,
        -0.02134816348552704,
        0.1702120304107666,
        0.14594250917434692,
        -0.10694310814142227,
        0.108176089823246,
        -0.03744007274508476,
        -0.0750747099518776,
        -0.037137262523174286,
        -0.05967853590846062,
        -0.04195067659020424,
        0.03933793306350708,
        -0.06583131104707718,
        -0.06613516807556152,
        -0.08532801270484924,
        0.03752797096967697,
        0.10879874229431152,
        -0.00800064392387867,
        -0.0362655445933342,
        0.056745897978544235,
        0.012345995754003525,
        0.07607965916395187,
        0.12238998711109161,
        0.06968500465154648,
        -0.04066045954823494,
        0.09721037745475769,
        0.03705238923430443,
        0.14174234867095947,
        -0.050821952521800995,
        -0.0982486829161644,
        0.007034361362457275,
        -0.11066371947526932,
        -0.05847354605793953,
        0.09263969212770462,
        -0.034529656171798706,
        -0.11484751105308533,
        0.0022555794566869736,
        0.11491716653108597,
        0.005104068201035261,
        0.11787892132997513,
        0.12288093566894531,
        0.01609104312956333,
        -0.02523796632885933,
        0.18195079267024994,
        0.056722912937402725,
        0.06777330487966537,
        0.21011380851268768,
        0.03963280841708183,
        0.06678853929042816,
        -0.0030241007916629314
      ],
      [
        -0.04013228043913841,
        -0.017803072929382324,
        0.06143045425415039,
        -0.055003147572278976,
        -0.024260573089122772,
        -0.08357451856136322,
        0.1315116286277771,
        0.036855123937129974,
        -0.05043388903141022,
        -0.002767781727015972,
        0.11879602819681168,
        -0.016129037365317345,
        -0.07781297713518143,
        0.020807771012187004,
        0.11319530010223389,
        0.015999699011445045,
        0.10776308923959732,
        0.020665893331170082,
        0.07896384596824646,
        0.058566514402627945,
        -0.011798642575740814,
        -0.034962866455316544,
        0.11808407306671143,
        0.13978327810764313,
        0.10974617302417755,
        -0.09462565183639526,
        0.10445960611104965,
        0.14456358551979065,
        -0.014284207485616207,
        -0.09092698246240616,
        -0.0662345215678215,
        0.11217623203992844,
        0.07363677769899368,
        0.02944633923470974,
        0.05712434649467468,
        0.0852557122707367,
        0.022838588804006577,
        0.06942493468523026,
        -0.11544712632894516,
        -0.10098191350698471,
        -0.04672529920935631,
        -0.019175637513399124,
        -0.058592405170202255,
        -0.010526062920689583,
        0.0069358679465949535,
        -0.054372385144233704,
        0.11601529270410538,
        -0.040253132581710815,
        -0.06232079118490219,
        -0.004886682145297527,
        -0.03642246127128601,
        -0.08049233257770538,
        0.04897218570113182,
        -0.07595590502023697,
        -0.061474382877349854,
        -0.04880847409367561,
        0.07762347161769867,
        -0.06559912860393524,
        -0.04133784770965576,
        0.0004426953673828393,
        -0.08543717116117477,
        0.11041247099637985,
        0.04042719304561615,
        0.021927721798419952,
        0.04956241324543953,
        0.07079639285802841,
        -0.02785019762814045,
        -0.007867897860705853,
        -0.07384712249040604,
        0.06925540417432785,
        0.06607776135206223,
        0.10623371601104736
      ],
      [
        0.033161044120788574,
        0.06485684961080551,
        0.05372489616274834,
        -0.06198667362332344,
        0.08355779200792313,
        -0.05017232522368431,
        -0.04544515535235405,
        0.07439913600683212,
        0.02246466837823391,
        0.05811147391796112,
        -0.054996732622385025,
        0.10297886282205582,
        -0.006777556613087654,
        -0.07463918626308441,
        0.08205725997686386,
        -0.0330192930996418,
        -0.05427856370806694,
        0.0792982280254364,
        -0.060093000531196594,
        0.11941178888082504,
        0.11122623085975647,
        -0.09254603087902069,
        0.017655007541179657,
        -0.03407429903745651,
        0.02047652006149292,
        0.018409665673971176,
        -0.06998310983181,
        0.023806625977158546,
        -0.07334237545728683,
        0.11167027056217194,
        0.04942445456981659,
        0.012551538646221161,
        -0.049669910222291946,
        -0.11579295992851257,
        -0.008384829387068748,
        0.08588264882564545,
        -0.04471126198768616,
        -0.07972976565361023,
        0.07742926478385925,
        0.0923210009932518,
        0.11143822968006134,
        -0.03134429454803467,
        0.0890522301197052,
        -0.0023860414512455463,
        0.1272045522928238,
        -0.06341838091611862,
        0.09677552431821823,
        -0.08109582960605621,
        0.11333096772432327,
        0.07161054760217667,
        0.09220650047063828,
        0.08121603727340698,
        -0.014416927471756935,
        0.12587106227874756,
        0.14057323336601257,
        -0.03464015945792198,
        -0.024795440956950188,
        0.13882377743721008,
        -0.07677878439426422,
        -0.037047743797302246,
        0.07719643414020538,
        0.04366261884570122,
        -0.07883939892053604,
        0.14281612634658813,
        0.07228725403547287,
        -0.057443637400865555,
        0.16483533382415771,
        0.06764569878578186,
        0.03842546045780182,
        0.03235316276550293,
        0.09056580811738968,
        0.12132100760936737
      ],
      [
        0.04042229801416397,
        0.006215693894773722,
        0.09607642143964767,
        0.008086939342319965,
        0.05020076408982277,
        -0.08406930416822433,
        -0.08715835213661194,
        -0.017626794055104256,
        0.011928225867450237,
        -0.089448481798172,
        0.034603700041770935,
        0.03550121933221817,
        -0.07967177778482437,
        0.005021722987294197,
        -0.05896080285310745,
        0.005339657887816429,
        -0.013340773060917854,
        -0.10018233209848404,
        -0.11269431561231613,
        -0.009000787511467934,
        -0.058779045939445496,
        -0.01010011788457632,
        -0.10744847357273102,
        -0.01972067356109619,
        0.1174025610089302,
        -0.051985710859298706,
        0.01025624293833971,
        -0.09350016713142395,
        0.018156377598643303,
        0.04256989806890488,
        0.02379981242120266,
        0.03278889134526253,
        0.04869086667895317,
        -0.0362938828766346,
        -0.13943056762218475,
        -0.039265118539333344,
        -0.09514237940311432,
        0.002592965494841337,
        -0.004374650306999683,
        -0.05338975042104721,
        0.06787314265966415,
        0.00593705615028739,
        -0.034134943038225174,
        0.062501460313797,
        0.019648851826786995,
        -0.003036034759134054,
        -0.10983869433403015,
        -0.006056563463062048,
        -0.11583226919174194,
        0.0030744378454983234,
        0.08035092800855637,
        0.11404959857463837,
        -0.002236847998574376,
        -0.009203735738992691,
        -0.05002616345882416,
        -0.050941966474056244,
        -0.1143394410610199,
        0.06433088332414627,
        0.09383928030729294,
        -0.1230919361114502,
        -0.004717353265732527,
        -0.009427202865481377,
        -0.003959632944315672,
        -0.04979769140481949,
        -0.09590749442577362,
        0.05649225041270256,
        0.12971827387809753,
        0.14833557605743408,
        0.11801602691411972,
        0.05262047424912453,
        -0.04339974373579025,
        -0.01862945780158043
      ],
      [
        0.07371918857097626,
        -0.1023014634847641,
        0.09387767314910889,
        -0.03377613425254822,
        0.01664910279214382,
        -0.027318578213453293,
        -0.06601081788539886,
        -0.051668476313352585,
        0.09184784442186356,
        0.07489340007305145,
        -0.02951223962008953,
        0.10780302435159683,
        -0.11514139175415039,
        0.010518712922930717,
        -0.00660080136731267,
        -0.1171710342168808,
        -0.10880567878484726,
        -0.041410110890865326,
        -0.08434028923511505,
        0.043224841356277466,
        -0.003870649728924036,
        -0.03841165453195572,
        -0.06616396456956863,
        -0.07492715120315552,
        0.07852496206760406,
        0.10866652429103851,
        -0.04484650120139122,
        0.13130123913288116,
        0.046891868114471436,
        0.12880221009254456,
        0.032201338559389114,
        0.08504478633403778,
        0.06365741789340973,
        -0.055733855813741684,
        0.06534350663423538,
        -0.07109003514051437,
        -0.09449515491724014,
        0.034509286284446716,
        -0.05458387732505798,
        0.02250925451517105,
        -0.1177954375743866,
        0.10141895711421967,
        -0.1079331561923027,
        0.01570461131632328,
        0.02209702879190445,
        -0.09281958639621735,
        0.08610254526138306,
        -0.005711967591196299,
        -0.0011713557178154588,
        0.01667039841413498,
        0.1525874137878418,
        0.010576389729976654,
        0.1436479091644287,
        -0.051014307886362076,
        0.14560094475746155,
        -0.03605663776397705,
        0.10658689588308334,
        0.07743524014949799,
        -0.053095754235982895,
        -0.030898693948984146,
        0.05577199533581734,
        0.09437799453735352,
        0.01617218367755413,
        0.08959771692752838,
        -0.06289982050657272,
        0.01568291150033474,
        0.1285807490348816,
        0.04718562588095665,
        0.006197511218488216,
        0.09131914377212524,
        -0.0016694929217919707,
        -0.00875171646475792
      ],
      [
        -0.11266732960939407,
        -0.0014784068334847689,
        -0.06308817118406296,
        0.09740686416625977,
        0.11009038984775543,
        0.03212336078286171,
        0.11827567964792252,
        0.010293971747159958,
        0.028256108984351158,
        0.1402493715286255,
        0.11878862231969833,
        -0.06271716207265854,
        -0.08300194144248962,
        0.04258907213807106,
        0.08177708834409714,
        0.02996860072016716,
        -0.09170373529195786,
        0.02530403807759285,
        -0.059782203286886215,
        -0.119471475481987,
        0.019255628809332848,
        -0.07469978928565979,
        -0.00210572755895555,
        -0.054854948073625565,
        -0.0008315666345879436,
        0.02973032183945179,
        -0.00789924431592226,
        0.09022000432014465,
        0.07670784741640091,
        -0.028414055705070496,
        -0.09519404917955399,
        0.02773146517574787,
        0.03406549617648125,
        0.006990234833210707,
        0.07921241223812103,
        -0.035628847777843475,
        0.018456798046827316,
        0.0877382680773735,
        -0.08615101128816605,
        -0.07070086151361465,
        0.04862915724515915,
        0.11469521373510361,
        0.048339515924453735,
        0.11482052505016327,
        0.07092776894569397,
        0.0348316915333271,
        0.03458961099386215,
        0.0008601120207458735,
        -0.05602477118372917,
        0.11171229183673859,
        -0.06959280371665955,
        -0.09924279898405075,
        -0.0036679934710264206,
        -0.003344183787703514,
        0.11401934921741486,
        0.01766917109489441,
        0.07019172608852386,
        -0.004949094261974096,
        0.12094703316688538,
        0.01733856275677681,
        -0.014094899408519268,
        0.08033578842878342,
        0.09717854857444763,
        -0.06815740466117859,
        0.05791163444519043,
        0.10670153051614761,
        0.0734429880976677,
        0.024585578590631485,
        -0.05504799261689186,
        -0.04045800492167473,
        -0.08203809708356857,
        0.030180837959051132
      ],
      [
        -0.07833324372768402,
        -0.042749691754579544,
        0.13020238280296326,
        -0.08394113183021545,
        0.09288371354341507,
        -0.06269194930791855,
        0.12924325466156006,
        0.03315531089901924,
        0.1019936054944992,
        0.06339459121227264,
        0.021051378920674324,
        -0.05483270063996315,
        0.08353736996650696,
        0.04268008470535278,
        0.07835797965526581,
        -0.07563991099596024,
        0.002843941794708371,
        0.051471929997205734,
        0.056096769869327545,
        0.04389592260122299,
        0.05314011499285698,
        -0.03744172304868698,
        0.0984640121459961,
        0.016158871352672577,
        -0.09207234531641006,
        -0.0018110168166458607,
        -0.05724016949534416,
        -0.046576015651226044,
        -0.06712942570447922,
        -0.04962243139743805,
        0.030462734401226044,
        0.07494676113128662,
        -0.03986738994717598,
        0.08632233738899231,
        -0.08856312930583954,
        -0.06621001660823822,
        -0.02419806458055973,
        0.014858990907669067,
        -0.04855816066265106,
        -0.005894022062420845,
        -0.12973032891750336,
        0.04916016757488251,
        0.10653000324964523,
        -0.1295226812362671,
        -0.0046370988711714745,
        0.10100320726633072,
        0.03501379117369652,
        -0.009275319054722786,
        0.14005109667778015,
        0.10707767307758331,
        0.05874902382493019,
        0.010863281786441803,
        0.01618330553174019,
        -0.005868822801858187,
        0.008328795433044434,
        0.020884815603494644,
        0.05713050812482834,
        -0.022336941212415695,
        0.10547863692045212,
        0.05554356053471565,
        -0.06064094603061676,
        -0.04248162731528282,
        0.12095365673303604,
        0.10276130586862564,
        -0.12939327955245972,
        0.06178644672036171,
        0.05560583621263504,
        -0.11862657219171524,
        0.06820032000541687,
        0.07353034615516663,
        -0.02288360893726349,
        0.15928687155246735
      ],
      [
        0.06521277129650116,
        0.009793738834559917,
        -0.08665138483047485,
        -0.025385001674294472,
        -0.11996310204267502,
        0.0007650689803995192,
        -0.022954706102609634,
        0.04677022993564606,
        -0.10821329802274704,
        -0.02553306333720684,
        0.08036542683839798,
        -0.12588976323604584,
        -0.10604354739189148,
        -0.09937606006860733,
        -0.12967370450496674,
        0.08901242166757584,
        -0.03128427267074585,
        0.004765179939568043,
        0.0015829162439331412,
        -0.03967432677745819,
        0.08504027873277664,
        0.05261027440428734,
        -0.12493238598108292,
        -0.08475670963525772,
        -0.04515643045306206,
        -0.01918204128742218,
        0.05514122173190117,
        -0.039442308247089386,
        -0.04259471222758293,
        0.0924183800816536,
        -0.0035433152224868536,
        0.050314586609601974,
        0.09043285250663757,
        -0.024348018690943718,
        0.10901686549186707,
        0.014081671833992004,
        -0.12482969462871552,
        0.016821490600705147,
        -0.11477150022983551,
        -0.04909249395132065,
        0.03178919479250908,
        0.010847140103578568,
        0.08624099940061569,
        -0.06659051030874252,
        -0.002661949722096324,
        0.044710442423820496,
        -0.10114844888448715,
        -0.09536917507648468,
        0.0038496723864227533,
        0.030479436740279198,
        -0.10428600758314133,
        -0.07675036042928696,
        0.06098540499806404,
        0.14525003731250763,
        0.10495957732200623,
        0.10586171597242355,
        0.06789681315422058,
        0.06047365441918373,
        0.1280737817287445,
        0.06034855172038078,
        0.1431853473186493,
        0.049459248781204224,
        -0.04347580671310425,
        0.08139678835868835,
        0.08712020516395569,
        0.025434719398617744,
        0.09285008162260056,
        -0.06341581046581268,
        0.1001296266913414,
        -0.010867519304156303,
        -0.028095098212361336,
        -0.06430335342884064
      ],
      [
        0.056639090180397034,
        -0.040037404745817184,
        0.0011028164299204946,
        0.040401656180620193,
        -0.04755307361483574,
        0.11912835389375687,
        -0.0817791000008583,
        -0.0626983717083931,
        0.03526851162314415,
        -0.07003047317266464,
        0.09488096833229065,
        -0.03216481953859329,
        -0.03741211071610451,
        0.05987975373864174,
        0.01246950589120388,
        -0.1235479861497879,
        -0.0246382188051939,
        -0.11821191757917404,
        -0.1365368366241455,
        -0.10327661782503128,
        -0.08786160498857498,
        0.05708712339401245,
        0.09714390337467194,
        0.07284896075725555,
        0.11092673242092133,
        0.10319951176643372,
        0.0850130245089531,
        0.057816002517938614,
        0.09502026438713074,
        0.09775575995445251,
        0.015124144963920116,
        0.11986342072486877,
        -0.05012543499469757,
        -0.008787328377366066,
        0.036508772522211075,
        0.030947234481573105,
        -0.061928026378154755,
        0.004918399266898632,
        -0.034344714134931564,
        -0.03145581856369972,
        0.060118719935417175,
        0.014917483553290367,
        -0.1046433299779892,
        0.09455101937055588,
        -0.12642379105091095,
        0.05192036181688309,
        -0.03249846026301384,
        -0.07915744185447693,
        0.06107858940958977,
        0.05356699600815773,
        0.03184271603822708,
        0.024612978100776672,
        0.14257824420928955,
        0.12076399475336075,
        0.15714961290359497,
        -0.02927384339272976,
        -0.02562643773853779,
        -0.049179237335920334,
        0.01584780588746071,
        0.15352120995521545,
        -0.07989184558391571,
        0.05067656934261322,
        0.10290484875440598,
        -0.015218613669276237,
        -0.09427585452795029,
        0.07725288718938828,
        -0.030596738681197166,
        0.02337884157896042,
        0.026994099840521812,
        -0.03167637810111046,
        0.02081258036196232,
        0.11660387367010117
      ],
      [
        0.048537809401750565,
        0.04409868270158768,
        0.002026607748121023,
        0.11086808890104294,
        0.1299135386943817,
        -0.10056115686893463,
        -0.10565756261348724,
        0.032575350254774094,
        0.057668425142765045,
        -0.09377888590097427,
        -0.09392305463552475,
        0.07750189304351807,
        -0.06945157796144485,
        0.13106006383895874,
        -0.07548636198043823,
        0.06557032465934753,
        -0.04469391331076622,
        -0.033070288598537445,
        -0.006350095849484205,
        0.12873484194278717,
        -0.097471222281456,
        -0.015507889911532402,
        0.003686100011691451,
        -0.08339816331863403,
        0.03081420809030533,
        0.10452992469072342,
        -0.06802313774824142,
        0.03942003473639488,
        -1.35688460431993e-05,
        0.003127109492197633,
        -0.1085621789097786,
        -0.08776544779539108,
        0.07708277553319931,
        -0.10475464165210724,
        -0.015149837359786034,
        0.1152586042881012,
        -0.03949124738574028,
        -0.01647339202463627,
        0.11766450107097626,
        -0.050371330231428146,
        0.056221019476652145,
        -0.0006155372830107808,
        0.016709240153431892,
        -0.02825804427266121,
        0.11472823470830917,
        0.027600355446338654,
        -0.02491086907684803,
        0.059467557817697525,
        0.1424262523651123,
        -0.039550092071294785,
        0.006684876047074795,
        0.040625132620334625,
        -0.04150736704468727,
        0.14456400275230408,
        -0.05345231294631958,
        0.059178851544857025,
        0.06259425729513168,
        0.08761347085237503,
        0.06702688336372375,
        0.04852600023150444,
        0.039034802466630936,
        0.1494334191083908,
        0.08501224219799042,
        -0.07537359744310379,
        0.04975321143865585,
        0.12846358120441437,
        -0.04590502381324768,
        -0.058966584503650665,
        -0.047988466918468475,
        0.0649058073759079,
        0.0020120383705943823,
        0.1282065510749817
      ],
      [
        0.020742196589708328,
        0.12232669442892075,
        -0.02758805640041828,
        -0.04240066185593605,
        -0.09280550479888916,
        -0.10625723749399185,
        0.027445899322628975,
        -0.0024966676719486713,
        -0.015692560002207756,
        0.09617473185062408,
        0.061807531863451004,
        -0.11784666776657104,
        0.11034562438726425,
        0.08718038350343704,
        -0.12649111449718475,
        0.037916917353868484,
        -0.03117453306913376,
        0.11700509488582611,
        -0.017254140228033066,
        -0.04159943014383316,
        -0.0691053569316864,
        0.03606738895177841,
        -0.0984252318739891,
        -0.04912620037794113,
        -0.06834078580141068,
        0.04569197818636894,
        -0.03745131939649582,
        0.004825680050998926,
        0.022850215435028076,
        0.08492925763130188,
        -0.00427276361733675,
        -0.02644382044672966,
        -0.04761062189936638,
        0.12146811932325363,
        0.0685674250125885,
        -0.022615188732743263,
        0.0510614849627018,
        -0.042053017765283585,
        0.08508196473121643,
        -0.05396750569343567,
        0.022534560412168503,
        -0.07489954680204391,
        0.06986318528652191,
        0.034039657562971115,
        -0.051265086978673935,
        -0.07032102346420288,
        0.012420844286680222,
        0.09009668231010437,
        0.08523522317409515,
        0.10152377933263779,
        -0.05778282508254051,
        0.018867984414100647,
        -0.02216869406402111,
        0.0795690044760704,
        0.051521968096494675,
        -0.10086305439472198,
        0.03222368285059929,
        -0.10629398375749588,
        -0.030990397557616234,
        -0.028948215767741203,
        -0.02478223852813244,
        0.004456482362002134,
        0.060451921075582504,
        0.0733405202627182,
        -0.013939701952040195,
        -0.056446149945259094,
        0.06899534165859222,
        -0.1029859185218811,
        0.05973946303129196,
        0.09199097007513046,
        0.0454384945333004,
        0.03365161269903183
      ],
      [
        -0.00987472478300333,
        0.06620578467845917,
        -0.05653267726302147,
        0.015390393324196339,
        -0.10533511638641357,
        -0.10574012249708176,
        -0.033490139991045,
        -0.07744299620389938,
        0.07344377785921097,
        -0.018281418830156326,
        -0.1012401431798935,
        -0.07365144044160843,
        -0.043457042425870895,
        0.09451376646757126,
        -0.010821272619068623,
        0.09303106367588043,
        0.03634021803736687,
        0.024655746296048164,
        0.01299795601516962,
        -0.0030958179850131273,
        -0.023494258522987366,
        -0.010567177087068558,
        -0.04510737210512161,
        0.07656726241111755,
        0.06956042349338531,
        0.07575871050357819,
        -0.12753556668758392,
        0.07698991149663925,
        -0.061047427356243134,
        -0.0032688358332961798,
        0.049299437552690506,
        -0.07329632341861725,
        -0.13257065415382385,
        0.08833598345518112,
        0.11245866864919662,
        0.057290542870759964,
        -0.11335693299770355,
        -0.07197003066539764,
        -0.0027110418304800987,
        0.004028867930173874,
        0.1388799548149109,
        0.017604932188987732,
        0.05724339559674263,
        -0.03737053647637367,
        0.004299603868275881,
        0.07572895288467407,
        0.03204166516661644,
        0.08485312014818192,
        -0.10670546442270279,
        0.026370028033852577,
        0.014625655487179756,
        0.01772490330040455,
        0.037578947842121124,
        0.004117310978472233,
        0.0003028696228284389,
        -0.09409014135599136,
        -0.042503319680690765,
        -0.03664727509021759,
        -0.01232261210680008,
        0.1301034837961197,
        -0.05175806209445,
        0.11037024855613708,
        -0.028610413894057274,
        0.11085927486419678,
        0.12210196256637573,
        0.12235371023416519,
        -0.051694028079509735,
        0.13757769763469696,
        0.05318862944841385,
        0.16877472400665283,
        0.10419335961341858,
        0.08867796510457993
      ],
      [
        -0.019795062020421028,
        0.00702801113948226,
        -0.015496558509767056,
        -0.1440311223268509,
        -0.05861201882362366,
        -0.05649513751268387,
        -0.04019305855035782,
        -0.11100833117961884,
        0.07249520719051361,
        0.08099093288183212,
        0.09166831523180008,
        -0.13003242015838623,
        0.029346564784646034,
        -0.06402899324893951,
        0.0750882551074028,
        0.10902377218008041,
        0.026546116918325424,
        0.12819211184978485,
        -0.09094135463237762,
        0.06495164334774017,
        0.007252062670886517,
        0.06421690434217453,
        -0.08977646380662918,
        -0.1377909630537033,
        0.010444487445056438,
        0.06664290279150009,
        0.07152342796325684,
        -0.12106287479400635,
        0.024622788652777672,
        -0.148441880941391,
        -0.10901796072721481,
        -0.10246480256319046,
        0.055914655327796936,
        -0.1293988972902298,
        0.0668373852968216,
        0.02175087109208107,
        0.024551860988140106,
        0.05716188997030258,
        0.04551146551966667,
        0.026784811168909073,
        0.12600725889205933,
        0.04159006103873253,
        -0.05934561416506767,
        0.07033276557922363,
        -0.0406528115272522,
        -0.05976025015115738,
        0.10666566342115402,
        0.05646535009145737,
        0.0033112906385213137,
        0.09786970168352127,
        -0.006176027934998274,
        0.0759173035621643,
        0.09914205223321915,
        -0.017610399052500725,
        0.00831911712884903,
        -0.014322992414236069,
        0.014631754718720913,
        -0.11119020730257034,
        0.13866598904132843,
        0.11451763659715652,
        0.1290397197008133,
        0.12081971764564514,
        -0.031896430999040604,
        -0.04866084083914757,
        0.0944613516330719,
        0.15017250180244446,
        0.16446280479431152,
        0.06450368463993073,
        0.04477766901254654,
        -0.026991572231054306,
        0.037898577749729156,
        0.04598162695765495
      ],
      [
        -0.12220124900341034,
        0.04932514578104019,
        -0.045323826372623444,
        0.056472573429346085,
        0.08221039175987244,
        -0.011429709382355213,
        0.07962363958358765,
        -0.08424150198698044,
        0.0962342768907547,
        -0.02469683066010475,
        0.13681872189044952,
        -0.05320203676819801,
        0.08904468268156052,
        -0.051296982914209366,
        -0.039080627262592316,
        -0.11523665487766266,
        -0.10830674320459366,
        0.11501147598028183,
        -0.026414837688207626,
        -0.04120836406946182,
        0.014474212191998959,
        -0.1054757758975029,
        -0.05679735913872719,
        -0.036533888429403305,
        0.0676388069987297,
        -0.04277616739273071,
        0.11453384906053543,
        0.010705008171498775,
        0.012372071854770184,
        0.042682766914367676,
        0.07100275158882141,
        0.053294163197278976,
        0.12655964493751526,
        0.09176526963710785,
        0.1145949438214302,
        0.060664307326078415,
        0.08031605929136276,
        0.014644676819443703,
        0.051397211849689484,
        0.11340948194265366,
        -0.06918535381555557,
        -0.10786482691764832,
        0.005478437524288893,
        -0.001728074043057859,
        0.008889243938028812,
        -0.08316756039857864,
        -0.05716463178396225,
        0.01712951250374317,
        0.0454382561147213,
        0.05913965031504631,
        0.016393113881349564,
        -0.04092621058225632,
        -0.05884622782468796,
        0.16190023720264435,
        -0.07102407515048981,
        0.056340206414461136,
        -0.020504333078861237,
        -0.04989271238446236,
        0.10432709753513336,
        0.11977719515562057,
        0.003926807548850775,
        -0.012451442889869213,
        0.07257870584726334,
        -0.015958525240421295,
        0.022202791646122932,
        0.14553265273571014,
        -0.05090653523802757,
        -0.027601545676589012,
        0.04124222323298454,
        0.07737000286579132,
        0.11577891558408737,
        0.06189469248056412
      ],
      [
        0.06918083131313324,
        0.058924600481987,
        -0.05234140902757645,
        0.06509588658809662,
        0.1329096406698227,
        0.029681554064154625,
        0.11655455082654953,
        -0.10134230554103851,
        0.01167903933674097,
        0.10616425424814224,
        0.03631944581866264,
        0.05015111714601517,
        -0.07406385242938995,
        -0.08846426010131836,
        -0.09083787351846695,
        -0.006478306371718645,
        0.02266889624297619,
        -0.12661778926849365,
        0.035316262394189835,
        0.12117096036672592,
        0.12294775992631912,
        -0.05272252485156059,
        -0.04871558025479317,
        0.06647752970457077,
        -0.0187042485922575,
        0.09617508202791214,
        0.07810251414775848,
        0.004220456816256046,
        -0.014172632247209549,
        -0.07365724444389343,
        -0.012973885983228683,
        -0.06638987362384796,
        -0.011759503744542599,
        -0.043984416872262955,
        0.06079721078276634,
        -0.12821581959724426,
        0.037604834884405136,
        0.0237378291785717,
        -0.06446406990289688,
        -0.07898206263780594,
        0.10911696404218674,
        -0.08354160934686661,
        -0.015190240927040577,
        0.1240229532122612,
        -0.0149629395455122,
        -0.0004457916074898094,
        -0.03308577463030815,
        0.08851630240678787,
        0.0653211697936058,
        -0.022436924278736115,
        -0.06743144989013672,
        0.15738382935523987,
        0.05911315605044365,
        0.09101174026727676,
        0.016119759529829025,
        0.021013308316469193,
        -0.011782421730458736,
        0.009326973930001259,
        -0.10670020431280136,
        0.10774359852075577,
        -0.09193219244480133,
        0.004017436411231756,
        0.056215982884168625,
        0.05352660268545151,
        0.10326099395751953,
        0.02466057986021042,
        0.06758855283260345,
        -0.05618976801633835,
        0.08319063484668732,
        -0.015443381853401661,
        0.12820196151733398,
        0.07414251565933228
      ],
      [
        -0.02493746392428875,
        0.08454696089029312,
        0.10093168914318085,
        0.09602014720439911,
        -0.062345027923583984,
        0.06754247844219208,
        0.09703339636325836,
        0.03137371316552162,
        0.08583370596170425,
        0.001654040184803307,
        0.07946256548166275,
        -0.00904635526239872,
        0.007974965497851372,
        -0.0594637393951416,
        0.03615277260541916,
        -0.016224350780248642,
        0.045032862573862076,
        -0.011882616207003593,
        0.11245083808898926,
        -0.09397833049297333,
        0.044025007635354996,
        0.032849159091711044,
        -0.02157876454293728,
        0.002368530724197626,
        -0.014879947528243065,
        0.12613032758235931,
        -0.0514947846531868,
        -0.028215521946549416,
        0.11067137122154236,
        -0.007514121942222118,
        -0.01894192025065422,
        0.02007519267499447,
        0.021259477362036705,
        0.11523833125829697,
        0.12825444340705872,
        0.012101731263101101,
        -0.05053615942597389,
        0.13748010993003845,
        -0.07780787348747253,
        0.030318446457386017,
        0.10482003539800644,
        -0.0412173755466938,
        0.055532876402139664,
        0.08035565912723541,
        0.0651305690407753,
        0.038046833127737045,
        0.022343194112181664,
        -0.05735306441783905,
        -0.06779859960079193,
        0.05377186834812164,
        0.031425945460796356,
        -0.07611726224422455,
        0.0808524638414383,
        -0.02673034556210041,
        -0.03545670956373215,
        -0.03774136304855347,
        0.05535074323415756,
        0.07233195006847382,
        -0.01205978263169527,
        0.14976495504379272,
        0.10908737778663635,
        0.0002999069110956043,
        0.13598144054412842,
        0.09856999665498734,
        0.0714544728398323,
        -0.0670572817325592,
        -0.08350499719381332,
        0.045572806149721146,
        0.09504476189613342,
        -0.0935758650302887,
        -0.03596453741192818,
        0.09915392845869064
      ],
      [
        -0.06603194773197174,
        -0.11882204562425613,
        -0.034691520035266876,
        -0.1334107518196106,
        -0.05520949140191078,
        0.04255407303571701,
        0.07448287308216095,
        0.11383481323719025,
        0.09648916870355606,
        0.12526269257068634,
        -0.05282009020447731,
        -0.048557545989751816,
        0.013588925823569298,
        0.051103755831718445,
        0.13022339344024658,
        -0.06587652862071991,
        0.05998338758945465,
        0.00768737867474556,
        0.038444533944129944,
        0.040955398231744766,
        -0.023109201341867447,
        0.07326050847768784,
        0.04975377023220062,
        0.03084847331047058,
        -0.036174725741147995,
        0.016669785603880882,
        0.020860373973846436,
        -0.08258850872516632,
        -0.0938124805688858,
        -0.07609666883945465,
        0.06495420634746552,
        -0.07471030950546265,
        -0.02393520064651966,
        0.12245403230190277,
        0.0894116759300232,
        0.031614966690540314,
        0.030794497579336166,
        0.12594866752624512,
        0.026738697662949562,
        -0.01706935465335846,
        0.06264491379261017,
        -0.022479170933365822,
        0.052015189081430435,
        0.03755446895956993,
        -0.1038813665509224,
        -0.053723230957984924,
        -0.04536832869052887,
        -0.14137132465839386,
        -0.04665658250451088,
        -0.016821587458252907,
        0.02957005798816681,
        0.08508533239364624,
        -0.0895175188779831,
        0.08589304983615875,
        -0.06848486512899399,
        0.04054960235953331,
        0.08005820214748383,
        0.060020629316568375,
        0.14729346334934235,
        0.13217711448669434,
        0.07107340544462204,
        -0.01693752594292164,
        -0.06984490901231766,
        -0.04585319384932518,
        0.14084245264530182,
        0.08189889788627625,
        0.03730272874236107,
        -0.07372437417507172,
        0.07481503486633301,
        -0.006714700721204281,
        0.10242550075054169,
        -0.08645027875900269
      ],
      [
        -0.036560021340847015,
        0.06879761815071106,
        -0.033316757529973984,
        -0.08762677013874054,
        -0.05322713404893875,
        -0.0871313214302063,
        -0.10471298545598984,
        0.13848814368247986,
        -0.0822715163230896,
        0.11617083847522736,
        -0.03984621539711952,
        0.10663004219532013,
        -0.0413876436650753,
        -0.055932771414518356,
        0.08421612530946732,
        -0.13966377079486847,
        -0.019101325422525406,
        -0.003066625213250518,
        -3.699734224937856e-05,
        0.007260227110236883,
        -0.09496363252401352,
        0.07208690047264099,
        0.04386259242892265,
        0.05267409607768059,
        0.05919887498021126,
        -0.1079687848687172,
        -0.09047602117061615,
        -0.10619773715734482,
        0.09794685244560242,
        -0.10184028744697571,
        0.05480130389332771,
        0.026894258335232735,
        -0.08800284564495087,
        0.12809675931930542,
        0.10567045956850052,
        -0.03505532443523407,
        -0.03292572498321533,
        0.1129034087061882,
        -0.01527327112853527,
        0.00997733324766159,
        -0.05072590708732605,
        0.023683391511440277,
        0.06535741686820984,
        -0.06667038053274155,
        -0.13901817798614502,
        -0.06005334109067917,
        0.06460127234458923,
        -0.008126803673803806,
        0.07988791912794113,
        -0.08806044608354568,
        0.05759292468428612,
        0.1206420436501503,
        -0.05154471844434738,
        0.13370276987552643,
        0.1337648332118988,
        -0.04477326199412346,
        -0.06506695598363876,
        0.13701389729976654,
        0.05162789300084114,
        0.08429523557424545,
        0.024403845891356468,
        0.1234896257519722,
        0.09535644948482513,
        0.012334921397268772,
        0.029225964099168777,
        -0.021870708093047142,
        0.03825053200125694,
        -0.06984996050596237,
        0.01644873060286045,
        -0.07340263575315475,
        0.01861029490828514,
        0.013630730099976063
      ],
      [
        0.05133073031902313,
        0.04436277970671654,
        -0.009743176400661469,
        -0.027086367830634117,
        -0.02687516063451767,
        -0.02559085190296173,
        -0.08195105940103531,
        -0.0033835165668278933,
        -0.040785957127809525,
        -0.05732263997197151,
        -0.06688949465751648,
        -0.02544557675719261,
        0.09533080458641052,
        -0.07960239052772522,
        -0.08520916104316711,
        -0.00859111174941063,
        0.057073868811130524,
        0.05345155671238899,
        -0.006555680185556412,
        0.114753358066082,
        0.12367800623178482,
        -0.016778383404016495,
        0.122318334877491,
        -0.03475600481033325,
        0.10187134891748428,
        0.11159072071313858,
        -0.10826850682497025,
        -0.0493631586432457,
        0.005360343027859926,
        -0.05829339846968651,
        -0.011048303917050362,
        0.0004750656080432236,
        -0.07023617625236511,
