{
  "model_architecture": {
    "input_size": 72,
    "hidden_size": 64,
    "output_size": 24,
    "num_layers": 1
  },
  "parameters": {
    "lstm.weight_ih_l0": [
      [
        0.17854058742523193,
        -0.016456635668873787,
        0.15603353083133698,
        0.1970323771238327,
        0.18801093101501465,
        0.19769489765167236,
        0.10044780373573303,
        0.0006835745880380273,
        0.050602614879608154,
        0.18291990458965302,
        0.11810189485549927,
        0.1017640084028244,
        0.019092390313744545,
        -0.027165764942765236,
        -0.03348934277892113,
        0.08996403962373734,
        0.03518013656139374,
        -0.01802472025156021,
        -0.025987010449171066,
        0.12136111408472061,
        0.09117072820663452,
        0.09120679646730423,
        -0.03830927610397339,
        -0.05191587284207344,
        0.0978623479604721,
        -0.014908473007380962,
        0.1629384458065033,
        0.1379103809595108,
        0.008763613179326057,
        0.14900057017803192,
        0.06897810846567154,
        0.16321240365505219,
        0.015614235773682594,
        0.08411379903554916,
        0.12957358360290527,
        0.05192951485514641,
        0.09157197177410126,
        0.16398724913597107,
        0.07705472409725189,
        0.06837987899780273,
        0.09152600169181824,
        0.02566617541015148,
        0.06809692829847336,
        0.06724833697080612,
        -0.02111874893307686,
        -0.052414849400520325,
        -0.028728291392326355,
        0.04484753683209419,
        0.0011474181665107608,
        -0.022685151547193527,
        0.07113382965326309,
        0.04839199036359787,
        -0.014141532592475414,
        -0.05178815498948097,
        0.06745118647813797,
        0.007297002710402012,
        -0.021829890087246895,
        -0.06245722994208336,
        0.13254030048847198,
        -0.0234750434756279,
        0.020582064986228943,
        0.14692087471485138,
        -0.01073423121124506,
        0.09705886989831924,
        0.10352946817874908,
        -0.020258765667676926,
        -0.04368988424539566,
        0.04832163080573082,
        0.07298315316438675,
        0.03855987638235092,
        0.07923019677400589,
        0.20004504919052124
      ],
      [
        0.05877083167433739,
        0.10978134721517563,
        0.11786872148513794,
        0.14947134256362915,
        0.1531311720609665,
        -0.03743646293878555,
        0.08558978885412216,
        -0.02190924435853958,
        0.08216975629329681,
        0.07959761470556259,
        -0.102964386343956,
        -0.12827862799167633,
        -0.09684939682483673,
        -0.06891518831253052,
        -0.0970984697341919,
        0.07368824630975723,
        0.04472357779741287,
        0.0006459050928242505,
        -0.020969806239008904,
        -0.09718312323093414,
        -0.017239930108189583,
        -0.07092450559139252,
        0.0749640166759491,
        -0.04339089244604111,
        -0.07195478677749634,
        0.0775078684091568,
        -0.07216029614210129,
        -0.012017867527902126,
        -0.08237764984369278,
        -0.004523850046098232,
        -0.11499910056591034,
        -0.12178751081228256,
        -0.05927526578307152,
        0.02050398290157318,
        -0.022792402654886246,
        0.057107772678136826,
        0.08536989241838455,
        -0.038034241646528244,
        -0.12536536157131195,
        0.0629691556096077,
        0.08343226462602615,
        0.046500686556100845,
        0.0288078710436821,
        -0.11016799509525299,
        -0.09877679497003555,
        -0.02740108035504818,
        -0.03087582252919674,
        -0.057401981204748154,
        -0.04084682837128639,
        0.08567976951599121,
        0.07345983386039734,
        0.14828601479530334,
        0.01658002659678459,
        0.02836591936647892,
        0.021658174693584442,
        -0.007774068508297205,
        0.0913940817117691,
        -0.08876974880695343,
        -0.12090987712144852,
        0.08871357887983322,
        0.04225049540400505,
        -0.12662412226200104,
        -0.06353320181369781,
        0.10457505285739899,
        0.0673169270157814,
        0.05060932785272598,
        0.14460013806819916,
        -0.009281718172132969,
        0.022251280024647713,
        0.11465353518724442,
        0.024125857278704643,
        0.1844796985387802
      ],
      [
        -0.10778258740901947,
        -0.051888760179281235,
        -0.003930734004825354,
        0.020686807110905647,
        -0.05601274594664574,
        0.09947725385427475,
        0.05920146405696869,
        0.11009683459997177,
        -0.019531121477484703,
        0.0003300395328551531,
        0.020891986787319183,
        -0.03884430229663849,
        0.0405724011361599,
        0.03129979968070984,
        -0.006148665677756071,
        0.07004492729902267,
        0.11587070673704147,
        0.020698172971606255,
        0.012766956351697445,
        0.089703269302845,
        0.0031776076648384333,
        0.0421934612095356,
        -0.10370472818613052,
        -0.03565606102347374,
        -0.047367680817842484,
        0.05592833459377289,
        -0.07179052382707596,
        0.07132042199373245,
        0.12251348793506622,
        0.1190643310546875,
        0.10383199900388718,
        -0.03406854718923569,
        -0.11117739230394363,
        -0.07586345076560974,
        0.11712247878313065,
        -0.09993618726730347,
        0.10857107490301132,
        0.011042851023375988,
        0.048382725566625595,
        -0.007168302312493324,
        0.09993031620979309,
        0.0579114630818367,
        -0.008909410797059536,
        0.008866571821272373,
        0.0958857461810112,
        0.038067836314439774,
        0.012392996810376644,
        0.04234907031059265,
        0.13920313119888306,
        0.08426474034786224,
        -0.016284216195344925,
        0.08435697853565216,
        0.057830046862363815,
        -0.023509591817855835,
        -0.012014664709568024,
        0.0282023586332798,
        0.018921999260783195,
        -0.01693890057504177,
        -0.09972633421421051,
        -0.05211140215396881,
        -0.01475379429757595,
        0.05305793881416321,
        0.07894676923751831,
        -0.06126851588487625,
        0.043703772127628326,
        0.050115492194890976,
        -0.008255836553871632,
        0.08146844804286957,
        0.13501501083374023,
        0.1520734280347824,
        0.04064076393842697,
        0.14539790153503418
      ],
      [
        -0.10287119448184967,
        -0.10872889310121536,
        0.0683601126074791,
        -0.06490390747785568,
        -0.10106085985898972,
        0.042892005294561386,
        -0.10421056300401688,
        0.05970097705721855,
        -0.045624565333127975,
        -0.10538279265165329,
        0.04892813041806221,
        0.11198361217975616,
        0.03559041768312454,
        -0.04427948221564293,
        0.09538023173809052,
        -0.0015569129027426243,
        -0.07383691519498825,
        0.07228254526853561,
        0.04320461302995682,
        0.028711549937725067,
        0.001560472883284092,
        -0.06523433327674866,
        0.12126897275447845,
        0.006955859716981649,
        -0.10586254298686981,
        0.12117288261651993,
        0.08454957604408264,
        0.11641938984394073,
        0.05332466587424278,
        -0.10494197905063629,
        0.058501292020082474,
        0.02711803838610649,
        0.010212979279458523,
        0.10005611926317215,
        0.0646052435040474,
        0.01311819814145565,
        0.08452171832323074,
        0.053340472280979156,
        -0.04104810953140259,
        0.11435297876596451,
        0.13439056277275085,
        0.11308847367763519,
        0.13190537691116333,
        0.14980724453926086,
        0.12341348826885223,
        -0.09534844756126404,
        -0.08931352943181992,
        -0.040502432733774185,
        0.02662704512476921,
        0.06619952619075775,
        -0.08987995237112045,
        -0.058332327753305435,
        0.01049038302153349,
        0.038857102394104004,
        0.014296072535216808,
        0.07099919021129608,
        -0.10081563889980316,
        -0.12665390968322754,
        0.07222625613212585,
        0.000942481157835573,
        0.014453000389039516,
        -0.06661275029182434,
        -0.05047858878970146,
        0.12916536629199982,
        -0.00765816168859601,
        0.10238310694694519,
        -0.021709498018026352,
        0.0023697027936577797,
        -0.0972554162144661,
        0.06239176541566849,
        -0.04268689081072807,
        -0.053485121577978134
      ],
      [
        0.01487276703119278,
        0.0688389390707016,
        -0.0387260839343071,
        0.001142487395554781,
        0.0480940155684948,
        0.12105894088745117,
        -0.02729385904967785,
        0.04754358530044556,
        0.07680828869342804,
        -0.06383585184812546,
        0.07682774215936661,
        0.008967714384198189,
        0.07990974932909012,
        -0.10175853967666626,
        -0.08822669088840485,
        0.10059517621994019,
        -0.07580195367336273,
        0.02353082224726677,
        -0.019389785826206207,
        0.07788129150867462,
        -0.11677015572786331,
        -0.011259397491812706,
        -0.038841597735881805,
        0.03206317126750946,
        -0.02745271474123001,
        -0.02948472648859024,
        -0.08560522645711899,
        -0.005219010636210442,
        0.010165649466216564,
        0.11813735961914062,
        -0.09496992081403732,
        0.13515830039978027,
        0.10094737261533737,
        0.08145123720169067,
        0.13857786357402802,
        -0.0587337352335453,
        -0.06599437445402145,
        -0.014307856559753418,
        0.05529807507991791,
        -0.009385921992361546,
        0.09413789957761765,
        -0.00831135269254446,
        0.05473320558667183,
        0.08401225507259369,
        0.03595060482621193,
        -0.07259909808635712,
        -0.018369657918810844,
        -0.026148952543735504,
        -0.09854639321565628,
        0.0408397912979126,
        0.08960616588592529,
        0.10334832221269608,
        0.13403090834617615,
        0.006384215783327818,
        -0.08189539611339569,
        -0.07411269843578339,
        0.10546999424695969,
        0.137777641415596,
        -0.08416789025068283,
        -0.08530839532613754,
        0.10218925774097443,
        0.07593922317028046,
        0.1525646448135376,
        0.05768454074859619,
        -0.02925642766058445,
        0.021305328235030174,
        0.0380055233836174,
        0.05038704350590706,
        0.15113356709480286,
        -0.04664325714111328,
        0.06353176385164261,
        -0.04315885528922081
      ],
      [
        -0.05011150985956192,
        -0.027439337223768234,
        -0.05998126044869423,
        0.018020981922745705,
        0.041605908423662186,
        0.08659034967422485,
        0.06781971454620361,
        0.023498058319091797,
        0.03199487552046776,
        0.11890003830194473,
        -0.11106611043214798,
        -0.09595943987369537,
        -0.10092362761497498,
        0.09540241211652756,
        0.040268804877996445,
        -0.0557929128408432,
        0.07370731979608536,
        0.08257371932268143,
        -0.08202225714921951,
        -0.08374261111021042,
        0.07858559489250183,
        -0.06378006190061569,
        0.10989385098218918,
        0.0978609248995781,
        -0.04293008893728256,
        -0.01348444726318121,
        -0.08404118567705154,
        -0.04516182094812393,
        -0.07801788300275803,
        -0.029918929561972618,
        -0.10631924122571945,
        -0.05133643001317978,
        -0.005421886686235666,
        -0.06306353211402893,
        -0.0854833647608757,
        -0.06158679723739624,
        -0.10756614804267883,
        -0.09822490811347961,
        0.0610751174390316,
        -0.047420576214790344,
        -0.10651165246963501,
        -0.11434594541788101,
        -0.10114233940839767,
        -0.08084563165903091,
        -0.08556012064218521,
        0.09314613044261932,
        0.07164531201124191,
        0.024784483015537262,
        0.08718772232532501,
        -0.0893772765994072,
        0.010259849019348621,
        0.0833415612578392,
        0.12460707128047943,
        -0.051208071410655975,
        0.003962706308811903,
        0.04515383392572403,
        -0.0909651592373848,
        -0.028048334643244743,
        0.08293979614973068,
        0.0439106822013855,
        0.13193143904209137,
        0.13339737057685852,
        0.038188494741916656,
        0.0082990862429142,
        0.08401789516210556,
        -0.09679155051708221,
        -0.04168298467993736,
        -0.0012031876249238849,
        -0.0046071200631558895,
        0.06642138212919235,
        0.018542805686593056,
        -0.09235091507434845
      ],
      [
        0.020501460880041122,
        0.07847150415182114,
        -0.015558615326881409,
        0.06415385752916336,
        -0.04009522497653961,
        -0.016004225239157677,
        0.002953018294647336,
        -0.03661467134952545,
        0.014704368077218533,
        0.04681578278541565,
        0.04525833576917648,
        -0.050035879015922546,
        -0.009071468375623226,
        -0.14319609105587006,
        -0.09060686826705933,
        0.06610328704118729,
        -0.13884438574314117,
        -0.07869400829076767,
        -0.12570904195308685,
        -0.05134380981326103,
        -0.13540609180927277,
        0.04323958232998848,
        -0.12574650347232819,
        0.039341289550065994,
        0.05758713185787201,
        0.07484079897403717,
        -0.011722387745976448,
        -0.0505688339471817,
        -0.0809943675994873,
        -0.08547315001487732,
        0.0249564778059721,
        -0.005072396714240313,
        0.061700619757175446,
        0.11251791566610336,
        -0.04564661905169487,
        0.11045980453491211,
        0.03484243527054787,
        -0.06138896197080612,
        0.08917274326086044,
        0.03234908729791641,
        0.014160976745188236,
        -0.07431712001562119,
        -0.09941581636667252,
        0.030575258657336235,
        0.07363266497850418,
        -0.0009766998700797558,
        -0.14548040926456451,
        -0.10948903113603592,
        -0.04060523584485054,
        0.09116967022418976,
        -0.11922977864742279,
        -0.030371347442269325,
        -0.004766229540109634,
        0.049541957676410675,
        0.11086898297071457,
        -0.09962145984172821,
        -0.06420360505580902,
        -0.07890674471855164,
        0.051581304520368576,
        -0.08574606478214264,
        0.11059840768575668,
        0.10734564810991287,
        0.11159288883209229,
        -0.07490070164203644,
        0.09681674838066101,
        -0.1207471713423729,
        -0.10546106100082397,
        0.008519981987774372,
        -0.030172068625688553,
        -0.12474503368139267,
        0.0013814163394272327,
        -0.1307809203863144
      ],
      [
        0.08500001579523087,
        0.10883241891860962,
        -0.039322610944509506,
        -0.037320930510759354,
        -0.06539483368396759,
        -0.0026048466097563505,
        -0.02174740843474865,
        0.06701366603374481,
        0.025867944583296776,
        0.06714043766260147,
        -0.04670899733901024,
        0.08393373340368271,
        0.11665194481611252,
        -0.04745980724692345,
        0.11782620847225189,
        -0.0718216523528099,
        -0.08050676435232162,
        0.06198116019368172,
        -0.07415182888507843,
        -0.035163551568984985,
        0.07386212050914764,
        0.09243915230035782,
        -0.1321997195482254,
        0.07881540805101395,
        -0.028318721801042557,
        -0.1172730103135109,
        -0.04240352660417557,
        0.04030633345246315,
        0.062376271933317184,
        -0.019596241414546967,
        0.08645252883434296,
        0.0064426143653690815,
        0.0748298391699791,
        0.05235641449689865,
        0.09387652575969696,
        -0.1254900097846985,
        -0.09683527797460556,
        -0.007729771547019482,
        0.046096522361040115,
        -0.11543485522270203,
        -0.10649159550666809,
        -0.031350187957286835,
        -0.1285587102174759,
        0.04565233737230301,
        -0.04348986968398094,
        -0.1068342924118042,
        -0.06433388590812683,
        0.11519966274499893,
        -0.05872664228081703,
        -0.023570721969008446,
        0.009464734233915806,
        -0.034938354045152664,
        0.018453067168593407,
        -0.08504265546798706,
        0.03397824615240097,
        -0.1187622919678688,
        0.06434715539216995,
        -0.11518854647874832,
        -0.006157816853374243,
        -0.027932344004511833,
        -0.1275233030319214,
        -0.06174028664827347,
        0.056295353919267654,
        -0.10657326132059097,
        0.057305946946144104,
        0.10767406970262527,
        0.08252362906932831,
        -0.08910582214593887,
        -0.08712803572416306,
        -0.013069518841803074,
        0.0033492916263639927,
        0.03119051270186901
      ],
      [
        -0.10014123469591141,
        -0.10256083309650421,
        0.06052430719137192,
        -0.08785693347454071,
        -0.05761207267642021,
        0.05944731459021568,
        -0.014236721210181713,
        -0.07903577387332916,
        0.05409922078251839,
        -0.019453348591923714,
        -0.06354209780693054,
        0.08970106393098831,
        -0.007182303816080093,
        0.07479117065668106,
        0.08926668763160706,
        -0.03320947661995888,
        0.11925345659255981,
        0.0036200799513608217,
        0.03412729129195213,
        0.0051133111119270325,
        0.06683608889579773,
        0.11336278170347214,
        -0.06186457350850105,
        0.13458824157714844,
        0.08344893902540207,
        0.10114011913537979,
        -0.007037138566374779,
        -0.07617098093032837,
        -0.07470876723527908,
        0.13084164261817932,
        -0.04428109899163246,
        0.08354209363460541,
        0.13246037065982819,
        0.021791618317365646,
        0.06376534700393677,
        -0.1069532111287117,
        0.1153998151421547,
        0.0446644201874733,
        0.11758626252412796,
        0.043782178312540054,
        0.062188468873500824,
        0.062079183757305145,
        0.01891932263970375,
        -0.07469714432954788,
        -0.072509765625,
        -0.06339167058467865,
        -0.025223765522241592,
        -0.048465415835380554,
        0.01691218465566635,
        -0.0826331302523613,
        0.0027900917921215296,
        0.08258820325136185,
        -0.06396311521530151,
        0.0588374137878418,
        -0.06379438936710358,
        0.01151068415492773,
        -0.08394161611795425,
        0.009225260466337204,
        -0.0378454253077507,
        0.024966329336166382,
        0.03410033881664276,
        0.14904731512069702,
        -0.07745566219091415,
        0.15374688804149628,
        0.03215327113866806,
        -0.043563999235630035,
        -0.026834186166524887,
        0.09695731848478317,
        0.13173122704029083,
        0.043514762073755264,
        0.06087532639503479,
        0.04888402298092842
      ],
      [
        -0.07273895293474197,
        -0.06724130362272263,
        -0.00012908162898384035,
        -0.02400004118680954,
        -0.020777922123670578,
        0.0718691349029541,
        0.10198849439620972,
        0.12672674655914307,
        0.05606820806860924,
        -0.006875623483210802,
        0.040797293186187744,
        -0.012201857753098011,
        -0.05526859685778618,
        0.005192937329411507,
        -0.08260092884302139,
        -0.02994532510638237,
        0.024909164756536484,
        -0.1300499439239502,
        -0.11808113753795624,
        -0.06789889931678772,
        -0.08885636180639267,
        0.08582867681980133,
        0.047807976603507996,
        -0.11403805017471313,
        -0.1014004722237587,
        0.03211737796664238,
        -0.01291149202734232,
        -0.028847869485616684,
        -0.07855863124132156,
        -0.0941234603524208,
        0.0034289159812033176,
        -0.05462004989385605,
        0.033421650528907776,
        -0.02185216173529625,
        0.04074287414550781,
        0.03706725314259529,
        0.03149423375725746,
        -0.10244634002447128,
        0.12139406055212021,
        0.0427805557847023,
        0.006433301139622927,
        -0.07714033126831055,
        -0.0616571307182312,
        -0.08618143945932388,
        0.06304371356964111,
        0.011442731134593487,
        -0.04889799654483795,
        0.06817485392093658,
        -0.09091775864362717,
        -0.11185408383607864,
        -0.10845573246479034,
        0.09635978937149048,
        0.07775994390249252,
        0.13323330879211426,
        0.1381022036075592,
        0.05302663892507553,
        0.13542506098747253,
        0.06553833931684494,
        -0.05065110698342323,
        0.08845064789056778,
        -0.05247141793370247,
        -0.040693603456020355,
        0.003987420815974474,
        -0.03458007052540779,
        0.02842051349580288,
        0.046843137592077255,
        0.08324138820171356,
        -0.021053701639175415,
        0.027720225974917412,
        -0.05045286566019058,
        0.07832124829292297,
        0.0753021389245987
      ],
      [
        0.10359931737184525,
        0.16476456820964813,
        0.05050475150346756,
        -0.021959424018859863,
        -0.011446082033216953,
        0.06510613113641739,
        -0.05217842757701874,
        -0.002830029930919409,
        0.07175970077514648,
        0.055024296045303345,
        -0.07816909998655319,
        0.05827449634671211,
        0.08869321644306183,
        -0.06998544931411743,
        0.03406522795557976,
        0.09699497371912003,
        0.11544428765773773,
        0.07402091473340988,
        0.0876697301864624,
        -0.08728230744600296,
        -0.05495399981737137,
        0.08393415063619614,
        0.09240201860666275,
        0.042712707072496414,
        0.025849929079413414,
        -0.0522373802959919,
        0.009011775255203247,
        0.004121941514313221,
        0.12331181019544601,
        -0.0013039309997111559,
        -0.09740538150072098,
        0.04049728065729141,
        -0.0788746103644371,
        0.09479997307062149,
        -0.09538616240024567,
        -0.07060255855321884,
        -0.04784676060080528,
        -0.12140031158924103,
        -0.015361384488642216,
        -0.07324866205453873,
        0.03974427282810211,
        -0.05573496222496033,
        0.05526695027947426,
        -0.014418750070035458,
        0.000721016142051667,
        0.08526644110679626,
        0.1525481939315796,
        -0.05836274102330208,
        0.0193997360765934,
        0.16684117913246155,
        0.0168608445674181,
        0.15427707135677338,
        -0.04665419086813927,
        -0.03694814071059227,
        0.10994066298007965,
        -0.06354601681232452,
        -0.006102581974118948,
        0.08680321276187897,
        0.0840599313378334,
        0.0055200280621647835,
        -0.0803082063794136,
        0.10941967368125916,
        0.06248662248253822,
        0.017763204872608185,
        -0.07078198343515396,
        0.024688720703125,
        0.053485650569200516,
        0.14345604181289673,
        0.14034271240234375,
        0.11654921621084213,
        0.036633145064115524,
        -0.038523439317941666
      ],
      [
        0.12340466678142548,
        0.1523008495569229,
        0.1586827039718628,
        0.05019091069698334,
        0.15659211575984955,
        -0.02425392158329487,
        0.1275647133588791,
        0.014239750802516937,
        -0.026084329932928085,
        0.10914890468120575,
        -0.023598264902830124,
        0.14340214431285858,
        0.10412975400686264,
        0.17307007312774658,
        -0.0215276088565588,
        0.17598044872283936,
        0.011565674096345901,
        0.08298181742429733,
        0.023000642657279968,
        -0.04299302026629448,
        0.16501006484031677,
        0.043638378381729126,
        -0.021697383373975754,
        0.030277922749519348,
        0.16771358251571655,
        -0.028654374182224274,
        -0.027042128145694733,
        0.0964723601937294,
        0.16638346016407013,
        0.06296375393867493,
        -0.05197841674089432,
        0.14405816793441772,
        -0.050236500799655914,
        -0.07711407542228699,
        0.01753082498908043,
        -0.005356545560061932,
        0.027881033718585968,
        0.15059338510036469,
        0.02089502103626728,
        0.0530027337372303,
        0.06685187667608261,
        -0.010819115675985813,
        0.1459358036518097,
        0.1969594806432724,
        0.13964873552322388,
        -0.018262136727571487,
        -0.022073952481150627,
        0.06499586254358292,
        0.03405412659049034,
        0.12712976336479187,
        0.10602203011512756,
        0.15382806956768036,
        -0.02694152109324932,
        0.09068971127271652,
        0.0770062580704689,
        0.04875363036990166,
        0.04191061481833458,
        -0.02012733928859234,
        0.12412888556718826,
        0.02665942907333374,
        0.18540847301483154,
        0.18131765723228455,
        0.15696442127227783,
        -0.0397685244679451,
        0.17597812414169312,
        -0.009140991605818272,
        0.09144428372383118,
        0.07925476878881454,
        0.0476413294672966,
        -0.023366542533040047,
        0.11763828247785568,
        0.09529942274093628
      ],
      [
        0.06790211796760559,
        -0.10338346660137177,
        0.05784410238265991,
        0.06745419651269913,
        0.07774077355861664,
        0.09693593531847,
        0.08448689430952072,
        -0.06866521388292313,
        -0.04530047997832298,
        0.02310032956302166,
        -0.0021711091976612806,
        -0.10068970173597336,
        -0.01971765235066414,
        0.0845027044415474,
        0.12071645259857178,
        0.003683970309793949,
        0.09496338665485382,
        -0.0583525188267231,
        -0.10618957877159119,
        0.12277326732873917,
        -0.05222628265619278,
        0.05516718327999115,
        -0.06805679947137833,
        -0.005404043011367321,
        -0.0729614868760109,
        0.05063382163643837,
        0.04038993641734123,
        0.10783348232507706,
        0.07073543220758438,
        0.11622350662946701,
        -0.08516108244657516,
        0.061936333775520325,
        0.06330934166908264,
        -0.05192609503865242,
        0.10588638484477997,
        -0.05636683478951454,
        0.08258749544620514,
        0.1178448423743248,
        0.07691123336553574,
        0.10706804692745209,
        0.050881389528512955,
        0.0051271989941596985,
        0.13376325368881226,
        -0.0975363552570343,
        0.07425280660390854,
        0.1272113174200058,
        -0.09339471161365509,
        0.10497922450304031,
        -0.07214130461215973,
        0.048393119126558304,
        0.10358931869268417,
        -0.01696563884615898,
        0.11199024319648743,
        0.14852459728717804,
        0.13694706559181213,
        0.004275746177881956,
        0.13672953844070435,
        0.11817464232444763,
        0.1545434594154358,
        -0.06456765532493591,
        0.12808308005332947,
        -0.05758843943476677,
        -0.02087409980595112,
        -0.050230495631694794,
        -0.020898476243019104,
        0.1124139353632927,
        -0.047937553375959396,
        0.11752957850694656,
        -0.049926694482564926,
        0.08122492581605911,
        -0.042032044380903244,
        -0.05879005789756775
      ],
      [
        -0.04306782782077789,
        -0.06789730489253998,
        -0.013959752395749092,
        0.073338583111763,
        -0.07809864729642868,
        -0.10038404166698456,
        -0.05873239412903786,
        -0.031185681000351906,
        0.054921478033065796,
        -0.08997679501771927,
        -0.009808395057916641,
        0.07367285341024399,
        0.06587742269039154,
        0.022883718833327293,
        0.11362475156784058,
        -0.09833678603172302,
        0.11466480791568756,
        -0.011566386558115482,
        -0.0687645673751831,
        -0.08059071004390717,
        -0.0371362566947937,
        0.02151641808450222,
        -0.06205995753407478,
        0.10600598901510239,
        0.02479991316795349,
        0.021690484136343002,
        0.10555430501699448,
        -0.002454446628689766,
        0.07936684787273407,
        0.09542349725961685,
        -0.021358812227845192,
        -0.0072743757627904415,
        -0.03690226376056671,
        0.12284402549266815,
        -0.06641118228435516,
        0.0471092127263546,
        -0.11072295159101486,
        0.005729931406676769,
        0.04292895272374153,
        -0.0824589803814888,
        0.014302091673016548,
        -0.033884305506944656,
        -0.037689488381147385,
        0.13110394775867462,
        -0.0823357105255127,
        -0.019822606816887856,
        0.041072141379117966,
        0.07764255255460739,
        -0.0648069828748703,
        -0.005518003366887569,
        -0.05326119065284729,
        0.13001905381679535,
        0.11694931983947754,
        0.024206677451729774,
        0.08817919343709946,
        0.07187094539403915,
        0.005940707866102457,
        -0.04725341126322746,
        0.12320677191019058,
        0.0032845083624124527,
        -0.05714167281985283,
        0.020516224205493927,
        -0.024450775235891342,
        0.00455899816006422,
        -0.05070291832089424,
        0.023890048265457153,
        0.14894913136959076,
        -0.03255211561918259,
        -0.01744435913860798,
        -0.051176730543375015,
        0.10503100603818893,
        0.12559747695922852
      ],
      [
        -0.11493118852376938,
        0.02763105370104313,
        0.08426980674266815,
        -0.10682357102632523,
        -0.038981106132268906,
        -0.0332014225423336,
        -0.003046977799385786,
        -0.020945003256201744,
        0.007425381802022457,
        0.01959468610584736,
        -0.04391878470778465,
        0.10314788669347763,
        -0.053628936409950256,
        -0.1254439651966095,
        0.055014580488204956,
        0.07922108471393585,
        -0.01691865362226963,
        0.04422416538000107,
        -0.06174756959080696,
        0.017830107361078262,
        0.06772404909133911,
        0.048693787306547165,
        -0.02316153421998024,
        -0.026787620037794113,
        0.11323003470897675,
        0.09999113529920578,
        0.018536457791924477,
        -0.12118548899888992,
        -0.0969671756029129,
        0.014509184285998344,
        -0.0835229903459549,
        0.07746338844299316,
        -0.0626736581325531,
        -0.06209707260131836,
        -0.12878483533859253,
        0.0315186008810997,
        -0.1411338746547699,
        -0.039745815098285675,
        -0.11593114584684372,
        -0.07637306302785873,
        0.005531203001737595,
        0.01533404178917408,
        -0.06896182894706726,
        0.048684511333703995,
        -0.11216332018375397,
        0.051371343433856964,
        0.0366404727101326,
        -0.09186480194330215,
        0.005782291293144226,
        -0.07638310641050339,
        -0.085966095328331,
        0.06610415875911713,
        0.06579703837633133,
        0.0334276519715786,
        0.0806901752948761,
        0.05364428460597992,
        -0.0019925208762288094,
        0.04028741270303726,
        -0.11900147795677185,
        -0.10340305417776108,
        -0.011879031546413898,
        -0.11362192034721375,
        0.040800560265779495,
        0.0897320955991745,
        -0.07864899188280106,
        -0.012209834530949593,
        0.08948780596256256,
        -0.07971081882715225,
        -0.05034678429365158,
        -0.013862812891602516,
        0.04110204800963402,
        -0.06636334210634232
      ],
      [
        0.1107444316148758,
        -0.06019583344459534,
        0.038295190781354904,
        -0.10961949080228806,
        0.04981408268213272,
        0.12274270504713058,
        0.030609669163823128,
        -0.05633706972002983,
        -0.10881489515304565,
        -0.13926948606967926,
        0.004789300728589296,
        -0.025901788845658302,
        0.0321064330637455,
        -0.018177304416894913,
        0.02502845972776413,
        -0.019640017300844193,
        -0.125046968460083,
        -0.09864763915538788,
        -0.01988024078309536,
        -0.019972411915659904,
        -0.1032201275229454,
        0.13730886578559875,
        -0.04630975052714348,
        0.1182679533958435,
        0.13700808584690094,
        0.04051010310649872,
        -0.07054481655359268,
        -0.08179132640361786,
        -0.049700044095516205,
        -0.07429204136133194,
        0.09856989979743958,
        -0.11108402162790298,
        0.006006469950079918,
        -0.09014379233121872,
        0.08589772135019302,
        0.03493562340736389,
        0.008012359030544758,
        0.02921152114868164,
        0.07792191207408905,
        -0.02010452374815941,
        0.12655673921108246,
        0.011100185103714466,
        0.10638368129730225,
        -0.0605439692735672,
        -0.07943738996982574,
        0.03413848578929901,
        0.11821305006742477,
        -0.02885371260344982,
        0.08764360845088959,
        -0.029101502150297165,
        -0.01882633939385414,
        0.09391744434833527,
        -0.0763402134180069,
        -0.07509449869394302,
        0.11265411972999573,
        0.12666334211826324,
        -0.1013231948018074,
        0.002075733384117484,
        -0.051904939115047455,
        0.057719506323337555,
        -0.0880332812666893,
        -0.007823897525668144,
        0.004154740832746029,
        -0.06203927472233772,
        -0.031757816672325134,
        -0.051012102514505386,
        0.11531247943639755,
        0.00904805026948452,
        0.18676723539829254,
        0.10401343554258347,
        0.12405826151371002,
        0.03081117384135723
      ],
      [
        0.12175338715314865,
        -0.09126291424036026,
        -0.04697364196181297,
        0.056679852306842804,
        -0.020941318944096565,
        -0.0999872088432312,
        -0.08773379772901535,
        -0.05701057240366936,
        0.10559789836406708,
        0.0958036556839943,
        0.033737316727638245,
        0.02893863618373871,
        -0.05694691836833954,
        0.06036648899316788,
        -0.0466744489967823,
        0.049607422202825546,
        -0.021295873448252678,
        0.007584615610539913,
        -0.1059887632727623,
        -0.09570041298866272,
        0.10898543894290924,
        0.06789863109588623,
        0.12064041942358017,
        -0.0062948595732450485,
        -0.07098431885242462,
        0.07216958701610565,
        -0.05250151455402374,
        -0.049487773329019547,
        0.1157468780875206,
        -0.10397619754076004,
        0.013240352272987366,
        -0.05125250294804573,
        0.03859252482652664,
        -0.1014469638466835,
        -0.08067396283149719,
        0.0005025712307542562,
        -0.04050149768590927,
        0.05416807159781456,
        -0.04968904331326485,
        0.1272902935743332,
        -0.08216880261898041,
        -0.09565259516239166,
        -0.016347602009773254,
        -0.030359499156475067,
        0.13808920979499817,
        -0.08474473655223846,
        0.0658082664012909,
        -0.048885051161050797,
        -0.00016307369514834136,
        -0.026182126253843307,
        -0.05836132913827896,
        0.03527497127652168,
        0.07075884193181992,
        0.07138022035360336,
        0.07542087137699127,
        0.11742663383483887,
        -0.006673410534858704,
        -0.0461236871778965,
        0.1319553256034851,
        0.060631848871707916,
        -0.040685296058654785,
        -0.03323457017540932,
        0.0892934501171112,
        -0.023617468774318695,
        0.029915668070316315,
        0.12111185491085052,
        0.1452999711036682,
        0.064384825527668,
        0.14977075159549713,
        0.022551201283931732,
        0.0025897114537656307,
        0.050282370299100876
      ],
      [
        -0.09520891308784485,
        -0.08749648183584213,
        0.03510110825300217,
        -0.0081311771646142,
        0.014911589212715626,
        0.014472363516688347,
        0.04378272965550423,
        -0.0010583880357444286,
        -0.05421842634677887,
        -0.06786485761404037,
        0.10383559763431549,
        -0.09469981491565704,
        -0.046327777206897736,
        -0.06691482663154602,
        0.10614040493965149,
        -0.0863494724035263,
        0.08650876581668854,
        0.0763792097568512,
        0.023700134828686714,
        -0.03142206743359566,
        -0.01676967740058899,
        0.038980841636657715,
        0.0980587750673294,
        0.06508519500494003,
        -0.07247723639011383,
        0.10576576739549637,
        -0.06092245876789093,
        0.03730393946170807,
        0.003201453946530819,
        -0.009096017107367516,
        0.013094590045511723,
        0.05929573252797127,
        -0.08472415804862976,
        0.07605424523353577,
        0.09429141879081726,
        -0.07879260927438736,
        -0.0027587581425905228,
        -0.0020110865589231253,
        0.0246667992323637,
        -0.1306934356689453,
        -0.009321476332843304,
        -0.006982945371419191,
        -0.10825277119874954,
        -0.12298601865768433,
        -0.12371223419904709,
        -0.01575530879199505,
        0.13469089567661285,
        0.08369237184524536,
        0.03736419230699539,
        0.05474502593278885,
        -0.02874057926237583,
        0.10877019166946411,
        -0.009822706691920757,
        0.08804378658533096,
        0.0408371202647686,
        0.10845239460468292,
        -0.08339755237102509,
        0.02524738945066929,
        -0.10031520575284958,
        0.13020458817481995,
        0.06875023990869522,
        -0.10172327607870102,
        0.12213268131017685,
        0.0694618821144104,
        0.08760648965835571,
        -0.012826265767216682,
        0.06586407870054245,
        0.06962238252162933,
        0.11648011952638626,
        0.03414791822433472,
        0.07481979578733444,
        0.037372782826423645
      ],
      [
        -0.08542294800281525,
        0.08710593730211258,
        0.030994568020105362,
        -0.049145083874464035,
        0.08095803111791611,
        0.09507957845926285,
        -0.056191928684711456,
        -0.0015766728902235627,
        -0.05004994571208954,
        -0.012806314043700695,
        0.11270307749509811,
        0.07261092215776443,
        0.09110969305038452,
        0.05806397646665573,
        0.03049580752849579,
        -0.05559732764959335,
        -0.007312833797186613,
        -0.02681891620159149,
        0.13255575299263,
        0.10264082252979279,
        0.03493228927254677,
        0.08332677185535431,
        0.08476927876472473,
        -0.03301602974534035,
        -0.10437225550413132,
        0.09550338238477707,
        -0.11156484484672546,
        0.10235706716775894,
        0.1034185141324997,
        0.009287286549806595,
        -0.09355174750089645,
        0.006394417490810156,
        0.11396943032741547,
        0.019386766478419304,
        -0.007318275514990091,
        0.05627753958106041,
        -0.01121277455240488,
        0.0073673608712852,
        0.016310740262269974,
        0.1343858540058136,
        0.005318504758179188,
        -0.010288339108228683,
        0.1413102000951767,
        0.035735711455345154,
        0.10351194441318512,
        0.039934419095516205,
        0.05943964049220085,
        -0.11297385394573212,
        0.11777625232934952,
        0.06603170186281204,
        -2.794025931507349e-05,
        -0.012648460455238819,
        -0.05555438995361328,
        0.013105472549796104,
        -0.07069828361272812,
        -0.06037021800875664,
        0.13171961903572083,
        -0.03051128052175045,
        0.01747710444033146,
        0.012373299337923527,
        -0.06820814311504364,
        -0.027913440018892288,
        0.006989268586039543,
        0.060020774602890015,
        0.01246126089245081,
        0.07529474794864655,
        -0.060683779418468475,
        0.11043383181095123,
        0.12570969760417938,
        0.08336726576089859,
        -0.050740692764520645,
        -0.012933900579810143
      ],
      [
        0.19230999052524567,
        0.04074104502797127,
        0.01966450922191143,
        0.14196352660655975,
        0.15390905737876892,
        0.09002047032117844,
        0.059201814234256744,
        0.07860363274812698,
        0.06930017471313477,
        0.18172405660152435,
        0.18456976115703583,
        0.1888352632522583,
        0.07988519966602325,
        -0.024996507912874222,
        0.20137593150138855,
        0.035653043538331985,
        -0.02584092877805233,
        0.14204899966716766,
        0.19854359328746796,
        0.12077479809522629,
        -0.024455184116959572,
        0.032629478722810745,
        -0.012385547161102295,
        0.19745579361915588,
        0.004512112587690353,
        0.1408868283033371,
        0.149221733212471,
        0.08792741596698761,
        0.21026280522346497,
        0.10140524804592133,
        0.21367885172367096,
        0.18982310593128204,
        0.10838714987039566,
        0.13165561854839325,
        0.07658351957798004,
        -0.00598538713529706,
        0.09892173111438751,
        0.18701380491256714,
        0.08088184148073196,
        0.047209497541189194,
        -0.014129584655165672,
        0.08980464935302734,
        0.09697990119457245,
        0.15836060047149658,
        0.04149165004491806,
        0.07526172697544098,
        0.0904189944267273,
        0.213581845164299,
        0.15394790470600128,
        0.03995854780077934,
        0.0722319558262825,
        0.1299527883529663,
        0.07739180326461792,
        0.16595596075057983,
        0.14401648938655853,
        -0.021702026948332787,
        0.0369739830493927,
        0.018295293673872948,
        0.10387836396694183,
        0.0987030491232872,
        0.05143396183848381,
        0.12353958189487457,
        0.20124568045139313,
        0.04443120211362839,
        0.1224607601761818,
        0.07097533345222473,
        0.07216425985097885,
        0.15755672752857208,
        0.10118015855550766,
        0.12788693606853485,
        -0.008468066342175007,
        0.05889859050512314
      ],
      [
        -0.003615408670157194,
        0.07001545280218124,
        0.012233943678438663,
        0.041486382484436035,
        0.0477210208773613,
        -0.09993454813957214,
        0.11155097931623459,
        -0.10876268893480301,
        0.06153248995542526,
        0.03589574992656708,
        0.011339751072227955,
        -0.08648614585399628,
        0.03578619658946991,
        0.030014216899871826,
        0.03222531080245972,
        -0.018196025863289833,
        0.04511672258377075,
        0.042665593326091766,
        -0.08474196493625641,
        -0.002636312274262309,
        0.03101365454494953,
        0.041275955736637115,
        0.04035751894116402,
        0.02321840636432171,
        -0.0005966421449556947,
        -0.04610288515686989,
        -0.09326665103435516,
        -0.07338140904903412,
        0.11046656221151352,
        -0.09934283792972565,
        0.016976702958345413,
        0.1033700555562973,
        0.006276928819715977,
        -0.040931157767772675,
        0.00322073046118021,
        0.03572757914662361,
        0.1152368038892746,
        0.11154405027627945,
        -0.026540035381913185,
        -0.004745088517665863,
        -0.019524019211530685,
        0.10181877017021179,
        -0.0154079245403409,
        0.05089782178401947,
        -0.05149010196328163,
        -0.05507134273648262,
        -0.007904152385890484,
        -0.11128490418195724,
        0.08735796809196472,
        0.0892932116985321,
        -0.06409110128879547,
        -0.10750094801187515,
        -0.10576474666595459,
        -0.03700900077819824,
        -0.06618080288171768,
        -0.06319613754749298,
        0.1487080603837967,
        0.05551043152809143,
        0.11156357824802399,
        -0.02502247877418995,
        0.08605300635099411,
        0.03346069157123566,
        0.048673950135707855,
        0.06498683243989944,
        0.13274061679840088,
        0.02811354584991932,
        -0.049045365303754807,
        -0.05794548615813255,
        -0.06898078322410583,
        0.09497333317995071,
        0.11372233182191849,
        0.15384118258953094
      ],
      [
        0.132138192653656,
        0.15753598511219025,
        -0.023687412962317467,
        0.1630842536687851,
        0.002032773569226265,
        0.15480275452136993,
        0.004386532586067915,
        -0.04769377037882805,
        0.14319586753845215,
        -0.03199354559183121,
        0.06021827459335327,
        0.06242114305496216,
        -0.05967353656888008,
        0.08355031907558441,
        -0.006208866368979216,
        0.008411958813667297,
        0.01381176058202982,
        0.17621229588985443,
        -0.04000411555171013,
        0.12359371036291122,
        0.012875854969024658,
        0.1477668434381485,
        0.0015409081242978573,
        0.03200235590338707,
        -0.06546658277511597,
        0.05610888823866844,
        -0.02812848798930645,
        -0.04349153861403465,
        0.09095273911952972,
        -0.05030379444360733,
        0.12096769362688065,
        0.11936291307210922,
        0.01615149900317192,
        0.07904336601495743,
        -0.01007777452468872,
        0.12289928644895554,
        0.152013897895813,
        0.01809796877205372,
        -0.011146356351673603,
        0.07684274017810822,
        0.016019562259316444,
        0.07661641389131546,
        0.12551113963127136,
        -0.03807780146598816,
        0.03591786324977875,
        0.020026959478855133,
        0.14177097380161285,
        -0.07153130322694778,
        -0.027449898421764374,
        -0.05968203395605087,
        0.0006807812605984509,
        0.17265170812606812,
        0.17161856591701508,
        0.06484489142894745,
        -0.05596091225743294,
        0.15968862175941467,
        0.12796708941459656,
        -0.060540154576301575,
        0.019494669511914253,
        0.004061838611960411,
        0.03090476058423519,
        0.03251192346215248,
        0.15590474009513855,
        0.16035588085651398,
        -0.05808783695101738,
        0.08353711664676666,
        0.16296769678592682,
        0.024030199274420738,
        -0.04243113845586777,
        0.1757982224225998,
        -0.015826772898435593,
        0.1633143126964569
      ],
      [
        -0.07241453230381012,
        0.02620778977870941,
        0.01940063200891018,
        -0.10576901584863663,
        -0.027844421565532684,
        0.09831732511520386,
        -0.03884785994887352,
        0.019605670124292374,
        -0.07648328691720963,
        -0.1020396426320076,
        0.006985264364629984,
        -0.030835062265396118,
        -0.047689344733953476,
        0.09992702305316925,
        -0.09239089488983154,
        0.11907841265201569,
        0.1189369335770607,
        0.13608892261981964,
        0.06838829815387726,
        0.015629839152097702,
        0.038058195263147354,
        0.08104338496923447,
        0.03459060564637184,
        -0.05120905488729477,
        -0.0807221308350563,
        -0.11551692336797714,
        -0.09868314862251282,
        -0.0800388902425766,
        0.06898385286331177,
        0.06702250242233276,
        -0.018026266247034073,
        0.08307686448097229,
        -0.04531305655837059,
        -0.009060542099177837,
        -0.007764878682792187,
        0.019507016986608505,
        0.07648847252130508,
        -0.024035699665546417,
        0.10075422376394272,
        0.13229389488697052,
        -0.0690169557929039,
        -0.07739291340112686,
        0.05922670289874077,
        -0.054144442081451416,
        -0.003919205162674189,
        0.13274472951889038,
        -0.08052163571119308,
        0.06497133523225784,
        0.05517386272549629,
        -0.11850933730602264,
        0.042749859392642975,
        -0.04311089217662811,
        0.050022996962070465,
        -0.06399080902338028,
        -0.017512835562229156,
        0.06858427077531815,
        0.06548572331666946,
        -0.08740369975566864,
        -0.06647627800703049,
        -0.0014209616929292679,
        -0.045039646327495575,
        0.11130715161561966,
        0.007393033243715763,
        0.04453067108988762,
        0.10118384659290314,
        0.053432345390319824,
        0.09179843217134476,
        -0.0640205591917038,
        0.09504823386669159,
        -0.032907094806432724,
        0.0295834019780159,
        -0.0839923620223999
      ],
      [
        0.09916301816701889,
        -0.01244064886122942,
        0.13759644329547882,
        0.04247765988111496,
        -0.08135940134525299,
        0.04834230616688728,
        -0.0004193861677777022,
        -0.06959566473960876,
        0.0437246710062027,
        0.07906904071569443,
        -0.0369122251868248,
        0.10067551583051682,
        -0.12339328974485397,
        -0.05762363597750664,
        -0.021722611039876938,
        -0.12891601026058197,
        -0.0807955414056778,
        0.05889086797833443,
        -0.0961281880736351,
        0.059675585478544235,
        -0.042604196816682816,
        0.050321415066719055,
        0.11173811554908752,
        0.06769872456789017,
        0.045763276517391205,
        0.11348619312047958,
        -0.005092800594866276,
        0.05909208208322525,
        -0.08896884322166443,
        -0.02321937121450901,
        -0.08689168095588684,
        0.1339631974697113,
        -0.051144104450941086,
        -0.110322505235672,
        0.11162543296813965,
        0.11389262974262238,
        -0.012681635096669197,
        -0.004243649076670408,
        -0.016748089343309402,
        0.09781624376773834,
        0.04391050711274147,
        -0.07847647368907928,
        -0.04864522069692612,
        -0.10518161952495575,
        0.09265710413455963,
        0.10076108574867249,
        0.019379865378141403,
        -0.07066655904054642,
        0.12242131680250168,
        0.031230129301548004,
        -0.10098964720964432,
        0.03159443289041519,
        0.12977954745292664,
        0.12640589475631714,
        0.0690431222319603,
        0.0071981255896389484,
        0.116075299680233,
        0.14045125246047974,
        0.07056034356355667,
        0.12412723153829575,
        -0.08202645182609558,
        0.12148310244083405,
        -0.04275508224964142,
        0.016706576570868492,
        -0.05795177444815636,
        -0.02701311558485031,
        0.12938308715820312,
        -0.02878839150071144,
        0.06152847036719322,
        0.09987564384937286,
        -0.07623475044965744,
        0.13666068017482758
      ],
      [
        0.01876981370151043,
        0.06657741218805313,
        0.09496966004371643,
        0.04386398196220398,
        0.04745689034461975,
        0.07271939516067505,
        -0.012782127596437931,
        -0.13042402267456055,
        0.09692908823490143,
        -0.02234911546111107,
        0.043639086186885834,
        0.06529078632593155,
        0.015979629009962082,
        -0.0472373403608799,
        0.11830537766218185,
        0.06434495002031326,
        0.08442072570323944,
        0.044098034501075745,
        0.005518162157386541,
        -0.08338675647974014,
        -0.09921029210090637,
        0.07215677946805954,
        0.040771763771772385,
        -0.12532824277877808,
        0.061145421117544174,
        0.0960223451256752,
        -0.04402025789022446,
        -0.013257786631584167,
        -0.07899568974971771,
        -0.1219501867890358,
        0.08717089891433716,
        0.014888315461575985,
        -0.12145992368459702,
        0.08817244321107864,
        0.10394475609064102,
        -0.07309336960315704,
        0.05395500361919403,
        -0.06784137338399887,
        -0.06920857727527618,
        -0.09658367931842804,
        0.05264502763748169,
        -0.06964350491762161,
        -0.07760966569185257,
        -0.009536780416965485,
        -0.023125484585762024,
        -0.033013634383678436,
        -0.03672637417912483,
        0.0697365254163742,
        -0.08679895102977753,
        0.003903302364051342,
        0.013108596205711365,
        -0.09623163193464279,
        -0.05338570475578308,
        0.010494545102119446,
        -0.0872182548046112,
        -0.10569320619106293,
        -0.07563058286905289,
        0.03664194419980049,
        -0.08707261830568314,
        0.06659343093633652,
        0.04217077046632767,
        0.05724027752876282,
        0.1151721403002739,
        0.07071462273597717,
        -0.09829381108283997,
        0.007331814616918564,
        -0.024395329877734184,
        0.040944430977106094,
        0.0007224565488286316,
        -0.12112543731927872,
        -0.0035797725431621075,
        0.04714689776301384
      ],
      [
        -0.05546580255031586,
        0.04347977787256241,
        0.04529377445578575,
        -0.03262423723936081,
        -0.034417517483234406,
        -0.06516700983047485,
        0.04383009299635887,
        -0.04731158912181854,
        0.12959736585617065,
        0.024815911427140236,
        -0.052623480558395386,
        -0.03991963714361191,
        0.05663060024380684,
        0.15018485486507416,
        -0.04440276697278023,
        -0.06631471961736679,
        0.04363205283880234,
        0.08370514959096909,
        0.10151953995227814,
        -0.08155316859483719,
        0.031557075679302216,
        -0.01226371992379427,
        0.0779203400015831,
        -0.020495474338531494,
        0.07354775071144104,
        -0.09274505078792572,
        -0.06757427006959915,
        -0.09434842318296432,
        -0.0030220667831599712,
        -0.09223316609859467,
        0.00858225952833891,
        -0.10345609486103058,
        0.05426696687936783,
        -0.06127440929412842,
        0.05774093046784401,
        0.07156267017126083,
        0.030167603865265846,
        0.09939222782850266,
        -0.006865291390568018,
        -0.021672016009688377,
        0.037312380969524384,
        0.0165896937251091,
        -0.003889782354235649,
        0.046671684831380844,
        0.10148297250270844,
        0.15342217683792114,
        -0.029479840770363808,
        -0.0821768119931221,
        -0.11168888211250305,
        0.018241288140416145,
        -0.049054957926273346,
        -0.014469251967966557,
        0.04591614007949829,
        -0.04662471264600754,
        -0.02828209660947323,
        -0.09649291634559631,
        0.10344473272562027,
        0.019869346171617508,
        0.07789140194654465,
        0.01557309739291668,
        0.1318480521440506,
        0.11902830004692078,
        0.12254159897565842,
        0.18560127913951874,
        0.13445061445236206,
        -0.05667923018336296,
        0.1694423258304596,
        0.1579115390777588,
        -0.05411437898874283,
        -0.03762399032711983,
        0.08469194918870926,
        0.08327870070934296
      ],
      [
        -0.01413160003721714,
        0.06186779588460922,
        -0.005671805702149868,
        0.04936584085226059,
        0.06640098243951797,
        0.10178568214178085,
        -0.07476042956113815,
        0.10035092383623123,
        -0.06560102850198746,
        0.046422649174928665,
        0.059220876544713974,
        0.10193955898284912,
        -0.09484023600816727,
        -0.02657570131123066,
        0.10745371133089066,
        0.0007290440844371915,
        0.046612631529569626,
        0.004179973620921373,
        0.09610554575920105,
        -0.032508090138435364,
        -0.027202948927879333,
        0.00032765010837465525,
        -0.0401291660964489,
        -0.10395444184541702,
        -0.03038845583796501,
        0.0838889628648758,
        0.06485653668642044,
        -0.13795870542526245,
        -0.07955338060855865,
        -0.09333176165819168,
        -0.12629005312919617,
        -0.09367099404335022,
        -0.0950009822845459,
        -0.10487011075019836,
        -0.048850201070308685,
        0.07457134872674942,
        -0.04255109280347824,
        0.030497921630740166,
        0.05333798751235008,
        0.01958552934229374,
        -0.020969852805137634,
        0.11344793438911438,
        -0.009767926298081875,
        0.10607873648405075,
        0.10087709873914719,
        0.12131276726722717,
        -0.009322380647063255,
        0.031454652547836304,
        -0.08304071426391602,
        -0.044758036732673645,
        -0.0011557477992027998,
        -0.07410386949777603,
        -0.049977682530879974,
        0.07106155902147293,
        -0.10014203935861588,
        0.027717404067516327,
        0.07083477824926376,
        0.06215346232056618,
        -0.0909668356180191,
        -0.07154501229524612,
        0.15141627192497253,
        0.15691706538200378,
        0.12078016251325607,
        -0.022944144904613495,
        0.06719756126403809,
        0.12869468331336975,
        0.15602797269821167,
        0.0022960992064327,
        0.09007571637630463,
        0.15487822890281677,
        0.01406602282077074,
        -0.019855795428156853
      ],
      [
        -0.029692960903048515,
        0.00963001511991024,
        0.010177239775657654,
        -0.016863547265529633,
        0.10687300562858582,
        0.020467538386583328,
        0.056313320994377136,
        -0.12339053303003311,
        0.04998892545700073,
        -0.11736315488815308,
        -0.10451537370681763,
        -0.00933693628758192,
        -0.061474185436964035,
        -0.001669410732574761,
        -0.08047465234994888,
        -0.029833253473043442,
        -0.09374990314245224,
        -0.022802554070949554,
        0.007535609882324934,
        0.06885185092687607,
        0.10551051050424576,
        -0.11971230059862137,
        0.07874652743339539,
        0.09646093100309372,
        0.08850070089101791,
        0.07097820937633514,
        0.04933510348200798,
        -0.05982087552547455,
        0.07959188520908356,
        -0.13991177082061768,
        -0.03502015396952629,
        -0.024298401549458504,
        0.09047071635723114,
        0.06693268567323685,
        0.07466059923171997,
        -0.04571380838751793,
        0.14246121048927307,
        -0.0501461960375309,
        0.03653668612241745,
        0.06131264567375183,
        0.052249740809202194,
        -0.09501009434461594,
        0.03253059834241867,
        0.023264354094862938,
        -0.04448508471250534,
        0.06950236111879349,
        -0.006325218826532364,
        -0.03937261179089546,
        0.07191590219736099,
        0.029071452096104622,
        0.016386305913329124,
        0.09351610392332077,
        -0.040681514889001846,
        -0.016725614666938782,
        -0.09014104306697845,
        0.11037030071020126,
        0.08133771270513535,
        -0.013075647875666618,
        0.04514449089765549,
        0.15209992229938507,
        -0.011610504239797592,
        -0.07167107611894608,
        -0.050795067101716995,
        0.11484961211681366,
        0.11811614781618118,
        0.07549706846475601,
        0.024659372866153717,
        0.08231557905673981,
        0.02450373023748398,
        -0.04489515721797943,
        -0.0424041785299778,
        0.08189396560192108
      ],
      [
        0.07158602029085159,
        -0.12298275530338287,
        0.012167520821094513,
        -0.09814322739839554,
        0.03753251954913139,
        0.07143372297286987,
        -0.10189731419086456,
        0.04168490320444107,
        -0.014696209691464901,
        -0.10693031549453735,
        -0.10039956867694855,
        0.12345190346240997,
        -0.06384754180908203,
        -0.016670525074005127,
        0.022200141102075577,
        0.10699048638343811,
        0.12595979869365692,
        0.029142215847969055,
        0.03737586736679077,
        -0.019186921417713165,
        0.05353075638413429,
        -0.009179802611470222,
        0.048270083963871,
        0.07453141361474991,
        -0.06150723621249199,
        -0.10611433535814285,
        0.06623688340187073,
        -0.08458302170038223,
        0.071160227060318,
        -0.04924870282411575,
        -0.05749145895242691,
        -0.1112515777349472,
        0.04782075434923172,
        -0.08385591953992844,
        -0.0895419791340828,
        -0.0497962050139904,
        -0.04348716139793396,
        -0.0919828936457634,
        0.0812327116727829,
        -0.06560827046632767,
        0.048765916377305984,
        0.05915151908993721,
        0.12409720569849014,
        -0.06348686665296555,
        0.04932522401213646,
        -0.04210015386343002,
        0.0631418228149414,
        0.017041824758052826,
        0.0788814052939415,
        0.09354180097579956,
        -0.03134847432374954,
        -0.11360323429107666,
        0.11594868451356888,
        -0.036194633692502975,
        0.04178200289607048,
        -0.08477453887462616,
        -0.07664456218481064,
        0.11795630306005478,
        0.05304503068327904,
        -0.04398993030190468,
        0.14070846140384674,
        0.05119798704981804,
        0.15341494977474213,
        0.08813504874706268,
        -0.02320144511759281,
        0.06235078349709511,
        0.10905245691537857,
        0.09715229272842407,
        0.13162624835968018,
        0.12104541063308716,
        0.12324445694684982,
        0.12143588811159134
      ],
      [
        -0.09122087806463242,
        -0.05320580676198006,
        -0.05889859050512314,
        -0.08584803342819214,
        0.02736341953277588,
        0.001225415151566267,
        0.024250419810414314,
        -0.09484145045280457,
        -0.0008121988503262401,
        0.008741517551243305,
        0.08178963512182236,
        0.09570568799972534,
        0.03760651499032974,
        -0.06542444974184036,
        0.08948290348052979,
        -0.04661787673830986,
        0.10679406672716141,
        0.015459420159459114,
        -0.01991800032556057,
        -0.03480002284049988,
        -0.12949088215827942,
        -0.057710785418748856,
        -0.12156052887439728,
        0.057228751480579376,
        0.10522666573524475,
        -0.06514880806207657,
        0.01784578524529934,
        0.05504623055458069,
        -0.07474223524332047,
        -0.05794767290353775,
        0.051238395273685455,
        0.13238270580768585,
        -0.008893349207937717,
        0.0175333134829998,
        0.12377050518989563,
        0.09213388711214066,
        -0.04931626468896866,
        -0.07029563188552856,
        0.11871346831321716,
        0.0793997123837471,
        -0.09640086442232132,
        -0.09549839794635773,
        0.00531341228634119,
        0.014355574734508991,
        -0.00879422016441822,
        0.04188115522265434,
        0.013545493595302105,
        0.007588753942400217,
        0.11386255919933319,
        0.023244624957442284,
        -0.016282768920063972,
        0.13899268209934235,
        0.013472146354615688,
        0.12166726589202881,
        0.051730554550886154,
        0.16072116792201996,
        0.05706416815519333,
        0.09540415555238724,
        0.013535691425204277,
        0.14527249336242676,
        -0.06739752739667892,
        0.12544099986553192,
        0.09421660751104355,
        0.046677738428115845,
        -0.08806848526000977,
        -0.016214607283473015,
        0.057697542011737823,
        -0.027540458366274834,
        -0.05431823432445526,
        0.1285993456840515,
        -0.0764184221625328,
        0.14248409867286682
      ],
      [
        0.021104177460074425,
        0.13284145295619965,
        -0.05130411311984062,
        0.09824249148368835,
        0.021883707493543625,
        -0.07778798788785934,
        -0.0332099124789238,
        -0.05592317506670952,
        0.042790450155735016,
        0.027697285637259483,
        -0.07071986794471741,
        -0.1056164875626564,
        0.12253681570291519,
        0.007513523567467928,
        -0.0741012915968895,
        0.14751611649990082,
        -0.024669049307703972,
        -0.057704709470272064,
        0.03207170218229294,
        0.11874417960643768,
        0.035759348422288895,
        0.12926898896694183,
        0.020679112523794174,
        0.0848221555352211,
        -0.03744477778673172,
        0.048986490815877914,
        0.10618510842323303,
        -0.021762806922197342,
        0.14177900552749634,
        -0.034502580761909485,
        0.0995820090174675,
        0.027743274345993996,
        0.12781888246536255,
        0.0025788010098040104,
        -0.10770018398761749,
        0.13742730021476746,
        -0.08236248046159744,
        0.07229103147983551,
        0.04089731350541115,
        0.122263602912426,
        0.0037218525540083647,
        0.028774842619895935,
        -0.09063240140676498,
        -0.03342664614319801,
        0.07955389469861984,
        0.04280667379498482,
        0.016779208555817604,
        0.10974932461977005,
        -0.008780373260378838,
        0.04174133762717247,
        0.07862492650747299,
        -0.026383239775896072,
        -0.062499213963747025,
        -0.08473187685012817,
        0.1282760351896286,
        0.11252747476100922,
        0.06485726684331894,
        0.06956420838832855,
        -0.09380438923835754,
        -0.07942715287208557,
        0.099065862596035,
        0.00848124548792839,
        0.14300093054771423,
        0.003262852318584919,
        0.08172532916069031,
        0.004860869143158197,
        0.08471661806106567,
        0.11600217968225479,
        -0.015097789466381073,
        0.06539952754974365,
        0.07483042031526566,
        -0.023234890773892403
      ],
      [
        0.07522550970315933,
        -0.018338194116950035,
        0.0466870442032814,
        0.0359027162194252,
        0.1054815948009491,
        -0.12351647019386292,
        0.10294314473867416,
        0.07001000642776489,
        -0.022814270108938217,
        0.04500753432512283,
        -0.08519301563501358,
        0.010290677659213543,
        0.021930180490016937,
        -0.05731908604502678,
        0.1060773953795433,
        -0.02049417793750763,
        0.03416713699698448,
        -0.010678917169570923,
        0.12313837558031082,
        0.0843970775604248,
        -0.06462086737155914,
        0.1031407043337822,
        0.015570865012705326,
        -0.10602965205907822,
        0.07910041511058807,
        0.1079307347536087,
        -0.020872656255960464,
        -0.016148164868354797,
        0.0949954092502594,
        -0.12585951387882233,
        -0.07671890407800674,
        0.11007202416658401,
        0.07119403034448624,
        0.09145844727754593,
        0.02676680125296116,
        0.07582592219114304,
        0.07656144350767136,
        -0.11673835664987564,
        0.08006121963262558,
        -0.10025065392255783,
        0.09125302731990814,
        -0.08261924237012863,
        -0.10125891864299774,
        -0.04517639800906181,
        0.04318985342979431,
        0.14172445237636566,
        -0.10098343342542648,
        0.06427143514156342,
        0.11552238464355469,
        -0.08914396911859512,
        0.00902884267270565,
        0.09024933725595474,
        0.08873873949050903,
        -0.09667626023292542,
        0.038484446704387665,
        -0.12680713832378387,
        0.012584771029651165,
        -0.12697479128837585,
        -0.049821287393569946,
        -0.10746756196022034,
        -0.07831059396266937,
        -0.0759621113538742,
        0.016658570617437363,
        0.02689245156943798,
        -0.0038332894910126925,
        0.010376094840466976,
        -0.046173881739377975,
        -0.08304394781589508,
        0.12281950563192368,
        -0.0714481770992279,
        0.10471445322036743,
        0.010735996998846531
      ],
      [
        -0.12193285673856735,
        0.06740184128284454,
        0.09032358974218369,
        0.05406889319419861,
        -0.09029091894626617,
        0.04427088424563408,
        0.09169099479913712,
        -0.05770678073167801,
        -0.00869923084974289,
        -0.10948064923286438,
        -0.10750597715377808,
        0.042163461446762085,
        -0.10819454491138458,
        -0.023935964331030846,
        0.037379659712314606,
        -0.02678171545267105,
        -0.08094816654920578,
        -0.03718649223446846,
        -0.07727367430925369,
        -0.010751542635262012,
        -0.09583771228790283,
        -0.05813951417803764,
        -0.08590143173933029,
        0.04831541329622269,
        0.037731755524873734,
        0.014775258488953114,
        0.0027449557092040777,
        -0.13323993980884552,
        0.10081122815608978,
        -0.07679677754640579,
        -0.07024972140789032,
        0.06895473599433899,
        0.0704491138458252,
        0.0005877279909327626,
        -0.004477420821785927,
        -0.003905882826074958,
        0.04127248376607895,
        0.021031225100159645,
        0.10261356830596924,
        0.013571501709520817,
        -0.002106954576447606,
        0.09142034500837326,
        0.07828017324209213,
        -0.056447695940732956,
        -0.07502022385597229,
        -0.12778691947460175,
        0.018714185804128647,
        -0.000721396820154041,
        -0.04596375301480293,
        -0.011996028013527393,
        -0.10466009378433228,
        -0.06253478676080704,
        0.09266721457242966,
        0.05057423189282417,
        -0.028661547228693962,
        0.034259624779224396,
        0.015093307942152023,
        -0.045085035264492035,
        0.005249290727078915,
        -0.11211352050304413,
        0.05328866466879845,
        -0.07709208130836487,
        0.026327045634388924,
        0.02373678609728813,
        -0.09752394258975983,
        0.09759118407964706,
        0.04437484219670296,
        -0.13178837299346924,
        -0.03639626130461693,
        -0.11601586639881134,
        0.005994136910885572,
        -0.1308802366256714
      ],
      [
        -0.03735312819480896,
        0.08106600493192673,
        0.08751026540994644,
        0.09027502685785294,
        0.10382230579853058,
        -0.05804550275206566,
        -0.010178678669035435,
        0.01178843341767788,
        -0.020031504333019257,
        -0.024114558473229408,
        -0.011416997760534286,
        0.0633818730711937,
        0.121292844414711,
        -0.01634560339152813,
        0.01901993528008461,
        0.12011919170618057,
        0.08567208796739578,
        0.06318654865026474,
        -0.10980460047721863,
        0.08719606697559357,
        -0.014637221582233906,
        0.07318495213985443,
        0.03240339830517769,
        0.061114899814128876,
        0.0903392881155014,
        -0.006456281058490276,
        -0.030435670167207718,
        -0.0349699892103672,
        -0.10045162588357925,
        0.06834739446640015,
        0.08959450572729111,
        -0.005909652449190617,
        0.02503354102373123,
        -0.08508478850126266,
        0.09546861052513123,
        -0.026426125317811966,
        0.043115198612213135,
        0.0820930227637291,
        -0.07053137570619583,
        0.06946410238742828,
        -0.02170996367931366,
        -0.00017780732014216483,
        -0.09906811267137527,
        0.08665186911821365,
        -0.11185568571090698,
        0.08920828253030777,
        0.04624852165579796,
        -0.10469480603933334,
        0.09371306747198105,
        0.01698896661400795,
        -0.07423460483551025,
        0.004196647554636002,
        -0.005239590536803007,
        0.10800141096115112,
        0.0498381033539772,
        0.13444121181964874,
        0.11170530319213867,
        0.09274856746196747,
        -0.07956884056329727,
        -0.0010483624646440148,
        0.014703097753226757,
        -0.023536020889878273,
        -0.07601089775562286,
        -0.010992559604346752,
        -0.027159852907061577,
        0.0931224375963211,
        -0.011528709903359413,
        0.07051822543144226,
        0.09849924594163895,
        0.04698244109749794,
        -0.0021724607795476913,
        -0.029308771714568138
      ],
      [
        0.016734428703784943,
        0.131509929895401,
        -0.09527812153100967,
        0.11263249069452286,
        -0.018025442957878113,
        -0.10743801295757294,
        0.09316124767065048,
        0.06798002123832703,
        0.12793844938278198,
        -0.01820201799273491,
        -0.07043269276618958,
        -0.06509583443403244,
        -0.03377389535307884,
        -0.050072137266397476,
        0.13464605808258057,
        -0.029809219762682915,
        0.07140079885721207,
        0.058297231793403625,
        -0.08687582612037659,
        -0.08342796564102173,
        0.06980832666158676,
        -0.005174193065613508,
        0.029494930058717728,
        -0.08097928762435913,
        -0.056383710354566574,
        -0.07606271654367447,
        0.04410986229777336,
        0.06708654016256332,
        0.12406449764966965,
        -0.036109112203121185,
        -0.05152218043804169,
        -0.08890104293823242,
        0.11260457336902618,
        -0.09552539139986038,
        0.04497545585036278,
        -0.08987603336572647,
        0.0346599817276001,
        -0.07431894540786743,
        0.03995797410607338,
        -0.04492221772670746,
        0.08596664667129517,
        -0.07408088445663452,
        0.03848784789443016,
        -0.058290041983127594,
        0.07466758042573929,
        0.12835237383842468,
        0.005462781060487032,
        0.030054761096835136,
        0.14590425789356232,
        0.01544743962585926,
        0.13652554154396057,
        0.08097909390926361,
        -0.07042916119098663,
        -0.055470988154411316,
        0.008068997412919998,
        -0.04405936226248741,
        0.10521792620420456,
        0.06329380720853806,
        0.07904449105262756,
        0.10735444724559784,
        0.09295523911714554,
        0.04762813076376915,
        0.16475839912891388,
        -0.07818615436553955,
        0.02951115369796753,
        0.07748991996049881,
        -0.047453317791223526,
        -0.0731387734413147,
        -0.0019899550825357437,
        -0.01558815035969019,
        -0.00999983586370945,
        0.15301087498664856
      ],
      [
        0.029043404385447502,
        -0.08250903338193893,
        -0.027472663670778275,
        0.14227232336997986,
        -0.06114918366074562,
        0.13590408861637115,
        0.1004488617181778,
        0.0757545679807663,
        -0.008358877152204514,
        0.07771303504705429,
        -0.11897440999746323,
        -0.011027018539607525,
        0.06036725640296936,
        0.10343440622091293,
        0.013953164219856262,
        0.0025199351366609335,
        0.009898501448333263,
        0.040824782103300095,
        -0.05312120169401169,
        -0.06891726702451706,
        -0.10185013711452484,
        -0.08984039723873138,
        0.01578071527183056,
        -0.007862713187932968,
        0.0720740258693695,
        0.11284133046865463,
        -0.0728551596403122,
        0.042595189064741135,
        0.030474243685603142,
        0.0003421554574742913,
        0.03735572099685669,
        0.08526355028152466,
        0.10561304539442062,
        0.009311284869909286,
        0.059547025710344315,
        -0.10794432461261749,
        -0.11350654810667038,
        0.01999087445437908,
        0.020562760531902313,
        -0.11322065442800522,
        -0.039825454354286194,
        0.02653462067246437,
        -0.09125574678182602,
        0.11061252653598785,
        0.10417187958955765,
        0.09463845938444138,
        -0.032945625483989716,
        0.15666216611862183,
        -0.08062632381916046,
        -0.04723299667239189,
        0.04271269962191582,
        0.15202631056308746,
        0.15778852999210358,
        0.033538512885570526,
        -0.07580780982971191,
        -0.0752553939819336,
        0.022845959290862083,
        0.05144604295492172,
        0.10713762789964676,
        -0.02909787930548191,
        -0.009587065316736698,
        0.077677883207798,
        0.08585350215435028,
        -0.04392222687602043,
        -0.1120959147810936,
        -0.021086663007736206,
        0.1355687975883484,
        -0.02666827104985714,
        0.12063458561897278,
        -0.024265391752123833,
        -0.03281015530228615,
        0.051658377051353455
      ],
      [
        0.00412317318841815,
        -0.10942728072404861,
        -0.13369764387607574,
        0.027616601437330246,
        -0.0621710903942585,
        0.06997167319059372,
        -0.029576357454061508,
        -0.022272076457738876,
        -0.11967502534389496,
        -0.011969689279794693,
        0.10980356484651566,
        0.010316310450434685,
        0.11410988122224808,
        0.07643993943929672,
        -0.08471758663654327,
        0.10848710685968399,
        0.03407677263021469,
        0.06159830093383789,
        0.13753975927829742,
        -0.0344121940433979,
        0.01645154505968094,
        0.04971842095255852,
        0.048963095992803574,
        -0.03719930350780487,
        0.05367527902126312,
        0.07023008167743683,
        0.07228588312864304,
        0.0015190817648544908,
        -0.00025619418011046946,
        -0.003274004440754652,
        -0.03078489750623703,
        0.0236666239798069,
        0.09567948430776596,
        -0.05709385871887207,
        0.08944966644048691,
        0.022900085896253586,
        -0.04366019368171692,
        -0.0021352211479097605,
        0.020191146060824394,
        0.003531042253598571,
        0.04382997006177902,
        0.08692657202482224,
        0.10433027893304825,
        -0.07203444838523865,
        0.112686388194561,
        0.13204587996006012,
        0.028476230800151825,
        -0.11472896486520767,
        0.022171415388584137,
        -0.1296577900648117,
        -0.03842652961611748,
        -0.08599324524402618,
        -0.011860733851790428,
        -0.08374957740306854,
        -0.01078769750893116,
        -0.11858939379453659,
        -0.07205592095851898,
        0.10539884865283966,
        -0.05470820888876915,
        -0.002510384889319539,
        0.12668971717357635,
        0.17468690872192383,
        0.06504102796316147,
        0.06551618129014969,
        0.15631605684757233,
        -0.002636686433106661,
        0.1194496899843216,
        0.1665138602256775,
        -0.04424618184566498,
        0.03741040453314781,
        0.11854476481676102,
        0.025442970916628838
      ],
      [
        0.10203670710325241,
        0.0479055717587471,
        -0.057153161615133286,
        -0.09432342648506165,
        -0.130789652466774,
        -0.10866013914346695,
        -0.12133175134658813,
        -0.0016977547202259302,
        0.06574057787656784,
        -0.03781770169734955,
        -0.11032383888959885,
        -0.04071912169456482,
        0.06748088449239731,
        -0.057420551776885986,
        -0.09730660915374756,
        -0.12622030079364777,
        -0.08726184070110321,
        -0.12800508737564087,
        -0.05755797401070595,
        -0.08271665871143341,
        -0.05009061470627785,
        0.013471200130879879,
        -0.03298365697264671,
        -0.031092027202248573,
        -0.045939214527606964,
        0.04201449826359749,
        -0.07598666846752167,
        0.042444828897714615,
        -0.001122406916692853,
        -0.13058573007583618,
        0.06882507354021072,
        0.016646889969706535,
        -0.056698277592659,
        0.07989079505205154,
        -0.1002170667052269,
        0.04171037673950195,
        0.10211484134197235,
        -0.06706984341144562,
        -0.09475825726985931,
        -0.04058177396655083,
        -0.0592668354511261,
        0.08330663293600082,
        0.029866628348827362,
        -0.0034345423337072134,
        0.05966425687074661,
        -0.024957871064543724,
        0.02500067465007305,
        -0.1299319565296173,
        -0.06633765995502472,
        -0.08139468729496002,
        -0.047891490161418915,
        -0.1414828896522522,
        -0.019262490794062614,
        0.09678039699792862,
        0.052309464663267136,
        -0.1010880246758461,
        -0.06768764555454254,
        -0.010964695364236832,
        0.015205941163003445,
        0.061638835817575455,
        -0.0961800366640091,
        -0.05326461419463158,
        0.00209010555408895,
        -0.09887173771858215,
        -0.116745725274086,
        -0.08677471429109573,
        0.06682158261537552,
        0.10902167111635208,
        0.07674001902341843,
        0.10056030005216599,
        -0.03817877173423767,
        -0.03797842934727669
      ],
      [
        -0.0879819393157959,
        -0.10410390794277191,
        0.12293341755867004,
        0.10555033385753632,
        0.0010887712705880404,
        0.10784746706485748,
        -0.027550363913178444,
        -0.09315694123506546,
        0.1079394593834877,
        0.0211651474237442,
        -0.063878633081913,
        -0.03727121651172638,
        0.09455592185258865,
        -0.08314540982246399,
        0.15593431890010834,
        0.1262584775686264,
        0.10985420644283295,
        0.09973063319921494,
        -0.08953242748975754,
        0.13896888494491577,
        0.009404373355209827,
        0.03656059876084328,
        -0.03259576857089996,
        0.06881459802389145,
        -0.019499637186527252,
        0.1038922443985939,
        0.0616283193230629,
        0.07932855933904648,
        0.09130457043647766,
        0.10925645381212234,
        -0.06724110245704651,
        0.02406921796500683,
        0.11826709657907486,
        -0.10284516215324402,
        -0.015389753505587578,
        0.02966214157640934,
        -0.0637977123260498,
        0.09005594998598099,
        0.09169649332761765,
        -0.055469609797000885,
        0.053100068122148514,
        0.003777429461479187,
        0.0232912078499794,
        0.09504613280296326,
        -0.05086960271000862,
        0.1398642510175705,
        0.00018790816830005497,
        0.08820033818483353,
        0.015030316077172756,
        0.13107605278491974,
        -0.09071622043848038,
        -0.08475299179553986,
        -0.09856466948986053,
        0.09815285354852676,
        0.050634317100048065,
        -0.07758152484893799,
        -0.0730956569314003,
        -0.06289903819561005,
        -0.005781061016023159,
        0.12516896426677704,
        0.09437556564807892,
        0.16513393819332123,
        0.07841579616069794,
        0.15455566346645355,
        0.10253103077411652,
        0.11294452100992203,
        0.07689540088176727,
        0.1144099086523056,
        -0.07434524595737457,
        -0.04354024678468704,
        -0.06423201411962509,
        0.057035934180021286
      ],
      [
        0.016658758744597435,
        0.12713509798049927,
        -0.021437546238303185,
        0.00534250121563673,
        -0.02382766641676426,
        0.13545875251293182,
        0.05927761644124985,
        -0.015267232432961464,
        0.034147314727306366,
        0.08449659496545792,
        0.0714888945221901,
        -0.052788738161325455,
        -0.0751204714179039,
        -0.013871567323803902,
        0.08613076061010361,
        0.13275611400604248,
        0.05834736302495003,
        -0.009513936005532742,
        0.020506346598267555,
        -0.054492998868227005,
        0.004841552581638098,
        -0.09372976422309875,
        -0.05230863392353058,
        0.008589423261582851,
        -0.006604727823287249,
        -0.09177224338054657,
        -0.04210697486996651,
        0.029299048706889153,
        0.1467212736606598,
        0.013888850808143616,
        0.037686221301555634,
        -0.06702056527137756,
        0.001640551956370473,
        0.09749934077262878,
        0.04604131728410721,
        0.08151808381080627,
        0.11381348967552185,
        -0.09852124005556107,
        -0.05922309309244156,
        0.09351770579814911,
        0.04749755188822746,
        0.06579931825399399,
        -0.06316446512937546,
        0.10207546502351761,
        0.01320259552448988,
        -0.07118632644414902,
        0.030999714508652687,
        -0.06800353527069092,
        0.13619506359100342,
        -0.006445460952818394,
        -0.06755399703979492,
        0.0300571471452713,
        0.09220890700817108,
        0.04558407515287399,
        -0.005937233567237854,
        -0.005271296016871929,
        0.12391231954097748,
        0.14488618075847626,
        -0.0800909698009491,
        0.1460876166820526,
        -0.06829573214054108,
        0.08718156069517136,
        -0.030948689207434654,
        -0.0032641578000038862,
        0.1008310541510582,
        0.04024100676178932,
        0.11621834337711334,
        -0.02692059427499771,
        0.027647417038679123,
        0.12227900326251984,
        0.05943811684846878,
        0.0806887224316597
      ],
      [
        0.039664335548877716,
        -0.025568291544914246,
        -0.026325887069106102,
        -0.013235161080956459,
        0.10141689330339432,
        -0.06636001914739609,
        -0.01239990908652544,
        0.06734012067317963,
        0.03452448919415474,
        -0.07563306391239166,
        -0.012323952279984951,
        -0.07890719175338745,
        0.10108426958322525,
        0.005397225730121136,
        -0.036683157086372375,
        0.08425000309944153,
        -0.09908809512853622,
        0.017904294654726982,
        0.04217416048049927,
        -0.07001498341560364,
        -0.030780594795942307,
        -0.08454547077417374,
        -0.024769524112343788,
        -0.06155119463801384,
        -0.038310419768095016,
        0.009190451353788376,
        -0.06646090000867844,
        0.1268271803855896,
        0.03020639903843403,
        0.07782583683729172,
        -0.03130166977643967,
        0.008295671083033085,
        -0.10157918930053711,
        -0.019238535314798355,
        0.0456194132566452,
        0.044771067798137665,
        -0.021003371104598045,
        -0.08954703062772751,
        0.011816597543656826,
        -0.069793201982975,
        -0.011747624725103378,
        -0.09603463858366013,
        -0.09320829063653946,
        -0.06899180263280869,
        0.08305229991674423,
        0.010640706866979599,
        -0.10831968486309052,
        -0.0720752477645874,
        -0.09821392595767975,
        -0.09433423727750778,
        0.0644242987036705,
        -0.07169242203235626,
        0.14432744681835175,
        -0.022074831649661064,
        -0.04211878404021263,
        0.1337064951658249,
        0.04185551032423973,
        -0.07450295984745026,
        0.15222056210041046,
        0.05133027210831642,
        0.015836790204048157,
        0.005578276235610247,
        0.0344608835875988,
        0.08575161546468735,
        -0.05425035208463669,
        0.07077154517173767,
        -0.10697401314973831,
        -0.10420164465904236,
        -0.040415551513433456,
        -0.02605411969125271,
        -0.0337148942053318,
        -0.06273268908262253
      ],
      [
        -0.048851750791072845,
        -0.07820739597082138,
        0.032583191990852356,
        0.05645575374364853,
        -0.04043610766530037,
        -0.05828533321619034,
        0.004454911686480045,
        -0.0872952863574028,
        0.01017807237803936,
        0.0431310273706913,
        0.09066524356603622,
        0.06360694020986557,
        -0.042418405413627625,
        0.10138197988271713,
        -0.12407641112804413,
        -0.018112480640411377,
        0.10072668641805649,
        0.08924853056669235,
        -0.09397223591804504,
        0.03907128423452377,
        -0.027333635836839676,
        0.09611313045024872,
        0.08059016615152359,
        0.08739631623029709,
        0.12407282739877701,
        -0.07804668694734573,
        0.06234455853700638,
        0.13023905456066132,
        -0.027333267033100128,
        0.13307642936706543,
        0.04772215709090233,
        0.12372999638319016,
        0.07196174561977386,
        0.09066453576087952,
        -0.11649549007415771,
        -0.00044718803837895393,
        -0.00011208440992049873,
        -0.0636698305606842,
        -0.1338251680135727,
        0.10613394528627396,
        -0.11907893419265747,
        -0.004111492075026035,
        0.06278790533542633,
        0.12210393697023392,
        0.10471101850271225,
        -0.026034070178866386,
        0.15444953739643097,
        0.029590800404548645,
        0.056606631726026535,
        0.12431512773036957,
        -0.009993815794587135,
        0.1385686844587326,
        -0.03857249766588211,
        -0.05726683884859085,
        0.050414107739925385,
        -0.022532491013407707,
        -0.03998972102999687,
        0.07886907458305359,
        -0.015564920380711555,
        0.1145465299487114,
        0.030686575919389725,
        -0.022505497559905052,
        -0.08652680367231369,
        0.12779651582241058,
        -0.07476142793893814,
        0.063590407371521,
        0.0671786367893219,
        0.009448074735701084,
        -0.022345779463648796,
        -0.06074611470103264,
        0.16547170281410217,
        0.0005186486523598433
      ],
      [
        -0.0911000445485115,
        0.030354967340826988,
        0.0033131493255496025,
        0.06615191698074341,
        -0.029377441853284836,
        0.11237895488739014,
        -0.011000501923263073,
        -0.046421490609645844,
        0.06531693786382675,
        -0.03058047406375408,
        0.1343294382095337,
        0.1205986738204956,
        -0.052338119596242905,
        0.07612787932157516,
        -0.023769507184624672,
        0.07984498143196106,
        0.006533687002956867,
        0.015171464532613754,
        -0.013348191045224667,
        0.1402214914560318,
        0.007242480758577585,
        -0.027275418862700462,
        -0.021862449124455452,
        0.011163927614688873,
        0.03404330089688301,
        -0.12739324569702148,
        0.03637764975428581,
        -0.08237151801586151,
        -0.12030592560768127,
        -0.04111020267009735,
        0.08340492844581604,
        -0.03313382714986801,
        0.10845388472080231,
        0.11318009346723557,
        9.182794019579887e-05,
        -0.049087755382061005,
        0.054992757737636566,
        0.05981769412755966,
        0.11538799107074738,
        0.15461590886116028,
        -0.06373261660337448,
        -0.05656535550951958,
        0.15087389945983887,
        0.08401929587125778,
        0.030507121235132217,
        -0.03938297927379608,
        0.006404944695532322,
        0.06933065503835678,
        -0.04170951247215271,
        -0.12025029957294464,
        0.04559696465730667,
        -0.03246157988905907,
        -0.03546997159719467,
        -0.03502985090017319,
        0.133142352104187,
        -0.052983932197093964,
        0.10378815978765488,
        0.11063031107187271,
        -0.06184980645775795,
        -0.056516360491514206,
        0.17316102981567383,
        -0.01749252900481224,
        -0.02169599011540413,
        -0.01496641431003809,
        0.15417903661727905,
        0.16575834155082703,
        0.03848562017083168,
        0.07367848604917526,
        0.08971014618873596,
        0.08068912476301193,
        0.003677571192383766,
        0.003791963215917349
      ],
      [
        0.03192226216197014,
        0.11101730912923813,
        0.151967391371727,
        0.14980196952819824,
        0.006887916941195726,
        0.0019130198052152991,
        0.09110518544912338,
        0.0958312377333641,
        0.07015817612409592,
        0.07155683636665344,
        0.1321975141763687,
        0.14132513105869293,
        -0.0796053558588028,
        0.1414760947227478,
        0.11852940917015076,
        -0.08054196089506149,
        0.07766247540712357,
        -0.11521957814693451,
        0.1083366870880127,
        -0.04578472673892975,
        -0.05741659179329872,
        0.13069772720336914,
        0.014072583056986332,
        -0.02554674632847309,
        0.11324479430913925,
        0.018104679882526398,
        -0.04328149929642677,
        0.04430815577507019,
        0.05638500675559044,
        -0.023805968463420868,
        0.11720488965511322,
        -0.039925020188093185,
        0.054150741547346115,
        -6.540994945680723e-06,
        0.0011952389031648636,
        -0.0018229143461212516,
        -0.044043175876140594,
        -0.03440434858202934,
        0.04888264834880829,
        0.02052588388323784,
        0.09317745268344879,
        -0.03145400807261467,
        0.1045389324426651,
        0.026707325130701065,
        0.0011036843061447144,
        0.13125252723693848,
        0.09412866085767746,
        0.10461227595806122,
        0.07328445464372635,
        0.05153980478644371,
        -0.048135414719581604,
        0.1803940385580063,
        0.05695078521966934,
        0.055360835045576096,
        0.03248775750398636,
        0.10282518714666367,
        0.03478670492768288,
        0.15985064208507538,
        0.11909818649291992,
        0.02427448146045208,
        -0.028263524174690247,
        0.13665249943733215,
        -0.04924406483769417,
        0.07436718046665192,
        0.0012909036595374346,
        -0.006685554515570402,
        -0.022793496027588844,
        -0.03569505736231804,
        -0.009943929500877857,
        0.09320034831762314,
        0.013116632588207722,
        0.017680831253528595
      ],
      [
        0.07537366449832916,
        -0.03334742411971092,
        -0.021999411284923553,
        0.09770410507917404,
        0.07519181072711945,
        -0.062356218695640564,
        0.07237965613603592,
        0.03292284533381462,
        0.060839757323265076,
        -0.12542450428009033,
        0.10695692151784897,
        0.09103922545909882,
        -0.03372437134385109,
        -0.03035040572285652,
        0.07846178859472275,
        0.09132995456457138,
        -0.10336710512638092,
        0.07605744898319244,
        -0.02141273394227028,
        0.017050568014383316,
        0.08723994344472885,
        -0.07771050930023193,
        -0.0964512750506401,
        0.0573418103158474,
        0.009826318360865116,
        -0.022587206214666367,
        -0.06015486270189285,
        0.003954809159040451,
        -0.12396892160177231,
        -0.11070531606674194,
        0.07939509302377701,
        0.08971085399389267,
        0.007886562496423721,
        -0.13112765550613403,
        -0.005378940608352423,
        0.10503103584051132,
        0.04438002407550812,
        0.10131677240133286,
        0.039619091898202896,
        -0.07947766035795212,
        0.041388511657714844,
        -0.06661942601203918,
        0.11155030876398087,
        0.0689830482006073,
        0.0022349797654896975,
        0.08637267351150513,
        -0.03997728228569031,
        0.024146880954504013,
        -0.07158605754375458,
        0.03520052134990692,
        0.08699481189250946,
        0.10289940983057022,
        -0.018805045634508133,
        -0.048582155257463455,
        0.061655476689338684,
        0.006365134380757809,
        -0.11118615418672562,
        0.12306080013513565,
        0.020169053226709366,
        -0.07579042762517929,
        -0.07699014246463776,
        0.09120462834835052,
        0.07623801380395889,
        0.10129934549331665,
        0.01845073141157627,
        0.0837109163403511,
        0.17042094469070435,
