{
  "model_architecture": {
    "input_size": 72,
    "hidden_size": 64,
    "output_size": 24,
    "num_layers": 1
  },
  "parameters": {
    "lstm.weight_ih_l0": [
      [
        -0.10033717006444931,
        -0.051312271505594254,
        -0.12823843955993652,
        0.10486389696598053,
        0.06573949009180069,
        -0.07345028966665268,
        0.051274772733449936,
        -0.12076320499181747,
        -0.04517272487282753,
        -0.05476346239447594,
        0.10160944610834122,
        -0.04972675070166588,
        -0.07067383825778961,
        -0.09802837669849396,
        -0.03710171952843666,
        -0.06040355935692787,
        -0.042614106088876724,
        -0.0699503943324089,
        0.006248857360333204,
        -0.07480142265558243,
        0.05833084136247635,
        -0.0630783811211586,
        0.09365912526845932,
        -0.14345301687717438,
        -0.000909045513253659,
        0.012580394744873047,
        0.0751151293516159,
        -0.02450377307832241,
        -0.019498422741889954,
        -0.029233649373054504,
        0.09854400157928467,
        0.0402163602411747,
        -0.08649111539125443,
        0.08357274532318115,
        0.09116395562887192,
        0.125183567404747,
        0.11506727337837219,
        -0.09506069868803024,
        -0.03462551534175873,
        -0.09825566411018372,
        0.059063635766506195,
        0.0883559137582779,
        -0.037114474922418594,
        -0.013957817107439041,
        0.0897773802280426,
        0.10993259400129318,
        0.060653798282146454,
        -0.02364954724907875,
        -0.03029724769294262,
        -0.04457055777311325,
        -0.00966209452599287,
        0.0771055519580841,
        0.10723916441202164,
        0.10527756810188293,
        0.053836479783058167,
        -0.08327093720436096,
        -0.03344719484448433,
        0.11414933204650879,
        -0.07685205340385437,
        0.09403389692306519,
        0.08455827087163925,
        -0.02159736678004265,
        0.01960241049528122,
        -0.0801316350698471,
        0.016763675957918167,
        0.13591085374355316,
        0.040911853313446045,
        0.07703778147697449,
        -0.03966932371258736,
        -0.11225781589746475,
        -0.015871388837695122,
        0.1108226403594017
      ],
      [
        0.07645764201879501,
        0.013195539824664593,
        -0.10896467417478561,
        -0.03258233889937401,
        -0.008681472390890121,
        -0.061976030468940735,
        0.04970599710941315,
        0.003275378607213497,
        -0.01646721363067627,
        0.13119171559810638,
        0.0646228939294815,
        0.0116550512611866,
        -0.0643371194601059,
        0.026798710227012634,
        0.05743047222495079,
        -0.07305695116519928,
        0.04965880885720253,
        -0.044029366225004196,
        0.009761421009898186,
        -0.03771645575761795,
        -0.009599885903298855,
        0.06894046068191528,
        -0.10631541162729263,
        -0.1164657399058342,
        -0.03644740581512451,
        -0.02261939086019993,
        0.05267008766531944,
        -0.11781425029039383,
        -0.03258957341313362,
        0.1215016320347786,
        0.10747364908456802,
        0.015379918739199638,
        0.08451629430055618,
        0.10800573974847794,
        0.1193571612238884,
        -0.021599913015961647,
        -0.00015042380255181342,
        -0.052499208599328995,
        0.09397925436496735,
        0.14103946089744568,
        -0.08780289441347122,
        -0.08359528332948685,
        0.09500868618488312,
        0.0742882564663887,
        -0.057071927934885025,
        0.029404452070593834,
        -0.04442504793405533,
        -0.09241247177124023,
        -0.08821691572666168,
        0.10012611001729965,
        -0.07293862104415894,
        0.11359009891748428,
        0.09649193286895752,
        0.12398601323366165,
        -0.028454994782805443,
        0.06957760453224182,
        0.1291610300540924,
        0.049385007470846176,
        0.07535713911056519,
        0.060386449098587036,
        -0.029139086604118347,
        0.13682812452316284,
        0.009830626659095287,
        0.10132188349962234,
        -0.048246126621961594,
        -0.026740390807390213,
        0.1339576542377472,
        -0.012256852351129055,
        -0.02482500486075878,
        0.05664238706231117,
        0.0996495857834816,
        0.13042926788330078
      ],
      [
        0.05025738105177879,
        0.14617131650447845,
        0.0773819163441658,
        0.10915473848581314,
        -0.0053323800675570965,
        -0.009645634330809116,
        -0.03843426704406738,
        0.020365053787827492,
        0.10585065931081772,
        0.04714914411306381,
        0.08810333162546158,
        0.08108466118574142,
        0.05098521709442139,
        -0.09113145619630814,
        -0.06644421070814133,
        0.01582306995987892,
        0.09869314730167389,
        -0.05281444638967514,
        0.08024053275585175,
        -0.1262899786233902,
        -0.10218814760446548,
        0.12694306671619415,
        -0.07282456755638123,
        0.032051119953393936,
        0.10802996903657913,
        -0.09417729079723358,
        -0.007186289876699448,
        0.04350394010543823,
        0.05262550711631775,
        0.08175507187843323,
        0.09271933138370514,
        0.06694556027650833,
        0.027166670188307762,
        -0.031041326001286507,
        0.016944438219070435,
        0.07515125721693039,
        -0.07053984701633453,
        0.041968874633312225,
        -0.11285268515348434,
        0.10500596463680267,
        -0.08820386230945587,
        -0.015165511518716812,
        0.10348924249410629,
        -0.03454773128032684,
        0.0667448490858078,
        -0.1120355874300003,
        0.10431269556283951,
        -0.04784602299332619,
        -0.08882276713848114,
        0.041121043264865875,
        -0.0034268435556441545,
        0.0012907583732157946,
        0.16313955187797546,
        -0.01912900060415268,
        0.07829345762729645,
        0.1473674774169922,
        0.03151829168200493,
        0.14111454784870148,
        0.002934215357527137,
        -0.03815053030848503,
        0.05412975326180458,
        0.09782357513904572,
        -0.041035156697034836,
        -0.10429289937019348,
        0.08221016824245453,
        -0.09118309617042542,
        0.08552290499210358,
        0.05757506564259529,
        -0.03468690440058708,
        -0.0007817776640877128,
        0.14331145584583282,
        -0.06289589405059814
      ],
      [
        0.1123223528265953,
        0.07247461378574371,
        -0.09184718877077103,
        0.05706516280770302,
        0.05979200825095177,
        0.11176754534244537,
        -0.02711101807653904,
        -0.072562575340271,
        0.06882844865322113,
        -0.03529573604464531,
        -0.0253776703029871,
        0.09647700190544128,
        0.04761618375778198,
        0.005387553479522467,
        -0.00539297703653574,
        -0.08132777363061905,
        0.04575740545988083,
        -0.11649864912033081,
        -0.06786832213401794,
        -0.14064623415470123,
        0.0917946845293045,
        -0.09026021510362625,
        0.028467200696468353,
        -0.09171052277088165,
        0.0032945633865892887,
        -0.09291849285364151,
        0.019545013085007668,
        -0.10640042275190353,
        0.08344439417123795,
        -0.03565651923418045,
        0.051836129277944565,
        0.013281823135912418,
        0.10476651042699814,
        -0.004758203402161598,
        -0.03529920428991318,
        0.07310112565755844,
        0.0806230902671814,
        -0.1025899201631546,
        -0.10282618552446365,
        0.05449046939611435,
        0.018687235191464424,
        0.002068039495497942,
        -0.10337194055318832,
        0.04161767661571503,
        -0.032142482697963715,
        0.014777617529034615,
        -0.1227678582072258,
        -0.050564851611852646,
        -0.11144241690635681,
        -0.007823922671377659,
        -0.11698490381240845,
        0.11066039651632309,
        0.0040618786588311195,
        0.10223568230867386,
        -0.025447100400924683,
        0.07970485836267471,
        -0.01578196883201599,
        0.0071831378154456615,
        0.023526117205619812,
        -0.00047562745749019086,
        -0.11056425422430038,
        0.0064257471822202206,
        0.026534689590334892,
        -0.017641237005591393,
        -0.10756298154592514,
        -0.07044266164302826,
        -0.11859264224767685,
        -0.10036803781986237,
        -0.07252982258796692,
        -0.09906893968582153,
        0.10637305676937103,
        -0.07076230645179749
      ],
      [
        0.08389541506767273,
        -0.028100935742259026,
        0.10691142827272415,
        0.09755156189203262,
        0.05266384407877922,
        0.0560230016708374,
        0.1028900146484375,
        -0.024541644379496574,
        -0.03741401433944702,
        -0.0325637012720108,
        0.03472554311156273,
        0.10576148331165314,
        0.028552129864692688,
        0.06889598071575165,
        -0.10383879393339157,
        0.0743708610534668,
        -0.026607198640704155,
        -0.03736783564090729,
        -0.03011220321059227,
        -0.07729890197515488,
        -0.11100896447896957,
        0.0822828859090805,
        0.10275643318891525,
        -0.026637014001607895,
        -0.029117077589035034,
        0.04679449275135994,
        0.02476596273481846,
        0.10549049079418182,
        0.12382691353559494,
        0.014968601055443287,
        0.09842455387115479,
        0.08981699496507645,
        0.09613625705242157,
        0.03548019006848335,
        0.13210831582546234,
        0.03582334518432617,
        -0.050740085542201996,
        0.0841064378619194,
        0.03356076776981354,
        -0.13117147982120514,
        -0.05066478252410889,
        -0.04950118437409401,
        -0.05198343098163605,
        0.08046901226043701,
        0.027980703860521317,
        -0.024789119139313698,
        -0.04656713083386421,
        0.10155618190765381,
        0.00852132122963667,
        -0.0554681234061718,
        0.08398956805467606,
        -0.08505715429782867,
        -0.028454340994358063,
        -0.07050085812807083,
        0.15679186582565308,
        0.13757672905921936,
        0.09785439819097519,
        0.04808700084686279,
        0.049256231635808945,
        0.012422415427863598,
        -0.06031098589301109,
        -0.016228526830673218,
        0.10055065900087357,
        0.05378719046711922,
        0.11820904910564423,
        0.053633879870176315,
        -0.045770566910505295,
        0.03324870020151138,
        0.03425218164920807,
        -0.0652821734547615,
        -0.08000852912664413,
        -0.043587084859609604
      ],
      [
        -0.09273945540189743,
        0.1273658275604248,
        -0.05193032696843147,
        -0.07362049072980881,
        -0.05028985068202019,
        0.010267795994877815,
        -0.10463598370552063,
        -0.07599430531263351,
        -0.1334506869316101,
        -0.030612770467996597,
        0.02183026261627674,
        -0.11220712959766388,
        0.10006684809923172,
        -0.06207180395722389,
        0.12829378247261047,
        -0.04531458020210266,
        -0.02261526882648468,
        0.025787977501749992,
        -0.041861847043037415,
        -0.046955689787864685,
        0.05036899819970131,
        0.12450804561376572,
        -0.002085047774016857,
        0.0761188492178917,
        0.00423488998785615,
        0.04188457503914833,
        -0.06775566190481186,
        0.07830385863780975,
        -0.07041142880916595,
        0.006994134280830622,
        0.1106160432100296,
        0.1023772656917572,
        -0.0865517258644104,
        0.01686275005340576,
        -0.10175755620002747,
        -0.0654914528131485,
        0.05022328719496727,
        -0.10398465394973755,
        -0.11296048760414124,
        0.07525838911533356,
        0.03798491880297661,
        -0.008223246783018112,
        0.13251549005508423,
        0.018660379573702812,
        -0.024774514138698578,
        -0.06530740857124329,
        0.08354838192462921,
        0.12843665480613708,
        -0.06488586962223053,
        0.08156561851501465,
        -0.06017477065324783,
        -0.03918285295367241,
        -0.05801713094115257,
        0.03875429555773735,
        0.01118614710867405,
        -0.040703170001506805,
        -0.007520914077758789,
        0.056557364761829376,
        -0.056354936212301254,
        -0.002220040885731578,
        0.1284341812133789,
        -0.058818086981773376,
        0.037928350269794464,
        -0.03808959200978279,
        0.1368207186460495,
        -0.024936344474554062,
        0.033530186861753464,
        0.06832107156515121,
        0.02064681611955166,
        0.0007204491994343698,
        0.12684011459350586,
        0.10578352957963943
      ],
      [
        -0.0967307761311531,
        -0.034030307084321976,
        0.0354679711163044,
        -0.036074068397283554,
        -0.07640078663825989,
        -0.06471898406744003,
        0.08317185938358307,
        -0.08704698830842972,
        -0.04945020750164986,
        -0.0027026257012039423,
        0.07462801039218903,
        0.056117501109838486,
        0.05431140959262848,
        -0.08450427651405334,
        -0.03309669718146324,
        -0.07694418728351593,
        -0.1001051589846611,
        -0.08757892996072769,
        -0.05313187092542648,
        -0.0030036589596420527,
        -0.04827556759119034,
        -0.011941040866076946,
        0.12098927050828934,
        -0.05792298540472984,
        0.07984815537929535,
        -0.05992920324206352,
        0.058805134147405624,
        -0.10834605991840363,
        -0.11182674020528793,
        0.047939885407686234,
        0.0596357099711895,
        0.0616716593503952,
        -0.10653003305196762,
        -0.04637272655963898,
        0.04785539582371712,
        -0.05807802453637123,
        -0.0450456328690052,
        0.07704946398735046,
        -0.010411226190626621,
        0.0026530742179602385,
        -0.013038513250648975,
        0.03517679497599602,
        -0.003033488290384412,
        0.09099561721086502,
        0.060043349862098694,
        0.14220602810382843,
        -0.09800925105810165,
        -0.023712698370218277,
        -0.06534852087497711,
        -0.03067045658826828,
        -0.09703940153121948,
        -0.022559287026524544,
        0.04999500513076782,
        0.02684381604194641,
        -0.03725019842386246,
        0.059141069650650024,
        -0.05203438922762871,
        0.09445642679929733,
        0.046434711664915085,
        -0.09289738535881042,
        0.12410017848014832,
        -0.07095987349748611,
        -0.047686368227005005,
        -0.025953000411391258,
        0.12747855484485626,
        0.12777100503444672,
        0.09509824216365814,
        0.03362462669610977,
        0.02444671280682087,
        0.11284354329109192,
        -0.011778833344578743,
        -0.007988794706761837
      ],
      [
        -0.10065612941980362,
        0.000706869235727936,
        -0.058980751782655716,
        -0.01590181328356266,
        -0.09258590638637543,
        -0.11069057881832123,
        -0.07964137196540833,
        0.1186182051897049,
        -0.052683014422655106,
        -0.10521547496318817,
        0.019093669950962067,
        -0.004466335289180279,
        0.09998422116041183,
        -0.0041601648554205894,
        -0.03960566222667694,
        0.08352266997098923,
        0.08202696591615677,
        -0.07104270905256271,
        -0.01180238276720047,
        -0.027411410585045815,
        0.08997886627912521,
        0.13356344401836395,
        0.12136614322662354,
        -0.011235176585614681,
        0.029553258791565895,
        -0.036706965416669846,
        -0.06758283078670502,
        -0.01208941638469696,
        0.10129499435424805,
        -0.01640564389526844,
        -0.09667336195707321,
        0.046824030578136444,
        -0.03911750763654709,
        -0.1026674285531044,
        -0.06415088474750519,
        0.04254633188247681,
        0.05770129710435867,
        -0.00040584063390269876,
        -0.10448256134986877,
        -0.036646924912929535,
        0.07275184988975525,
        -0.05647905543446541,
        0.14197160303592682,
        0.05841277912259102,
        0.06528381258249283,
        -0.024767335504293442,
        0.146823912858963,
        -0.08194821327924728,
        0.0015045247273519635,
        0.09787548333406448,
        0.0658392533659935,
        0.09487172216176987,
        0.09231524914503098,
        -0.09238016605377197,
        -0.03985702618956566,
        -0.005163875408470631,
        0.09919571876525879,
        -0.04786631837487221,
        -0.03403937444090843,
        0.0063865901902318,
        0.04504578188061714,
        -0.02362722158432007,
        0.15077680349349976,
        0.11474407464265823,
        -0.05356457456946373,
        -0.05495278537273407,
        -0.03521116450428963,
        0.015044277533888817,
        0.15854279696941376,
        0.04642711207270622,
        0.027796080335974693,
        0.15216325223445892
      ],
      [
        0.1237989291548729,
        0.1150912344455719,
        -0.07740940898656845,
        0.09204366058111191,
        -0.12063707411289215,
        0.05250142142176628,
        -0.08415887504816055,
        0.05304668843746185,
        0.09690503776073456,
        -0.09498746693134308,
        -0.03446906805038452,
        0.07827526330947876,
        0.06919853389263153,
        0.05057033523917198,
        -0.03026953712105751,
        -0.10696075111627579,
        -0.04568565636873245,
        0.040260352194309235,
        -0.06463872641324997,
        0.12529291212558746,
        0.0036947482731193304,
        0.10574858635663986,
        -0.060052916407585144,
        -0.05702884867787361,
        -0.01760583557188511,
        -0.02865407057106495,
        0.03743147477507591,
        -0.052756208926439285,
        -0.02361367456614971,
        0.036543432623147964,
        -0.046923745423555374,
        0.035915277898311615,
        -0.030894475057721138,
        -0.08805664628744125,
        0.09077900648117065,
        -0.03704474866390228,
        -0.09378794580698013,
        0.06956829875707626,
        -0.0959673523902893,
        0.002106359228491783,
        -0.11904393881559372,
        -0.1081005185842514,
        -0.022157421335577965,
        0.08829184621572495,
        -0.006952691823244095,
        -0.0018392859492450953,
        -0.021363096311688423,
        0.0339733250439167,
        0.03390657901763916,
        -0.06585803627967834,
        0.04377554729580879,
        -0.0416051410138607,
        -0.100143663585186,
        -0.08039282262325287,
        0.04335003346204758,
        0.11894704401493073,
        -0.025596708059310913,
        0.09632071107625961,
        0.08099120110273361,
        0.05928429588675499,
        -0.008773697540163994,
        0.09574021399021149,
        0.01395670510828495,
        0.06115297973155975,
        -0.02396475523710251,
        -0.06790124624967575,
        -0.045328669250011444,
        -0.021667394787073135,
        0.005761406384408474,
        -0.0018075654515996575,
        0.12143921107053757,
        -0.030431048944592476
      ],
      [
        0.0783919021487236,
        0.046291377395391464,
        -0.08644570410251617,
        -0.01699858345091343,
        -0.00034764589508995414,
        0.015212182886898518,
        -0.049251388758420944,
        -0.01746288500726223,
        0.15066048502922058,
        0.15536412596702576,
        -0.04110882431268692,
        0.0024652560241520405,
        0.05489303544163704,
        -0.007921170443296432,
        0.15695495903491974,
        0.029695749282836914,
        -0.014696438796818256,
        -0.02225208654999733,
        0.07830096781253815,
        0.022853288799524307,
        0.12780536711215973,
        -0.02758171781897545,
        -0.08496826887130737,
        0.1260085105895996,
        -0.03931941092014313,
        0.019281771034002304,
        -0.03203139081597328,
        -0.041054464876651764,
        -0.08709674328565598,
        -0.002722806064411998,
        0.014435820281505585,
        -0.0280544925481081,
        0.14262725412845612,
        0.04050115868449211,
        0.032303836196660995,
        0.09407477080821991,
        0.07006047666072845,
        0.06996481865644455,
        0.019817281514406204,
        0.08440756797790527,
        0.09655722230672836,
        0.05719009414315224,
        0.09691782295703888,
        -0.023768141865730286,
        -0.07540718466043472,
        0.09142523258924484,
        -0.02676529996097088,
        0.12150498479604721,
        -0.007141476962715387,
        0.08015212416648865,
        0.039416518062353134,
        0.044667311012744904,
        0.016333186998963356,
        -0.04790506884455681,
        0.0866699293255806,
        0.10034453123807907,
        0.1747618317604065,
        0.1678232103586197,
        0.09401018172502518,
        -0.03031649813055992,
        -0.023556305095553398,
        -0.038614459335803986,
        0.058157630264759064,
        -0.040404438972473145,
        0.01163394097238779,
        0.15077298879623413,
        0.06473012268543243,
        -0.00873908307403326,
        -0.03930848836898804,
        -0.041463714092969894,
        0.02237735129892826,
        -0.0004647655878216028
      ],
      [
        -0.06998232007026672,
        0.09789346158504486,
        0.02952420897781849,
        -0.1304670125246048,
        0.042806319892406464,
        -0.024498872458934784,
        -0.02799506112933159,
        0.02847135439515114,
        0.0716465637087822,
        -0.019119318574666977,
        -0.12224134057760239,
        -0.034085292369127274,
        0.10201326757669449,
        0.08086731284856796,
        -0.1320389062166214,
        -0.13355199992656708,
        0.015568186528980732,
        -0.025661148130893707,
        0.002482800278812647,
        -0.08502671867609024,
        0.0314098559319973,
        -0.0841640904545784,
        0.11129307746887207,
        0.018050670623779297,
        0.09566256403923035,
        -0.12955832481384277,
        -0.00042888219468295574,
        0.11564023792743683,
        -0.11291192471981049,
        0.06696653366088867,
        -0.12471462786197662,
        -0.10579003393650055,
        -0.06652829051017761,
        0.09727158397436142,
        -0.09375303983688354,
        0.08185921609401703,
        0.08426827192306519,
        -0.0024033687077462673,
        0.08410336822271347,
        0.02326492965221405,
        0.08835375308990479,
        0.030126675963401794,
        0.07304822653532028,
        -0.026299767196178436,
        -0.10002730041742325,
        -0.07176236063241959,
        -0.10349911451339722,
        -0.08211342990398407,
        0.08822042495012283,
        -0.08854123950004578,
        -0.07522666454315186,
        0.10907673835754395,
        0.11278285831212997,
        -0.020611396059393883,
        0.12142841517925262,
        -0.046317409723997116,
        -0.07709415256977081,
        -0.04415256530046463,
        0.053749702870845795,
        -0.12113776803016663,
        -0.11454248428344727,
        0.11371767520904541,
        -0.11892831325531006,
        -0.005107649601995945,
        0.07276610285043716,
        0.03986907750368118,
        -0.1318732500076294,
        -0.015719836577773094,
        -0.13009856641292572,
        -0.006001644302159548,
        0.0013158860383555293,
        0.03514491021633148
      ],
      [
        -0.12430929392576218,
        0.082966648042202,
        0.02872922271490097,
        -0.007913623005151749,
        -0.004183542914688587,
        0.05626998841762543,
        -0.06179897487163544,
        0.08219634741544724,
        -0.09745772927999496,
        -0.07083694636821747,
        -0.0076018390245735645,
        -0.06996677070856094,
        0.07280462980270386,
        0.04812415689229965,
        0.025923147797584534,
        -0.03633475303649902,
        0.0810370072722435,
        -0.0023989391047507524,
        0.09289707988500595,
        -0.025058066472411156,
        -0.0779385045170784,
        0.011014548130333424,
        0.053730789572000504,
        0.0857117548584938,
        0.040958523750305176,
        -0.14651784300804138,
        -0.028081577271223068,
        -0.05622018873691559,
        -0.11741101741790771,
        -0.09015320241451263,
        -0.08151538670063019,
        0.10746161639690399,
        0.08791673928499222,
        -0.03329962491989136,
        -0.004140589386224747,
        -0.0746060311794281,
        -0.0754128098487854,
        -0.017712870612740517,
        -0.10287239402532578,
        0.008242853917181492,
        -0.10105174034833908,
        -0.09572575986385345,
        0.1079261526465416,
        -0.09276800602674484,
        0.09799141436815262,
        0.05182858183979988,
        -0.10591327399015427,
        0.011437746696174145,
        0.09443480521440506,
        -0.03949865326285362,
        0.010751466266810894,
        0.06996003538370132,
        0.07646400481462479,
        0.04153485596179962,
        0.10586071759462357,
        -0.05125270038843155,
        0.09614492207765579,
        0.08925651013851166,
        0.15104267001152039,
        0.09757734090089798,
        -0.000231000070925802,
        0.03814878687262535,
        -0.013994448818266392,
        -0.03914080932736397,
        0.019566604867577553,
        -0.04181234538555145,
        -0.08008408546447754,
        0.1513063609600067,
        -0.03583487123250961,
        0.1521834135055542,
        0.09672176092863083,
        -0.07125123590230942
      ],
      [
        -0.05654953047633171,
        -0.06606245785951614,
        0.06583163142204285,
        0.05881473794579506,
        -0.13282939791679382,
        -0.0924067273736,
        -0.08589829504489899,
        -0.13932888209819794,
        -0.14958810806274414,
        -0.029819875955581665,
        -0.003918671514838934,
        0.09005879610776901,
        0.07113183289766312,
        -0.1134127601981163,
        0.03763975948095322,
        -0.05228850618004799,
        -0.043068788945674896,
        -0.051819805055856705,
        0.013995066285133362,
        -0.01126968115568161,
        -0.09752505272626877,
        0.03695711866021156,
        -0.12649758160114288,
        -0.022100504487752914,
        0.07206844538450241,
        -0.04807676747441292,
        -0.026947708800435066,
        -0.104972243309021,
        -0.09781025350093842,
        0.024257482960820198,
        0.04768863692879677,
        -0.02264135330915451,
        0.07647696882486343,
        -0.12852856516838074,
        -0.004001844208687544,
        -0.07975486665964127,
        -0.04689548909664154,
        0.0666348934173584,
        0.05306438356637955,
        0.12868301570415497,
        0.1492147147655487,
        -0.09050169587135315,
        0.093793585896492,
        0.06378249078989029,
        -0.04851451888680458,
        0.0023781992495059967,
        -0.010583975352346897,
        0.005855153780430555,
        -0.1093456894159317,
        0.06977319717407227,
        -0.07216695696115494,
        -0.1437022089958191,
        -0.13330422341823578,
        -0.08072961121797562,
        -0.0524723194539547,
        -0.11355230957269669,
        -0.05903495475649834,
        -0.06719819456338882,
        -0.0496373325586319,
        -0.03942771255970001,
        -0.007012357469648123,
        0.12773995101451874,
        -0.0512448325753212,
        0.05701873078942299,
        0.04202252998948097,
        0.00487127061933279,
        -0.010262135416269302,
        0.05361982807517052,
        0.07739734649658203,
        0.1291891187429428,
        0.08214374631643295,
        0.051968347281217575
      ],
      [
        0.08538628369569778,
        0.03297780826687813,
        0.056521620601415634,
        0.10075334459543228,
        -0.05002541095018387,
        0.02679320052266121,
        0.012494129128754139,
        0.12128166854381561,
        0.07947514951229095,
        -0.05711239576339722,
        -0.04885413125157356,
        0.08733375370502472,
        0.07058906555175781,
        -0.12868155539035797,
        -0.022713255137205124,
        0.07519275695085526,
        0.06089288368821144,
        -0.05430801957845688,
        -0.13599228858947754,
        0.09963462501764297,
        0.09057236462831497,
        0.020613204687833786,
        0.04653259366750717,
        0.13269275426864624,
        0.10166740417480469,
        0.03440622612833977,
        0.053506385535001755,
        0.07028068602085114,
        0.05714709684252739,
        0.08896999061107635,
        -0.0930914655327797,
        0.08813856542110443,
        0.0940394327044487,
        0.018492944538593292,
        -0.10178624093532562,
        0.11589239537715912,
        0.0034761608112603426,
        0.009901399724185467,
        -0.07720286399126053,
        -0.06078868731856346,
        0.09642965346574783,
        -0.06840336322784424,
        -0.03747091814875603,
        0.05228555202484131,
        -0.07276666164398193,
        0.10162917524576187,
        -0.10091719031333923,
        0.0647648349404335,
        0.09973686933517456,
        -0.08106295019388199,
        0.05458224192261696,
        -0.0540241077542305,
        0.02902529388666153,
        0.03816314414143562,
        0.051174864172935486,
        -0.01679183728992939,
        0.11736734211444855,
        0.10624249279499054,
        0.11186473071575165,
        0.06915003806352615,
        -0.08195523917675018,
        0.08495026081800461,
        0.07528290152549744,
        0.08486487716436386,
        0.04929031431674957,
        -0.07355248183012009,
        0.09289854019880295,
        0.12583544850349426,
        0.061999522149562836,
        -0.00776527589187026,
        0.09756334871053696,
        0.01412879303097725
      ],
      [
        0.09458790719509125,
        0.085195392370224,
        -0.10738737136125565,
        0.03373369947075844,
        -0.019649453461170197,
        0.11312761157751083,
        0.07499315589666367,
        -0.07801886647939682,
        -0.05086536705493927,
        -0.07786722481250763,
        0.06332129240036011,
        0.10428199172019958,
        -0.08593958616256714,
        -0.02881641685962677,
        -0.0721786618232727,
        -0.12818293273448944,
        -0.11946038901805878,
        -0.073764368891716,
        -0.13330195844173431,
        -0.032438334077596664,
        -0.044153548777103424,
        -0.00214637303724885,
        -0.10502806305885315,
        0.07141432911157608,
        0.017250098288059235,
        0.10642269998788834,
        0.10960991680622101,
        -0.031073277816176414,
        0.00535297766327858,
        0.012134488672018051,
        0.04335317015647888,
        0.07777705788612366,
        -0.10290519148111343,
        -0.0940231904387474,
        0.023062651976943016,
        0.07148462533950806,
        -0.033591751009225845,
        -0.09860185533761978,
        -0.11114431172609329,
        -0.006730850785970688,
        0.03646744042634964,
        -0.0010578448418527842,
        -0.07604686170816422,
        -0.06655200570821762,
        -0.029271548613905907,
        0.032661885023117065,
        -0.017310036346316338,
        0.09829901158809662,
        0.005030670203268528,
        0.01674523949623108,
        0.10103895515203476,
        0.005076608620584011,
        0.10050798952579498,
        0.02925700508058071,
        -0.05012212693691254,
        -0.05409971997141838,
        -0.009892918169498444,
        0.06708866357803345,
        0.051491159945726395,
        0.10611549019813538,
        0.08222345262765884,
        -0.07984142005443573,
        0.12178882211446762,
        0.009508715942502022,
        0.022959396243095398,
        -0.09681215137243271,
        0.05659588798880577,
        0.09389331936836243,
        -0.09551718831062317,
        0.023052828386425972,
        0.14245392382144928,
        -0.013159194961190224
      ],
      [
        0.11826754361391068,
        0.007853860966861248,
        0.014487982727587223,
        0.022042065858840942,
        0.0844828262925148,
        -0.06431135535240173,
        -0.10317054390907288,
        -0.13134440779685974,
        -0.13311141729354858,
        -0.04947102814912796,
        -0.0869271457195282,
        -0.03345266729593277,
        0.11283694952726364,
        -0.011499783024191856,
        0.039608750492334366,
        0.03427986055612564,
        0.013714194297790527,
        0.09191401302814484,
        -0.027809347957372665,
        0.015726672485470772,
        -0.055451687425374985,
        -0.025848794728517532,
        0.09137526154518127,
        0.02107255905866623,
        -0.099340058863163,
        0.0001739508006721735,
        -0.06982237845659256,
        0.07778394222259521,
        -0.0912809893488884,
        -0.05033803731203079,
        -0.11676736921072006,
        -0.0673048198223114,
        0.09608296304941177,
        -0.07044307887554169,
        -0.08732495456933975,
        -0.0402778796851635,
        -0.10305087268352509,
        -0.06355979293584824,
        0.11798127740621567,
        -0.03979702666401863,
        0.07865117490291595,
        -0.08219099044799805,
        0.013921285048127174,
        0.10043959319591522,
        -0.05936227738857269,
        0.07758432626724243,
        -0.0022562462836503983,
        0.0026100091636180878,
        -0.06172706186771393,
        -0.031079251319169998,
        -0.03981795907020569,
        0.08405911177396774,
        0.013174090534448624,
        -0.0278004202991724,
        -0.1120988130569458,
        -0.13424839079380035,
        -0.05191512405872345,
        0.027982689440250397,
        0.005131835583597422,
        0.07806283980607986,
        0.12971121072769165,
        -6.143125938251615e-05,
        0.16286423802375793,
        0.11523924767971039,
        0.06608172506093979,
        0.13563843071460724,
        0.19183628261089325,
        0.11438902467489243,
        0.042155101895332336,
        0.1864948570728302,
        -0.03224640339612961,
        0.03449796140193939
      ],
      [
        -0.13709191977977753,
        -0.12026882916688919,
        -0.09789016097784042,
        0.062325578182935715,
        -0.06290178745985031,
        -0.04777751863002777,
        -0.09567151218652725,
        0.03244062513113022,
        -0.006364547181874514,
        -0.028303563594818115,
        -0.0985308289527893,
        -0.07919280230998993,
        0.10095958411693573,
        0.01819504052400589,
        -0.03260410204529762,
        0.03053315542638302,
        0.017382759600877762,
        -0.0983704924583435,
        -0.1387031078338623,
        -0.010028436779975891,
        -0.1070168986916542,
        -0.056795064359903336,
        0.09712386876344681,
        -0.05652891844511032,
        -0.11634129285812378,
        0.029651885852217674,
        -0.12240974605083466,
        0.05786769092082977,
        0.08530303090810776,
        0.09741353243589401,
        0.06751399487257004,
        -0.11610335111618042,
        -0.12349765747785568,
        0.08274921774864197,
        0.006264799274504185,
        0.022783182561397552,
        -0.12337298691272736,
        -0.04974909499287605,
        0.029317012056708336,
        -0.12946835160255432,
        0.09495344758033752,
        0.03378305584192276,
        -0.10837996006011963,
        0.04108080640435219,
        -0.018352685496211052,
        -0.04641013592481613,
        0.05137424170970917,
        -0.027184443548321724,
        -0.1022908017039299,
        -0.07965315133333206,
        0.022680388763546944,
        0.0981980562210083,
        0.0068940287455916405,
        -0.0764203816652298,
        -0.08421318978071213,
        0.10342884808778763,
        -0.13422077894210815,
        0.06897538155317307,
        0.05981569364666939,
        0.05881952866911888,
        0.05033501610159874,
        0.10874653607606888,
        -0.004877111408859491,
        0.10735566169023514,
        0.051770880818367004,
        -0.13540507853031158,
        -0.10763706266880035,
        -0.1441795378923416,
        0.09203221648931503,
        -0.059196893125772476,
        -0.10088343918323517,
        -0.023927412927150726
      ],
      [
        -0.02272295020520687,
        0.06365862488746643,
        0.03472292423248291,
        -0.07330196350812912,
        0.09040858596563339,
        0.07839948683977127,
        -0.08337704092264175,
        -0.03939370810985565,
        -0.02732374519109726,
        0.062331508845090866,
        0.07438592612743378,
        -0.0029925075359642506,
        -0.04246940091252327,
        -0.053956642746925354,
        -0.0404045544564724,
        -0.029908277094364166,
        -0.09584438800811768,
        0.07905981689691544,
        0.06223008781671524,
        0.0007383459014818072,
        -0.0014032510807737708,
        0.11920171231031418,
        -0.014567984268069267,
        -0.11908558756113052,
        0.04602297022938728,
        0.040992371737957,
        0.07431577146053314,
        -0.025636274367570877,
        -0.09078509360551834,
        -0.07098058611154556,
        -0.053129348903894424,
        -0.09690456092357635,
        0.032948460429906845,
        0.060403212904930115,
        -0.02324129082262516,
        -0.032608550041913986,
        -0.06710884720087051,
        -0.09049125015735626,
        -0.14341075718402863,
        -0.1091548427939415,
        0.027287272736430168,
        0.06276994943618774,
        0.059240199625492096,
        0.04389331117272377,
        0.01975274085998535,
        0.0501910038292408,
        -0.043092239648103714,
        -0.08794736117124557,
        -0.0800187736749649,
        -0.10042841732501984,
        -0.13700832426548004,
        0.005826893728226423,
        0.039424583315849304,
        -0.08289822936058044,
        -0.11941013485193253,
        -0.13365258276462555,
        -0.01756138727068901,
        -0.04721076041460037,
        -0.13995401561260223,
        -0.032061610370874405,
        -0.0279842596501112,
        0.047378454357385635,
        0.029747111722826958,
        -0.002314068842679262,
        -0.028657440096139908,
        0.001654339488595724,
        -0.10897380113601685,
        0.038983799517154694,
        0.10935241729021072,
        0.09133105725049973,
        -0.08806376159191132,
        -0.012143201194703579
      ],
      [
        0.11599717289209366,
        0.09057684242725372,
        0.02207583375275135,
        0.02785874903202057,
        -0.10600871592760086,
        0.08624511957168579,
        -0.11357910931110382,
        0.036631304770708084,
        -0.11257948726415634,
        -0.026050277054309845,
        -0.09266003221273422,
        0.10688959062099457,
        -0.06719382107257843,
        -0.011815806850790977,
        0.07528410851955414,
        -0.011070550419390202,
        0.03284206613898277,
        -0.0996653288602829,
        -0.029659800231456757,
        -0.0678739845752716,
        0.08247441798448563,
        0.035832684487104416,
        -0.012672447599470615,
        0.017664659768342972,
        0.04033239930868149,
        -0.023558638989925385,
        -0.0709390789270401,
        -0.09793759137392044,
        -0.0479089580476284,
        -0.03298959881067276,
        0.109406016767025,
        -0.001942193484865129,
        -0.11701174080371857,
        -0.10262489318847656,
        0.10258015990257263,
        0.03211037442088127,
        -0.10690873861312866,
        0.08170842379331589,
        0.09749734401702881,
        0.0494418740272522,
        0.03559829294681549,
        -0.004587455186992884,
        0.14363722503185272,
        -0.053490106016397476,
        -0.034306611865758896,
        -0.023605281487107277,
        -0.0034048394300043583,
        -0.04337730258703232,
        -0.03986398130655289,
        -0.10906112194061279,
        0.08169025927782059,
        0.09099048376083374,
        -0.01308243628591299,
        0.07529379427433014,
        -0.09242556989192963,
        0.10116524994373322,
        0.14129112660884857,
        0.057999856770038605,
        0.14322616159915924,
        0.14021672308444977,
        -0.051897212862968445,
        -0.029341483488678932,
        0.0003414656384848058,
        -0.07121875882148743,
        -0.0046211243607103825,
        -0.004264415241777897,
        -0.059353042393922806,
        0.06803170591592789,
        0.07870478183031082,
        0.08566214889287949,
        -0.0247673150151968,
        0.12058502435684204
      ],
      [
        0.05713638290762901,
        -0.031663864850997925,
        0.1002209335565567,
        -0.10222470015287399,
        0.02779519557952881,
        0.020086027681827545,
        -0.01087389886379242,
        0.008114267140626907,
        -0.07994448393583298,
        -0.02253032475709915,
        0.03102872148156166,
        0.06198308616876602,
        -0.005050338339060545,
        0.052371490746736526,
        0.11039996147155762,
        0.06665660440921783,
        -0.11823757737874985,
        -0.07191559672355652,
        -0.07847435027360916,
        0.015504577197134495,
        -0.06010204181075096,
        0.10099788010120392,
        0.06687595695257187,
        -0.04864700138568878,
        -0.12216272205114365,
        0.059687402099370956,
        -0.005754995625466108,
        -0.07090237736701965,
        0.08169128745794296,
        -0.037943996489048004,
        0.09814304858446121,
        -0.10015284270048141,
        -0.11889797449111938,
        0.09297413378953934,
        0.10226260125637054,
        -0.07907833904027939,
        0.11970671266317368,
        0.07864522188901901,
        -0.0720682144165039,
        0.10933433473110199,
        -0.07102542370557785,
        0.10107030719518661,
        0.1223236620426178,
        0.10650987178087234,
        0.0920112356543541,
        0.025401314720511436,
        -0.023564865812659264,
        -0.006154494360089302,
        0.07365827262401581,
        -0.07965664565563202,
        0.06524650007486343,
        0.01010957919061184,
        -0.04187845066189766,
        -0.06179064139723778,
        -0.10266009718179703,
        -0.09090933948755264,
        -0.030568169429898262,
        -0.013478050008416176,
        0.014155811630189419,
        -0.002395685762166977,
        -0.0786997526884079,
        0.10982462018728256,
        -0.06572477519512177,
        0.06139175221323967,
        -0.009235480800271034,
        0.08978436142206192,
        -0.0649356096982956,
        0.13213370740413666,
        -0.03835318610072136,
        0.13620692491531372,
        0.0749145969748497,
        0.05014271289110184
      ],
      [
        0.01727135106921196,
        0.11910774558782578,
        -0.10665209591388702,
        0.0813925489783287,
        -0.052088893949985504,
        0.11659973114728928,
        -0.0010310717625543475,
        -0.11346027255058289,
        -0.06316085904836655,
        0.038729798048734665,
        0.05728226155042648,
        -0.05433795601129532,
        0.08886738866567612,
        -0.10835158079862595,
        0.058986395597457886,
        -0.05291907489299774,
        -0.0035423878580331802,
        0.052379049360752106,
        0.01573043316602707,
        0.07521269470453262,
        -0.03546416386961937,
        0.11675652116537094,
        -0.05517938360571861,
        -0.13083864748477936,
        0.03616608306765556,
        -0.03877953439950943,
        -0.1067507192492485,
        -0.04871627315878868,
        -0.06013965979218483,
        -0.09110165387392044,
        0.056753117591142654,
        -0.03248279541730881,
        0.0021090160589665174,
        0.0918276235461235,
        0.04490267112851143,
        -0.07269085198640823,
        -0.01874598301947117,
        -0.056450579315423965,
        -0.08053069561719894,
        0.04016012325882912,
        -0.09158264100551605,
        -0.09193878620862961,
        -0.057449039071798325,
        -0.06356176733970642,
        0.11959786713123322,
        0.09571133553981781,
        0.06953807920217514,
        0.09164949506521225,
        0.06621728837490082,
        -0.06605678796768188,
        0.07797380536794662,
        -0.018672043457627296,
        0.06413856893777847,
        0.04531610384583473,
        -0.06810671091079712,
        -0.09908784925937653,
        0.07223781198263168,
        -0.03936130180954933,
        -0.08465463668107986,
        0.05476024001836777,
        0.09896904975175858,
        -0.01130971685051918,
        0.004852271638810635,
        0.06005757302045822,
        0.007322782184928656,
        0.0461825467646122,
        -0.047523025423288345,
        0.0055724200792610645,
        -0.0621177963912487,
        0.03643809258937836,
        0.08603031188249588,
        -0.02236573025584221
      ],
      [
        0.03695366159081459,
        0.1286994069814682,
        0.09020107239484787,
        0.06246255338191986,
        0.1187262013554573,
        0.1553623378276825,
        -0.08697198331356049,
        -0.07004788517951965,
        -0.01506674475967884,
        -0.0034982110373675823,
        0.02790732868015766,
        -0.030405955389142036,
        -0.05552306026220322,
        0.1009063795208931,
        0.11004595458507538,
        -0.12971898913383484,
        0.002146549988538027,
        -0.08250392973423004,
        0.06596855819225311,
        -0.06173184886574745,
        0.1347523182630539,
        0.048720479011535645,
        -0.015566950663924217,
        -0.0004826018412131816,
        0.1418468952178955,
        -0.007967020384967327,
        0.1040213480591774,
        -0.05358166620135307,
        0.002926386659964919,
        0.028047963976860046,
        0.1561739593744278,
        -0.02746160514652729,
        0.03420613706111908,
        0.09949575364589691,
        0.03332822769880295,
        0.09352680295705795,
        -0.008706890977919102,
        0.08031235635280609,
        0.044252440333366394,
        -0.013201740570366383,
        0.11014266312122345,
        -0.08666524291038513,
        0.09205585718154907,
        0.07487035542726517,
        -0.05799509957432747,
        0.1376236081123352,
        0.07633767277002335,
        0.014390707947313786,
        0.06640544533729553,
        0.1442914605140686,
        0.12411507219076157,
        0.0771547332406044,
        0.05072465166449547,
        0.1482057273387909,
        0.09147369861602783,
        -0.032732512801885605,
        -0.05432596057653427,
        -0.026260124519467354,
        0.003249619621783495,
        -0.02950778231024742,
        0.09364630281925201,
        -0.029053833335638046,
        0.11991744488477707,
        0.026210524141788483,
        -0.04845866188406944,
        0.02100316807627678,
        0.029360683634877205,
        0.02945510856807232,
        -0.03859487920999527,
        0.06898825615644455,
        -0.0408535934984684,
        0.10096904635429382
      ],
      [
        0.029015986248850822,
        -0.038785409182310104,
        -0.07695227861404419,
        0.09156162291765213,
        0.073809415102005,
        -0.0404796376824379,
        0.05001212656497955,
        0.020759589970111847,
        -0.030065003782510757,
        -0.019539888948202133,
        0.02070440724492073,
        0.12194088101387024,
        0.09781941026449203,
        -0.006924371235072613,
        0.137129545211792,
        0.08326302468776703,
        0.14755059778690338,
        -0.03752713277935982,
        0.07279133796691895,
        -0.045964352786540985,
        -0.026652483269572258,
        0.14419566094875336,
        0.0990036204457283,
        -0.024340974166989326,
        -0.006963891442865133,
        -0.06310009211301804,
        0.14294403791427612,
        0.08671125769615173,
        -0.07036547362804413,
        0.04764081537723541,
        0.05459054186940193,
        0.02702675759792328,
        -0.01885792799293995,
        0.06854286789894104,
        0.10963111370801926,
        0.07656329870223999,
        0.07597923278808594,
        -0.021170198917388916,
        0.09177335351705551,
        0.11509774625301361,
        0.15984393656253815,
        -0.0396154560148716,
        -0.021152233704924583,
        0.1409800499677658,
        0.10218257457017899,
        0.0559578612446785,
        0.1602741926908493,
        0.05558737739920616,
        0.16470181941986084,
        0.12805676460266113,
        0.10552921891212463,
        -0.05982080474495888,
        -0.06382668763399124,
        0.13893696665763855,
        0.0025280339177697897,
        0.07013212889432907,
        0.023263564333319664,
        0.02059868723154068,
        0.05298731476068497,
        -0.002955567091703415,
        0.014079269953072071,
        0.013645858503878117,
        0.16868317127227783,
        0.1689627319574356,
        0.1299663782119751,
        0.02226359024643898,
        0.20549969375133514,
        0.2123872935771942,
        0.0936240702867508,
        0.2040483057498932,
        0.18101170659065247,
        0.05735865607857704
      ],
      [
        0.1522923856973648,
        -0.010423047468066216,
        0.12461448460817337,
        -0.06737571954727173,
        -0.0378551259636879,
        -0.00757642462849617,
        0.004483819007873535,
        0.1341540515422821,
        -0.050560176372528076,
        -0.1081521213054657,
        -0.1134709045290947,
        0.062287893146276474,
        -0.03700355812907219,
        -0.11198501288890839,
        -0.14441411197185516,
        -0.03062019869685173,
        0.04487397149205208,
        -0.11288245767354965,
        0.0580517053604126,
        0.028582541272044182,
        0.07394877821207047,
        0.002910192823037505,
        0.1636207401752472,
        0.023010145872831345,
        0.1303410530090332,
        0.012756126932799816,
        -0.02215995267033577,
        -0.05708308890461922,
        0.13721348345279694,
        -0.001299271360039711,
        0.007305704057216644,
        -0.10024944692850113,
        0.014676354825496674,
        -0.09949332475662231,
        -0.13262714445590973,
        -0.1463206261396408,
        0.03160839527845383,
        -0.1585216224193573,
        -0.14874166250228882,
        0.038760095834732056,
        -0.13801756501197815,
        -0.04620607569813728,
        -0.06914033740758896,
        -0.07762273401021957,
        0.14110203087329865,
        0.01783498004078865,
        0.06270860880613327,
        0.1528571993112564,
        0.06102380156517029,
        0.05650780349969864,
        0.18647201359272003,
        0.03267188370227814,
        -0.06158826872706413,
        -0.06034412607550621,
        0.046935152262449265,
        -0.0825258195400238,
        -0.08144170045852661,
        -0.0848769024014473,
        -0.05729828402400017,
        0.004104267340153456,
        -0.07529501616954803,
        0.0022341455332934856,
        0.08305899798870087,
        -0.03821968659758568,
        -0.11817733943462372,
        -0.018677648156881332,
        0.056731414049863815,
        0.03723309561610222,
        0.10891807824373245,
        0.04799739643931389,
        0.05218861252069473,
        0.1262076050043106
      ],
      [
        0.044598538428545,
        -0.0033546274062246084,
        -0.06374908983707428,
        -0.06342699378728867,
        -0.10341236740350723,
        -0.12995867431163788,
        -0.07439114153385162,
        0.04571036994457245,
        0.010004721581935883,
        -0.08008759468793869,
        0.07003941386938095,
        -0.0794481709599495,
        -0.0592181496322155,
        0.10788124799728394,
        0.13584496080875397,
        -0.07662387937307358,
        0.06067601963877678,
        0.005204487591981888,
        0.12366402894258499,
        0.03144008666276932,
        -0.02021331898868084,
        -0.05223607271909714,
        -0.09621035307645798,
        0.0860290676355362,
        -0.075715072453022,
        -0.0478772409260273,
        -0.07363929599523544,
        0.07442022114992142,
        -0.02810375578701496,
        0.026192929595708847,
        -0.10116316378116608,
        -0.009677867405116558,
        0.07760534435510635,
        0.0801631286740303,
        -0.0952521339058876,
        0.040607474744319916,
        0.025889640673995018,
        -0.00393150607123971,
        0.10846198350191116,
        0.13454973697662354,
        0.13482901453971863,
        0.08143671602010727,
        0.13570263981819153,
        -0.11333756148815155,
        -0.09958349913358688,
        -0.10028641670942307,
        0.04242698475718498,
        0.028400881215929985,
        0.09663262218236923,
        -0.13314738869667053,
        -0.1263241022825241,
        0.028048470616340637,
        -0.09093741327524185,
        0.07809443026781082,
        0.020559631288051605,
        0.13988474011421204,
        -0.05403606593608856,
        -0.03589371591806412,
        -0.03854556381702423,
        -0.05787605419754982,
        0.054189302027225494,
        -0.04315691441297531,
        0.13038724660873413,
        0.07721684128046036,
        0.010419431142508984,
        -0.024188637733459473,
        -0.07290059328079224,
        0.03796733543276787,
        0.06414313614368439,
        -0.0712147206068039,
        0.10231070220470428,
        0.0681808739900589
      ],
      [
        0.05626636743545532,
        0.10987193882465363,
        -0.08277585357427597,
        0.0013840991305187345,
        -0.012430479750037193,
        0.11507467925548553,
        -0.07553594559431076,
        0.15612100064754486,
        0.004214601591229439,
        0.10951460152864456,
        0.08484524488449097,
        0.004813655279576778,
        0.11871638894081116,
        -0.062238700687885284,
        -0.04130513593554497,
        -0.0629083439707756,
        -0.06829655915498734,
        0.11787626892328262,
        -0.06537819653749466,
        -0.09418035298585892,
        0.08944658935070038,
        0.1202469989657402,
        -0.07724852114915848,
        0.028634240850806236,
        0.14785714447498322,
        0.045959677547216415,
        -0.045075155794620514,
        -0.06522593647241592,
        0.06787814944982529,
        0.014072624035179615,
        0.046683866530656815,
        0.05468296259641647,
        0.11943855881690979,
        0.05331507325172424,
        0.014253320172429085,
        0.002482954179868102,
        0.0889626145362854,
        0.07465947419404984,
        0.09042635560035706,
        0.07018424570560455,
        -0.05419385805726051,
        -0.10533392429351807,
        0.0624382346868515,
        -0.018445609137415886,
        -0.011044157668948174,
        0.1363803595304489,
        -0.09024849534034729,
        0.14856387674808502,
        0.153071790933609,
        0.10513593256473541,
        0.008512182161211967,
        -0.03215073049068451,
        0.08454789221286774,
        0.041683539748191833,
        0.07821062207221985,
        0.10774826258420944,
        0.025811826810240746,
        0.06273771822452545,
        0.04220040142536163,
        -0.09678516536951065,
        0.1219639703631401,
        0.09757199138402939,
        -0.10535731166601181,
        0.09123089909553528,
        -0.0362006239593029,
        0.03779382258653641,
        0.027023810893297195,
        -0.00814370159059763,
        0.02213934250175953,
        0.017777107656002045,
        0.11119309067726135,
        -0.033928368240594864
      ],
      [
        0.11476099491119385,
        0.04729870334267616,
        0.05456802621483803,
        -0.011915013194084167,
        -0.11142705380916595,
        0.053345292806625366,
        0.007510035764425993,
        -0.013709209859371185,
        0.06360664963722229,
        -0.11861858516931534,
        0.07810834050178528,
        -0.05273841693997383,
        -0.08861339092254639,
        0.04385353997349739,
        -0.10325741767883301,
        -0.12307080626487732,
        0.01949150674045086,
        0.06352987885475159,
        -0.06266197562217712,
        -0.058489058166742325,
        -0.10340780019760132,
        -0.10817047953605652,
        -0.04481939971446991,
        -0.06764282286167145,
        -0.06021396070718765,
        0.10729249566793442,
        0.0317821204662323,
        -0.05078798905014992,
        -0.10487665981054306,
        -0.07642769068479538,
        0.09046486765146255,
        -0.07180288434028625,
        -0.031013978645205498,
        0.01175746601074934,
        -0.04208437353372574,
        -0.12499590218067169,
        0.07633060961961746,
        0.05428265035152435,
        -0.05080297961831093,
        -0.0268242210149765,
        -0.09447983652353287,
        -0.08231543749570847,
        0.019080597907304764,
        -0.11397576332092285,
        0.00042746163671836257,
        -0.07595688849687576,
        0.08326409012079239,
        -0.09530054777860641,
        0.08147088438272476,
        0.12126435339450836,
        -0.004448728635907173,
        0.06958412379026413,
        -0.033784110099077225,
        -0.009151318110525608,
        0.0036274229642003775,
        0.14141583442687988,
        0.013940905220806599,
        0.10202015936374664,
        0.00834335945546627,
        0.04621691629290581,
        0.10509341955184937,
        -0.0797395408153534,
        -0.03422361612319946,
        -0.013032137416303158,
        -0.1093803197145462,
        -0.044745154678821564,
        0.09702509641647339,
        0.06993189454078674,
        0.038598980754613876,
        0.05061519145965576,
        0.0010925792157649994,
        0.14462043344974518
      ],
      [
        0.13056324422359467,
        0.08421546965837479,
        -0.003386847209185362,
        -0.09127616137266159,
        0.019055170938372612,
        -0.08068569004535675,
        0.03923819959163666,
        0.10901368409395218,
        -0.10682519525289536,
        -0.03153185173869133,
        0.08813483268022537,
        -0.08957577496767044,
        -0.08265528082847595,
        0.07050266861915588,
        0.08694299310445786,
        -0.10724178701639175,
        -0.037559203803539276,
        -0.03082742542028427,
        0.062141697853803635,
        -0.05062960088253021,
        0.03862088546156883,
        -0.031481772661209106,
        0.14320281147956848,
        -0.0060965437442064285,
        0.11309708654880524,
        -0.0807211622595787,
        0.07828940451145172,
        0.0599370077252388,
        0.08061228692531586,
        0.14104777574539185,
        0.10214965045452118,
        0.08392933011054993,
        -0.10417895764112473,
        -0.09697866439819336,
        0.04452760890126228,
        -0.09094759821891785,
        0.0019039725884795189,
        -0.1290217489004135,
        -0.05684543028473854,
        0.06858449429273605,
        -0.019855011254549026,
        -0.03955240920186043,
        0.12086553871631622,
        -0.0034198591019958258,
        -0.06624951213598251,
        0.026963990181684494,
        -0.07579242438077927,
        0.1264994591474533,
        -0.07840020209550858,
        0.10378757864236832,
        0.07358437031507492,
        -0.0529068186879158,
        -0.0469064861536026,
        0.11519157141447067,
        0.08803324401378632,
        -0.085764579474926,
        -0.018296238034963608,
        0.07171504944562912,
        0.034100934863090515,
        -0.033657658845186234,
        0.08297471702098846,
        -0.022302495315670967,
        0.13083139061927795,
        0.007772377226501703,
        -0.08129178732633591,
        -0.05633371323347092,
        -0.028749605640769005,
        -0.04825499653816223,
        0.05159607529640198,
        -0.03687158599495888,
        -0.020980093628168106,
        0.06954836845397949
      ],
      [
        0.056569065898656845,
        0.03595039248466492,
        -0.09548810124397278,
        -0.03930522873997688,
        0.0606812983751297,
        0.10037337243556976,
        -0.036601871252059937,
        -0.022274784743785858,
        -0.1260848194360733,
        0.033698175102472305,
        0.015792233869433403,
        -0.0759175717830658,
        0.05559337139129639,
        0.06830522418022156,
        -0.009768244810402393,
        -0.014803268946707249,
        0.05922397971153259,
        -0.05114739388227463,
        0.05724098160862923,
        0.07856172323226929,
        -0.025635765865445137,
        0.01435078028589487,
        0.01754031889140606,
        -0.05447715148329735,
        -0.03825930878520012,
        -0.09169325232505798,
        -0.11125818639993668,
        0.09743516892194748,
        -0.12200669944286346,
        0.02028893306851387,
        0.07761696726083755,
        0.11171133071184158,
        0.07793731987476349,
        -0.002678831107914448,
        -0.04721509665250778,
        0.07378805428743362,
        -0.12266777455806732,
        -0.08155334740877151,
        -0.0563025176525116,
        0.10280240327119827,
        0.08731822669506073,
        -0.01467338390648365,
        -0.05373126640915871,
        0.08558106422424316,
        0.10324016213417053,
        -0.03145352378487587,
        0.09374270588159561,
        -0.04216926544904709,
        0.05791132152080536,
        0.07570912688970566,
        -0.06100551784038544,
        -0.08218545466661453,
        -0.08139175921678543,
        -0.10914082080125809,
        -0.022988516837358475,
        -0.10280042886734009,
        0.010031899437308311,
        -0.11428717523813248,
        -0.09028086811304092,
        -0.06415262073278427,
        0.09729870408773422,
        0.005022597964853048,
        -0.06955906748771667,
        -0.10413255542516708,
        0.05972397327423096,
        0.02121972292661667,
        0.0055823116563260555,
        -0.031080011278390884,
        -0.05031184107065201,
        -0.1088099405169487,
        -0.050256405025720596,
        0.05370344966650009
      ],
      [
        0.03866768628358841,
        -0.012259339913725853,
        0.00816279649734497,
        -0.01777069829404354,
        -0.09502103924751282,
        -0.13348978757858276,
        -0.0007293387898243964,
        -0.046112772077322006,
        -0.05693041533231735,
        -0.11562912911176682,
        0.04650863632559776,
        -0.07311878353357315,
        -0.12169089913368225,
        0.08736602216959,
        -0.022107036784291267,
        0.0821218267083168,
        0.04825741425156593,
        -0.02225358597934246,
        -0.061946507543325424,
        -0.03506692498922348,
        -0.10284562408924103,
        0.062199804931879044,
        -0.01699054054915905,
        0.0766931101679802,
        0.047448623925447464,
        -6.24121748842299e-05,
        0.11784704029560089,
        -0.061192531138658524,
        0.11234045773744583,
        -0.09539684653282166,
        0.08449175953865051,
        -0.015550569631159306,
        0.08361416310071945,
        -0.02504582889378071,
        0.009205757640302181,
        -0.03350181132555008,
        0.08927444368600845,
        0.010644652880728245,
        0.012957688421010971,
        -0.08845502138137817,
        0.03271092101931572,
        0.061605002731084824,
        0.10928729176521301,
        -0.0490683875977993,
        0.009400835260748863,
        0.08452282845973969,
        -0.043394025415182114,
        -0.0638076663017273,
        0.09127410501241684,
        0.1292499303817749,
        0.07300075143575668,
        -0.09584016352891922,
        -0.10340020060539246,
        0.09436312317848206,
        0.039337437599897385,
        0.07139240205287933,
        0.12350360304117203,
        0.13108937442302704,
        0.1281583309173584,
        -0.06512905657291412,
        -0.06827985495328903,
        0.024452151730656624,
        -0.08154122531414032,
        0.10278206318616867,
        0.06635240465402603,
        0.08891512453556061,
        0.021069999784231186,
        0.0410844050347805,
        -0.01475632656365633,
        0.0015399656258523464,
        -0.04111962020397186,
        0.12373422086238861
      ],
      [
        0.07257615029811859,
        0.0697363018989563,
        0.04466143995523453,
        -0.0808451846241951,
        0.07392767816781998,
        -0.11434943974018097,
        -0.1439942568540573,
        -0.0062773870304226875,
        -0.1499585658311844,
        -0.05686870589852333,
        -0.09626206010580063,
        -0.07950747013092041,
        -0.027851508930325508,
        -0.11158598959445953,
        0.0666685700416565,
        -0.012882579118013382,
        -0.050469040870666504,
        -0.11232396215200424,
        0.04063140228390694,
        0.0818382203578949,
        0.052371952682733536,
        -0.10015728324651718,
        -0.11050228029489517,
        0.018277274444699287,
        0.014160397462546825,
        -0.009410619735717773,
        0.018845533952116966,
        0.037193555384874344,
        -0.12982727587223053,
        -0.015553269535303116,
        -0.07725825160741806,
        0.014744139276444912,
        -0.06272692233324051,
        -0.09660211205482483,
        0.008255219087004662,
        -0.016270171850919724,
        0.05674424022436142,
        -0.10897573083639145,
        -0.0814719870686531,
        -0.08751413226127625,
        0.03303009644150734,
        0.016721922904253006,
        -0.09581077098846436,
        -0.019714023917913437,
        -0.07293130457401276,
        0.018744301050901413,
        0.0597209632396698,
        0.11028124392032623,
        -0.03428306430578232,
        0.062292732298374176,
        0.09721685945987701,
        -0.10415570437908173,
        0.11787410825490952,
        0.05199155583977699,
        0.0988447368144989,
        -0.1271854043006897,
        -0.1094663143157959,
        0.0800914540886879,
        0.022713256999850273,
        -0.05894269421696663,
        0.09115039557218552,
        -0.09494099020957947,
        -0.09620323777198792,
        0.06556853652000427,
        -0.05162951350212097,
        -0.005557477008551359,
        0.12341023236513138,
        0.09085182100534439,
        -0.02787662483751774,
        0.07906246930360794,
        0.0466570220887661,
        0.029215846210718155
      ],
      [
        0.08908034861087799,
        0.12487485259771347,
        0.12846523523330688,
        -0.06927209347486496,
        -0.07925540208816528,
        0.06602253019809723,
        -0.018591314554214478,
        0.025082603096961975,
        -0.013301459141075611,
        -0.034443698823451996,
        -0.03893067687749863,
        -0.001995824510231614,
        0.09012448787689209,
        0.12980607151985168,
        -0.09088560193777084,
        -0.01031291764229536,
        0.10451972484588623,
        0.11961894482374191,
        -0.012133192270994186,
        0.0670786127448082,
        0.12249226868152618,
        0.007127369754016399,
        0.12537652254104614,
        0.058914538472890854,
        -0.043384063988924026,
        0.09159483760595322,
        0.020519280806183815,
        0.008185339160263538,
        0.05185439810156822,
        0.04992977902293205,
        0.07723892480134964,
        0.009007166139781475,
        0.09056335687637329,
        -0.02512945979833603,
        0.06907755136489868,
        0.10310487449169159,
        0.06655362993478775,
        0.07554704695940018,
        0.10271552205085754,
        0.125766783952713,
        0.03602074459195137,
        0.11214037239551544,
        0.08825834840536118,
        0.0032654667738825083,
        0.08572859317064285,
        0.09190995991230011,
        0.11669005453586578,
        0.019343828782439232,
        -0.09719334542751312,
        0.11835262179374695,
        0.06683632731437683,
        0.00898773968219757,
        0.044739387929439545,
        0.15449444949626923,
        0.16135616600513458,
        -0.04984095320105553,
        0.14349894225597382,
        0.026156725361943245,
        -0.06938251852989197,
        0.06214781105518341,
        0.03423599526286125,
        -0.0860072448849678,
        0.15877442061901093,
        0.045207805931568146,
        0.08342929184436798,
        0.09449606388807297,
        0.12679283320903778,
        0.1473931521177292,
        0.1130838617682457,
        -0.06347551196813583,
        -0.034074507653713226,
        0.01919478364288807
      ],
      [
        0.05856288596987724,
        -0.11650308966636658,
        -0.018778352066874504,
        0.05508897453546524,
        -0.12309743463993073,
        -0.026020454242825508,
        0.0743827298283577,
        -0.12580394744873047,
        -0.05487161874771118,
        -0.06181151792407036,
        0.044015251100063324,
        -0.047450143843889236,
        -0.03774823248386383,
        0.024808421730995178,
        -0.028141304850578308,
        0.011028931476175785,
        -0.09956184774637222,
        -0.0408589169383049,
        -0.018879655748605728,
        -0.11586057394742966,
        0.10011004656553268,
        0.08427567780017853,
        0.017657872289419174,
        0.02751215733587742,
        -0.11130774766206741,
        -0.07849053293466568,
        -0.11129351705312729,
        -0.06022167578339577,
        -0.018967313691973686,
        0.07123959809541702,
        0.019161149859428406,
        0.1014946848154068,
        -0.08203644305467606,
        0.07998085767030716,
        -0.09121701121330261,
        0.06050211191177368,
        0.0485544316470623,
        0.033030107617378235,
        -0.051079194992780685,
        -0.07325101643800735,
        -0.10193420946598053,
        -0.011136632412672043,
        0.13199923932552338,
        0.0884755477309227,
        0.08978410065174103,
        0.0272932481020689,
        0.06307060271501541,
        -0.0829896330833435,
        -0.04227573797106743,
        -0.08857102692127228,
        -0.02282322570681572,
        0.053076039999723434,
        0.08660011738538742,
        0.05973974987864494,
        -9.303362458012998e-05,
        -0.07174830883741379,
        0.07816064357757568,
        -0.03175133839249611,
        0.11260915547609329,
        0.002698675962164998,
        -0.06055125966668129,
        0.08199453353881836,
        0.12604130804538727,
        0.09066899120807648,
        0.009660186246037483,
        -0.07777199149131775,
        0.06843355298042297,
        0.12749330699443817,
        0.0545329712331295,
        -0.02170725353062153,
        0.16103553771972656,
        0.1021532490849495
      ],
      [
        -0.06428628414869308,
        0.08670780807733536,
        0.014515160582959652,
        0.03860539197921753,
        -0.12036774307489395,
        -0.049690131098032,
        -0.0757143422961235,
        -0.049366630613803864,
        0.030511073768138885,
        0.05049680918455124,
        0.09675131738185883,
        0.021436061710119247,
        0.04936937615275383,
        0.09764314442873001,
        0.09805861115455627,
        0.13031013309955597,
        0.005266453605145216,
        0.08819177001714706,
        0.03651463985443115,
        -0.07413329184055328,
        -0.0767345204949379,
        0.07495690882205963,
        0.07657047361135483,
        -0.03002198413014412,
        -0.0750274583697319,
        -0.06468421965837479,
        0.08724043518304825,
        0.017428448423743248,
        -0.008536605164408684,
        -0.023711267858743668,
        -0.06441758573055267,
        0.08661480993032455,
        0.008805301040410995,
        0.05371960997581482,
        0.029666302725672722,
        0.09769472479820251,
        0.11894485354423523,
        0.13726398348808289,
        -0.02727559767663479,
        0.013639384880661964,
        -0.07708653062582016,
        0.0016213528579100966,
        0.04956309497356415,
        0.08397267758846283,
        0.0235737431794405,
        0.10344948619604111,
        0.11211741715669632,
        0.11257848888635635,
        0.03788743540644646,
        -0.008807607926428318,
        -0.04886102303862572,
        0.039324045181274414,
        -0.10823622345924377,
        -0.09551137685775757,
        0.10892874747514725,
        -0.08731791377067566,
        -0.03658184036612511,
        0.1005411446094513,
        -0.014175440184772015,
        -0.032729070633649826,
        0.04683440178632736,
        0.045308202505111694,
        -0.04655882343649864,
        -0.0250799972563982,
        0.028416559100151062,
        0.04228503257036209,
        -0.022515641525387764,
        -0.0737687423825264,
        0.11308535188436508,
        -0.04397863894701004,
        0.13067519664764404,
        -0.029671605676412582
      ],
      [
        0.0407564751803875,
        -0.02721472829580307,
        0.13013315200805664,
        -0.06156580150127411,
        0.1546785831451416,
        0.1329323798418045,
        -0.007939588278532028,
        -0.04540187492966652,
        0.1352739930152893,
        0.02757744863629341,
        -0.07056678831577301,
        0.10882937908172607,
        0.09083475172519684,
        0.0322226956486702,
        -0.035435330122709274,
        0.044985976070165634,
        -0.10245530307292938,
        -0.04972130432724953,
        0.09970516711473465,
        0.003663104958832264,
        0.10050562769174576,
        -0.03767387568950653,
        0.10416162014007568,
        -0.035892900079488754,
        -0.027525797486305237,
        0.13389138877391815,
        0.030968623235821724,
        0.0633467435836792,
        0.07138471305370331,
        0.02270493656396866,
        0.09874037653207779,
        -0.06995236873626709,
        -0.06860435009002686,
        -0.03697008267045021,
        -0.027214666828513145,
        0.08566300570964813,
        -0.0850832536816597,
        -0.031069602817296982,
        -0.08687650412321091,
        -0.0031336680985987186,
        -0.06138748303055763,
        -0.0005808193236589432,
        -0.017712781205773354,
        0.07891988009214401,
        -0.10888537764549255,
        0.14323259890079498,
        0.10971115529537201,
        0.03092268668115139,
        -0.042824894189834595,
        0.02109473943710327,
        0.10736134648323059,
        0.042619653046131134,
        0.08873239159584045,
        -0.03999212011694908,
        0.04752489924430847,
        0.12805430591106415,
        0.0170435830950737,
        0.054674092680215836,
        -0.022894926369190216,
        -0.030027633532881737,
        0.0592031329870224,
        0.04838913679122925,
        -0.0556618869304657,
        -0.0796140506863594,
        -0.09521781653165817,
        0.006139669567346573,
        -0.06302275508642197,
        0.1209014505147934,
        0.13328243792057037,
        -0.06440356373786926,
        -0.0448182076215744,
        -0.003317596623674035
      ],
      [
        -0.04302098602056503,
        -0.0025112563744187355,
        0.05543836951255798,
        0.12249284982681274,
        0.12523354589939117,
        -0.010814491659402847,
        -0.0999256893992424,
        0.058467064052820206,
        0.06435627490282059,
        -0.10584914684295654,
        -0.04933350905776024,
        0.05121024698019028,
        0.0719369649887085,
        -0.06668012589216232,
        0.08771004527807236,
        -0.03559235483407974,
        -0.08025055378675461,
        0.09876860678195953,
        -0.08243024349212646,
        0.016188399866223335,
        -0.10560731589794159,
        0.07034943997859955,
        -0.08024677634239197,
        -0.11073877662420273,
        -0.10285931080579758,
        -0.06683823466300964,
        -0.04876704514026642,
        0.1111770048737526,
        0.10221811383962631,
        -0.05294543504714966,
        -0.056418195366859436,
        0.007055310066789389,
        -0.011720017530024052,
        0.1253538429737091,
        0.0016937960172072053,
        0.029284877702593803,
        0.12756112217903137,
        0.13397549092769623,
        -0.006462632212787867,
        -0.08321591466665268,
        0.12300501763820648,
        0.106071837246418,
        -0.05308843031525612,
        0.030981067568063736,
        -0.10126052051782608,
        0.026299580931663513,
        -0.07439056783914566,
        -0.10210815817117691,
        -0.053152650594711304,
        0.02257082797586918,
        -0.10057029873132706,
        -0.05800003185868263,
        0.09726119041442871,
        0.03597757965326309,
        0.08183188736438751,
        0.13687244057655334,
        0.06511484831571579,
        0.0314999520778656,
        -0.040316641330718994,
        -0.05837869644165039,
        -0.02254650741815567,
        0.13816125690937042,
        0.1414726972579956,
        0.003073854139074683,
        -0.04848356544971466,
        -0.08707494288682938,
        0.14987517893314362,
        0.13758520781993866,
        -0.004927880130708218,
        -0.03475545346736908,
        0.02024533972144127,
        -0.04709118977189064
      ],
      [
        0.14061135053634644,
        -0.08543651551008224,
        0.0511430986225605,
        0.09282165765762329,
        -0.06824548542499542,
        -0.05630849674344063,
        -0.07706654071807861,
        -0.05700850114226341,
        0.049721043556928635,
        -0.036415889859199524,
        0.02571987174451351,
        0.11692528426647186,
        0.07749884575605392,
        -0.08305132389068604,
        0.021740088239312172,
        0.10362697392702103,
        -0.03891463205218315,
        0.06646282225847244,
        0.012137019075453281,
        0.11697184294462204,
        0.08505149930715561,
        -0.062410030514001846,
        -0.033308252692222595,
        0.08476939052343369,
        -0.008632735349237919,
        0.013771998696029186,
        0.02531595341861248,
        0.11796102672815323,
        -0.09023996442556381,
        0.06769958138465881,
        -0.09050819277763367,
        0.132423996925354,
        0.09539159387350082,
        0.03377882018685341,
        0.13318389654159546,
        0.09671727567911148,
        -0.024710852652788162,
        -0.09163697808980942,
        -0.014847926795482635,
        0.12271922081708908,
        -0.09014058858156204,
        0.13420288264751434,
        0.12022243440151215,
        -0.03357210382819176,
        0.0652717649936676,
        -0.0072824107483029366,
        -0.04068323224782944,
        0.0023334005381911993,
        0.030247613787651062,
        0.016313035041093826,
        0.07120797038078308,
        -0.055422574281692505,
        -0.007126558572053909,
        0.018489476293325424,
        -0.05309015139937401,
        0.03549361228942871,
        -0.005778030958026648,
        0.07820865511894226,
        -0.034361060708761215,
        0.07495888322591782,
        -0.08762404322624207,
        0.1420985609292984,
        -0.09705188125371933,
        -0.057824477553367615,
        0.1417800337076187,
        0.038327474147081375,
        0.0995631217956543,
        0.1071280986070633,
        0.025040820240974426,
        -0.05965328961610794,
        0.1410481035709381,
        0.048598553985357285
      ],
      [
        0.018732765689492226,
        0.10421772301197052,
        0.07248886674642563,
        0.11861204355955124,
        0.0681859478354454,
        -0.05189574509859085,
        0.07383456826210022,
        0.03419847413897514,
        -0.06930948793888092,
        0.042219337075948715,
        -0.08926506340503693,
        -0.029877273365855217,
        0.13545341789722443,
        0.03482775390148163,
        0.10223626345396042,
        0.009555991739034653,
        0.08661447465419769,
        -0.04093402624130249,
        -0.10740121454000473,
        -0.05830426141619682,
        0.05752510204911232,
        -0.10479698330163956,
        -0.12399531900882721,
        -0.12485750764608383,
        0.042475953698158264,
        0.050000254064798355,
        0.01384999044239521,
        0.11879179626703262,
        -0.11059858649969101,
        -0.05284948647022247,
        0.11598651111125946,
        0.01772966980934143,
        -0.06782425940036774,
        0.07707148045301437,
        -0.05358957126736641,
        0.029379626736044884,
        0.11400222778320312,
        -0.0894521102309227,
        -0.10169368237257004,
        0.0894395112991333,
        -0.10271865129470825,
        -0.10357874631881714,
        -0.1069297268986702,
        -0.10430079698562622,
        -0.015423312783241272,
        -0.0033836739603430033,
        0.09865064918994904,
        0.050137829035520554,
        0.03232023864984512,
        -0.040142953395843506,
        -0.05371677875518799,
        0.0778619796037674,
        0.006153998896479607,
        -0.0410129614174366,
        0.16905853152275085,
        0.014748912304639816,
        -0.038665249943733215,
        0.15390542149543762,
        0.043503813445568085,
        0.02220332622528076,
        -0.02300388179719448,
        -0.05882718041539192,
        -0.07645145058631897,
        0.050374552607536316,
        0.06697814166545868,
        -0.012347397394478321,
        -0.08431904762983322,
        0.1165069118142128,
        0.07036404311656952,
        -0.07544883340597153,
        0.09613834321498871,
        -0.034298431128263474
      ],
      [
        0.03931790217757225,
        -0.03321442753076553,
        -0.004989216104149818,
        -0.060872551053762436,
        0.1425655484199524,
        0.11462847143411636,
        0.11757896095514297,
        -0.05861806124448776,
        -0.08032142370939255,
        0.1335037499666214,
        0.03804483264684677,
        0.09885495901107788,
        -0.048219818621873856,
        0.039057452231645584,
        0.07874266803264618,
        0.005840644706040621,
        0.11506759375333786,
        -0.07738104462623596,
        0.014214149676263332,
        0.07011885195970535,
        -0.09923385083675385,
        -0.09943965822458267,
        0.08039142191410065,
        0.13484030961990356,
        -0.05710778012871742,
        0.01869218610227108,
        0.08990779519081116,
        0.04795002564787865,
        -0.050586167722940445,
        -0.07049503177404404,
        0.06303720921278,
        0.08017811924219131,
        0.12129606306552887,
        0.11460229754447937,
        0.06621181219816208,
        0.09052078425884247,
        0.062107350677251816,
        -0.12438618391752243,
        0.05469119921326637,
        0.07502294331789017,
        -0.028817344456911087,
        -0.02347288466989994,
        0.028712287545204163,
        0.11886763572692871,
        0.02583756111562252,
        0.12888675928115845,
        0.1431935876607895,
        -0.026984574273228645,
        0.056235067546367645,
        -0.013406469486653805,
        0.02223598212003708,
        0.0834038257598877,
        -0.0013412892585620284,
        -0.061778489500284195,
        0.061703648418188095,
        0.03539634868502617,
        0.014040124602615833,
        0.08449117094278336,
        0.07113300263881683,
        -0.04280407354235649,
        0.14041033387184143,
        0.020821085199713707,
        0.12463326007127762,
        -0.05118570476770401,
        0.1321748048067093,
        0.044995419681072235,
        0.024681517854332924,
        -0.07325010001659393,
        -0.04195907711982727,
        -0.07782075554132462,
        0.09367155283689499,
        0.12925846874713898
      ],
      [
        -0.04150170460343361,
        -0.05428081005811691,
        -0.036187782883644104,
        0.11049726605415344,
        0.044316790997982025,
        0.0648052990436554,
        -0.10060396045446396,
        0.0551738440990448,
        -0.07820224016904831,
        -0.07994978874921799,
        -0.02559281699359417,
        0.12390738725662231,
        -0.055934254080057144,
        -0.1176760271191597,
        0.09746664762496948,
        -0.034853965044021606,
        -0.10884959995746613,
        -0.11562685668468475,
        -0.010722300969064236,
        -0.05876360088586807,
        -0.1358177661895752,
        -0.08637674897909164,
        -0.13390330970287323,
        -0.07134898006916046,
        -0.10588914901018143,
        -0.0868840366601944,
        -0.058588169515132904,
        -0.10547288507223129,
        -0.05682894214987755,
        -0.04205137491226196,
        0.11460845172405243,
        0.010929829441010952,
        -0.027569837868213654,
        0.0730774998664856,
        0.07091422379016876,
        0.09719892591238022,
        0.11102406680583954,
        0.05266852304339409,
        -0.07087098062038422,
        -0.09357455372810364,
        -0.11002431064844131,
        -0.03458345681428909,
        -0.10423480719327927,
        0.03568905591964722,
        -0.06435675173997879,
        0.10411272197961807,
        0.06654853373765945,
        0.03336336091160774,
        -3.525876672938466e-05,
        -0.12098120898008347,
        -0.0658646896481514,
        -0.0032030276488512754,
        0.1043514683842659,
        0.014628555625677109,
        0.004388213157653809,
        0.02078716829419136,
        -0.020119979977607727,
        -0.06791439652442932,
        -0.008798659779131413,
        0.04942768067121506,
        0.14287611842155457,
        -0.023186028003692627,
        -0.024013526737689972,
        0.06501897424459457,
        0.11655426025390625,
        0.08811092376708984,
        0.07094766199588776,
        -0.041279811412096024,
        0.09620019793510437,
        -0.0532132051885128,
        -0.05781023949384689,
        -0.08905435353517532
      ],
      [
        0.07764413207769394,
        -0.018097765743732452,
        -0.13165798783302307,
        0.003934497479349375,
        0.009670690633356571,
        0.030459631234407425,
        -0.045981064438819885,
        -0.03619275242090225,
        0.054008740931749344,
        -0.039092209190130234,
        -0.022420216351747513,
        0.14026042819023132,
        -0.013380898162722588,
        0.03940311074256897,
        -0.008242021314799786,
        0.08579356968402863,
        0.08814822137355804,
        0.04064381122589111,
        0.05671551078557968,
        -0.0912991613149643,
        -0.08492878824472427,
        -0.08433280885219574,
        0.10110100358724594,
        -0.11165677756071091,
        -0.1257985383272171,
        -0.08037905395030975,
        -0.021098963916301727,
        -0.13516248762607574,
        -0.05327451974153519,
        0.03286707028746605,
        0.04984845221042633,
        -0.080166757106781,
        -0.025507565587759018,
        -0.0064065479673445225,
        0.030870521441102028,
        0.10771413147449493,
        0.14306394755840302,
        0.13497671484947205,
        -0.08558518439531326,
        0.0592174157500267,
        0.10977709293365479,
        0.09134714305400848,
        -0.1135929673910141,
        -0.07262108474969864,
        -0.05911797657608986,
        -0.08541355282068253,
        0.05156095698475838,
        -0.07969550043344498,
        -0.08298642188310623,
        0.044603388756513596,
        0.07432343810796738,
        -0.09372539073228836,
        -0.11723535507917404,
        0.0009430474019609392,
        0.13268513977527618,
        -0.029573047533631325,
        0.11757531017065048,
        0.08151492476463318,
        0.05188741907477379,
        0.12033210694789886,
        0.07386066764593124,
        0.13833585381507874,
        -0.07341814786195755,
        -0.07102882117033005,
        0.013962965458631516,
        0.03626894950866699,
        -0.04509861022233963,
        -0.015404063276946545,
        -0.08590216189622879,
        0.12373903393745422,
        0.09523459523916245,
        -0.08077404648065567
      ],
      [
        0.04326513782143593,
        -0.05553815886378288,
        0.03535480797290802,
        0.050906334072351456,
        0.03690081834793091,
        0.005426402669399977,
        0.07052446901798248,
        0.07189580798149109,
        -0.14321917295455933,
        -0.09558071941137314,
        -0.1284111887216568,
        -0.10528413951396942,
        -0.04340752959251404,
        -0.08072824031114578,
        0.05192882567644119,
        0.0723784789443016,
        -0.040740642696619034,
        0.06846707314252853,
        -0.10650511085987091,
        -0.02105647139251232,
        -0.031048443168401718,
        0.0636875331401825,
        -0.1062081903219223,
        -0.009756006300449371,
        0.0826350674033165,
        -0.10969895124435425,
        0.017307935282588005,
        0.021395007148385048,
        -0.15346191823482513,
        -0.006377702113240957,
        -0.09637299925088882,
        -0.14960482716560364,
        -0.1317739188671112,
        -0.05174765735864639,
        0.07501673698425293,
        0.011737311258912086,
        -0.06609483063220978,
        -0.04644600674510002,
        0.025072570890188217,
        -0.016979217529296875,
        0.11295867711305618,
        -0.048620305955410004,
        0.08084790408611298,
        -0.001686586532741785,
        -0.10341551899909973,
        -0.019468171522021294,
        -0.10562153905630112,
        -0.11540921777486801,
        -0.10925443470478058,
        0.005864322185516357,
        -0.009477551095187664,
        0.033676877617836,
        -0.01783311739563942,
        -0.0903719812631607,
        0.09069860726594925,
        0.025950895622372627,
        -0.005201700143516064,
        -0.11687933653593063,
        0.08334523439407349,
        -0.09506045281887054,
        -0.06004530191421509,
        -0.06561198085546494,
        -0.09554917365312576,
        0.03383193910121918,
        0.12164469808340073,
        -0.07525523006916046,
        0.090816929936409,
        0.10223522037267685,
        -0.01894218847155571,
        -0.01506703719496727,
        0.02336300164461136,
        0.08826819807291031
      ],
      [
        -0.043225474655628204,
        0.11365707218647003,
        -0.023972000926733017,
        -0.046544671058654785,
        0.037424154579639435,
        0.012152552604675293,
        -0.07859281450510025,
        0.07380800694227219,
        -0.08224206417798996,
        -0.0594572052359581,
        -0.0022992980666458607,
        0.019075218588113785,
        -0.040483590215444565,
        0.00413680961355567,
        0.09984123706817627,
        -0.023311495780944824,
        -0.1115461066365242,
        -0.0716480240225792,
        -0.03867371007800102,
        -0.09121746569871902,
        0.0004693178925663233,
        -0.11154011636972427,
        0.08461592346429825,
        0.11613652110099792,
        -0.029338983818888664,
        0.03969297930598259,
        0.03199866786599159,
        -0.008532420732080936,
        0.027057362720370293,
        0.10447483509778976,
        0.11770527809858322,
        -0.03167491406202316,
        -0.04511263221502304,
        0.002916369354352355,
        -0.0793166533112526,
        -0.013407308608293533,
        -0.10034061223268509,
        0.035224948078393936,
        0.08991546928882599,
        0.1088549941778183,
        -0.0715445876121521,
        -0.04431696981191635,
        0.08553091436624527,
        -0.1295098066329956,
        0.04812418296933174,
        0.06897427141666412,
        -0.08820625394582748,
        0.0029151763301342726,
        -0.0752992182970047,
        -0.05800551921129227,
        0.07499256730079651,
        -0.02152157761156559,
        -0.0293373204767704,
        0.1589232087135315,
        -0.03202437609434128,
        0.09448734670877457,
        -0.029924187809228897,
        0.0538184680044651,
        0.13988199830055237,
        0.04535866156220436,
        0.031303130090236664,
        -0.0020588005427271128,
        0.12860991060733795,
        0.008788466453552246,
        0.08093392103910446,
        0.12715615332126617,
        0.00538431853055954,
        -0.030398782342672348,
        0.1400483250617981,
        -0.07515896111726761,
        0.038332730531692505,
        0.0013577822828665376
      ],
      [
        0.09264715760946274,
        0.05244620144367218,
        0.009758712723851204,
        0.08510228991508484,
        0.11242587864398956,
        -0.10036399960517883,
        0.07757476717233658,
        -0.05099831894040108,
        0.10044369846582413,
        -0.12674610316753387,
        -0.13647417724132538,
        -0.1285496950149536,
        0.0023154965601861477,
        -0.10211268067359924,
        0.06496132910251617,
        -0.10242131352424622,
        0.024320654571056366,
        -0.11786976456642151,
        0.014166844077408314,
        -0.023294132202863693,
        -0.02237294614315033,
        0.04014376178383827,
        -0.09094937145709991,
        -0.05040411278605461,
        0.08704734593629837,
        -0.03617548197507858,
        0.034447990357875824,
        0.008531133644282818,
        0.04942179471254349,
        -0.11811384558677673,
        0.03372856229543686,
        -0.0023735251743346453,
        0.1044602170586586,
        0.08291389048099518,
        0.09229771047830582,
        0.0022308644838631153,
        0.0369267612695694,
        0.043844327330589294,
        -0.0713844746351242,
        0.02709311619400978,
        -0.05929790809750557,
        0.04532784968614578,
        0.020716607570648193,
        -0.05035308375954628,
        0.01713249832391739,
        -0.12304802238941193,
        0.10604557394981384,
        0.010235289111733437,
        -0.06387349218130112,
        -0.0026033176109194756,
        -0.0793464332818985,
        -0.04002698138356209,
        -0.07300151139497757,
        0.019108988344669342,
        0.10584694892168045,
        0.02406768500804901,
        -0.09872400015592575,
        -0.0026708561927080154,
        -0.1233658567070961,
        0.03987183794379234,
        -0.05676417425274849,
        0.02460574544966221,
        0.02474505640566349,
        -0.02840035781264305,
        0.040871795266866684,
        -0.041593100875616074,
        -0.10547450929880142,
        0.015158378519117832,
        -0.14003925025463104,
        0.032871127128601074,
        -0.003026772988960147,
        0.09371569752693176
      ],
      [
        -0.03481566905975342,
        0.08030501008033752,
        -0.016208477318286896,
        0.035554543137550354,
        -0.050409212708473206,
        0.10057561099529266,
        0.07527358084917068,
        -0.057009853422641754,
        -0.12028373777866364,
        -0.12121931463479996,
        -0.06882384419441223,
        0.09740332514047623,
        0.09584420174360275,
        -0.11399301886558533,
        -0.10238591581583023,
        -0.0776979848742485,
        0.007043292745947838,
        0.01256281603127718,
        0.08894464373588562,
        -0.11423960328102112,
        -0.08908216655254364,
        0.109451524913311,
        0.06468923389911652,
        -0.10148175060749054,
        0.11001826077699661,
        -0.024919884279370308,
        0.02672504261136055,
        -0.02991328574717045,
        0.040536317974328995,
        -0.017206987366080284,
        -0.02366895228624344,
        0.0616912767291069,
        0.10605154186487198,
        -0.004500410053879023,
        -0.0334283672273159,
        0.0003336008812766522,
        0.047756314277648926,
        -0.08121991902589798,
        -0.035217925906181335,
        -0.1417471468448639,
        0.03468574583530426,
        -0.01647866703569889,
        0.0640183612704277,
        -0.06521643698215485,
        -0.035190872848033905,
        0.09599129110574722,
        -0.022838465869426727,
        0.07206165790557861,
        -0.03900422155857086,
        -0.09217128157615662,
        -0.04683542624115944,
        0.009200317785143852,
        0.15097421407699585,
        0.10561560839414597,
        0.0035062350798398256,
        -0.03252130374312401,
        -0.12199877947568893,
        -0.016459526494145393,
        -0.13285791873931885,
        -0.09042857587337494,
        -0.08881298452615738,
        0.030806971713900566,
        0.05369086563587189,
