{
  "model_architecture": {
    "input_size": 72,
    "hidden_size": 64,
    "output_size": 24,
    "num_layers": 1
  },
  "parameters": {
    "lstm.weight_ih_l0": [
      [
        -0.09120722860097885,
        -0.0033675346057862043,
        -0.08584199100732803,
        -0.04792224243283272,
        0.08747537434101105,
        -0.03676053509116173,
        0.06701945513486862,
        0.11957267671823502,
        -0.0032450812868773937,
        -0.061077602207660675,
        0.014091149903833866,
        -0.008465670980513096,
        -0.12062370777130127,
        -0.11085546016693115,
        0.11363278329372406,
        0.06490959972143173,
        0.10191528499126434,
        -0.07772839814424515,
        -0.033314138650894165,
        -0.10212907195091248,
        -0.06026757135987282,
        0.10308985412120819,
        0.01484622061252594,
        0.06661541759967804,
        -0.0575273260474205,
        -0.06533267349004745,
        -0.06630411744117737,
        0.11848815530538559,
        0.007666019722819328,
        0.12561950087547302,
        0.039453569799661636,
        0.10988651216030121,
        0.12451013922691345,
        0.012827006168663502,
        0.027846772223711014,
        0.06755572557449341,
        -0.10188424587249756,
        0.13821037113666534,
        0.08336596935987473,
        0.06701625138521194,
        0.08199024200439453,
        -0.06953707337379456,
        0.13827617466449738,
        -0.015003570355474949,
        -0.0912824422121048,
        -0.11013887822628021,
        -0.06950642168521881,
        0.10467135161161423,
        -0.06820980459451675,
        -0.023546837270259857,
        0.1338949352502823,
        0.03744899109005928,
        0.07695962488651276,
        -0.1014082208275795,
        -0.036091580986976624,
        0.1356971710920334,
        0.007805401924997568,
        -0.08666010200977325,
        -0.0821031853556633,
        0.06397000700235367,
        0.062291402369737625,
        -0.04501490294933319,
        -0.08060740679502487,
        0.06669527292251587,
        -0.055347926914691925,
        0.1330745816230774,
        0.026531698182225227,
        0.006760412361472845,
        0.07647719234228134,
        -0.032179560512304306,
        -0.03304193913936615,
        0.009649245999753475
      ],
      [
        -0.12616094946861267,
        -0.13460484147071838,
        -0.05830938741564751,
        -0.1337517350912094,
        0.058241382241249084,
        -0.029440660029649734,
        0.02645479515194893,
        -0.11627142876386642,
        -0.13824301958084106,
        0.01414569839835167,
        0.09992212802171707,
        0.025457287207245827,
        0.04252053424715996,
        0.012121054343879223,
        0.056008633226156235,
        -0.05853026732802391,
        -0.10725605487823486,
        0.05979086458683014,
        0.03641190007328987,
        -0.08445680886507034,
        0.004887612536549568,
        -0.10835233330726624,
        -0.12408923357725143,
        -0.1347077190876007,
        0.03170095756649971,
        0.03753576800227165,
        -0.12049773335456848,
        -0.04074549302458763,
        -0.007543293293565512,
        -0.1284751296043396,
        0.0020237655844539404,
        -0.04294128343462944,
        0.026180081069469452,
        0.004490172956138849,
        -0.01474397350102663,
        -0.03985351324081421,
        -0.04199850186705589,
        -0.07412154227495193,
        -0.0882292166352272,
        -0.03924731910228729,
        -0.07298481464385986,
        -0.03311719372868538,
        0.07644740492105484,
        0.08551535755395889,
        0.06071598827838898,
        0.027048205956816673,
        -0.060703352093696594,
        -0.03801143169403076,
        -0.006099357735365629,
        -0.03853222355246544,
        0.0038126646541059017,
        -0.05017847567796707,
        0.10810747742652893,
        0.045779112726449966,
        0.08556678891181946,
        -0.024662945419549942,
        0.0852244421839714,
        -0.11901344358921051,
        -0.11713388562202454,
        -0.09434446692466736,
        0.061039332300424576,
        0.08768977969884872,
        -0.13483069837093353,
        -0.019766470417380333,
        -0.1123385950922966,
        -0.02203122153878212,
        -0.12017589062452316,
        0.023300668224692345,
        0.00984326470643282,
        -0.021966025233268738,
        -0.10066726058721542,
        0.028094664216041565
      ],
      [
        -0.09576333314180374,
        0.051976222544908524,
        -0.023249920457601547,
        -0.05266768857836723,
        -0.01860387623310089,
        0.017510388046503067,
        0.08098006248474121,
        -0.09539132565259933,
        0.08033129572868347,
        0.02741236425936222,
        -0.13069039583206177,
        0.07897961139678955,
        0.01131556648761034,
        -0.02779451757669449,
        -0.10206203907728195,
        0.10463622212409973,
        -0.04236801341176033,
        0.0390237532556057,
        0.04789343476295471,
        0.006784246768802404,
        0.024601221084594727,
        0.024828260764479637,
        0.08224660903215408,
        0.1014217659831047,
        -0.030339045450091362,
        0.05138399079442024,
        -0.04582727700471878,
        0.07765822112560272,
        0.09817434102296829,
        -0.060815684497356415,
        -0.04948169365525246,
        -0.04582981392741203,
        0.029388127848505974,
        -0.02735934779047966,
        -0.11130155622959137,
        -0.11350324749946594,
        0.0678054690361023,
        0.08704259246587753,
        0.049012135714292526,
        0.06972697377204895,
        -0.10089801251888275,
        0.05530405044555664,
        0.02126733586192131,
        0.01567317172884941,
        -0.12787538766860962,
        -0.11725211888551712,
        0.04761708900332451,
        0.08437206596136093,
        -0.025056982412934303,
        -0.004892044235020876,
        0.10220746695995331,
        -0.06471305340528488,
        -0.11413683742284775,
        0.017082098871469498,
        0.07972867041826248,
        0.04986053705215454,
        -0.11583579331636429,
        0.01610322669148445,
        -0.12591776251792908,
        0.09856567531824112,
        -0.03452546149492264,
        0.03625679388642311,
        -0.1431136429309845,
        0.003722876077517867,
        -0.036019690334796906,
        -0.09717506915330887,
        -0.06579219549894333,
        -0.06324129551649094,
        0.002664187690243125,
        -0.11273663491010666,
        -0.03344082459807396,
        -0.07105007767677307
      ],
      [
        -0.04711737483739853,
        -0.08842805027961731,
        0.08524373918771744,
        0.011522750370204449,
        0.09143058210611343,
        0.07755772769451141,
        0.06815379858016968,
        0.020219091325998306,
        -0.09508097171783447,
        -0.09051771461963654,
        0.03820989653468132,
        0.06292057782411575,
        -0.08391281217336655,
        -0.10814952105283737,
        0.10009589046239853,
        -0.019786467775702477,
        -0.003016723319888115,
        -0.12226088345050812,
        -0.09304306656122208,
        -0.12232332676649094,
        -0.12858818471431732,
        0.08873345702886581,
        0.10350275039672852,
        0.04581565409898758,
        -0.12830467522144318,
        -0.09747205674648285,
        -0.006858835928142071,
        0.07384297251701355,
        -0.08720187097787857,
        0.07676782459020615,
        -0.11961505562067032,
        0.12897615134716034,
        -0.02221451885998249,
        0.09069541841745377,
        -0.08518067002296448,
        -0.05391519516706467,
        0.07115202397108078,
        0.12712536752223969,
        -0.05365081876516342,
        0.012000949122011662,
        -0.012804846279323101,
        0.04598861187696457,
        -0.04905065894126892,
        -0.01944061554968357,
        -0.09153863042593002,
        -0.04164695739746094,
        -0.08119411766529083,
        0.021475782617926598,
        -0.0284834336489439,
        0.12428242713212967,
        0.06179269775748253,
        -0.08290725946426392,
        0.011112815700471401,
        -0.022328445687890053,
        -0.04869088903069496,
        0.06289363652467728,
        -0.04846157878637314,
        -0.026628170162439346,
        -0.038460880517959595,
        0.028606092557311058,
        -0.09402437508106232,
        0.07635108381509781,
        0.14089958369731903,
        0.0052206553518772125,
        0.006671796552836895,
        0.13153305649757385,
        0.054766252636909485,
        -0.037243615835905075,
        0.051139526069164276,
        0.010898547247052193,
        0.00942032877355814,
        0.14476363360881805
      ],
      [
        0.1258271336555481,
        -0.060181304812431335,
        0.05786794796586037,
        0.1378520280122757,
        -0.02974431775510311,
        0.1022752895951271,
        0.12215151637792587,
        -0.07827045768499374,
        -0.07285718619823456,
        0.1133924350142479,
        -0.020049376413226128,
        0.07912545651197433,
        -0.09765546768903732,
        0.04031318053603172,
        0.11514672636985779,
        0.13478969037532806,
        0.09365849196910858,
        0.12356501817703247,
        0.11825115233659744,
        -0.053124960511922836,
        -0.09192535281181335,
        0.05116111785173416,
        -0.0830165222287178,
        0.03347954526543617,
        -0.0725824162364006,
        0.10355303436517715,
        0.04566758871078491,
        0.0037177838385105133,
        -0.079530730843544,
        0.11159470677375793,
        0.054834142327308655,
        0.08299563825130463,
        0.12314756959676743,
        -0.0712423324584961,
        0.12369940429925919,
        0.1162790060043335,
        -0.09027508646249771,
        -0.029745515435934067,
        -0.047410737723112106,
        0.040752165019512177,
        0.11848185956478119,
        -0.02384067326784134,
        0.1399286985397339,
        0.07888132333755493,
        0.10089452564716339,
        0.05129467695951462,
        0.030410554260015488,
        0.0009287495631724596,
        -0.05082560330629349,
        -0.04093245044350624,
        -0.07780857384204865,
        0.1252828687429428,
        -0.026517748832702637,
        -0.05945780873298645,
        -0.06926842778921127,
        0.020708536729216576,
        0.08748505264520645,
        0.02404419332742691,
        -0.057900503277778625,
        0.13992011547088623,
        0.01655725948512554,
        -0.0737253725528717,
        0.04198063164949417,
        0.10290295630693436,
        -0.0351424515247345,
        -0.0352412685751915,
        -0.0030104327015578747,
        -0.0572669543325901,
        0.1494448482990265,
        0.11708686500787735,
        -0.05466233566403389,
        0.11969010531902313
      ],
      [
        -0.05705631151795387,
        -0.061134401708841324,
        0.02961224503815174,
        -0.10155581682920456,
        0.06854130327701569,
        0.038280703127384186,
        0.10442203283309937,
        -0.07743009179830551,
        -0.04135629162192345,
        0.0257063377648592,
        -0.093266062438488,
        0.01629842072725296,
        -0.03692375123500824,
        -0.12871971726417542,
        -0.09309054911136627,
        -0.04666326567530632,
        0.09014002978801727,
        0.03781203553080559,
        -0.10409600287675858,
        0.10242416709661484,
        0.0645608901977539,
        0.01752561144530773,
        -0.11303439736366272,
        -0.0427338145673275,
        0.038903944194316864,
        -0.05431374907493591,
        -0.11404886841773987,
        -0.06544814258813858,
        -0.12161777913570404,
        0.0923604965209961,
        0.07257315516471863,
        0.03926074504852295,
        0.07881154119968414,
        0.1008705198764801,
        -0.0303259938955307,
        0.013555862940847874,
        0.06944851577281952,
        0.09300477057695389,
        -0.12008972465991974,
        -0.0068501499481499195,
        0.09008197486400604,
        0.0838402733206749,
        -0.06867650151252747,
        -0.11864205449819565,
        0.03868870064616203,
        0.10510430485010147,
        -0.010828334838151932,
        0.05792193114757538,
        0.12331610172986984,
        -0.08013888448476791,
        -0.0713694766163826,
        -0.05924069881439209,
        0.06083714962005615,
        0.08241898566484451,
        0.0217830091714859,
        -0.0775630921125412,
        -0.06360475718975067,
        -0.0024424369912594557,
        -0.10893228650093079,
        0.059729769825935364,
        0.08458588272333145,
        0.10974108427762985,
        -0.09424334764480591,
        0.07849182188510895,
        0.029485927894711494,
        -0.10328113287687302,
        -0.06387586146593094,
        -0.08199837058782578,
        0.005549526773393154,
        0.06731429696083069,
        -0.01777651160955429,
        -0.0022453146521002054
      ],
      [
        0.010831627994775772,
        -0.03927670046687126,
        0.052999116480350494,
        0.027069147676229477,
        0.01229665707796812,
        0.027788400650024414,
        0.10732726007699966,
        -0.08846668899059296,
        0.0965564176440239,
        0.011394340544939041,
        0.09458736330270767,
        -0.022929783910512924,
        -0.041702546179294586,
        0.06332192569971085,
        0.05115962028503418,
        0.06792069971561432,
        -0.03296913579106331,
        -0.08806021511554718,
        -0.079294353723526,
        0.1174621433019638,
        0.010985258035361767,
        -0.01038375310599804,
        -0.04398159310221672,
        0.03125745803117752,
        0.12555070221424103,
        0.11418965458869934,
        0.010510486550629139,
        0.005901649594306946,
        -0.08495321869850159,
        -0.08984225243330002,
        0.12495474517345428,
        0.07821424305438995,
        -0.017891129478812218,
        -0.013076597824692726,
        0.0998065397143364,
        0.06053931638598442,
        0.08818386495113373,
        -0.07169149070978165,
        -0.018094725906848907,
        0.10608619451522827,
        -0.058539099991321564,
        -0.014243092387914658,
        -0.08569147437810898,
        0.11396411806344986,
        0.1065383329987526,
        -0.048726726323366165,
        0.037925537675619125,
        0.02514178492128849,
        -0.09619560092687607,
        -0.011428369209170341,
        0.04682838171720505,
        -0.07878671586513519,
        -0.07433850318193436,
        -0.09736118465662003,
        0.05081572383642197,
        -0.06611740589141846,
        -0.09237111359834671,
        -0.08582072705030441,
        0.13881656527519226,
        0.06092565134167671,
        0.03370402008295059,
        -0.08666858822107315,
        -0.0021405471488833427,
        -0.017443547025322914,
        0.11645278334617615,
        0.003387862117961049,
        -0.049017470329999924,
        0.05420830473303795,
        -0.06016445904970169,
        0.03586055338382721,
        0.04452724754810333,
        -0.020066075026988983
      ],
      [
        0.09724344313144684,
        -0.08641445636749268,
        -0.09862848371267319,
        -0.07059928774833679,
        -0.09475112706422806,
        -0.08612386882305145,
        0.026970943436026573,
        -0.10402616858482361,
        -0.03788535296916962,
        -0.11685317754745483,
        0.09191203117370605,
        0.12577173113822937,
        -0.047016438096761703,
        0.09720538556575775,
        0.06433223187923431,
        0.07089066505432129,
        -0.10155797004699707,
        -0.11792575567960739,
        0.08593626320362091,
        -0.0031147077679634094,
        -0.031178489327430725,
        -0.059540409594774246,
        0.08174080401659012,
        0.07033581286668777,
        0.03322655335068703,
        0.029824012890458107,
        -0.025725947692990303,
        -0.023214712738990784,
        0.0934206172823906,
        -0.10747624933719635,
        0.03458308428525925,
        0.06587669998407364,
        0.12544797360897064,
        -0.03021637536585331,
        0.06705673038959503,
        -0.04790043458342552,
        0.01309258583933115,
        -0.09856301546096802,
        -0.008568227291107178,
        -0.007270378060638905,
        -0.023012327030301094,
        0.016936590895056725,
        -0.034496285021305084,
        0.046348974108695984,
        0.07784976065158844,
        -0.0009867786429822445,
        -0.0999659076333046,
        0.0075491853058338165,
        0.12089623510837555,
        0.05475608631968498,
        0.01268668845295906,
        0.10237869620323181,
        -0.06127505004405975,
        -0.07237932085990906,
        0.007462452165782452,
        0.017466938123106956,
        0.12701980769634247,
        -0.04438621923327446,
        -0.09345045685768127,
        -0.10724539309740067,
        -0.0687735453248024,
        0.1407446712255478,
        0.07737856358289719,
        0.03204859420657158,
        -0.026945944875478745,
        0.01637943834066391,
        0.10807567089796066,
        0.10832513123750687,
        0.09411592781543732,
        0.12746389210224152,
        -0.03144431486725807,
        0.09707269817590714
      ],
      [
        -0.05262487009167671,
        0.07246113568544388,
        -0.0458044670522213,
        0.06401772052049637,
        -0.1117105633020401,
        -0.09001418948173523,
        0.02009369619190693,
        0.11450976878404617,
        0.11759188026189804,
        0.05983776971697807,
        0.00745786540210247,
        -0.07886675745248795,
        0.05341877415776253,
        -0.040362682193517685,
        -0.08782289177179337,
        0.060200877487659454,
        -0.07011482864618301,
        -0.08420359343290329,
        0.10998499393463135,
        0.06607598811388016,
        -0.1009649932384491,
        0.027042891830205917,
        0.1003892719745636,
        -0.08262351900339127,
        0.08533074706792831,
        0.04535529762506485,
        -0.03136850893497467,
        0.09150765836238861,
        -0.03008432127535343,
        -0.09375907480716705,
        -0.013545858673751354,
        -0.055898137390613556,
        -0.023673040792346,
        -0.12141463160514832,
        0.01784035563468933,
        -0.1192408874630928,
        -0.04058251529932022,
        0.05835167318582535,
        -0.0074060275219380856,
        -0.10404475033283234,
        -0.05937531217932701,
        -0.021294446662068367,
        0.11318524181842804,
        -0.08702974766492844,
        0.08039750903844833,
        0.06239838898181915,
        0.11533845216035843,
        -0.11331427842378616,
        -0.09760560095310211,
        0.06534234434366226,
        -0.08281838893890381,
        -0.009025010280311108,
        -0.0008774060988798738,
        0.026920631527900696,
        0.01663726195693016,
        0.11464619636535645,
        -0.10771621018648148,
        0.041446980088949203,
        -0.015574390068650246,
        0.02737903594970703,
        0.08228768408298492,
        0.1293455809354782,
        0.043294284492731094,
        0.0574822872877121,
        0.12881134450435638,
        0.057467199862003326,
        -0.07374852895736694,
        -0.031864430755376816,
        -0.006741964258253574,
        0.09768298268318176,
        -0.03917336091399193,
        0.12091810256242752
      ],
      [
        -0.059501904994249344,
        0.03579612076282501,
        -0.020363928750157356,
        -0.12167283147573471,
        -0.10512245446443558,
        -0.1215415745973587,
        -0.09883879870176315,
        0.11549188196659088,
        -0.026833167299628258,
        0.015880316495895386,
        0.049988098442554474,
        -0.12101129442453384,
        -0.07736179977655411,
        0.010005156509578228,
        -0.024076314643025398,
        -0.02927470952272415,
        -0.06638436764478683,
        -0.08632978796958923,
        -0.0937933474779129,
        -0.1220678761601448,
        -0.023959482088685036,
        0.08925655484199524,
        0.014397566206753254,
        -0.002270868280902505,
        0.0749722272157669,
        -0.12230118364095688,
        -0.05641404166817665,
        -0.0865408256649971,
        0.09150401502847672,
        -0.03443324565887451,
        -0.04352129250764847,
        -0.1134595274925232,
        0.08138618618249893,
        -0.062210265547037125,
        0.06991834193468094,
        0.08249440789222717,
        -0.01171120721846819,
        -0.09296189248561859,
        0.06725186109542847,
        0.11085910350084305,
        0.003538122633472085,
        0.008222859352827072,
        0.044016674160957336,
        -0.06683731824159622,
        0.11842084676027298,
        -0.11187632381916046,
        0.007380443159490824,
        -0.010149667039513588,
        -0.09725147485733032,
        0.009843525476753712,
        0.11758735030889511,
        0.11840882897377014,
        0.043589647859334946,
        -0.05574527755379677,
        -0.04091232270002365,
        0.04453247785568237,
        0.11866229772567749,
        0.008829208090901375,
        0.13369935750961304,
        0.07612401992082596,
        -0.02168382704257965,
        0.05311658978462219,
        0.0008667758665978909,
        0.07857146114110947,
        0.06140008941292763,
        -0.04757225140929222,
        0.01444845087826252,
        -0.04287194833159447,
        0.09399230033159256,
        -0.020704885944724083,
        -0.021865881979465485,
        -0.007741091772913933
      ],
      [
        -0.06786035001277924,
        -0.10036177188158035,
        -0.05858634039759636,
        0.008071172051131725,
        -0.09247244894504547,
        0.0942106768488884,
        0.014222654514014721,
        -0.07392415404319763,
        0.038580432534217834,
        -0.0958021953701973,
        -0.10865171998739243,
        -0.08811803162097931,
        -0.0911102294921875,
        -0.05174100771546364,
        -5.057317321188748e-05,
        0.072200246155262,
        0.04151919111609459,
        0.0022879536263644695,
        -0.03924187645316124,
        -0.011614099144935608,
        -0.09096517413854599,
        0.08595915138721466,
        -0.036088522523641586,
        -0.11780907213687897,
        -0.03441149368882179,
        -0.05107928812503815,
        -0.046766091138124466,
        0.026350827887654305,
        -0.07395634800195694,
        -0.08136102557182312,
        0.09283038973808289,
        0.12657514214515686,
        0.020452937111258507,
        0.09704034775495529,
        -0.05128002166748047,
        -0.09194419533014297,
        0.1070256158709526,
        -0.01930774562060833,
        -0.04853922128677368,
        -0.08666956424713135,
        0.08576620370149612,
        -0.04344969615340233,
        -0.08055221289396286,
        -0.08883583545684814,
        -0.0622856542468071,
        -0.0414062924683094,
        -0.05409187078475952,
        0.054623693227767944,
        -0.04106108099222183,
        -0.03898342698812485,
        0.045949649065732956,
        0.07585864514112473,
        -0.017622901126742363,
        0.08174201101064682,
        0.12749165296554565,
        0.13928179442882538,
        -0.03022894449532032,
        0.02709580399096012,
        0.07943764328956604,
        -0.03051086887717247,
        0.11864284425973892,
        0.1199340671300888,
        -0.08742537349462509,
        0.036819856613874435,
        0.1375395655632019,
        -0.040046028792858124,
        0.0032419362105429173,
        -0.04620189964771271,
        0.13138975203037262,
        0.03003849647939205,
        0.09738067537546158,
        0.06585966795682907
      ],
      [
        -0.05350915342569351,
        0.0748356431722641,
        0.0517885722219944,
        -0.1030527725815773,
        0.03975541517138481,
        0.04457049444317818,
        -0.11576933413743973,
        -0.01793176494538784,
        0.017671318724751472,
        0.13497668504714966,
        0.12812700867652893,
        0.0579349659383297,
        -0.08994962275028229,
        -0.02120145782828331,
        0.019060447812080383,
        0.0522841215133667,
        0.005132180172950029,
        0.0765971690416336,
        -0.05898067727684975,
        0.11105963587760925,
        -0.015660027042031288,
        0.023010801523923874,
        -0.025187792256474495,
        -0.0729699581861496,
        0.10168490558862686,
        0.08809124678373337,
        -0.0015267784474417567,
        0.07604837417602539,
        -0.09739511460065842,
        -0.040888167917728424,
        -0.0985419750213623,
        -0.08990499377250671,
        0.025319242849946022,
        0.11081226170063019,
        0.02482554502785206,
        0.07721385359764099,
        -0.0795680582523346,
        -0.028495265170931816,
        -0.041133783757686615,
        -0.10332439094781876,
        0.09604959189891815,
        0.01990770921111107,
        0.012072996236383915,
        0.06300640106201172,
        0.01927345059812069,
        0.03688579052686691,
        0.007064769044518471,
        0.05082488805055618,
        0.04246548190712929,
        -0.10110356658697128,
        0.10377415269613266,
        0.04639285057783127,
        -0.047782063484191895,
        -0.054462406784296036,
        0.031380366533994675,
        -0.023650724440813065,
        -0.03718554228544235,
        -0.09799370169639587,
        0.017523029819130898,
        0.08528359234333038,
        0.041902657598257065,
        -0.08358746767044067,
        0.12688736617565155,
        -0.07540977746248245,
        0.060629360377788544,
        -0.03136363998055458,
        -0.07773108035326004,
        0.07984019070863724,
        -0.07356280833482742,
        0.042234957218170166,
        -0.006406084168702364,
        0.03682143986225128
      ],
      [
        0.07737263292074203,
        -0.018021995201706886,
        -0.10694937407970428,
        -0.011920466087758541,
        -0.10185213387012482,
        -0.031426697969436646,
        0.0013586642453446984,
        0.007825913839042187,
        0.04533716291189194,
        -0.013009910471737385,
        0.05374598503112793,
        0.05476509779691696,
        -0.0682196170091629,
        0.04412059485912323,
        0.023398593068122864,
        0.0076383803971111774,
        0.07531237602233887,
        0.12023147940635681,
        -0.018959512934088707,
        0.08696917444467545,
        -0.04796510189771652,
        -0.051874805241823196,
        0.10770855098962784,
        0.030443020164966583,
        0.05193402245640755,
        0.01775287091732025,
        0.10828482359647751,
        -0.0009536981233395636,
        -0.09872651845216751,
        -0.07573602348566055,
        -0.1334092766046524,
        -0.03266284987330437,
        0.08460792154073715,
        0.12112154811620712,
        0.0030621844343841076,
        -0.0053072283044457436,
        0.004290615674108267,
        0.09926583617925644,
        0.06300083547830582,
        0.04200274869799614,
        0.07138915359973907,
        -0.061926260590553284,
        -0.025016523897647858,
        0.06863897293806076,
        -0.03874804079532623,
        -0.03630610555410385,
        -0.019008493050932884,
        0.07229353487491608,
        -0.09081479907035828,
        -0.03894659876823425,
        -0.08298773318529129,
        0.03657190874218941,
        -0.07972926646471024,
        0.08149123191833496,
        -0.08186175674200058,
        -0.0739668682217598,
        0.11515385657548904,
        0.030463330447673798,
        0.006673381198197603,
        0.012904399074614048,
        -0.039507582783699036,
        0.15938502550125122,
        -0.01990404725074768,
        0.10596004128456116,
        0.1799534410238266,
        0.11916296184062958,
        0.05708032101392746,
        0.10471175611019135,
        -0.01313659455627203,
        0.1142088770866394,
        -0.07596112042665482,
        0.009947603568434715
      ],
      [
        0.04536258801817894,
        -0.08557141572237015,
        -0.040192726999521255,
        0.0051688626408576965,
        0.01287088543176651,
        0.07275820523500443,
        -0.09149742126464844,
        -0.041224975138902664,
        0.02703186683356762,
        0.04248089715838432,
        -0.09633251279592514,
        0.06755457818508148,
        0.12449393421411514,
        -0.041031450033187866,
        0.09527397155761719,
        -0.047932401299476624,
        0.10326942056417465,
        0.04525865614414215,
        0.11489187926054001,
        -0.07186874747276306,
        -0.07679828256368637,
        -0.10297304391860962,
        -0.06920244544744492,
        0.08907242119312286,
        -0.034531086683273315,
        0.1306142956018448,
        0.10585293173789978,
        0.04294224828481674,
        0.1350260078907013,
        0.13237997889518738,
        0.021956970915198326,
        0.012689866125583649,
        -0.037818145006895065,
        0.061930250376462936,
        -0.020183993503451347,
        0.11825663596391678,
        0.06681966036558151,
        0.13595303893089294,
        0.010787497274577618,
        0.06078053638339043,
        -0.08336593210697174,
        -0.06332723796367645,
        -0.09459082782268524,
        -0.08402858674526215,
        -0.01399221457540989,
        0.011216993443667889,
        0.1368662416934967,
        -0.10451491922140121,
        0.02088610641658306,
        -0.015150986611843109,
        -0.0002498220419511199,
        0.019374888390302658,
        0.12619084119796753,
        0.09778047353029251,
        0.04667362570762634,
        0.14442116022109985,
        0.10779163241386414,
        0.07641234248876572,
        -0.032483261078596115,
        -0.010501531884074211,
        0.04129728674888611,
        -0.08962929993867874,
        0.038041144609451294,
        0.09051475673913956,
        0.06553592532873154,
        -0.0859270766377449,
        0.043825577944517136,
        0.019249022006988525,
        0.06833634525537491,
        -0.06162691488862038,
        0.04056058079004288,
        -0.05223921313881874
      ],
      [
        0.010826176032423973,
        0.08112365007400513,
        -0.01972220093011856,
        -0.11804325133562088,
        -0.06054190918803215,
        0.05158333107829094,
        -0.018028533086180687,
        -0.05824292078614235,
        0.07058853656053543,
        0.10385596007108688,
        -0.08118166774511337,
        -0.006806477904319763,
        -0.07837396115064621,
        0.04360887408256531,
        -0.07209517061710358,
        -0.07565047591924667,
        -0.14204590022563934,
        0.027778195217251778,
        -0.12341052293777466,
        -0.01342652179300785,
        0.04050507768988609,
        -0.06941788643598557,
        -0.022245492786169052,
        0.09734565764665604,
        0.01499977521598339,
        -0.09985966235399246,
        -0.05238194018602371,
        -0.10232164710760117,
        -0.04503476992249489,
        -0.08518367260694504,
        0.005203671753406525,
        0.07095684111118317,
        -0.06216762214899063,
        -0.0407673679292202,
        0.05751984566450119,
        -0.0011509830364957452,
        -0.037060827016830444,
        0.027156470343470573,
        -0.09716304391622543,
        0.07059548050165176,
        -0.06307759881019592,
        0.02351595275104046,
        -0.0339784100651741,
        -0.05944859981536865,
        -0.01625668630003929,
        0.007311757188290358,
        -0.09156982600688934,
        -0.09436167776584625,
        0.10098917037248611,
        0.10250251740217209,
        -0.005999899469316006,
        0.03553886339068413,
        0.05108850449323654,
        0.03582745045423508,
        -0.010759269818663597,
        0.020256005227565765,
        -0.0028833714313805103,
        -0.027693472802639008,
        -0.076688751578331,
        0.06694477796554565,
        -0.06930578500032425,
        -0.060875412076711655,
        0.08832104504108429,
        -0.0683508813381195,
        -0.035661593079566956,
        0.06772854924201965,
        -0.053939469158649445,
        0.09019410610198975,
        -0.0704997181892395,
        -0.11148031055927277,
        -0.0799529179930687,
        0.024240432307124138
      ],
      [
        -0.055464331060647964,
        0.06363706290721893,
        0.04254613071680069,
        -0.04546845704317093,
        0.07970826327800751,
        0.06361352652311325,
        -0.07643462717533112,
        -0.027739480137825012,
        -0.061897557228803635,
        -0.01500791683793068,
        -0.1014622300863266,
        0.03425408899784088,
        -0.08550573885440826,
        0.07390925288200378,
        0.09996464848518372,
        0.09587154537439346,
        0.07146051526069641,
        0.010890321806073189,
        0.10843817889690399,
        -0.12234780192375183,
        -0.07014470547437668,
        0.04887203872203827,
        -0.10770482569932938,
        -0.06703156977891922,
        -0.1209571436047554,
        -0.012107166461646557,
        0.09890824556350708,
        -0.044627901166677475,
        0.04267142713069916,
        0.05981716886162758,
        -0.11369886994361877,
        0.03074982948601246,
        -0.09815702587366104,
        0.004392503760755062,
        0.07919766753911972,
        0.00028268061578273773,
        0.12678410112857819,
        0.07970922440290451,
        -0.06139162927865982,
        0.024640338495373726,
        0.06770478934049606,
        0.10509181767702103,
        -0.09411820024251938,
        -0.0628306120634079,
        -0.07564026117324829,
        0.059002991765737534,
        -0.11748762428760529,
        -0.03629535436630249,
        -0.016475973650813103,
        0.021483760327100754,
        -0.07550376653671265,
        0.09913676232099533,
        0.049103595316410065,
        -0.011252512224018574,
        -0.00600289786234498,
        -0.11039860546588898,
        -0.1098853051662445,
        -0.011071374639868736,
        0.12307749688625336,
        0.11316744983196259,
        0.05391113832592964,
        0.06933910399675369,
        -0.031381260603666306,
        -0.09995679557323456,
        0.025119459256529808,
        0.12319784611463547,
        0.015431595034897327,
        0.04261724278330803,
        0.10422883182764053,
        0.06563735753297806,
        -0.08516494929790497,
        -0.04549887776374817
      ],
      [
        -0.09741275757551193,
        -0.011308247223496437,
        0.10572029650211334,
        -0.05644902586936951,
        -0.00022497508325614035,
        0.09051563590765,
        0.039446618407964706,
        0.06752847135066986,
        -0.03137357160449028,
        -0.057397954165935516,
        -0.046766262501478195,
        -0.03964821994304657,
        0.09251787513494492,
        0.08046793937683105,
        0.004938723053783178,
        -0.13411131501197815,
        -0.011403589509427547,
        0.06043793261051178,
        -0.07575923204421997,
        -0.08342666178941727,
        -0.03143651410937309,
        -0.015585623681545258,
        0.07027911394834518,
        0.10205665230751038,
        -0.04221620038151741,
        -0.13928112387657166,
        0.021450333297252655,
        -0.00550713948905468,
        0.06094364449381828,
        -0.10896911472082138,
        -0.015992602333426476,
        -0.06910185515880585,
        -0.14739780128002167,
        0.05152382701635361,
        -0.035899605602025986,
        0.01882508583366871,
        -0.051272451877593994,
        -0.016017254441976547,
        -0.11122152954339981,
        0.11691270023584366,
        -0.03747698292136192,
        0.08955472707748413,
        0.0854870155453682,
        0.07717861235141754,
        -0.0469922311604023,
        0.07539593428373337,
        0.04854623228311539,
        -0.001373945502564311,
        -0.044863052666187286,
        -0.1496478021144867,
        0.04815373197197914,
        0.014058313332498074,
        0.07762046158313751,
        -0.12300897389650345,
        0.027878865599632263,
        0.008975758217275143,
        -0.11676570773124695,
        0.07750752568244934,
        -0.012075289152562618,
        0.09937572479248047,
        0.019797874614596367,
        -0.005592770874500275,
        0.02063220553100109,
        0.10624012351036072,
        -0.07456598430871964,
        0.10982992500066757,
        0.025621572509407997,
        -0.052066948264837265,
        0.07239893823862076,
        0.07930662482976913,
        0.037754982709884644,
        -0.05569601431488991
      ],
      [
        -0.06195877492427826,
        0.08616918325424194,
        -0.07558199018239975,
        -0.029100794345140457,
        5.938476533629e-05,
        0.024497132748365402,
        -0.07441410422325134,
        0.015950754284858704,
        0.0065972935408353806,
        0.006973469629883766,
        -0.08304168283939362,
        -0.11462897062301636,
        -0.12802326679229736,
        -0.13957875967025757,
        -0.09588886797428131,
        0.052360400557518005,
        -0.05989948660135269,
        0.04787662252783775,
        -0.03994026035070419,
        -0.15247628092765808,
        -0.08526007831096649,
        -0.03073454275727272,
        -0.0308853592723608,
        0.04203370213508606,
        -0.09363443404436111,
        -0.05843844264745712,
        0.02038806863129139,
        0.09656859934329987,
        -0.10920724272727966,
        -0.05544309318065643,
        0.00597778195515275,
        -0.11410726606845856,
        0.04927166923880577,
        -0.08408217132091522,
        -0.15587686002254486,
        0.055911242961883545,
        -0.07583420723676682,
        -0.10205262154340744,
        -0.11755495518445969,
        0.008459100499749184,
        -0.10025209933519363,
        -0.06504470854997635,
        -0.10600543767213821,
        0.040274977684020996,
        -0.0626719743013382,
        0.06661735475063324,
        -0.11459068953990936,
        -0.0641859844326973,
        -0.09173400700092316,
        -0.06451252847909927,
        0.10051201283931732,
        -0.1322634220123291,
        -0.10431180894374847,
        -0.12699344754219055,
        0.06047090142965317,
        -0.128219336271286,
        -0.07091989368200302,
        -0.06917577981948853,
        0.06888068467378616,
        0.023507963865995407,
        0.0349058173596859,
        -0.07482269406318665,
        -0.03282830864191055,
        -0.08257821202278137,
        0.06882912665605545,
        0.00722175557166338,
        -0.01997034065425396,
        -0.028898470103740692,
        -0.08412140607833862,
        0.14308491349220276,
        0.08856002241373062,
        0.12526355683803558
      ],
      [
        -0.1440495103597641,
        -0.0328298956155777,
        -0.024154584854841232,
        -0.044452328234910965,
        -0.004867257550358772,
        -0.08887046575546265,
        -0.010708220303058624,
        -0.026317574083805084,
        -0.10354726761579514,
        -0.059728194028139114,
        0.06001351401209831,
        0.05581630766391754,
        0.01732732728123665,
        0.003995489329099655,
        -0.05941767990589142,
        0.07449152320623398,
        0.08790524303913116,
        -0.15057697892189026,
        0.006089179310947657,
        -0.11154519021511078,
        -0.10850558429956436,
        -0.12148355692625046,
        -0.048673152923583984,
        -0.015281486324965954,
        -0.09835082292556763,
        -0.14607113599777222,
        -0.005990000441670418,
        -0.09889829903841019,
        0.005797902587801218,
        -0.0918838232755661,
        0.08900830149650574,
        0.06453713029623032,
        0.01656360551714897,
        -0.0953373908996582,
        -0.005943599622696638,
        -0.018626829609274864,
        -0.02047981694340706,
        -0.05044257640838623,
        0.05421171709895134,
        -0.06665036827325821,
        -0.07972730696201324,
        -0.05214068666100502,
        0.07381723821163177,
        -0.06827613711357117,
        -0.022643499076366425,
        -0.11180327832698822,
        -0.11620207875967026,
        -0.05627506226301193,
        0.015232447534799576,
        -0.06138795614242554,
        -0.07836292684078217,
        -0.03238663077354431,
        -0.08169329911470413,
        -0.1102699562907219,
        -0.07399953156709671,
        -0.1175035685300827,
        -0.013979192823171616,
        0.055355191230773926,
        0.02644665539264679,
        0.012213601730763912,
        0.08020909130573273,
        -0.1550072282552719,
        0.0873446986079216,
        0.032973501831293106,
        -0.12101888656616211,
        -0.07834141701459885,
        0.011280130594968796,
        0.04147787019610405,
        -0.050754349678754807,
        0.061651576310396194,
        0.035362377762794495,
        -0.11167731881141663
      ],
      [
        0.08748352527618408,
        0.08423976600170135,
        0.07786357402801514,
        0.026555165648460388,
        0.06679472327232361,
        0.05497866868972778,
        0.015516974963247776,
        -0.06963831931352615,
        -0.10846852511167526,
        -0.009771204553544521,
        0.044615816324949265,
        0.04456966370344162,
        -0.03740795701742172,
        0.06396801024675369,
        -0.011530812829732895,
        -0.02877679280936718,
        -0.09101978689432144,
        -0.045030590146780014,
        0.07856191694736481,
        -0.08349839597940445,
        -0.07821281254291534,
        -0.04316107928752899,
        -0.10658660531044006,
        -0.0817277655005455,
        -0.13355471193790436,
        0.03798568993806839,
        -0.11317276209592819,
        -0.08027379959821701,
        0.02645852603018284,
        0.10047560930252075,
        -0.08429103344678879,
        -0.12040245532989502,
        -0.09648726135492325,
        -0.0016636558575555682,
        0.010457524098455906,
        -0.023680781945586205,
        -0.09827858209609985,
        0.09516501426696777,
        0.058701276779174805,
        -0.1374565064907074,
        -0.1259802281856537,
        0.01717906817793846,
        -0.13021209836006165,
        0.023839794099330902,
        -0.07609746605157852,
        0.05122388154268265,
        0.08056207001209259,
        0.013660011813044548,
        0.03047114983201027,
        -0.12170012295246124,
        -0.04529709741473198,
        -0.037420373409986496,
        0.10634095966815948,
        0.00831715390086174,
        0.09258100390434265,
        0.10291693359613419,
        -0.0058907815255224705,
        0.02730919048190117,
        -0.026196373626589775,
        -0.10991092026233673,
        -0.004180453717708588,
        -0.11577554792165756,
        -0.02214927226305008,
        -0.12269645184278488,
        0.09354140609502792,
        0.05994025990366936,
        -0.037677012383937836,
        -0.09249452501535416,
        -0.1274498552083969,
        0.00236068619415164,
        -0.04499783366918564,
        -0.0792827159166336
      ],
      [
        -0.10302001982927322,
        -0.09385530650615692,
        0.005126435309648514,
        0.11855870485305786,
        -0.007496263831853867,
        -0.104830302298069,
        0.11455834656953812,
        -0.09492683410644531,
        -0.017555421218276024,
        0.0964675024151802,
        0.13000312447547913,
        -0.05377388000488281,
        0.12666067481040955,
        0.1283111721277237,
        0.07128488272428513,
        0.09808636456727982,
        -0.1131739690899849,
        0.12574729323387146,
        0.09889405965805054,
        0.012972993776202202,
        0.041787851601839066,
        0.12513338029384613,
        0.05360200256109238,
        -0.08023332059383392,
        0.1014191135764122,
        0.01178873423486948,
        -0.11280576139688492,
        -0.05818251892924309,
        0.042038507759571075,
        7.620691758347675e-05,
        0.02946970798075199,
        -0.014874095097184181,
        -0.05937444046139717,
        -0.03425084054470062,
        0.002310066483914852,
        -0.062108010053634644,
        0.0043082572519779205,
        -0.07842864096164703,
        0.07114415615797043,
        0.13213256001472473,
        -0.08390799164772034,
        -0.07083271443843842,
        0.138626366853714,
        0.015315857715904713,
        0.01654241606593132,
        0.11872164905071259,
        0.0784727931022644,
        0.03288916498422623,
        0.023564813658595085,
        -0.06785199791193008,
        -0.04451366886496544,
        -0.035247527062892914,
        -0.0785529613494873,
        0.14100615680217743,
        0.07126367837190628,
        0.07527827471494675,
        0.004792097955942154,
        0.020461739972233772,
        0.07178837060928345,
        -0.09176680445671082,
        0.08639910817146301,
        0.054378896951675415,
        0.014748450368642807,
        0.03769870847463608,
        0.05403195694088936,
        0.12039485573768616,
        0.13529329001903534,
        0.08646100014448166,
        -0.05037706345319748,
        0.07172954082489014,
        0.12694749236106873,
        0.057642798870801926
      ],
      [
        0.052510034292936325,
        -0.08923861384391785,
        -0.04262344166636467,
        -0.07335727661848068,
        -0.06299901008605957,
        -0.05153761804103851,
        -0.05172720551490784,
        0.007177877239882946,
        -0.06337632238864899,
        -0.03930572420358658,
        -0.01138520147651434,
        -0.10241861641407013,
        0.08903271704912186,
        0.10291670262813568,
        -0.02694871462881565,
        -0.0910639762878418,
        0.04203232750296593,
        0.07682294398546219,
        0.020133931189775467,
        0.015273487195372581,
        0.024299761280417442,
        0.11913542449474335,
        -0.07612869888544083,
        0.11428947746753693,
        0.11375051736831665,
        -0.06575660407543182,
        0.06929133832454681,
        0.060222093015909195,
        0.06661064177751541,
        0.019556041806936264,
        -0.10570428520441055,
        0.06126631796360016,
        -0.08553103357553482,
        0.10708428174257278,
        0.07047519832849503,
        0.051235876977443695,
        -0.015960896387696266,
        0.007535070646554232,
        0.03740062937140465,
        0.11927774548530579,
        0.08642904460430145,
        0.015818515792489052,
        -0.06362524628639221,
        0.003354909596964717,
        -0.057438381016254425,
        -0.043833162635564804,
        0.10686896741390228,
        0.12672573328018188,
        0.04306537285447121,
        -0.03437850624322891,
        -0.061213672161102295,
        -0.044424425810575485,
        -0.0766039490699768,
        0.06260611116886139,
        -0.02110924944281578,
        -0.023862693458795547,
        0.04214911162853241,
        -0.08312255144119263,
        0.015253867954015732,
        0.10750073194503784,
        -0.07862407714128494,
        0.06090046837925911,
        0.06670783460140228,
        0.0903877466917038,
        0.12211762368679047,
        -0.016748690977692604,
        -0.04087154194712639,
        0.12917156517505646,
        0.046599410474300385,
        0.1487109214067459,
        -0.06654740869998932,
        0.005518210586160421
      ],
      [
        0.018249385058879852,
        0.025391897186636925,
        0.031538791954517365,
        0.022987311705946922,
        0.0404653325676918,
        -0.02254611998796463,
        -0.01219856459647417,
        -0.0669429674744606,
        0.0341801717877388,
        -0.09695805609226227,
        -0.012848606333136559,
        0.04018538072705269,
        -0.061304185539484024,
        -0.01974770426750183,
        -0.12900805473327637,
        0.04763573408126831,
        -0.012568783015012741,
        -0.06773868948221207,
        -0.010353718884289265,
        0.07714363932609558,
        0.06317765265703201,
        -0.05365918204188347,
        -0.013461043126881123,
        0.04071453958749771,
        0.11831888556480408,
        -0.010401085019111633,
        -0.09352335333824158,
        -0.061040736734867096,
        0.05009973421692848,
        0.029424602165818214,
        0.03152189403772354,
        0.07114666700363159,
        0.001423694659024477,
        -0.022538652643561363,
        0.06429699808359146,
        -0.09232544153928757,
        -0.13632875680923462,
        -0.03620753437280655,
        0.07600045204162598,
        0.07532664388418198,
        -0.1068369597196579,
        0.03217431530356407,
        0.003680508816614747,
        -0.122568279504776,
        -0.045717474073171616,
        0.09691164642572403,
        -0.014616467989981174,
        0.05016209930181503,
        -0.017169734463095665,
        0.09329874813556671,
        0.01619434729218483,
        -0.11813118308782578,
        -0.12249958515167236,
        0.048511654138565063,
        -0.1374630182981491,
        -0.10657176375389099,
        -0.031056132167577744,
        -0.12786437571048737,
        0.01368723064661026,
        0.05573257803916931,
        0.029523955658078194,
        0.08920736610889435,
        -0.06477247178554535,
        0.013334637507796288,
        -0.10424327850341797,
        0.03632858023047447,
        0.07229191064834595,
        -0.07582709938287735,
        -0.13144493103027344,
        0.06842520087957382,
        0.00322212977334857,
        0.06846340000629425
      ],
      [
        0.010136636905372143,
        -0.06189987435936928,
        0.052435602992773056,
        -0.0021083117462694645,
        0.03872106969356537,
        0.06438124179840088,
        0.04000627249479294,
        -0.08944063633680344,
        -0.033640988171100616,
        -0.09157800674438477,
        0.038825538009405136,
        -0.06635995954275131,
        0.04821661114692688,
        -0.07460159063339233,
        0.11907456815242767,
        0.06648880243301392,
        -0.027652911841869354,
        0.005685639567673206,
        0.03265578672289848,
        0.12068022787570953,
        -0.08034923672676086,
        0.08435454219579697,
        0.022342499345541,
        0.03501294180750847,
        0.032384417951107025,
        -0.017484614625573158,
        -0.06871640682220459,
        0.002730604261159897,
        -0.02021903730928898,
        -0.07729607075452805,
        0.02840118296444416,
        0.013290355913341045,
        0.12206516414880753,
        -0.03949785605072975,
        -0.05400469899177551,
        0.08263739943504333,
        0.06716805696487427,
        0.09145183116197586,
        -0.0074582770466804504,
        -0.11621074378490448,
        0.036268096417188644,
        -0.010070260614156723,
        -0.0021949498914182186,
        -0.001777441008016467,
        0.06029155105352402,
        -0.0178326778113842,
        0.041030749678611755,
        0.005549904890358448,
        -0.06558557599782944,
        -0.10755196213722229,
        0.049032699316740036,
        -0.018573986366391182,
        0.0052373758517205715,
        -0.056519515812397,
        0.08879610896110535,
        0.04376247525215149,
        0.10328765958547592,
        -0.027217084541916847,
        0.09610752016305923,
        -0.07100669294595718,
        -0.038447942584753036,
        -0.0622980073094368,
        -0.08852189034223557,
        -0.09041871130466461,
        -0.01079567801207304,
        -0.08480145782232285,
        0.06396418809890747,
        0.019694367423653603,
        0.08088407665491104,
        -0.007103684823960066,
        -0.08126136660575867,
        0.053938210010528564
      ],
      [
        0.10115209966897964,
        0.10374987870454788,
        0.006142341531813145,
        0.0534619577229023,
        -0.06026073545217514,
        -0.09506193548440933,
        -0.051782965660095215,
        0.02707870490849018,
        -0.054886385798454285,
        -0.05163463577628136,
        -0.0057045891880989075,
        -0.000581447035074234,
        0.0006330062751658261,
        -0.06792815029621124,
        -0.12982016801834106,
        0.06550905108451843,
        -0.00012845546007156372,
        0.056564535945653915,
        -0.11901690065860748,
        0.037409987300634384,
        0.022343458607792854,
        0.01916857808828354,
        0.05898667871952057,
        -0.0019536905456334352,
        -0.008652432821691036,
        -0.02045816369354725,
        -0.030633045360445976,
        -0.0953245684504509,
        0.004134511575102806,
        -0.09111043810844421,
        0.04080571234226227,
        -0.047750428318977356,
        0.10975715517997742,
        -0.029566658660769463,
        -0.04197240620851517,
        0.10527360439300537,
        -0.03407048434019089,
        0.07729925960302353,
        -0.061213698238134384,
        -0.08650768548250198,
        -0.05084754899144173,
        0.09062769263982773,
        0.0054436796344816685,
        0.005289392080157995,
        -0.08574412018060684,
        0.025395134463906288,
        -0.0641295462846756,
        -0.0019708408508449793,
        -0.09803695231676102,
        0.028016740456223488,
        0.024151667952537537,
        -0.07484465092420578,
        0.003858101088553667,
        -0.017620347440242767,
        0.014402533881366253,
        0.03747902438044548,
        0.032469116151332855,
        0.11000848561525345,
        0.06997568160295486,
        -0.04646938294172287,
        -0.06207699328660965,
        0.014580818824470043,
        0.042500659823417664,
        0.10386357456445694,
        0.11071906238794327,
        0.10084414482116699,
        0.03821923956274986,
        0.041173625737428665,
        -0.05435924977064133,
        0.06617685407400131,
        0.052299194037914276,
        0.14418862760066986
      ],
      [
        0.0017499156529083848,
        0.14615681767463684,
        -0.07558233290910721,
        0.07845165580511093,
        0.14494642615318298,
        0.010590172372758389,
        0.14347660541534424,
        -0.07569873332977295,
        0.0692514106631279,
        0.10989200323820114,
        -0.09228343516588211,
        -0.08015131950378418,
        -0.007711190730333328,
        0.13629671931266785,
        0.028835700824856758,
        0.054670773446559906,
        -0.04236067831516266,
        0.030879409983754158,
        -0.10276898741722107,
        0.08372029662132263,
        0.036016855388879776,
        0.021502280607819557,
        0.043726932257413864,
        0.028579188510775566,
        0.10389264672994614,
        0.004746872466057539,
        -0.013565294444561005,
        0.022387616336345673,
        0.12092601507902145,
        0.006304987706243992,
        -0.08126390725374222,
        0.05792686343193054,
        0.054300110787153244,
        0.14552465081214905,
        0.08521123975515366,
        0.08576599508523941,
        -0.02998960018157959,
        0.024110132828354836,
        0.03413650766015053,
        0.09982634335756302,
        0.014012166298925877,
        0.04779668152332306,
        -0.055468108505010605,
        0.0948936939239502,
        -0.032293498516082764,
        0.04281742870807648,
        0.04318419471383095,
        0.14115609228610992,
        0.0706215426325798,
        -0.007511559408158064,
        0.11169988662004471,
        -0.07867945730686188,
        0.048761121928691864,
        0.08709190040826797,
        0.04554131627082825,
        0.02005087397992611,
        0.10835419595241547,
        -0.03461667150259018,
        0.0948650985956192,
        -0.06421612948179245,
        0.0323915109038353,
        -0.05522877722978592,
        0.0931735411286354,
        -0.0650893971323967,
        -0.07975268363952637,
        -0.08301295340061188,
        0.11264944821596146,
        0.07720628380775452,
        -0.04645882919430733,
        0.07268912345170975,
        -0.02033856138586998,
        0.012133697047829628
      ],
      [
        -0.09368866682052612,
        -0.09918241202831268,
        0.08010164648294449,
        0.04203619062900543,
        -0.05098400264978409,
        -0.07451067864894867,
        0.0739869549870491,
        0.0829012468457222,
        0.07279511541128159,
        0.01488542091101408,
        -0.05696650221943855,
        -0.13632459938526154,
        0.10707534104585648,
        -0.00810280442237854,
        0.08424344658851624,
        -0.10555452853441238,
        -0.11200134456157684,
        -0.01855509914457798,
        0.00527184596285224,
        0.007451352663338184,
        0.13063940405845642,
        0.03037225268781185,
        -0.0918629914522171,
        -0.01729777455329895,
        -0.10065020620822906,
        -0.08274707198143005,
        0.06052499637007713,
        0.03158113732933998,
        -0.0622076541185379,
        0.056857895106077194,
        -0.06262383610010147,
        0.04890017211437225,
        -0.13993391394615173,
        0.05392465367913246,
        -0.012362409383058548,
        -0.09650704264640808,
        -0.09542103856801987,
        -0.07899118214845657,
        -0.1062573790550232,
        -0.11098010838031769,
        0.06601650267839432,
        -0.08732295036315918,
        0.12283496558666229,
        0.014035487547516823,
        -0.004728653468191624,
        0.03782595694065094,
        0.029031401500105858,
        -0.033100713044404984,
        0.0013229225296527147,
        -0.030424809083342552,
        0.05966751277446747,
        -0.10883433371782303,
        -0.13581332564353943,
        0.08112867176532745,
        -0.13118912279605865,
        -0.05088188499212265,
        0.03352733328938484,
        0.07982821762561798,
        -0.0011245907517150044,
        -0.025995789095759392,
        -0.09032191336154938,
        -0.1048504188656807,
        -0.07487179338932037,
        -0.05417240411043167,
        0.09875111281871796,
        -0.052091531455516815,
        0.060479726642370224,
        -0.009266241453588009,
        0.08776183426380157,
        0.06498533487319946,
        0.10056483000516891,
        0.10398125648498535
      ],
      [
        0.07231483608484268,
        0.02453918755054474,
        0.010810215957462788,
        -0.11051230877637863,
        -0.08049215376377106,
        -0.011364190839231014,
        0.12261656671762466,
        -0.02148817479610443,
        0.09427305310964584,
        -0.0624314621090889,
        -0.0014665687922388315,
        0.04523256793618202,
        -0.050271645188331604,
        0.0694461390376091,
        0.06586210429668427,
        -0.017440911382436752,
        -0.09464287757873535,
        0.06338740140199661,
        -0.029906053096055984,
        0.07125962525606155,
        0.10030104964971542,
        -0.09844109416007996,
        0.12416986376047134,
        0.0675550028681755,
        -0.0548904687166214,
        0.11329622566699982,
        -0.034776538610458374,
        -0.09664998948574066,
        -0.04779498279094696,
        0.09537313878536224,
        -0.08229783177375793,
        0.13058392703533173,
        0.012150352820754051,
        0.14128586649894714,
        0.035764891654253006,
        -0.048547063022851944,
        0.04320811852812767,
        -0.0031241741962730885,
        -0.01753239892423153,
        0.06492532789707184,
        0.03739339858293533,
        0.10732132196426392,
        -0.0654745027422905,
        -0.08702971041202545,
        0.06714580208063126,
        0.04228183254599571,
        -0.06847253441810608,
        -0.0365910641849041,
        -0.09420683979988098,
        -0.09900092333555222,
        0.07019319385290146,
        0.0718168318271637,
        -0.040344443172216415,
        0.006202268414199352,
        -0.02355905994772911,
        -0.08518391102552414,
        -0.036560311913490295,
        0.02636774070560932,
        -0.04820803552865982,
        -0.09043990820646286,
        -0.017015084624290466,
        -0.01642865128815174,
        0.11794735491275787,
        0.13514162600040436,
        -0.06085386872291565,
        0.14740023016929626,
        0.0020483611151576042,
        0.026841433718800545,
        0.08293546736240387,
        0.09929932653903961,
        -0.058417174965143204,
        0.03743714466691017
      ],
      [
        -0.1421068012714386,
        0.05743062496185303,
        0.025131167843937874,
        0.10103285312652588,
        0.0775381326675415,
        -0.04091179743409157,
        0.09825644642114639,
        0.002339212456718087,
        -0.08740757405757904,
        -0.025873957201838493,
        -0.02748618647456169,
        -0.09723228216171265,
        -0.07355484366416931,
        -0.02148471586406231,
        -0.09772790968418121,
        -0.13185855746269226,
        -0.06302233040332794,
        -0.13857531547546387,
        -0.05072973668575287,
        0.04028420150279999,
        -0.1344464272260666,
        0.04016478732228279,
        -0.10615385323762894,
        -0.11548426002264023,
        -0.042043354362249374,
        -0.1432826817035675,
        -0.07099884748458862,
        0.045147061347961426,
        -0.07176618278026581,
        -0.13255555927753448,
        -0.1431114822626114,
        0.00866265781223774,
        0.10330507159233093,
        0.09094974398612976,
        0.10202553123235703,
        0.016200412064790726,
        0.06275486201047897,
        0.020799841731786728,
        -0.09929995983839035,
        -0.07289249449968338,
        -0.07987427711486816,
        -0.0368427075445652,
        0.009926331229507923,
        0.058068789541721344,
        -0.14195530116558075,
        -0.02096766233444214,
        -0.027616027742624283,
        0.07727649807929993,
        -0.05459792912006378,
        -0.053658392280340195,
        -0.07462139427661896,
        -0.006105722859501839,
        0.08293023705482483,
        -0.03795124590396881,
        -0.04059098660945892,
        -0.11475634574890137,
        0.07459507137537003,
        0.029326781630516052,
        -0.08185737580060959,
        0.09924718737602234,
        -0.022753672674298286,
        -0.1126255914568901,
        -0.07886049896478653,
        0.07218285650014877,
        -0.07746712118387222,
        -0.14194172620773315,
        -0.07269631326198578,
        0.007326407823711634,
        0.04884244129061699,
        0.09081269055604935,
        -0.11810854822397232,
        -0.08048822730779648
      ],
      [
        0.12773722410202026,
        -0.02555329166352749,
        0.02170848287642002,
        0.05827771872282028,
        -0.024693448096513748,
        -0.010147055611014366,
        -0.008934346958994865,
        0.06864430010318756,
        0.12511827051639557,
        0.01694294437766075,
        -0.11200437694787979,
        0.11344988644123077,
        0.12198159098625183,
        -0.07101031392812729,
        -0.021546462550759315,
        -0.10551508516073227,
        -0.10204047709703445,
        -0.039385490119457245,
        0.038406744599342346,
        -0.0778963565826416,
        -0.02504120208323002,
        0.04597669839859009,
        0.0047431206330657005,
        -0.008119075559079647,
        0.11092168837785721,
        0.13044489920139313,
        0.04799546301364899,
        -0.007124393247067928,
        0.052009399980306625,
        -0.040577687323093414,
        0.12086769938468933,
        -0.0780300423502922,
        -0.07048607617616653,
        -0.10794547200202942,
        -0.052156962454319,
        0.11244675517082214,
        0.049360062927007675,
        -0.09094390273094177,
        -0.07044389843940735,
        0.015914825722575188,
        -0.039382219314575195,
        0.008556527085602283,
        0.09255438297986984,
        0.025718003511428833,
        0.08846205472946167,
        -0.025844965130090714,
        -0.006809547543525696,
        -0.053830645978450775,
        0.09625250101089478,
        0.010552354156970978,
        -0.10605199635028839,
        -0.08841414749622345,
        -0.004915333818644285,
        0.10141114890575409,
        -0.023640796542167664,
        0.08126649260520935,
        0.11612624675035477,
        -0.02356625534594059,
        -0.030343925580382347,
        0.0104993786662817,
        -0.08732850849628448,
        0.019760267809033394,
        0.15693791210651398,
        0.09633602201938629,
        0.14890053868293762,
        0.11376861482858658,
        -0.08195307850837708,
        0.043833255767822266,
        0.06683948636054993,
        0.007559826131910086,
        0.07386281341314316,
        0.00010145295527763665
      ],
      [
        0.13538280129432678,
        0.04881925880908966,
        0.09139542281627655,
        0.040573641657829285,
        0.04793208837509155,
        -0.015563616529107094,
        0.0317511111497879,
        0.11388707906007767,
        -0.0662204772233963,
        0.09052585810422897,
        0.0012383144348859787,
        0.0345822349190712,
        -0.05729058384895325,
        -0.013724356889724731,
        -0.06897230446338654,
        0.02256051078438759,
        0.06375590711832047,
        0.09667274355888367,
        -0.029541609808802605,
        -0.023478498682379723,
        -0.07461511343717575,
        -0.10485489666461945,
        0.12332367151975632,
        0.007296144030988216,
        -0.04781516641378403,
        0.03641798719763756,
        0.03875783085823059,
        0.09865258634090424,
        0.04414060339331627,
        0.0754329040646553,
        -0.0909925177693367,
        0.11765667796134949,
        0.06360305100679398,
        -0.0010910624405369163,
        -0.09199471771717072,
        0.06850583851337433,
        -0.008568462915718555,
        -0.10038547962903976,
        0.09466744214296341,
        -0.06321969628334045,
        -0.10356641560792923,
        0.04540085792541504,
        0.09467191249132156,
        0.07505101710557938,
        0.14208750426769257,
        0.1372625082731247,
        0.07157281786203384,
        0.057353708893060684,
        0.12642326951026917,
        0.15198637545108795,
        0.09947102516889572,
        -0.04084465280175209,
        -0.011043669655919075,
        0.14524854719638824,
        0.017886146903038025,
        0.04948902130126953,
        0.1541730910539627,
        0.01761784590780735,
        -0.07685685157775879,
        0.13639046251773834,
        0.04363775998353958,
        0.06226358562707901,
        -0.06725003570318222,
        0.10954179614782333,
        -0.023944852873682976,
        0.031738921999931335,
        -0.005058687180280685,
        0.01466874498873949,
        0.062302302569150925,
        -0.03739023581147194,
        0.1459571272134781,
        0.15528713166713715
      ],
      [
        -0.006889226846396923,
        0.10929291695356369,
        -0.0506274476647377,
        -0.04249933734536171,
        -0.020359665155410767,
        -0.11430525779724121,
        -0.03294120356440544,
        0.09782284498214722,
        -0.01789204031229019,
        -0.0018438698025420308,
        0.1185285672545433,
        -0.07294125109910965,
        0.04971357434988022,
        0.11678879708051682,
        0.09161068499088287,
        -0.08748548477888107,
        -0.08646448701620102,
        -0.02890203148126602,
        -0.08274377137422562,
        0.04951369762420654,
        -0.060103144496679306,
        0.054588448256254196,
        -0.03490602970123291,
        0.10890355706214905,
        0.1162642315030098,
        0.02243543416261673,
        -0.11592885106801987,
        -0.03259573131799698,
        -0.09358787536621094,
        -0.11239241808652878,
        0.09524951130151749,
        0.1202743723988533,
        0.12015023082494736,
        -0.028299855068325996,
        -0.007059917319566011,
        -0.004955460783094168,
        -0.08674480020999908,
        0.12193050235509872,
        -0.08940266817808151,
        0.051564883440732956,
        0.12792760133743286,
        -0.02441447041928768,
        0.12200699001550674,
        0.019390296190977097,
        0.033704888075590134,
        0.05951613560318947,
        -0.05337413400411606,
        0.00261020939797163,
        -0.025262681767344475,
        0.0729498490691185,
        -0.0660773515701294,
        0.050797030329704285,
        -0.09973824769258499,
        -0.006407697219401598,
        0.010833390057086945,
        0.08050484210252762,
        0.084560826420784,
        0.07004985213279724,
        -0.08461824059486389,
        0.01946972869336605,
        0.07416186481714249,
        -0.06535888463258743,
        -0.04627653956413269,
        0.07193760573863983,
        0.008741728961467743,
        0.14680880308151245,
        0.05567893758416176,
        0.04819713905453682,
        0.1067405641078949,
        0.12990756332874298,
        0.06740983575582504,
        -0.03901711106300354
      ],
      [
        -0.09562085568904877,
        0.07735738903284073,
        0.09492015093564987,
        -0.005857839714735746,
        -0.02680281735956669,
        -0.1075562909245491,
        0.07048739492893219,
        -0.10641755908727646,
        0.049204036593437195,
        0.0683668926358223,
        0.05680769681930542,
        -0.07392776757478714,
        0.08889777958393097,
        -0.07841108739376068,
        0.03595738485455513,
        -0.03199159726500511,
        0.005629249382764101,
        0.09732798486948013,
        0.11892542243003845,
        0.03412020206451416,
        -0.06701505184173584,
        0.08273547142744064,
        -0.08925022929906845,
        -0.003000799333676696,
        -0.03151265159249306,
        0.09096216410398483,
        -0.047014329582452774,
        -0.09673598408699036,
        0.05883744731545448,
        0.05525573343038559,
        -0.0742548331618309,
        -0.030393727123737335,
        -0.04040918126702309,
        0.029539918527007103,
        -0.044788070023059845,
        -0.05959208309650421,
        0.015367443673312664,
        -0.10027898848056793,
        -0.01098694372922182,
        0.12117143720388412,
        -0.04394272714853287,
        0.11164183169603348,
        0.10752765834331512,
        0.05614546313881874,
        0.10992014408111572,
        0.11713682860136032,
        0.11213290691375732,
        0.042339667677879333,
        -0.08657598495483398,
        -0.01786987856030464,
        -0.034344080835580826,
        -0.11592244356870651,
        -0.05842125788331032,
        -0.004681466147303581,
        0.04230240359902382,
        -0.008748810738325119,
        0.02005741000175476,
        -0.04697992652654648,
        -0.08651939779520035,
        -0.01213113497942686,
        0.029561521485447884,
        -0.0809803158044815,
        0.021213095635175705,
        -0.07561700791120529,
        -0.0754542350769043,
        0.12700007855892181,
        -0.04904088005423546,
        0.10717417299747467,
        -0.04127337038516998,
        0.1363195776939392,
        -0.061308857053518295,
        0.0872705802321434
      ],
      [
        -0.07041959464550018,
        0.042991772294044495,
        -0.06171659380197525,
        0.05426286533474922,
        0.046279292553663254,
        -0.0008599884458817542,
        -0.11092589050531387,
        0.12696392834186554,
        0.05712011829018593,
        -0.058139998465776443,
        -0.02414785884320736,
        0.04243990406394005,
        0.024940505623817444,
        0.009159536100924015,
        -0.014411219395697117,
        -0.10547126829624176,
        0.07278553396463394,
        0.016704048961400986,
        0.0621110275387764,
        0.04472627118229866,
        0.11090055108070374,
        -0.05491100624203682,
        -0.0454932302236557,
        0.06522736698389053,
        -0.025928614661097527,
        0.05410846322774887,
        0.04503728449344635,
        0.09515447914600372,
        -0.08164522796869278,
        -0.0620017908513546,
        -0.08721113204956055,
        0.022771595045924187,
        0.0655408501625061,
        0.1229926198720932,
        0.02054760605096817,
        0.06190469488501549,
        -0.08002955466508865,
        -0.11055421829223633,
        -0.004990899935364723,
        -0.0004179303941782564,
        0.0020601870492100716,
        -0.04495735093951225,
        -0.06327349692583084,
        0.09869037568569183,
        0.014062090776860714,
        0.06356655806303024,
        -0.09889714419841766,
        0.14523032307624817,
        0.04969720542430878,
        -0.0875663310289383,
        -0.06909508258104324,
        -0.008264610543847084,
        0.03160861134529114,
        0.04159243404865265,
        0.07095369696617126,
        0.09264679998159409,
        0.019355710595846176,
        0.09937357902526855,
        -0.05063440278172493,
        -0.030037609860301018,
        -0.0978241041302681,
        -0.025411169975996017,
        0.018745828419923782,
        0.0864732414484024,
        0.08308718353509903,
        -0.0829901248216629,
        -0.052995823323726654,
        -0.004479003604501486,
        0.03387349098920822,
        0.12410523742437363,
        0.1365213692188263,
        0.16360428929328918
      ],
      [
        -0.10793505609035492,
        -0.06540962308645248,
        -0.0920703187584877,
        0.10889952629804611,
        0.03978424891829491,
        0.11010544002056122,
        0.04895271733403206,
        -0.06605496257543564,
        -0.0897756889462471,
        0.11104553192853928,
        0.08095602691173553,
        0.09297992289066315,
        -0.054752007126808167,
        0.016034577041864395,
        -0.12353869527578354,
        -0.06871932744979858,
        -0.0385269932448864,
        -0.05577675253152847,
        0.06675504893064499,
        -0.07017432898283005,
        0.08920975774526596,
        -0.11888718605041504,
        -0.0561150498688221,
        -0.02756129577755928,
        0.058863431215286255,
        0.03653912618756294,
        -0.11537740379571915,
        -0.05732268840074539,
        0.018130984157323837,
        -0.11308988928794861,
        -0.06937091797590256,
        -0.07224681228399277,
        -0.013639709912240505,
        -0.12705090641975403,
        0.04473968222737312,
        0.0811798945069313,
        -0.08227162808179855,
        -0.0095619922503829,
        -0.08451100438833237,
        -0.07960868626832962,
        0.09608917683362961,
        -0.04329802468419075,
        -0.008769422769546509,
        0.1168067678809166,
        -0.09804028272628784,
        0.07859069108963013,
        -0.11798703670501709,
        0.07429054379463196,
        0.07112264633178711,
        0.11628690361976624,
        -0.1166801005601883,
        0.09313448518514633,
        -0.04184781759977341,
        0.11417333781719208,
        -0.014398054219782352,
        -0.1158568263053894,
        -0.006587553303688765,
        -0.048130862414836884,
        -0.04827401041984558,
        0.05852658674120903,
        -0.10502485930919647,
        0.01743629015982151,
        -0.08311593532562256,
        -0.06654991954565048,
        -0.024893691763281822,
        0.053228698670864105,
        -0.04681963846087456,
        0.10410978645086288,
        -0.019382106140255928,
        0.08252007514238358,
        -0.07825785875320435,
        0.0626060888171196
      ],
      [
        0.06674743443727493,
        0.004057490732520819,
        -0.1383250206708908,
        -0.0904984101653099,
        0.05951843783259392,
        0.10382501780986786,
        -0.08709400147199631,
        0.0167459174990654,
        0.08662830293178558,
        0.015782862901687622,
        -0.1411207765340805,
        0.09992101043462753,
        -0.09820181876420975,
        0.06915800273418427,
        -0.06552579998970032,
        -0.042954221367836,
        0.0827067643404007,
        0.0863296166062355,
        0.06141212582588196,
        -0.0287209190428257,
        -0.13094155490398407,
        -0.13626770675182343,
        0.038703396916389465,
        0.06007139012217522,
        -0.08356188982725143,
        0.07482000440359116,
        -0.03332127258181572,
        -0.051940467208623886,
        0.09624113887548447,
        0.04564312845468521,
        0.01887211762368679,
        -0.07295852154493332,
        8.504875586368144e-05,
        0.04059742018580437,
        0.06657198816537857,
        0.06918243318796158,
        0.06527162343263626,
        -0.01956765167415142,
        -0.021793674677610397,
        -0.028129972517490387,
        -0.13801346719264984,
        -0.13986702263355255,
        -0.10321377217769623,
        0.048176977783441544,
        -0.05245734751224518,
        -0.11524311453104019,
        0.019649282097816467,
        0.030649403110146523,
        -0.08998628705739975,
        -0.13175787031650543,
        -0.07910021394491196,
        -0.03834884241223335,
        -0.005282888188958168,
        0.013093057088553905,
        -0.08393866568803787,
        -0.07079486548900604,
        0.06079893559217453,
        -0.042358990758657455,
        -0.02288750559091568,
        0.03589899092912674,
        -0.08930614590644836,
        -0.022048840299248695,
        -0.0486331544816494,
        -0.06267529726028442,
        -0.1144101545214653,
        -0.008028979413211346,
        -0.10001613944768906,
        -0.0843498557806015,
        -0.12856575846672058,
        0.09976334869861603,
        -0.1195261999964714,
        0.004014112055301666
      ],
      [
        -0.06194844841957092,
        0.058329641819000244,
        0.05486581102013588,
        -0.06572087854146957,
        0.09428029507398605,
        -0.11030390858650208,
        -0.06668466329574585,
        -0.005079471040517092,
        -0.10556982457637787,
        0.06980198621749878,
        -0.037955429404973984,
        0.03206958621740341,
        -0.04691426083445549,
        0.07451328635215759,
        -0.08720780164003372,
        -0.01929960958659649,
        0.03287379443645477,
        -0.027935026213526726,
        0.017626207321882248,
        -0.03183412179350853,
        -0.08436882495880127,
        -0.1080527976155281,
        0.07579520344734192,
        0.0341171994805336,
        -0.018462669104337692,
        -0.13847695291042328,
        -0.054301824420690536,
        0.079841747879982,
        0.07815974950790405,
        0.021865880116820335,
        0.0593835674226284,
        -0.022283051162958145,
        -0.10100522637367249,
        -0.021190864965319633,
        -0.07015229761600494,
        0.10154363512992859,
        0.09980501234531403,
        0.03605043515563011,
        0.10052716732025146,
        0.06623388826847076,
        -0.125382661819458,
        0.06912930309772491,
        -0.05203630402684212,
        -0.024640066549181938,
        -0.04261069744825363,
        -0.05353308469057083,
        -0.045547522604465485,
        -0.09944337606430054,
        0.004846903029829264,
        0.09087976068258286,
        -0.06408655643463135,
        -0.001200186088681221,
        -0.06025807932019234,
        -0.0917840451002121,
        0.09269461780786514,
        -0.04937305301427841,
        0.04776671156287193,
        -0.13371464610099792,
        -0.07900985330343246,
        0.10442090779542923,
        0.008802448399364948,
        -0.052905455231666565,
        0.066080741584301,
        0.019728774204850197,
        0.09155230224132538,
        -0.004351641982793808,
        -0.03363242372870445,
        0.03343605250120163,
        0.06052727624773979,
        -0.05931878089904785,
        0.002036343328654766,
        0.03808974474668503
      ],
      [
        0.06684275716543198,
        -0.0646398514509201,
        -0.05684050917625427,
        0.10608930885791779,
        -0.03754926845431328,
        -0.08668603003025055,
        -0.05740763992071152,
        0.03596482053399086,
        0.01210860162973404,
        -0.025249049067497253,
        0.06769594550132751,
        0.0942174419760704,
        0.06779833883047104,
        0.1198563203215599,
        -0.10768343508243561,
        -0.08978291600942612,
        0.0903228148818016,
        0.03967075049877167,
        0.09360815584659576,
        0.01545700989663601,
        0.054535191506147385,
        -0.03631851077079773,
        0.10916496813297272,
        0.004145227838307619,
        0.026997340843081474,
        0.03707383945584297,
        0.08699164539575577,
        -0.05898171663284302,
        0.019907908514142036,
        -0.09862295538187027,
        0.06841235607862473,
        0.031112104654312134,
        -0.08308020234107971,
        0.026123305782675743,
        0.07179827243089676,
        0.041706979274749756,
        -0.0038343893829733133,
        -0.12193424254655838,
        0.09105102717876434,
        0.063939169049263,
        0.0035418765619397163,
        -0.057452719658613205,
        0.05367401987314224,
        0.03117288462817669,
        0.027679895982146263,
        -0.12570156157016754,
        0.08908047527074814,
        0.026142816990613937,
        0.07951422780752182,
        -0.1152707040309906,
        0.0619526244699955,
        -0.12915119528770447,
        0.07015371322631836,
        0.08946116268634796,
        0.050872161984443665,
        -0.10488340258598328,
        0.02713283896446228,
        -0.0840519368648529,
        0.060790710151195526,
        -0.09390877932310104,
        0.1226925328373909,
        -0.1028146892786026,
        -0.02312660776078701,
        -0.03650883957743645,
        -0.12142971903085709,
        -0.09858070313930511,
        0.04383149370551109,
        0.07577008754014969,
        -0.08137478679418564,
        -0.13480257987976074,
        -0.030308987945318222,
        -0.03724810853600502
      ],
      [
        -0.010154417715966702,
        0.0038060445804148912,
        0.1028389036655426,
        -0.02921893447637558,
        0.033626850694417953,
        0.09761064499616623,
        -0.07317794859409332,
        -0.03121160715818405,
        0.1301867514848709,
        -0.040780700743198395,
        0.09000064432621002,
        0.08605605363845825,
        -0.014476751908659935,
        0.017014002427458763,
        0.08915599435567856,
        -0.10964684188365936,
        0.1029079407453537,
        0.045712925493717194,
        0.13335704803466797,
        -0.02642776258289814,
        0.04051564261317253,
        0.017113978043198586,
        0.012968686409294605,
        -0.06998562812805176,
        -0.03416501730680466,
        0.06651043146848679,
        0.10076521337032318,
        -0.08572930842638016,
        0.13652998208999634,
        0.10645215958356857,
        0.1252714842557907,
        0.12794381380081177,
        -0.0760776698589325,
        0.11514151841402054,
        0.1320476531982422,
        0.07187751680612564,
        -0.0952586829662323,
        0.09709884971380234,
        0.09317830950021744,
        0.057192668318748474,
        0.10079456120729446,
        0.08572182804346085,
        0.11698577553033829,
        0.08026675879955292,
        0.05532233417034149,
        0.07658636569976807,
        0.07174806296825409,
        0.07951681315898895,
        0.09692873805761337,
        -0.018169250339269638,
        -0.08012291043996811,
        0.022936739027500153,
        0.04879513010382652,
        0.09542815387248993,
        0.00652907183393836,
        -0.01856367476284504,
        -0.041586488485336304,
        0.10043901205062866,
        -0.08020777255296707,
        0.0036661964841187,
        0.00375930848531425,
        -0.03296307474374771,
        0.1320720911026001,
        -0.054229486733675,
        -0.0188588947057724,
        -0.02045299857854843,
        -0.02773473598062992,
        -0.01876092329621315,
        0.14879679679870605,
        0.13883431255817413,
        0.08542373031377792,
        -0.0027847110759466887
      ],
      [
        -0.011400604620575905,
        0.046310778707265854,
        0.06506247818470001,
        -0.019083131104707718,
        -0.015088635496795177,
        0.06657373160123825,
        -0.09129653126001358,
        0.07636675983667374,
        -0.058697011321783066,
        -0.07486216723918915,
        0.0969199389219284,
        0.0867423564195633,
        0.04329029843211174,
        -0.1259356439113617,
        0.0017708619125187397,
        0.10263553261756897,
        -0.021541595458984375,
        -0.13226650655269623,
        -0.03447593003511429,
        0.06399070471525192,
        0.04139288142323494,
        -0.02973814681172371,
        0.0344868078827858,
        0.03136618435382843,
        -0.010158112272620201,
        0.008075556717813015,
        -0.10789775848388672,
        -0.12655900418758392,
        -0.04226558282971382,
        0.017896000295877457,
        -0.05946039408445358,
        0.01876242272555828,
        0.12067756056785583,
        0.004963150713592768,
        0.035058002918958664,
        -0.0969613566994667,
        -0.1201866939663887,
        0.11759573221206665,
        -0.08343160152435303,
        0.058931414037942886,
        -0.10683958977460861,
        -0.12597019970417023,
        0.030058875679969788,
        0.07407958060503006,
        -0.010874089784920216,
        0.06819295138120651,
        -0.08451934158802032,
        -0.09390445053577423,
        -0.11867329478263855,
        0.02782716043293476,
        -0.11839466542005539,
        0.01962432637810707,
        0.011093334294855595,
        0.05397912487387657,
        0.12307450920343399,
        0.11840130388736725,
        -0.013486282899975777,
        0.12270115315914154,
        0.08972514420747757,
        0.05686194822192192,
        0.05801263451576233,
        -0.007791197393089533,
        0.13702410459518433,
        -0.024820547550916672,
        -0.039959341287612915,
        0.044412046670913696,
        -0.0019181398674845695,
        0.09086211770772934,
        0.027183588594198227,
        0.09802411496639252,
        0.05395878478884697,
        0.050267674028873444
      ],
      [
        0.05198407918214798,
        -0.035408493131399155,
        0.12116842716932297,
        -0.07734422385692596,
        0.031602077186107635,
        -0.01780678890645504,
        -0.02005903236567974,
        -0.04289769008755684,
        -0.09091085940599442,
        0.10835042595863342,
        0.024922829121351242,
        -0.09661998599767685,
        0.010111692361533642,
        0.06136280670762062,
        0.09401639550924301,
        0.011171294376254082,
        0.09807998687028885,
        -0.047243405133485794,
        -0.005963078234344721,
        0.10110291093587875,
        -0.06487996876239777,
        -0.07504087686538696,
        -0.055227119475603104,
        0.11684976518154144,
        0.06626911461353302,
        0.11414827406406403,
        0.014720192179083824,
        0.10167176276445389,
        0.09010744839906693,
        0.07740087807178497,
        -0.04745455086231232,
        0.07415824383497238,
        0.034955769777297974,
        0.023157691583037376,
        0.047367941588163376,
        -0.08802544325590134,
        -0.027257107198238373,
        0.11684874445199966,
        0.09387078881263733,
        -0.04288195073604584,
        -0.01950741559267044,
        0.052032243460416794,
        0.04443101957440376,
        -0.02646743319928646,
        -0.008375967852771282,
        -0.0027443962171673775,
        0.0878688395023346,
        0.12371685355901718,
        -0.03229617327451706,
        0.09084465354681015,
        0.06390177458524704,
        -0.04192405566573143,
        0.12684418261051178,
        -0.051681216806173325,
        -0.07788953185081482,
        -0.043695349246263504,
        -0.029396815225481987,
        -0.02279176190495491,
        -0.06535106897354126,
        -0.08105047047138214,
        -0.06252528727054596,
        0.03708585351705551,
        -0.05755503848195076,
        0.11654088646173477,
        0.11905530095100403,
        0.022508857771754265,
        -0.06357736885547638,
        -0.07162385433912277,
        0.03459718078374863,
        0.1495596468448639,
        0.08183223754167557,
        -0.03484489023685455
      ],
      [
        0.03687430918216705,
        0.015495628118515015,
        0.07426787167787552,
        -0.04914596304297447,
        0.023011589422822,
        -0.10551293939352036,
        0.030460862442851067,
        0.09552237391471863,
        0.04644009843468666,
        -0.12468425184488297,
        -0.05516565218567848,
        -0.06305374950170517,
        0.007347251288592815,
        0.05283885449171066,
        0.04852055758237839,
        0.048260197043418884,
        -0.010005256161093712,
        -0.03071518801152706,
        -0.07660609483718872,
        -0.0825970247387886,
        -0.041986025869846344,
        -0.10854841768741608,
        -0.004414076916873455,
        0.08726958185434341,
        0.10293848067522049,
        -0.08728352934122086,
        0.07548416405916214,
        -0.007343112025409937,
        0.06287839263677597,
        -0.06517185270786285,
        -0.1005961149930954,
        0.02909352257847786,
        -0.10016829520463943,
        -0.06512783467769623,
        0.028115123510360718,
        0.040196117013692856,
        -0.09163738787174225,
        -0.12476164102554321,
        0.08369673043489456,
        -0.11107201874256134,
        0.11454878747463226,
        -0.13024234771728516,
        -0.05038195848464966,
        0.07549688220024109,
        -0.12718988955020905,
        0.02789819985628128,
        -0.04687005281448364,
        -0.13217274844646454,
        -0.1004263162612915,
        0.014360100962221622,
        -0.07202445715665817,
        0.04005439206957817,
        -0.06526034325361252,
        -0.07792612910270691,
        0.1158277615904808,
        0.07621945440769196,
        -0.046138692647218704,
        0.12153295427560806,
        0.03712787106633186,
        -0.05749814212322235,
        -0.025221554562449455,
        -0.01346568763256073,
        0.01152852363884449,
        0.11695452034473419,
        0.045514147728681564,
        0.02140056900680065,
        0.05248313024640083,
        -0.07454430311918259,
        0.03297828137874603,
        0.03462270647287369,
        -0.03878369554877281,
        -0.04466550797224045
      ],
      [
        0.06794370710849762,
        -0.07180506736040115,
        0.05367621034383774,
        0.0604122132062912,
        -0.002054101787507534,
        -0.09664153307676315,
        -0.07291925698518753,
        0.08143561333417892,
        -0.037462715059518814,
        -0.020704856142401695,
        -0.1047389954328537,
        0.07601948827505112,
        0.000894635624717921,
        -0.03438471630215645,
        0.07445239275693893,
        0.0005100388661958277,
        0.02010110579431057,
        0.0916934683918953,
        0.011695857159793377,
        -0.06742748618125916,
        0.04128265380859375,
        0.04618961736559868,
        -0.14389799535274506,
        -0.04671679437160492,
        0.03212765231728554,
        0.039003897458314896,
        -0.028654804453253746,
        -0.0685335025191307,
        -0.03779583051800728,
        -0.052531782537698746,
        0.09172544628381729,
        -0.02405737340450287,
        0.07642639428377151,
        0.06521257013082504,
        0.05689102038741112,
        -0.14066025614738464,
        0.06477900594472885,
        -0.11282630264759064,
        0.01737525686621666,
        -0.00542355515062809,
        -0.13400350511074066,
        0.032362211495637894,
        0.02330949530005455,
        -0.03265506774187088,
        0.08056299388408661,
        -0.1351809948682785,
        -0.040829699486494064,
        -0.036515798419713974,
        0.07407418638467789,
        -0.11017751693725586,
        -0.11118457466363907,
        -0.1072925552725792,
        0.006547216791659594,
        0.09859424084424973,
        -0.04309839755296707,
        -0.018230808898806572,
        0.051119934767484665,
        0.08833359181880951,
        -0.10405964404344559,
        -0.07096170634031296,
        -0.059123195707798004,
        0.08258801698684692,
        0.010905381292104721,
        -0.03883686661720276,
        0.09614624083042145,
        -0.08883833140134811,
        0.016862276941537857,
        -0.043819330632686615,
        0.06184867396950722,
        -0.08974529057741165,
        0.10800811648368835,
        -0.0362236313521862
      ],
      [
        -0.08392949402332306,
        -0.03148166462779045,
        0.01683216355741024,
        -0.06536800414323807,
        0.004787857178598642,
        0.04826248437166214,
        -0.06041531264781952,
        0.00852416642010212,
        0.03164658695459366,
        0.011983402073383331,
        -0.034402262419462204,
        -0.014156999066472054,
        0.05245264247059822,
        0.01330295018851757,
        0.04062957316637039,
        0.009304952807724476,
        -0.12632006406784058,
        -0.04751942306756973,
        0.051302675157785416,
        0.08837857842445374,
        -0.036370452493429184,
        0.09543180465698242,
        0.04744758829474449,
        0.03988952934741974,
        -0.0612795427441597,
        -0.059649743139743805,
        -0.12082216143608093,
        0.0013383680488914251,
        -0.09018206596374512,
        0.05493396148085594,
        -0.029553581029176712,
        -0.025365594774484634,
        0.03927304968237877,
        -0.037049856036901474,
        0.061639584600925446,
        0.08439911901950836,
        -0.11218567192554474,
        0.10125508159399033,
        0.10416025668382645,
        -0.021503975614905357,
        -0.0011525906156748533,
        0.04337684065103531,
        0.037155624479055405,
        -0.053642306476831436,
        -0.01318366825580597,
        -0.032922323793172836,
        0.014651823788881302,
        -0.09489016234874725,
        -0.07292654365301132,
        0.03976522013545036,
        0.060721736401319504,
        -0.006881084758788347,
        0.017660334706306458,
        0.04298248887062073,
        0.085167296230793,
        -0.06037664785981178,
        0.09996525198221207,
        -0.09427071362733841,
        -0.062143705785274506,
        -0.07595328241586685,
        0.07334944605827332,
        -0.09415922313928604,
        0.01977045275270939,
        -0.05252327397465706,
        0.01279747299849987,
        0.08901362866163254,
        -0.032341159880161285,
        -0.10719572007656097,
        -0.00471583753824234,
        0.09235977381467819,
        0.00542809534817934,
        -0.014145576395094395
      ],
      [
        0.09131616353988647,
        -0.0024481157306581736,
        -0.07224215567111969,
        -0.048601292073726654,
        -0.054946672171354294,
        -0.0350494310259819,
        0.056797124445438385,
        0.03890710324048996,
        -0.07217886298894882,
        0.008991802111268044,
        -0.004906625021249056,
        0.11641024053096771,
        0.13815279304981232,
        -0.04316417872905731,
        -0.06049901247024536,
        0.13192979991436005,
        -0.04325764253735542,
        0.05947210267186165,
        -0.10167424380779266,
        0.13738182187080383,
        -0.08493861556053162,
        0.10648483783006668,
        0.12915697693824768,
        0.00474805012345314,
        -0.06657487154006958,
        0.02571912482380867,
        -0.02375270612537861,
        0.006884980481117964,
        0.004421404097229242,
        -0.09045416116714478,
        0.10673033446073532,
        -0.1013345867395401,
        -0.06441151350736618,
        0.07569912075996399,
        -0.06375294178724289,
        0.13771595060825348,
        0.1430608332157135,
        0.15475645661354065,
        0.02747189998626709,
        -0.05977911502122879,
        0.10362166166305542,
        -0.014458144083619118,
        -0.08897775411605835,
        -0.07720794528722763,
        -0.0264747217297554,
        -0.07669368386268616,
        0.02589806728065014,
        -0.09960249811410904,
        0.10532096773386002,
        -0.030298857018351555,
        0.07871198654174805,
        -0.03223457932472229,
        -0.08785226196050644,
        -0.06642371416091919,
        0.13020657002925873,
        0.021158311516046524,
        0.11969119310379028,
        0.1288013458251953,
        0.09030190110206604,
        0.11415664851665497,
