{
  "model_architecture": {
    "input_size": 72,
    "hidden_size": 64,
    "output_size": 24,
    "num_layers": 1
  },
  "parameters": {
    "lstm.weight_ih_l0": [
      [
        0.010695096105337143,
        0.0009883944876492023,
        -0.007559268269687891,
        -0.1204351857304573,
        0.055672671645879745,
        0.00678347609937191,
        -0.09032759815454483,
        0.055223748087882996,
        0.0056267594918608665,
        -0.04641609266400337,
        -0.09726260602474213,
        0.020438101142644882,
        0.0036582746542990208,
        0.08936042338609695,
        0.005801696330308914,
        0.06014781445264816,
        0.10495903342962265,
        -0.030207931995391846,
        -0.0920620933175087,
        0.01813526451587677,
        -0.06119145080447197,
        -0.019747402518987656,
        0.07651639729738235,
        0.02511291205883026,
        0.10258594155311584,
        -0.07044735550880432,
        0.05300886556506157,
        -0.07046175003051758,
        0.09358958899974823,
        0.0542978011071682,
        -0.05716903507709503,
        0.07713039964437485,
        0.02644459158182144,
        -0.09829693287611008,
        -0.036287616938352585,
        -0.008726975880563259,
        0.05127331241965294,
        0.0872168093919754,
        0.09285173565149307,
        0.1623041033744812,
        0.05010322481393814,
        0.1452239602804184,
        0.14085710048675537,
        0.1269342303276062,
        -0.04245568811893463,
        0.013989834114909172,
        -0.06472796946763992,
        -0.02680385112762451,
        0.08704646676778793,
        -0.08517616987228394,
        0.0617462582886219,
        -0.1165221631526947,
        -0.05000144988298416,
        0.07694989442825317,
        -0.10236427187919617,
        0.1297932267189026,
        0.004421904683113098,
        0.048202984035015106,
        0.026011597365140915,
        -0.024729445576667786,
        0.06356100738048553,
        0.10168670117855072,
        0.11733905225992203,
        -0.03386685624718666,
        0.1688813865184784,
        0.10507431626319885,
        0.11958948522806168,
        0.17885079979896545,
        0.16720156371593475,
        0.10252153128385544,
        0.07567548751831055,
        0.008922860026359558
      ],
      [
        0.055335354059934616,
        0.06284986436367035,
        -0.06756933778524399,
        -0.08026812225580215,
        -0.09675314277410507,
        -0.11513657867908478,
        0.05924094468355179,
        0.023469438776373863,
        0.12048301845788956,
        -0.0006242402014322579,
        -0.1261914074420929,
        -0.024484172463417053,
        0.09152838587760925,
        0.024918124079704285,
        -0.0373978428542614,
        -0.031398605555295944,
        0.010190464556217194,
        -0.024570675566792488,
        0.03727308660745621,
        0.12391938269138336,
        0.007374672684818506,
        -0.05300755426287651,
        -0.03374233841896057,
        0.10663066059350967,
        -0.07458235323429108,
        -0.017061956226825714,
        -0.043567534536123276,
        -0.06671767681837082,
        -0.024105634540319443,
        0.04295554384589195,
        0.08084704726934433,
        -0.0020981039851903915,
        0.0013909070985391736,
        0.1081959679722786,
        -0.055228617042303085,
        0.10699678957462311,
        -0.05941227078437805,
        -0.10799841582775116,
        0.031668297946453094,
        0.10806668549776077,
        0.03601355478167534,
        0.05529499053955078,
        -0.04078071564435959,
        0.07395989447832108,
        0.14427582919597626,
        0.06548288464546204,
        0.0715550109744072,
        0.00593641446903348,
        -0.06478729844093323,
        0.07057438045740128,
        -0.07231533527374268,
        -0.03246825933456421,
        -0.07303264737129211,
        -0.07465172559022903,
        -0.001576374750584364,
        0.04227317124605179,
        0.035855866968631744,
        0.0060273148119449615,
        0.0705612450838089,
        0.02045002579689026,
        0.006874952465295792,
        0.028035834431648254,
        0.12604576349258423,
        -0.03681483119726181,
        0.004757765214890242,
        0.13262011110782623,
        0.03335079550743103,
        0.17093531787395477,
        0.05746230110526085,
        0.08638685196638107,
        0.06790345907211304,
        -0.044215619564056396
      ],
      [
        0.010304446332156658,
        0.03366704285144806,
        0.11615309864282608,
        -0.08916054666042328,
        -0.05128802731633186,
        0.12185519933700562,
        -0.06219863146543503,
        0.1347455382347107,
        0.00243789772503078,
        0.11005198955535889,
        -0.010668416507542133,
        -0.06280115991830826,
        0.07780091464519501,
        -0.04480497166514397,
        0.020824937149882317,
        0.02468717284500599,
        -0.06520624458789825,
        0.0861273780465126,
        -0.012738428078591824,
        0.045212272554636,
        0.018449751660227776,
        0.11163381487131119,
        0.050887398421764374,
        0.11066249012947083,
        -0.05938761681318283,
        0.07523524761199951,
        0.08013302087783813,
        0.1359342783689499,
        0.13960088789463043,
        -0.07377578318119049,
        -0.010851304978132248,
        -0.08889021724462509,
        -0.04006923735141754,
        -0.02273518219590187,
        0.02280072122812271,
        0.05584156885743141,
        -0.08754166215658188,
        0.07813157141208649,
        -0.012540830299258232,
        0.10165417939424515,
        0.10139362514019012,
        -0.05063345283269882,
        0.0146182244643569,
        -0.01048379298299551,
        0.052000466734170914,
        -0.03200263902544975,
        -0.09462933242321014,
        -0.09658750146627426,
        0.11627086251974106,
        -0.004701786208897829,
        -0.04937216639518738,
        -0.02292337827384472,
        -0.05722629651427269,
        -0.05366510897874832,
        0.07734708487987518,
        0.10623045265674591,
        -0.0790637880563736,
        0.038077857345342636,
        -0.019657405093312263,
        -0.08586600422859192,
        -0.06715802103281021,
        -0.019847478717565536,
        0.07496970891952515,
        0.012413511984050274,
        0.06960707902908325,
        0.12765823304653168,
        0.03980954363942146,
        -0.0763726606965065,
        -0.06007031723856926,
        -0.02620416320860386,
        0.15483804047107697,
        0.026139872148633003
      ],
      [
        0.021412443369627,
        -0.03134353086352348,
        0.08759848028421402,
        0.00971903558820486,
        0.07568684965372086,
        -0.0765371099114418,
        0.0552377812564373,
        -0.05461001768708229,
        0.01578759215772152,
        -0.0980844721198082,
        -0.045473434031009674,
        0.012657493352890015,
        -0.12653090059757233,
        -0.04973146319389343,
        0.0258152037858963,
        0.09470074623823166,
        -0.042895905673503876,
        0.0890042781829834,
        0.10496847331523895,
        -0.07855567336082458,
        -0.08641371876001358,
        -0.030812790617346764,
        0.06537820398807526,
        0.06474962085485458,
        0.0065943035297095776,
        0.08623357117176056,
        0.12556608021259308,
        0.03179289400577545,
        0.06507374346256256,
        -0.018881533294916153,
        0.002201179275289178,
        0.056785788387060165,
        -0.10782856494188309,
        -0.03432329744100571,
        0.07611289620399475,
        0.04491833969950676,
        0.10470013320446014,
        0.11974547803401947,
        -0.003794614691287279,
        0.05311042442917824,
        -0.05290018394589424,
        -0.09956346452236176,
        -0.01390876341611147,
        -0.033295270055532455,
        -0.03749724105000496,
        0.006596734747290611,
        0.1414877325296402,
        -0.08931952714920044,
        0.10426191240549088,
        0.0038998012896627188,
        0.12391915172338486,
        -0.0028364812023937702,
        -0.041267652064561844,
        0.11419643461704254,
        0.09104751795530319,
        -0.06348833441734314,
        -0.04613379389047623,
        -0.07226059585809708,
        0.02272975817322731,
        0.00574366794899106,
        0.04987807944417,
        -0.06934599578380585,
        0.01683080568909645,
        0.05361323803663254,
        -0.09319911152124405,
        0.08384393900632858,
        0.03100578486919403,
        0.09133411943912506,
        0.040248170495033264,
        0.09846516698598862,
        0.14028701186180115,
        -0.01100658718496561
      ],
      [
        -0.0864122286438942,
        0.0034941358026117086,
        0.15038268268108368,
        0.06415674835443497,
        0.019966235384345055,
        0.1366233378648758,
        0.1431855708360672,
        0.1443202793598175,
        0.0951814278960228,
        0.08551736176013947,
        -0.07339736074209213,
        0.12256057560443878,
        -0.02812899649143219,
        -0.11179647594690323,
        0.0712469071149826,
        -0.04915982857346535,
        0.0936984270811081,
        -0.08026890456676483,
        0.0729920044541359,
        0.126527801156044,
        0.051920086145401,
        0.08876606822013855,
        0.11747047305107117,
        0.11936115473508835,
        0.1182023286819458,
        -0.07233119010925293,
        0.07543168216943741,
        -0.011434156447649002,
        -0.06849738210439682,
        -0.0073820604011416435,
        0.09653324633836746,
        0.0162774957716465,
        0.041796937584877014,
        0.1507205367088318,
        -0.09138046205043793,
        -0.023600712418556213,
        -0.10367070138454437,
        0.056618452072143555,
        0.018407048657536507,
        0.10484196245670319,
        -0.03914300724864006,
        -0.05162522941827774,
        0.09464876353740692,
        0.044655703008174896,
        0.024361498653888702,
        -0.033630818128585815,
        0.043376997113227844,
        0.09832675755023956,
        0.1021670326590538,
        0.06997770071029663,
        0.11029457300901413,
        0.010207653976976871,
        -0.0730537623167038,
        0.14271478354930878,
        0.05793142318725586,
        0.10554668307304382,
        0.0017084465362131596,
        -0.014165300875902176,
        0.12223723530769348,
        0.11284267157316208,
        0.10932675004005432,
        0.11005144566297531,
        -0.017598340287804604,
        0.13051128387451172,
        0.05105016753077507,
        -0.012495484203100204,
        0.0519523061811924,
        0.1542826145887375,
        -0.04187993332743645,
        -0.04914814978837967,
        0.01417689211666584,
        0.023385999724268913
      ],
      [
        0.017888614907860756,
        0.12939754128456116,
        -0.08899576216936111,
        0.017045672982931137,
        -0.026341235265135765,
        -0.0858352780342102,
        0.08164583146572113,
        0.08506163209676743,
        -0.09192246943712234,
        0.07012325525283813,
        -0.0837973952293396,
        0.027073096483945847,
        0.08879923820495605,
        0.012585775926709175,
        0.0004855244478676468,
        -0.06305550038814545,
        -0.001283348654396832,
        0.08476933091878891,
        0.05225994810461998,
        -0.048639748245477676,
        0.08903681486845016,
        0.07520103454589844,
        0.014278313145041466,
        0.08935518562793732,
        0.07055437564849854,
        -0.06199590861797333,
        -0.10362355411052704,
        -0.10711495578289032,
        -0.0002326890971744433,
        0.020214274525642395,
        0.1270681619644165,
        -0.08027675002813339,
        -0.04089738428592682,
        0.09193983674049377,
        0.11076285690069199,
        0.02986212447285652,
        -0.01878269948065281,
        0.09421277046203613,
        0.11721248179674149,
        0.06577038019895554,
        -0.09779120981693268,
        -0.01894446834921837,
        -0.04801010340452194,
        0.027183232828974724,
        0.0011488029267638922,
        -0.05507117509841919,
        -0.04261248931288719,
        0.05655672401189804,
        -0.048112303018569946,
        0.14115728437900543,
        -0.0866851806640625,
        0.0460110567510128,
        -0.014435878023505211,
        0.052501823753118515,
        0.11422639340162277,
        -0.06292734295129776,
        0.1279376596212387,
        -0.006970653310418129,
        -0.04194672033190727,
        0.03937367722392082,
        -0.010484512895345688,
        0.08089381456375122,
        0.13127319514751434,
        -0.0571005642414093,
        0.07257311046123505,
        -0.05687588453292847,
        -0.05834105238318443,
        0.04170773923397064,
        0.13811220228672028,
        0.02171325497329235,
        0.03598998859524727,
        0.13192659616470337
      ],
      [
        0.043161965906620026,
        0.07671980559825897,
        -0.036281291395425797,
        -0.01009039394557476,
        0.013956493698060513,
        -0.05247534438967705,
        0.1528870314359665,
        0.07970049232244492,
        0.09886446595191956,
        0.1426410675048828,
        -0.022483984008431435,
        0.022182609885931015,
        0.055239398032426834,
        -0.08001833409070969,
        -0.14117246866226196,
        0.0790017694234848,
        -0.09157080948352814,
        -0.15143127739429474,
        -0.044677734375,
        -0.12285325676202774,
        -0.10656127333641052,
        -0.08186926692724228,
        -0.08501242101192474,
        -0.0967092365026474,
        0.0913061872124672,
        0.12937764823436737,
        0.037722885608673096,
        -0.09287511557340622,
        -0.07473234087228775,
        -0.013554689474403858,
        -0.02757101133465767,
        -0.021898934617638588,
        0.004493092652410269,
        -0.0060094669461250305,
        0.1487278789281845,
        -0.018405234441161156,
        0.067449189722538,
        0.015178234316408634,
        0.03395208716392517,
        0.04582168906927109,
        -0.005875552538782358,
        -0.09479719400405884,
        -0.09882626682519913,
        -0.034075744450092316,
        -0.13662825524806976,
        0.0893116220831871,
        -0.005265683401376009,
        0.09262408316135406,
        -0.046319250017404556,
        0.05133429914712906,
        0.11539004743099213,
        0.09057974815368652,
        0.11351106315851212,
        0.1770637184381485,
        0.028498029336333275,
        0.031020132824778557,
        0.022370440885424614,
        0.11025296896696091,
        -0.01999124139547348,
        0.09397979825735092,
        -0.05971783772110939,
        -0.041326723992824554,
        0.032297730445861816,
        -0.058038488030433655,
        0.1134156733751297,
        0.05001900717616081,
        -0.122763492166996,
        0.11934341490268707,
        0.07151588052511215,
        -0.05849535018205643,
        -0.03205327317118645,
        0.06832895427942276
      ],
      [
        -0.048242777585983276,
        -0.10886159539222717,
        0.03296699374914169,
        -0.04426659271121025,
        0.047713324427604675,
        -0.020587459206581116,
        -0.11908572167158127,
        -0.05240378901362419,
        0.008678999729454517,
        -0.06949714571237564,
        0.045437831431627274,
        -0.02903459593653679,
        -0.031539998948574066,
        0.0069305794313549995,
        0.0819966122508049,
        -0.08118166774511337,
        0.04035897180438042,
        -0.09824804961681366,
        0.01324525848031044,
        0.09267780929803848,
        -0.09900166094303131,
        0.0012848866172134876,
        -0.12515634298324585,
        0.004016090650111437,
        -0.010414082556962967,
        0.0578702911734581,
        -0.06921221315860748,
        -0.157843217253685,
        -0.10594617575407028,
        -0.011354813352227211,
        -0.0641903355717659,
        -0.037344783544540405,
        -0.1236981451511383,
        0.017468269914388657,
        -0.08018746972084045,
        0.03774399682879448,
        0.11369077861309052,
        -0.06926515698432922,
        0.05908861383795738,
        0.10745235532522202,
        -0.04395464435219765,
        -0.11881804466247559,
        -0.07721554487943649,
        0.09236272424459457,
        -0.1032886654138565,
        -0.035167645663022995,
        0.012400693260133266,
        -0.05580085515975952,
        -0.1362789422273636,
        -0.062308620661497116,
        -0.14703013002872467,
        0.053782492876052856,
        0.07856588810682297,
        -0.010137350298464298,
        -0.060634274035692215,
        -0.06572164595127106,
        -0.04492903873324394,
        -0.02014440856873989,
        0.09397582709789276,
        -0.005244302563369274,
        0.1179918497800827,
        0.010544238612055779,
        0.01563558168709278,
        0.06663587689399719,
        0.07147011905908585,
        0.08828213065862656,
        -0.026183990761637688,
        0.018220268189907074,
        0.08966312557458878,
        0.06892924755811691,
        -0.005365746095776558,
        0.006934956181794405
      ],
      [
        0.047615841031074524,
        -0.06386616080999374,
        -0.06603124737739563,
        0.06632007658481598,
        -0.09701157361268997,
        -0.01647643744945526,
        -0.05515903979539871,
        -0.08612623065710068,
        0.12989772856235504,
        0.08353917300701141,
        0.05350284278392792,
        -0.024523498490452766,
        0.07055311650037766,
        -0.10607624053955078,
        -0.012982540763914585,
        -0.043429307639598846,
        -0.056315936148166656,
        -0.08060122281312943,
        -0.06692202389240265,
        -0.040646862238645554,
        0.06223619356751442,
        0.014325857162475586,
        0.06049921363592148,
        0.012004869990050793,
        0.09199196845293045,
        0.03959033265709877,
        0.06392720341682434,
        0.06750045716762543,
        0.008584059774875641,
        0.13117216527462006,
        -0.0728030875325203,
        0.04002321511507034,
        -0.040185313671827316,
        0.048885393887758255,
        0.125888392329216,
        -0.021130254492163658,
        0.07179229706525803,
        -0.028674133121967316,
        -0.06946127861738205,
        0.04769280552864075,
        0.07609252631664276,
        -0.05599984526634216,
        0.016902513802051544,
        0.06637599319219589,
        -0.10023335367441177,
        0.08565793186426163,
        -0.06255032122135162,
        0.014109604991972446,
        -0.10489170253276825,
        0.05514874309301376,
        0.11287162452936172,
        -0.06838805973529816,
        0.03733564168214798,
        0.029335252940654755,
        0.1142694428563118,
        0.00045175966806709766,
        0.15184475481510162,
        -0.06599776446819305,
        -0.013105613179504871,
        0.0613570436835289,
        0.009993687272071838,
        -0.06962241977453232,
        -0.036390453577041626,
        0.03946774825453758,
        0.08447053283452988,
        -0.0363738052546978,
        0.06367626786231995,
        -0.005539556499570608,
        0.0474872887134552,
        -0.021283650770783424,
        -0.011699066497385502,
        -0.07633994519710541
      ],
      [
        -0.04911937192082405,
        -0.1026143804192543,
        0.06303633749485016,
        0.05897660180926323,
        -0.14223197102546692,
        0.0833081305027008,
        -0.04435095191001892,
        -0.0693366527557373,
        -0.019583893939852715,
        0.00792290922254324,
        0.08228181302547455,
        0.0693269595503807,
        -0.037122610956430435,
        0.015282833017408848,
        -0.016000593081116676,
        0.05286366119980812,
        -0.14855195581912994,
        -0.08708001673221588,
        -0.05897877737879753,
        0.04609620198607445,
        -0.08424653112888336,
        -0.04239535704255104,
        -0.04187767952680588,
        0.06652053445577621,
        -0.026324860751628876,
        -0.13715893030166626,
        -0.12751822173595428,
        0.07102135568857193,
        -0.10958624631166458,
        -0.08628631383180618,
        0.0294405035674572,
        -0.11672326177358627,
        0.07458266615867615,
        -0.054043788462877274,
        0.08288481086492538,
        -0.1077566146850586,
        0.035025354474782944,
        0.06231332942843437,
        -0.007936482317745686,
        -0.04495859891176224,
        -0.12430886179208755,
        -0.06574340164661407,
        -0.08781839162111282,
        -0.02628464251756668,
        -0.10199829936027527,
        -0.050594814121723175,
        0.048544276505708694,
        0.046894535422325134,
        -0.07706795632839203,
        0.06449039280414581,
        -0.09014416486024857,
        0.010403056629002094,
        -0.12459565699100494,
        0.00890433695167303,
        -0.005219473037868738,
        0.11492276936769485,
        -0.06868455559015274,
        0.08099772781133652,
        0.089869424700737,
        -0.08759529143571854,
        -0.08548539131879807,
        0.03687065839767456,
        0.014617141336202621,
        0.04090241715312004,
        0.008057496510446072,
        -0.11850640922784805,
        0.02420353703200817,
        -0.048014841973781586,
        0.03719878941774368,
        0.011661464348435402,
        0.07083866745233536,
        -0.09123540669679642
      ],
      [
        0.01832699589431286,
        -0.07123792171478271,
        -0.05428968742489815,
        0.14248132705688477,
        -0.0528363361954689,
        -0.09835916012525558,
        -0.04336913302540779,
        -0.03035777062177658,
        -0.0589989572763443,
        -0.05299399793148041,
        0.1041731983423233,
        0.028925659134984016,
        0.04065769910812378,
        -0.0027569958474487066,
        0.07808271795511246,
        -0.11022483557462692,
        -0.13568641245365143,
        0.01663227379322052,
        -0.052782364189624786,
        0.020711669698357582,
        0.051416851580142975,
        0.026582937687635422,
        -0.08758773654699326,
        -0.10019479691982269,
        0.10985780507326126,
        0.03191296383738518,
        0.10742176324129105,
        -0.0020267213694751263,
        0.038548219949007034,
        0.0234842486679554,
        0.08577650040388107,
        0.02123578079044819,
        -0.0955887883901596,
        -0.04736714065074921,
        0.04823607951402664,
        -0.02534794807434082,
        0.024420399218797684,
        0.037989579141139984,
        -0.0851067528128624,
        -0.04746726527810097,
        -0.026620203629136086,
        0.09023866802453995,
        -0.0029839484486728907,
        0.11734890937805176,
        -0.11285573989152908,
        0.08248556405305862,
        -0.02403794787824154,
        0.02032598666846752,
        0.03193055838346481,
        0.12043226510286331,
        0.1414596438407898,
        -0.01522540021687746,
        0.0744769424200058,
        -0.005243643186986446,
        -0.06163511425256729,
        -0.038504403084516525,
        -0.007224635221064091,
        -0.04227576404809952,
        -0.0008020125678740442,
        0.01847996935248375,
        0.1319415122270584,
        -0.041760873049497604,
        0.022950775921344757,
        -0.007293641101568937,
        0.11761925369501114,
        0.11751891672611237,
        -0.08248960971832275,
        -0.058169037103652954,
        -0.04576355591416359,
        0.13004450500011444,
        0.028961069881916046,
        -0.02533027157187462
      ],
      [
        0.07852299511432648,
        0.08991937339305878,
        -0.02230997569859028,
        -0.05771102011203766,
        0.039522457867860794,
        0.04426462948322296,
        -0.11326226592063904,
        0.10176973044872284,
        -0.017738480120897293,
        -0.013140318915247917,
        0.02388724870979786,
        0.07640469819307327,
        -0.06910192221403122,
        0.08920243382453918,
        0.11930325627326965,
        -0.11361605674028397,
        0.09254443645477295,
        0.024983668699860573,
        -0.050085894763469696,
        -0.12440557032823563,
        -0.03485666215419769,
        0.06151045858860016,
        -0.020148899406194687,
        -0.09904884546995163,
        -0.08560895919799805,
        0.015016226097941399,
        0.06153906136751175,
        0.04457999765872955,
        -0.06983215361833572,
        0.08991758525371552,
        -0.03588848188519478,
        -0.03226777911186218,
        -0.094431072473526,
        -0.11112764477729797,
        -0.018361646682024002,
        0.09659349173307419,
        -0.045983195304870605,
        -0.07182642817497253,
        0.017411956563591957,
        -0.011327827349305153,
        -0.06755425035953522,
        -0.04636417701840401,
        -0.11772576719522476,
        0.04740506410598755,
        -0.10867071151733398,
        0.04818510636687279,
        -0.13055938482284546,
        -0.017343174666166306,
        0.045667801052331924,
        0.09239255636930466,
        -0.07641884684562683,
        -0.09117928147315979,
        -0.10884039849042892,
        0.013307943008840084,
        0.11770758777856827,
        -0.0908924788236618,
        0.016486627981066704,
        0.022857055068016052,
        -0.0035212645307183266,
        -0.11613097786903381,
        -0.05500383675098419,
        0.04516475647687912,
        0.09186199307441711,
        0.03507155179977417,
        -0.012597749941051006,
        -0.03948136046528816,
        -0.02561653032898903,
        -0.051721084862947464,
        0.07761250436306,
        -0.06052630767226219,
        0.0423622652888298,
        -0.012160282582044601
      ],
      [
        -0.10288308560848236,
        -0.09372849762439728,
        0.04340643808245659,
        0.09326639026403427,
        -0.06810642033815384,
        -0.0764332190155983,
        0.030194567516446114,
        0.1372755914926529,
        0.08632998168468475,
        -0.06994360685348511,
        0.08515213429927826,
        -0.09836282581090927,
        0.061874765902757645,
        0.12348476052284241,
        0.023049363866448402,
        -0.05333147943019867,
        -0.124542735517025,
        0.024605480954051018,
        0.07827256619930267,
        -0.03485627472400665,
        -0.10176420211791992,
        -0.02204832062125206,
        0.09336253255605698,
        0.001071643317118287,
        0.07320830225944519,
        0.031106194481253624,
        -0.04964113608002663,
        -0.09033005684614182,
        0.06886470317840576,
        -0.09045267850160599,
        0.06405670940876007,
        -0.020893331617116928,
        -0.00215589115396142,
        -0.08371081203222275,
        0.10140973329544067,
        0.14208680391311646,
        0.058267224580049515,
        0.13043880462646484,
        0.05804557353258133,
        -0.037523478269577026,
        0.03879992291331291,
        0.04832151532173157,
        -0.107383131980896,
        -0.08609604835510254,
        0.023903202265501022,
        -0.11736276745796204,
        0.022413572296500206,
        -0.11323186755180359,
        -0.014367658644914627,
        0.07783398777246475,
        0.029909810051321983,
        0.05224500596523285,
        0.1298840194940567,
        -0.06119818612933159,
        -0.04673266410827637,
        -0.03199179843068123,
        0.022716160863637924,
        -0.06590702384710312,
        -0.013038001023232937,
        0.02461695857346058,
        0.0090955700725317,
        -0.03432541713118553,
        0.02881101705133915,
        0.14225389063358307,
        -0.06865380704402924,
        -0.002409137785434723,
        -0.032643064856529236,
        0.12003174424171448,
        -0.09318169206380844,
        0.06390274316072464,
        0.0939277708530426,
        0.029485734179615974
      ],
      [
        -0.018245339393615723,
        -0.056115277111530304,
        0.09531574696302414,
        -0.06381166726350784,
        -0.01953265629708767,
        0.013934745453298092,
        0.09930014610290527,
        0.012423387728631496,
        -0.02435442805290222,
        -0.06874439865350723,
        -0.07719510048627853,
        0.10933887213468552,
        0.051460374146699905,
        -0.10952887684106827,
        0.0024237169418483973,
        0.07189731299877167,
        -0.014322089962661266,
        0.051812127232551575,
        0.04070797190070152,
        -0.07899322360754013,
        0.0784614086151123,
        -0.05985290929675102,
        0.02940342202782631,
        -0.04577984660863876,
        0.08300425112247467,
        0.031924277544021606,
        0.07073388993740082,
        -0.09084124118089676,
        0.023567529395222664,
        -0.06463202834129333,
        -0.06440630555152893,
        0.08557296544313431,
        0.11228978633880615,
        -0.017035499215126038,
        0.07833694666624069,
        0.02163168601691723,
        0.06547149270772934,
        -0.0651574432849884,
        0.022474948316812515,
        0.0891038179397583,
        0.06158330664038658,
        -0.0025485800579190254,
        0.063848577439785,
        0.016703160479664803,
        0.04266903176903725,
        -0.07518026232719421,
        -0.11226190626621246,
        0.1281234622001648,
        0.10211256146430969,
        -0.023866750299930573,
        0.02940950356423855,
        0.007601948454976082,
        0.05303444713354111,
        0.012621574103832245,
        0.15046125650405884,
        0.11093681305646896,
        -0.05180798098444939,
        -0.00155908172018826,
        0.15227748453617096,
        0.1520039439201355,
        -0.08409791439771652,
        -0.07054489105939865,
        0.10984344035387039,
        -0.04589701071381569,
        -0.015800146386027336,
        0.03545411303639412,
        -0.02739577740430832,
        -0.07742537558078766,
        0.09431083500385284,
        0.08413068950176239,
        0.05048799142241478,
        -0.03700617700815201
      ],
      [
        -0.08007032424211502,
        0.04232707992196083,
        0.026754194870591164,
        0.04997318983078003,
        0.09068186581134796,
        0.008868181146681309,
        0.029951075091958046,
        0.019426923245191574,
        -0.09124424308538437,
        0.009585190564393997,
        -0.035373784601688385,
        -0.04947772994637489,
        0.08620104193687439,
        -0.09017613530158997,
        0.0023221266455948353,
        -0.07150246202945709,
        0.004684294108301401,
        -0.10660333931446075,
        -0.08245445787906647,
        -0.02160869725048542,
        0.08105377852916718,
        -0.10730548202991486,
        -0.08530732244253159,
        -0.03433963656425476,
        -0.07679936289787292,
        0.042125165462493896,
        -0.05901050940155983,
        0.06723913550376892,
        0.05299573391675949,
        -0.10221243649721146,
        0.06751794368028641,
        -0.08519785106182098,
        0.05556371435523033,
        0.10665149241685867,
        -0.0617513544857502,
        0.11334069073200226,
        -0.09146956354379654,
        -0.08985769748687744,
        -0.009337385185062885,
        0.07665179669857025,
        -0.07815331220626831,
        0.033979084342718124,
        0.029790986329317093,
        0.014496760442852974,
        -0.1131383553147316,
        -0.08111302554607391,
        0.02113254740834236,
        0.02973056025803089,
        -0.08502974361181259,
        0.033285778015851974,
        -0.13446658849716187,
        -0.11378403007984161,
        -0.005912733264267445,
        0.06885045021772385,
        0.062292058020830154,
        0.0598839670419693,
        0.13050594925880432,
        0.05197891592979431,
        -0.08864161372184753,
        0.12964875996112823,
        -0.08292903751134872,
        0.01103930827230215,
        -0.05930642411112785,
        -0.08187753707170486,
        -0.05550358444452286,
        0.09209903329610825,
        -0.02750854194164276,
        -0.08854027092456818,
        0.13036759197711945,
        0.03553605079650879,
        0.1294715702533722,
        -0.09120633453130722
      ],
      [
        0.15251994132995605,
        0.1260995715856552,
        0.15787814557552338,
        0.18911541998386383,
        0.12065034359693527,
        0.03157898783683777,
        0.2107078731060028,
        0.05963721126317978,
        0.1482713222503662,
        0.18118594586849213,
        0.19003556668758392,
        0.14711137115955353,
        0.17504006624221802,
        0.2090712934732437,
        0.19141431152820587,
        -0.007756141014397144,
        0.0034457743167877197,
        0.039995647966861725,
        0.05759453773498535,
        0.11128360033035278,
        0.05429857596755028,
        0.016162723302841187,
        0.1316281408071518,
        0.10411219298839569,
        -0.016937030479311943,
        0.1775142252445221,
        0.06079886108636856,
        0.20636679232120514,
        0.05128418281674385,
        0.14678604900836945,
        0.10750672966241837,
        0.17011451721191406,
        0.0588681660592556,
        0.21876075863838196,
        0.17976431548595428,
        -0.004986971151083708,
        0.021340927109122276,
        0.06404131650924683,
        0.019453298300504684,
        0.001528372522443533,
        0.0625382736325264,
        0.1336013227701187,
        -0.02154037356376648,
        -0.008709467947483063,
        0.010363406501710415,
        0.1474539041519165,
        0.06336960196495056,
        0.1185336634516716,
        -0.01645410992205143,
        0.1624675989151001,
        0.04767092689871788,
        0.133051797747612,
        0.23303484916687012,
        0.11963988840579987,
        0.1610688865184784,
        0.1099250465631485,
        0.034223541617393494,
        0.09831920266151428,
        0.18237151205539703,
        0.0982343927025795,
        0.17246995866298676,
        0.0898919552564621,
        -0.011677413247525692,
        0.1178915798664093,
        0.022731881588697433,
        0.1819923371076584,
        0.07912399619817734,
        0.18188272416591644,
        0.06613319367170334,
        0.03190425783395767,
        0.1316150575876236,
        0.0674905776977539
      ],
      [
        -0.12823446094989777,
        0.05407434329390526,
        0.0890134871006012,
        -0.09013371169567108,
        0.12904693186283112,
        -0.07846765965223312,
        0.0643894374370575,
        0.1342746466398239,
        0.11088098585605621,
        0.003381956135854125,
        0.12851792573928833,
        -0.08330854773521423,
        0.04946691542863846,
        -0.050627101212739944,
        0.06436417251825333,
        -0.07536976039409637,
        -0.042714498937129974,
        -0.04857231676578522,
        -0.13698717951774597,
        -0.06348413974046707,
        -0.07279930263757706,
        -0.10884548723697662,
        -0.01575881987810135,
        -0.01691342145204544,
        0.04243617132306099,
        0.044179826974868774,
        0.012237703427672386,
        0.08037079870700836,
        0.024676097556948662,
        0.07725483924150467,
        0.04996895417571068,
        0.12274837493896484,
        -0.09874293953180313,
        0.09032796323299408,
        0.023596027866005898,
        0.05837565287947655,
        0.018426066264510155,
        -0.03289693966507912,
        -0.1011924296617508,
        0.08214456588029861,
        -0.01080717146396637,
        -0.10845722258090973,
        0.03534046187996864,
        -0.04935937374830246,
        -0.06726102530956268,
        -0.06391377002000809,
        0.040669359266757965,
        -0.028684064745903015,
        -0.07771176844835281,
        -0.036784276366233826,
        0.10913795977830887,
        -0.07300407439470291,
        -0.017902875319123268,
        -0.056799616664648056,
        0.13991816341876984,
        0.029151927679777145,
        -0.07730856537818909,
        -0.0793747678399086,
        0.06302477419376373,
        0.06815101951360703,
        -0.015603365376591682,
        0.05063740164041519,
        0.07358997315168381,
        -0.11462287604808807,
        -0.10399602353572845,
        0.057079728692770004,
        0.02976733073592186,
        0.10253313928842545,
        -0.043550096452236176,
        0.020528903231024742,
        -0.002491166116669774,
        0.009315171279013157
      ],
      [
        -0.03280876204371452,
        0.10623937845230103,
        0.04971108213067055,
        0.062007781118154526,
        -0.10078592598438263,
        0.04920577257871628,
        -0.0074417018331587315,
        0.05533662810921669,
        0.014896746724843979,
        -0.07773703336715698,
        -0.11165468394756317,
        0.10732295364141464,
        -0.09104587137699127,
        0.05298066511750221,
        -0.023970970883965492,
        0.006952365394681692,
        -0.12401264905929565,
        0.05845827981829643,
        0.08430895209312439,
        0.10029663145542145,
        -0.07217250764369965,
        -0.022762704640626907,
        0.08665976673364639,
        -0.013739518821239471,
        -0.10426895320415497,
        -0.0832098126411438,
        -0.022318735718727112,
        -0.1276676058769226,
        0.0009106732322834432,
        0.08865893632173538,
        -0.042437952011823654,
        -0.05118383839726448,
        -0.028384480625391006,
        0.0624195858836174,
        0.10296675562858582,
        0.09295958280563354,
        0.008881165646016598,
        0.0908675491809845,
        -0.0302243921905756,
        0.05018497258424759,
        0.11214696615934372,
        0.07729213684797287,
        0.05630459263920784,
        -0.08609592169523239,
        -0.09511838108301163,
        -0.06868109852075577,
        0.10845150798559189,
        0.0880826860666275,
        0.004972013644874096,
        -0.03547736257314682,
        -0.016853924840688705,
        -0.06045760214328766,
        -0.09246062487363815,
        0.06706171482801437,
        0.03273624926805496,
        0.0263937059789896,
        0.10980146378278732,
        0.005191846285015345,
        0.022435106337070465,
        -0.08374925702810287,
        -0.09627854824066162,
        -0.10252761095762253,
        0.0657174363732338,
        0.0764564499258995,
        -0.08782597631216049,
        -0.07127974182367325,
        0.03383794054389,
        0.04590288922190666,
        0.06704151630401611,
        0.06533268094062805,
        0.07246055454015732,
        -0.12468458712100983
      ],
      [
        0.01828952133655548,
        0.15609395503997803,
        0.10345142334699631,
        0.0572236031293869,
        -0.022686270996928215,
        0.10029672086238861,
        -0.04231669753789902,
        -0.029945209622383118,
        -0.0055302041582763195,
        0.15362779796123505,
        0.13821624219417572,
        -0.044649332761764526,
        0.12243548035621643,
        0.12030333280563354,
        0.006681999657303095,
        0.17605184018611908,
        -0.029412148520350456,
        0.04348934441804886,
        0.05650876462459564,
        -0.029923828318715096,
        -0.033414024859666824,
        0.003618223126977682,
        0.024509316310286522,
        0.0026617138646543026,
        0.16679930686950684,
        0.18034464120864868,
        0.1158154308795929,
        0.04028379172086716,
        0.07009990513324738,
        0.06532047688961029,
        -0.0005503795109689236,
        0.07345639169216156,
        0.10809662193059921,
        -0.0003666019765660167,
        0.03632530942559242,
        0.017136123031377792,
        -0.003732286160811782,
        0.10573527216911316,
        -0.05117792636156082,
        -0.05847255885601044,
        -0.018627449870109558,
        -0.028538405895233154,
        0.12340269237756729,
        0.11713925004005432,
        0.10305878520011902,
        0.032383646816015244,
        0.06170213222503662,
        0.04506156966090202,
        0.07278964668512344,
        0.07414252310991287,
        0.15648789703845978,
        -0.049311473965644836,
        0.10614758729934692,
        0.012937072664499283,
        0.15884537994861603,
        0.05869276076555252,
        0.04327322170138359,
        0.12459632754325867,
        0.14067378640174866,
        0.013078927993774414,
        0.07504890114068985,
        -0.016202185302972794,
        -0.02452995441854,
        0.09337715059518814,
        0.16896823048591614,
        0.11152461916208267,
        0.0346950925886631,
        -0.018308531492948532,
        0.16261914372444153,
        -0.034217119216918945,
        0.06139950826764107,
        -0.03893885388970375
      ],
      [
        -0.09781406819820404,
        -0.05418455973267555,
        0.0485633984208107,
        0.07211708277463913,
        -0.062314487993717194,
        0.033738672733306885,
        -0.029258141294121742,
        -0.002393560716882348,
        0.09217595309019089,
        0.10818706452846527,
        0.0037821349687874317,
        -0.018730618059635162,
        0.08280418813228607,
        -0.08854392915964127,
        0.12097932398319244,
        -0.092526875436306,
        -0.025900866836309433,
        -0.10610669106245041,
        -0.07995763421058655,
        0.0672815591096878,
        -0.06339313089847565,
        0.12640462815761566,
        -0.10975784808397293,
        0.034659244120121,
        0.0399441234767437,
        -0.0018775856588035822,
        -0.13347306847572327,
        -0.10236653685569763,
        -0.04563509300351143,
        -0.004132918082177639,
        0.04171706363558769,
        0.034192491322755814,
        0.03835839033126831,
        0.007683788891881704,
        0.08789201825857162,
        0.0055334134958684444,
        -0.10575369745492935,
        0.11424560844898224,
        0.008805638179183006,
        -0.041579652577638626,
        0.01004599779844284,
        0.08017908036708832,
        -0.07417292147874832,
        0.13874635100364685,
        0.01579800434410572,
        0.11321005970239639,
        0.06977168470621109,
        -0.03398054093122482,
        0.0038867320399731398,
        0.06940711289644241,
        -0.04605868086218834,
        -0.08894933015108109,
        -0.10089748352766037,
        0.12235181033611298,
        -0.0009127772646024823,
        -0.016418244689702988,
        -0.0832182839512825,
        -0.05816930532455444,
        -0.07503274828195572,
        0.13206776976585388,
        0.08970218151807785,
        0.1590762436389923,
        0.08137854933738708,
        -0.02860754355788231,
        -0.06213417276740074,
        -0.046041179448366165,
        0.1556636095046997,
        -0.0005080212140455842,
        0.0774775817990303,
        0.14977414906024933,
        0.15177376568317413,
        0.14115095138549805
      ],
      [
        0.10787583887577057,
        -0.003480697749182582,
        0.04740312322974205,
        -0.03599480912089348,
        0.08356647193431854,
        -0.029220638796687126,
        0.09025626629590988,
        0.08560831099748611,
        0.08866239339113235,
        -0.10802427679300308,
        -0.11305221915245056,
        0.11980436742305756,
        0.0441274419426918,
        -0.11938462406396866,
        0.10982047766447067,
        0.008160711266100407,
        0.12502478063106537,
        0.09602770954370499,
        0.10850965976715088,
        -0.053556859493255615,
        0.111483134329319,
        -0.0684933066368103,
        -0.07163330167531967,
        0.06795797497034073,
        0.08976639062166214,
        -0.0324113555252552,
        0.022873908281326294,
        0.02486521005630493,
        0.11129536479711533,
        0.04506824165582657,
        -0.0796758159995079,
        0.028507696464657784,
        -0.033402081578969955,
        0.0864478051662445,
        -0.11751559376716614,
        0.05889398232102394,
        0.10465715080499649,
        -0.07856413722038269,
        0.05997282639145851,
        -0.06953491270542145,
        0.0441119521856308,
        0.03201456740498543,
        0.04788157716393471,
        0.13069882988929749,
        0.04609635844826698,
        0.07595297694206238,
        -0.07187086343765259,
        -0.005025484133511782,
        0.06883405894041061,
        -0.07938853651285172,
        0.07505044341087341,
        0.09402141720056534,
        0.09799403697252274,
        0.05366852134466171,
        0.12415097653865814,
        0.08656903356313705,
        -0.01087476871907711,
        0.10784215480089188,
        -0.0728813111782074,
        0.12062323093414307,
        0.1442376971244812,
        0.05188673362135887,
        0.04574999958276749,
        -0.026796305552124977,
        0.05873030796647072,
        0.016657229512929916,
        0.04521569237112999,
        -0.017236534506082535,
        0.14364305138587952,
        0.10820474475622177,
        -0.005205124616622925,
        0.03330129757523537
      ],
      [
        -0.0320160910487175,
        -0.06364776939153671,
        0.017342979088425636,
        0.008130217902362347,
        0.060495778918266296,
        -0.06362684071063995,
        0.11299488693475723,
        -0.11305828392505646,
        -0.09850120544433594,
        0.08014063537120819,
        0.024819431826472282,
        0.10342112183570862,
        -0.013656903989613056,
        0.13294552266597748,
        0.09560567885637283,
        0.11423783749341965,
        0.03073553740978241,
        0.09689513593912125,
        -0.03744230046868324,
        0.03709446266293526,
        0.06420556455850601,
        0.04862075671553612,
        0.03897344693541527,
        -0.01890668086707592,
        0.00886076781898737,
        0.11207526177167892,
        0.03416114300489426,
        -0.011524250730872154,
        0.08528754860162735,
        -0.0418158583343029,
        -0.07270687818527222,
        -0.0797165259718895,
        0.038229748606681824,
        0.10211940109729767,
        -0.09917350858449936,
        -0.020656323060393333,
        -0.0637558326125145,
        0.16026605665683746,
        0.011221475899219513,
        0.03306001424789429,
        0.1711924821138382,
        0.15859371423721313,
        -0.0383533351123333,
        0.10736274719238281,
        -0.0002466603182256222,
        0.2007574737071991,
        -0.045872218906879425,
        0.08943071216344833,
        0.05034783110022545,
        0.15805478394031525,
        0.057638656347990036,
        0.029627040028572083,
        0.09480836987495422,
        0.09979640692472458,
        0.004721757024526596,
        0.09424439072608948,
        0.07015620917081833,
        0.006918137893080711,
        -0.08726923912763596,
        0.15289834141731262,
        -0.05038079991936684,
        0.15927717089653015,
        0.14229431748390198,
        0.20218564569950104,
        0.00616659177467227,
        0.15517868101596832,
        0.011320982128381729,
        0.1686478853225708,
        0.1120082214474678,
        0.1817568987607956,
        0.1784270703792572,
        0.11887660622596741
      ],
      [
        0.10101929306983948,
        -0.08207760006189346,
        -0.04958184435963631,
        0.0037664021365344524,
        -0.02642800658941269,
        0.1019144356250763,
        -0.015058339573442936,
        -0.0488690547645092,
        0.07526563853025436,
        -0.00045260682236403227,
        0.13850051164627075,
        -0.015916721895337105,
        0.14980758726596832,
        0.1064400002360344,
        0.12635394930839539,
        -0.06609597057104111,
        0.09731430560350418,
        -0.0805613175034523,
        0.05969685688614845,
        0.014368141070008278,
        -0.03536736220121384,
        0.12267553061246872,
        0.04283744841814041,
        -0.049712784588336945,
        0.01927803084254265,
        -0.06646986305713654,
        -0.09737925231456757,
        -0.004939371254295111,
        0.015394346788525581,
        -0.013850901275873184,
        0.05044209584593773,
        0.09712677448987961,
        0.12890438735485077,
        0.10320354253053665,
        0.1442682445049286,
        -0.036313388496637344,
        -0.02608794905245304,
        -0.08326917886734009,
        0.15019528567790985,
        -0.01566486246883869,
        0.12360651046037674,
        0.05084007605910301,
        0.09182791411876678,
        0.046829547733068466,
        -0.050463661551475525,
        -0.052825357764959335,
        -0.07788978517055511,
        0.02430795691907406,
        0.14511322975158691,
        0.09519486874341965,
        0.021680910140275955,
        0.11936832219362259,
        -0.03537030145525932,
        -0.054672129452228546,
        0.10658722370862961,
        -0.08236682415008545,
        0.13148051500320435,
        0.14485161006450653,
        0.15602844953536987,
        -0.009593150578439236,
        0.13236716389656067,
        -0.02248295210301876,
        0.16127972304821014,
        0.12149631232023239,
        -0.059765227138996124,
        -0.024325884878635406,
        0.006564508657902479,
        0.046519629657268524,
        0.12542693316936493,
        -0.0559973418712616,
        0.033231932669878006,
        -0.018470479175448418
      ],
      [
        -0.12301205098628998,
        -0.08810050785541534,
        -0.0518871545791626,
        -0.09409450739622116,
        0.015739329159259796,
        -0.14448273181915283,
        -0.02897728979587555,
        0.043406758457422256,
        -0.019800202921032906,
        -0.0887196809053421,
        0.06059791520237923,
        0.09770303219556808,
        0.06021301820874214,
        0.11805270612239838,
        -0.05922926217317581,
        0.0924699455499649,
        0.036012910306453705,
        0.04110536724328995,
        -0.03077111952006817,
        -0.05573864281177521,
        0.10441659390926361,
        -0.09364903718233109,
        -0.11633793264627457,
        -0.08544237911701202,
        0.044007558375597,
        -0.10900726914405823,
        -0.06516417860984802,
        -0.11774753034114838,
        -0.130354106426239,
        0.05706841126084328,
        -0.11704468727111816,
        -0.12384632974863052,
        -0.10603055357933044,
        0.05930662527680397,
        0.1223418116569519,
        0.08035053312778473,
        0.12145809084177017,
        -0.06429390609264374,
        -0.06751753389835358,
        0.07153806835412979,
        0.12990839779376984,
        0.052690185606479645,
        0.07362368702888489,
        0.09948170185089111,
        -0.10078366100788116,
        0.10637971013784409,
        -0.059125762432813644,
        -0.11586940288543701,
        -0.14025378227233887,
        -0.12429532408714294,
        -0.07347580045461655,
        0.04776390269398689,
        0.011776704341173172,
        -0.025181181728839874,
        0.07611256837844849,
        -0.004845554009079933,
        -0.019085286185145378,
        0.04448680952191353,
        0.040106289088726044,
        0.07077395170927048,
        0.030898677185177803,
        0.16393011808395386,
        0.16306716203689575,
        -0.028591198846697807,
        0.03521379083395004,
        0.017863988876342773,
        0.11098449677228928,
        0.13974638283252716,
        0.031633563339710236,
        0.055249087512493134,
        -0.04278288409113884,
        -0.11059577763080597
      ],
      [
        0.0030786185525357723,
        -0.13240855932235718,
        -0.06173918396234512,
        -0.0036358048673719168,
        0.0880267396569252,
        -0.07128223031759262,
        -0.13293929398059845,
        -0.04956918954849243,
        -0.0637882873415947,
        -0.05441441759467125,
        -0.10810260474681854,
        -0.10241328179836273,
        -0.005586602725088596,
        0.06835965067148209,
        0.10486775636672974,
        0.07085560262203217,
        0.11593756824731827,
        -0.12200474739074707,
        -0.04403919354081154,
        -0.09722762554883957,
        0.0015132707776501775,
        -0.023782391101121902,
        -0.02434573322534561,
        -0.13336800038814545,
        0.08558882772922516,
        -0.10866519808769226,
        0.07438670098781586,
        -0.12938404083251953,
        -0.14026501774787903,
        0.07474198937416077,
        -0.08179312944412231,
        -0.08518471568822861,
        0.06086433306336403,
        0.05678613483905792,
        0.09317456930875778,
        -0.1003202572464943,
        -0.11650572717189789,
        0.11496209353208542,
        0.06273623555898666,
        -0.023473195731639862,
        -0.014709586277604103,
        0.11750080436468124,
        0.008208454586565495,
        -0.010458112694323063,
        -0.13122543692588806,
        -0.1028938889503479,
        0.1015680581331253,
        -0.09769603610038757,
        0.056122615933418274,
        0.06392258405685425,
        -0.03825526311993599,
        -0.015286855399608612,
        0.006412500515580177,
        0.02305074967443943,
        0.06081622093915939,
        0.12439555674791336,
        0.02602311782538891,
        0.07144626975059509,
        0.1295478194952011,
        0.12030138820409775,
        0.13298305869102478,
        0.08640240132808685,
        -0.014741848222911358,
        -0.03809196501970291,
        -0.013129718601703644,
        -0.08604583144187927,
        0.12359756231307983,
        0.061396848410367966,
        0.10939507931470871,
        -0.07534673810005188,
        -0.08974042534828186,
        -0.09377839416265488
      ],
      [
        -0.004548562690615654,
        0.0067295716144144535,
        0.0329708568751812,
        -0.07903367280960083,
        -0.009186146780848503,
        -0.06868880987167358,
        0.05021081864833832,
        0.05726839601993561,
        0.020508844405412674,
        0.04851084202528,
        -0.11715695261955261,
        0.049278419464826584,
        0.007023534271866083,
        -0.08846309036016464,
        0.0003752653137780726,
        0.042348939925432205,
        0.08026503771543503,
        0.11826586723327637,
        0.00743726035580039,
        -0.01589886285364628,
        -0.08563455939292908,
        0.09363455325365067,
        0.019965175539255142,
        0.06534890830516815,
        0.04631074145436287,
        0.1641954928636551,
        -0.05756561458110809,
        0.09873797744512558,
        0.05613616481423378,
        0.07345432788133621,
        0.05742425099015236,
        0.06715181469917297,
        -0.07026546448469162,
        -0.0812939777970314,
        -0.10976720601320267,
        0.0031000073067843914,
        0.08757197856903076,
        -0.013490832410752773,
        0.0933297798037529,
        -0.01967335119843483,
        0.10742899030447006,
        0.041382111608982086,
        -0.03328925743699074,
        -0.014293700456619263,
        -0.04491487517952919,
        0.11778371781110764,
        0.15257924795150757,
        0.1769600212574005,
        0.08382420241832733,
        -0.03799600154161453,
        -0.027204537764191628,
        -0.02571221999824047,
        0.12450703978538513,
        0.1579643040895462,
        -0.06172636151313782,
        0.11621883511543274,
        0.12320224940776825,
        0.00882240291684866,
        0.011908529326319695,
        -0.06988711655139923,
        -0.04487308859825134,
        -0.010035828687250614,
        -0.040255893021821976,
        0.05282909423112869,
        0.07146428525447845,
        -0.05765087902545929,
        -0.001585625228472054,
        0.09567894041538239,
        -0.03383665159344673,
        -0.013201560825109482,
        0.20509301126003265,
        0.13467125594615936
      ],
      [
        0.04204856604337692,
        0.058239974081516266,
        -0.0696815475821495,
        0.07325105369091034,
        0.13610973954200745,
        -0.10548744350671768,
        -0.04944581538438797,
        -0.09151485562324524,
        0.07886489480733871,
        -0.09392210096120834,
        0.0023222004529088736,
        -0.12666518986225128,
        0.054969076067209244,
        -0.01747584342956543,
        0.08327245712280273,
        -0.07563722878694534,
        0.06398080289363861,
        0.09452994912862778,
        0.09066225588321686,
        0.069019615650177,
        -0.09678403288125992,
        -0.06059957668185234,
        0.10290391743183136,
        0.08265627175569534,
        -0.08117165416479111,
        0.11668839305639267,
        0.06111936271190643,
        -0.07430171966552734,
        0.07666822522878647,
        0.04851396754384041,
        -0.07149502635002136,
        -0.035934142768383026,
        0.12965837121009827,
        -0.10036538541316986,
        0.027127403765916824,
        0.08556920289993286,
        0.07672405242919922,
        -0.10545489192008972,
        0.029317541047930717,
        -0.0336151160299778,
        -0.04996449127793312,
        -0.08361615240573883,
        0.009539682418107986,
        0.005859453696757555,
        -0.07053375989198685,
        -0.08304601907730103,
        -0.10230293869972229,
        -0.02797612175345421,
        0.0431663803756237,
        -0.0751153901219368,
        0.09410522878170013,
        0.13162316381931305,
        0.13179689645767212,
        0.0025744647718966007,
        0.03302972391247749,
        -0.09143876284360886,
        0.08567853271961212,
        -0.010944255627691746,
        0.0875343456864357,
        0.05261876806616783,
        -0.10313434153795242,
        0.03423772752285004,
        0.06814675778150558,
        -0.06823393702507019,
        0.0062934635207057,
        0.0914832353591919,
        0.08240406215190887,
        -0.06195535138249397,
        0.11753909289836884,
        -0.022071614861488342,
        -0.038870565593242645,
        0.13983599841594696
      ],
      [
        0.12514030933380127,
        0.022971730679273605,
        0.03665262460708618,
        0.11771116405725479,
        0.05135513097047806,
        0.05042298510670662,
        -0.11517244577407837,
        -0.03352857381105423,
        0.0962606891989708,
        -0.017118724063038826,
        -0.025512980297207832,
        -0.00423420500010252,
        -0.05457719787955284,
        0.0933348536491394,
        -0.0779450461268425,
        0.06465122103691101,
        -0.0007201447733677924,
        0.0528520829975605,
        0.060309793800115585,
        0.1037348210811615,
        0.12426316738128662,
        0.08822472393512726,
        -0.10294269025325775,
        0.09418734908103943,
        -0.005474270321428776,
        -0.10342340916395187,
        -0.02805563621222973,
        -0.10180112719535828,
        -0.0375964418053627,
        0.06753753125667572,
        -0.008271033875644207,
        -0.09634565562009811,
        -0.07861525565385818,
        -0.048320721834897995,
        -0.049106303602457047,
        0.006880509201437235,
        -0.11136648803949356,
        -0.0063697341829538345,
        0.059388116002082825,
        0.10977231711149216,
        -0.08084900677204132,
        -0.023509567603468895,
        0.08410956710577011,
        0.03104124777019024,
        0.1112186536192894,
        -0.05070188269019127,
        -0.025206424295902252,
        -0.06505649536848068,
        -0.008560385555028915,
        -0.09246481955051422,
        0.019838251173496246,
        0.10949087142944336,
        -0.08759690076112747,
        -0.041314173489809036,
        0.12306855618953705,
        -0.047749705612659454,
        0.08492538332939148,
        -0.06883254647254944,
        0.09103577584028244,
        -0.09809957444667816,
        -0.0012679973151534796,
        -0.07870330661535263,
        -0.053387224674224854,
        0.023291178047657013,
        0.1490425020456314,
        -0.0004729117499664426,
        -0.028485605493187904,
        3.680115332826972e-05,
        -0.05570627748966217,
        -0.04740476235747337,
        0.15997657179832458,
        0.1267930269241333
      ],
      [
        0.05290176346898079,
        0.1250441074371338,
        -0.07928787171840668,
        -0.03294340893626213,
        0.12074824422597885,
        -0.06323090940713882,
        -0.0813334733247757,
        0.007392888888716698,
        0.021717438474297523,
        0.10575968027114868,
        0.06659093499183655,
        -0.09229481220245361,
        0.046519551426172256,
        -0.1138535887002945,
        0.02000211365520954,
        -0.04267139732837677,
        0.015267938375473022,
        0.11133117228746414,
        0.0717962309718132,
        0.08929213881492615,
        0.10704249888658524,
        0.061145637184381485,
        -0.08360360562801361,
        -0.028793156147003174,
        -0.10263697803020477,
        0.10715904086828232,
        -0.010104943998157978,
        0.0360538624227047,
        0.06409332901239395,
        -0.03543567657470703,
        -0.09127610176801682,
        -0.09324309974908829,
        -0.1093335971236229,
        0.026596782729029655,
        -0.062284957617521286,
        0.09741463512182236,
        -0.11168620735406876,
        -0.04835643246769905,
        0.09147239476442337,
        -0.0013654406648129225,
        -0.02668721228837967,
        -0.022996583953499794,
        -0.04967547953128815,
        -0.027589082717895508,
        0.08096262812614441,
        0.09842443466186523,
        0.025177180767059326,
        -0.03472539782524109,
        -0.10312316566705704,
        -0.09737139940261841,
        -0.038987897336483,
        0.12379837036132812,
        -0.027353882789611816,
        0.09460751712322235,
        -0.051548540592193604,
        -0.042697735130786896,
        0.03467584401369095,
        0.11007420718669891,
        -0.09139350801706314,
        0.0049861217848956585,
        0.09169996529817581,
        0.02467856928706169,
        0.05444180965423584,
        0.07594464719295502,
        -0.040494002401828766,
        0.12081511318683624,
        -0.08515840768814087,
        0.056809406727552414,
        -0.0034402168821543455,
        -0.04234100505709648,
        0.11811128258705139,
        0.05491597205400467
      ],
      [
        0.09217856079339981,
        -0.0001103897811844945,
        -0.04344835877418518,
        0.15891733765602112,
        -0.058807212859392166,
        0.06442231684923172,
        -0.04208116978406906,
        -0.10184359550476074,
        -0.019682586193084717,
        -0.08879981935024261,
        -0.0459563210606575,
        0.009294014424085617,
        -0.13677766919136047,
        0.005969496443867683,
        0.035687047988176346,
        0.07479897886514664,
        -0.13595077395439148,
        -0.09588488191366196,
        -0.022168096154928207,
        0.010790099389851093,
        -0.012092677876353264,
        0.10384419560432434,
        0.15514345467090607,
        0.08253974467515945,
        0.1620565950870514,
        0.10890912264585495,
        0.1747450828552246,
        0.10080420225858688,
        0.09206569194793701,
        0.017535647377371788,
        -0.03255663812160492,
        0.017519071698188782,
        0.0029973513446748257,
        -0.01822526752948761,
        0.004787111189216375,
        -0.027417175471782684,
        0.0036932453513145447,
        -0.08572918176651001,
        -0.16727037727832794,
        -0.027681482955813408,
        -0.09888845682144165,
        0.014400282874703407,
        0.01819021813571453,
        -0.11635570228099823,
        0.08519625663757324,
        0.08094339817762375,
        -0.0456133596599102,
        0.07172327488660812,
        -0.022710714489221573,
        0.11318933963775635,
        0.027492374181747437,
        -0.023216823115944862,
        0.06783987581729889,
        0.07239498198032379,
        0.007459553889930248,
        -0.0040487563237547874,
        -0.021549135446548462,
        -0.09625741094350815,
        0.10781470686197281,
        -0.023840924724936485,
        -0.022161005064845085,
        -0.11091578751802444,
        -0.048102498054504395,
        0.052733976393938065,
        0.051821447908878326,
        -0.0002390336594544351,
        0.034606270492076874,
        0.10550558567047119,
        0.1636786311864853,
        0.0030029499903321266,
        0.042482901364564896,
        0.056874677538871765
      ],
      [
        -0.05619307607412338,
        -0.011706884019076824,
        0.018344702199101448,
        0.06093790754675865,
        0.035698164254426956,
        -0.05386567488312721,
        -0.09276827424764633,
        -0.09745354950428009,
        0.09250245243310928,
        0.12166928499937057,
        -0.041925396770238876,
        -0.0018033103551715612,
        -0.09172987937927246,
        0.012154676951467991,
        0.1418541967868805,
        -0.10779497772455215,
        0.041529666632413864,
        -0.10136302560567856,
        0.014591371640563011,
        0.11683931946754456,
        -0.0942753478884697,
        0.056635841727256775,
        0.08452334254980087,
        0.042016446590423584,
        -0.1101260855793953,
        -0.06350879371166229,
        0.06885403394699097,
        -0.027867116034030914,
        -0.05620557442307472,
        0.023531343787908554,
        0.020403889939188957,
        -0.06706301867961884,
        0.037653736770153046,
        0.1342417597770691,
        -0.06465701013803482,
        0.03416575863957405,
        -0.08248920738697052,
        -0.07080865651369095,
        0.00472617894411087,
        -0.09837771207094193,
        0.008947422727942467,
        -0.033039066940546036,
        0.0686333179473877,
        -0.10030294209718704,
        -0.04917597398161888,
        -0.020428430289030075,
        0.06655551493167877,
        0.08169510215520859,
        -0.0348660908639431,
        0.0065141175873577595,
        0.04554165154695511,
        0.022850219160318375,
        0.031204672530293465,
        -0.09693662077188492,
        0.09561024606227875,
        0.0023193303495645523,
        -0.08093900233507156,
        0.04452758654952049,
        0.05604325607419014,
        0.05438108369708061,
        0.1644696146249771,
        0.07928992807865143,
        0.04296030476689339,
        0.0996766909956932,
        0.030756115913391113,
        0.12013300508260727,
        0.013369681313633919,
        0.1385502815246582,
        -0.054899249225854874,
        -0.040102675557136536,
        -0.03642504662275314,
        -0.07541478425264359
      ],
      [
        -0.06974524259567261,
        0.025479303672909737,
        0.06159130856394768,
        -0.020108796656131744,
        0.10804527997970581,
        0.11587798595428467,
        -0.02098795399069786,
        0.05894719436764717,
        -0.00013506131654139608,
        0.08018304407596588,
        0.12423989176750183,
        0.14913113415241241,
        0.13503260910511017,
        -0.014609871432185173,
        -0.008843746967613697,
        -0.03270158916711807,
        -0.0010793244000524282,
        0.03511907532811165,
        0.046170543879270554,
        0.09049154072999954,
        0.048592355102300644,
        -0.011605886742472649,
        -0.049433473497629166,
        -0.08369866013526917,
        -0.11185470968484879,
        0.05205659940838814,
        0.07039835304021835,
        -0.03543192520737648,
        -0.08437547832727432,
        -0.05697925388813019,
        0.031058212742209435,
        0.1211153119802475,
        0.09413884580135345,
        -0.014401250518858433,
        0.10905681550502777,
        0.0726134181022644,
        -0.055279187858104706,
        0.082044318318367,
        0.09871257096529007,
        0.0958600789308548,
        0.15164001286029816,
        0.12623997032642365,
        -0.09182298183441162,
        -0.1162545457482338,
        -0.051512014120817184,
        -0.08119696378707886,
        -0.020498789846897125,
        -0.11034088581800461,
        -0.13871340453624725,
        -0.06958816945552826,
        -0.01651645079255104,
        0.07863158732652664,
        0.009417745284736156,
        -0.09400373697280884,
        -0.06839845329523087,
        -0.04239068925380707,
        -0.0003500755119603127,
        0.07487784326076508,
        0.1370668113231659,
        0.15931935608386993,
        0.09784568101167679,
        0.14626286923885345,
        0.010693159885704517,
        0.10823794454336166,
        0.14233292639255524,
        0.13662153482437134,
        -0.07096083462238312,
        -0.038891036063432693,
        0.047442734241485596,
        -0.10225153714418411,
        -0.05829006806015968,
        0.0639079138636589
      ],
      [
        -0.0953914001584053,
        0.048905566334724426,
        0.047885406762361526,
        0.08840589225292206,
        0.0015810178592801094,
        0.13145779073238373,
        0.1078171655535698,
        -0.02961251139640808,
        0.13248774409294128,
        0.10597743839025497,
        0.11511905491352081,
        0.08537159115076065,
        0.028935430571436882,
        0.07540828734636307,
        -0.02817368134856224,
        -0.11029475182294846,
        0.09883654862642288,
        -0.1153341755270958,
        0.0044653769582509995,
        -0.08869442343711853,
        0.07420174777507782,
        -0.03282247111201286,
        0.09331387281417847,
        -0.11351091414690018,
        0.09141981601715088,
        0.05281628295779228,
        0.12589994072914124,
        0.10395940393209457,
        0.025774454697966576,
        0.14047442376613617,
        0.12123825401067734,
        0.0990184098482132,
        0.05519363656640053,
        0.018639106303453445,
        0.005910647101700306,
        0.07265788316726685,
        -0.0711207240819931,
        0.04766963794827461,
        -0.11622451990842819,
        0.09759628772735596,
        0.06202453002333641,
        0.07949947565793991,
        -0.11888783425092697,
        -0.04778735339641571,
        -0.10354936867952347,
        -0.07305998355150223,
        0.08943319320678711,
        0.05428925156593323,
        0.11675121635198593,
        0.12444701790809631,
        0.006409190595149994,
        -0.043985310941934586,
        0.06485413759946823,
        0.056891702115535736,
        0.07899334281682968,
        0.055791907012462616,
        0.14373166859149933,
        -0.04775020852684975,
        0.06662842631340027,
        0.05366098880767822,
        -0.08994453400373459,
        0.012302941642701626,
        -0.022208230569958687,
        -0.08741531521081924,
        -0.023448357358574867,
        -0.05705118924379349,
        0.02584013342857361,
        0.10630245506763458,
        -0.011338404379785061,
        -0.05736485496163368,
        0.07444313913583755,
        0.10650379210710526
      ],
      [
        0.005515431519597769,
        -0.04656093567609787,
        0.02383454516530037,
        0.0894734188914299,
        -0.04183755815029144,
        -0.08892828971147537,
        -0.11166783422231674,
        -0.07101444154977798,
        0.12341252714395523,
        -0.032708026468753815,
        0.10927298665046692,
        0.07415781915187836,
        -0.01359221339225769,
        -0.07763142883777618,
        -0.008617738261818886,
        0.0055101532489061356,
        -0.10015638917684555,
        0.03860551491379738,
        -0.02369270659983158,
        -0.0988248810172081,
        0.022455913946032524,
        0.08133400976657867,
        -0.08725621551275253,
        -0.015743231400847435,
        -0.04704483598470688,
        -0.1267581433057785,
        -0.03264758363366127,
        0.040724072605371475,
        -0.10191954672336578,
        -0.037672363221645355,
        -0.0817650556564331,
        -0.10489897429943085,
        -0.021762818098068237,
        0.12181129306554794,
        -0.020272191613912582,
        0.03806900978088379,
        0.018851401284337044,
        -0.06521598994731903,
        0.07770463079214096,
        -0.06917471438646317,
        0.046830564737319946,
        -0.04567771777510643,
        0.052890896797180176,
        -0.009597208350896835,
        -0.11781028658151627,
        -0.05606892332434654,
        0.0984165146946907,
        -0.07502120733261108,
        0.056257400661706924,
        0.03574094921350479,
        -0.08583510667085648,
        0.05313167721033096,
        0.0498206727206707,
        -0.04541972279548645,
        0.11365856975317001,
        0.0022293406073004007,
        -0.06178664043545723,
        0.08176999539136887,
        -0.01664922945201397,
        0.05942828208208084,
        0.14050161838531494,
        0.12396981567144394,
        0.14246711134910583,
        0.07162819802761078,
        0.08841988444328308,
        0.13431024551391602,
        -0.043973710387945175,
        0.018266994506120682,
        -0.05759035050868988,
        0.05719028785824776,
        0.019505510106682777,
        0.09426672011613846
      ],
      [
        0.036068305373191833,
        -0.04170958325266838,
        0.07596825063228607,
        -0.047785595059394836,
        -0.10187426209449768,
        0.014870315790176392,
        -0.10119561851024628,
        -0.05143067613244057,
        0.04444754123687744,
        -0.09129263460636139,
        0.0810348317027092,
        -0.07303475588560104,
        0.12852472066879272,
        0.12409351766109467,
        0.13416120409965515,
        0.013190891593694687,
        -0.00946617592126131,
        -0.04938079044222832,
        0.10149449110031128,
        -0.0574064701795578,
        0.02770577184855938,
        -0.09913121163845062,
        -0.01677870750427246,
        -0.08815503120422363,
        -0.038800179958343506,
        -0.12434791028499603,
        -0.1303798407316208,
        0.08633920550346375,
        -0.12015804648399353,
        0.02348507009446621,
        -0.02874167636036873,
        0.010065495036542416,
        0.07661061733961105,
        -0.06739405542612076,
        -0.029664847999811172,
        0.1310243159532547,
        -0.07761552184820175,
        0.14812354743480682,
        0.11097095161676407,
        0.0013378491858020425,
        -0.010104609653353691,
        -0.056770432740449905,
        -0.005644629243761301,
        0.021285835653543472,
        -0.11728063225746155,
        -0.04262658208608627,
        0.0663151666522026,
        0.10841081291437149,
        0.11255921423435211,
        -0.11746138334274292,
        -0.10109604150056839,
        0.03850947692990303,
        0.00040840532165020704,
        0.014700883999466896,
        0.01976458914577961,
        0.000423941935878247,
        0.1430351734161377,
        -0.05167394131422043,
        -0.041437551379203796,
        0.0023918687365949154,
        0.04431408271193504,
        -0.05498664453625679,
        0.1422654688358307,
        -0.02528979443013668,
        -0.0018306919373571873,
        -0.031472209841012955,
        -0.06764498353004456,
        0.08024658262729645,
        0.05773356929421425,
        0.10329656302928925,
        -0.1178298369050026,
        -0.0793306902050972
      ],
      [
        0.016556909307837486,
        -0.12893448770046234,
        -0.14621484279632568,
        -0.058478016406297684,
        -0.04894004017114639,
        -0.0683535635471344,
        -0.07548260688781738,
        -0.015486892312765121,
        -0.08782073110342026,
        0.091088205575943,
        -0.1384372115135193,
        0.007855563424527645,
        -0.04606768861413002,
        -0.008826151490211487,
        -0.11755724996328354,
        0.004536027554422617,
        -0.14948906004428864,
        -0.005055726505815983,
        -0.12375376373529434,
        -0.04773113876581192,
        -0.08731905370950699,
        0.07940807938575745,
        -0.05333937332034111,
        -0.09130349010229111,
        0.019815651699900627,
        -0.07867029309272766,
        0.025855116546154022,
        -0.10859355330467224,
        -0.051976289600133896,
        -0.045061998069286346,
        -0.04176563397049904,
        -0.06842947006225586,
        -0.05564003437757492,
        -0.06596206873655319,
        0.03939661383628845,
        0.05282263830304146,
        0.02386993169784546,
        0.07851304113864899,
        0.06263425946235657,
        -0.09840667247772217,
        -0.0478818379342556,
        0.0848945751786232,
        -0.048396311700344086,
        -0.060499660670757294,
        0.042846594005823135,
        -0.018024666234850883,
        -0.03720821812748909,
        -0.0974937304854393,
        0.011514302343130112,
        -0.12436383962631226,
        -0.026306454092264175,
        0.027097992599010468,
        -0.056741874665021896,
        0.015578328631818295,
        -0.02278110757470131,
        0.009414133615791798,
        0.10603539645671844,
        0.0005375836626626551,
        -0.11841114610433578,
        0.051297105848789215,
        -0.006231847684830427,
        -0.12961389124393463,
        -0.022394655272364616,
        0.08159440010786057,
        -0.09608031809329987,
        0.08663182705640793,
        0.06338288635015488,
        -0.13424941897392273,
        -0.018976006656885147,
        -0.13338403403759003,
        -0.15043139457702637,
        0.06891512870788574
      ],
      [
        -0.12382443994283676,
        0.045113999396562576,
        0.004315304569900036,
        -0.03249866142868996,
        -0.0793798565864563,
        0.0737832635641098,
        0.012065385468304157,
        0.023440875113010406,
        0.08575867116451263,
        0.08230383694171906,
        -0.027766572311520576,
        0.028605692088603973,
        0.07257065176963806,
        0.04589947685599327,
        0.010589688085019588,
        0.10835215449333191,
        -0.04501247778534889,
        0.061521001160144806,
        -0.052821192890405655,
        -0.009165365248918533,
        -0.040297623723745346,
        -0.16040289402008057,
        0.08503255993127823,
        -0.04290476068854332,
        0.05168686434626579,
        -0.10866594314575195,
        0.08013616502285004,
        -0.1278316229581833,
        0.06105836480855942,
        0.09134728461503983,
        0.09181183576583862,
        0.03442476689815521,
        0.09699799865484238,
        0.14180982112884521,
        0.010012762621045113,
        0.06348960846662521,
        0.044483013451099396,
        -0.05787556990981102,
        -0.06067884340882301,
        -0.04280666634440422,
        -0.036409806460142136,
        0.03707839921116829,
        -0.13431613147258759,
        0.023707278072834015,
        -0.031893741339445114,
        -0.13321979343891144,
        -0.08260225504636765,
        -0.11526461690664291,
        -0.004647217225283384,
        -0.07109714299440384,
        -0.10534403473138809,
        0.06519173830747604,
        0.08234249800443649,
        0.05081332474946976,
        0.06033902242779732,
        -0.05812905728816986,
        -0.06527011841535568,
        0.06330452114343643,
        -0.06561903655529022,
        0.05649738758802414,
        0.07157798111438751,
        0.03083297237753868,
        -0.034716181457042694,
        0.06102890148758888,
        -0.05167952924966812,
        -0.06983351707458496,
        -0.08833719789981842,
        -0.12295695394277573,
        -0.13871486485004425,
        -0.036064449697732925,
        0.04229622334241867,
        -0.12810799479484558
      ],
      [
        -0.08393151313066483,
        0.07299449294805527,
        0.03555427864193916,
        0.012806492857635021,
        -0.04009911045432091,
        -0.0167106743901968,
        0.10807950794696808,
        0.13917358219623566,
        0.06991846859455109,
        -0.07236327230930328,
        -0.02124975621700287,
        0.06269755214452744,
        0.11140565574169159,
        0.009336786344647408,
        0.08406990766525269,
        0.1025271937251091,
        -0.01529683917760849,
        0.11950812488794327,
        -0.06879661232233047,
        0.07408750802278519,
        -0.05400713160634041,
        0.1163165420293808,
        0.12164127826690674,
        0.06594644486904144,
        0.02479296177625656,
        -0.015118516981601715,
        0.14038324356079102,
        -0.04009700566530228,
        -0.007199143525213003,
        0.01671900786459446,
        0.04284745082259178,
        -0.07242240011692047,
        0.12551112473011017,
        0.11426684260368347,
        0.01941969431936741,
        -0.056606534868478775,
        -0.09946030378341675,
        -0.08193296194076538,
        0.04555412009358406,
        -0.06866377592086792,
        0.054533544927835464,
        0.030614789575338364,
        0.07377849519252777,
        0.13260270655155182,
        0.11495264619588852,
        0.06632630527019501,
        0.06508836895227432,
        0.02352815866470337,
        0.0009690061560831964,
        -0.06282569468021393,
        -0.01794859766960144,
        0.12348666042089462,
        0.11498592048883438,
        -0.03784547746181488,
        -0.0669490173459053,
        0.08614692836999893,
        0.056112971156835556,
        0.05716145411133766,
        0.06970850378274918,
        0.0625237450003624,
        0.08715949207544327,
        -0.03579818457365036,
        0.10768640041351318,
        0.10182774811983109,
        0.01634380593895912,
        -0.06075796112418175,
        -0.00360236712731421,
        0.11660994589328766,
        0.12481280416250229,
        0.03276680409908295,
        -0.06049376353621483,
        0.0340048149228096
      ],
      [
        -0.08630619198083878,
        -0.08637253940105438,
        -0.01984359510242939,
        0.01845782808959484,
        0.03731025010347366,
        -0.04146071523427963,
        0.08880763500928879,
        0.01054308284074068,
        0.006892807316035032,
        -0.03949730098247528,
        0.05565290153026581,
        0.011764406226575375,
        0.024717457592487335,
        0.17536982893943787,
        0.10402239114046097,
        0.12009840458631516,
        -0.03176094964146614,
        -0.01562518998980522,
        0.12874236702919006,
        0.0011855743359774351,
        -0.010383141227066517,
        0.14035077393054962,
        0.08776148408651352,
        0.09323585033416748,
        0.022938385605812073,
        0.12030832469463348,
        0.05906711891293526,
        0.07783479243516922,
        0.04571789875626564,
        0.1534855216741562,
        0.046612586826086044,
        0.05034419149160385,
        0.14857321977615356,
        -0.021776460111141205,
        0.07507184892892838,
        0.038007840514183044,
        0.12366732209920883,
        0.046964019536972046,
        -0.010880572721362114,
        -0.03264313563704491,
        0.020833749324083328,
        0.13845834136009216,
        0.09496563673019409,
        0.03337802365422249,
        0.0994587168097496,
        -0.014847655780613422,
        0.12492310255765915,
        -0.019375029951334,
        0.06548910588026047,
        0.0901881530880928,
        0.1306365579366684,
        -0.058566585183143616,
        0.03733452782034874,
        0.06544259935617447,
        -0.025410495698451996,
        0.2040865421295166,
        0.15402822196483612,
        0.16621483862400055,
        0.09860610216856003,
        0.14018917083740234,
        0.1930130422115326,
        0.02653338760137558,
        0.16833944618701935,
        0.0520208403468132,
        0.11532962322235107,
        0.13761524856090546,
        0.033147312700748444,
        0.17683789134025574,
        0.18220233917236328,
        0.009520420804619789,
        -0.033106643706560135,
        -0.055898115038871765
      ],
      [
        0.0032506282441318035,
        0.023023778572678566,
        -0.07675698399543762,
        0.06893765181303024,
        -0.006062443368136883,
        -0.13680273294448853,
        -0.09782908111810684,
        -0.14410828053951263,
        -0.12921419739723206,
        0.05257586017251015,
        -0.01250914204865694,
        -0.07602965831756592,
        0.003273041220381856,
        -0.1264551877975464,
        0.010897546075284481,
        -0.023521652445197105,
        0.011620054952800274,
        0.08472289144992828,
        -0.035360462963581085,
        -0.10084740817546844,
        0.006596312392503023,
        0.09065340459346771,
        0.09351495653390884,
        -0.06207652390003204,
        -0.096734419465065,
        -0.07610177993774414,
        -0.04976995289325714,
        0.007180919870734215,
        -0.002292672172188759,
        0.07961259037256241,
        -0.05033104121685028,
        -0.07892028987407684,
        -0.01802515983581543,
        0.043468378484249115,
        -0.06649097800254822,
        -0.0644521713256836,
        0.021516505628824234,
        0.11120283603668213,
        -0.10695720463991165,
        0.10458339005708694,
        -0.03691151365637779,
        0.020294057205319405,
        -0.07400357723236084,
        0.09071417152881622,
        -0.08794914931058884,
        0.11776651442050934,
        -0.024562086910009384,
        -0.11527719348669052,
        -0.0287715382874012,
        -0.13556674122810364,
        -0.09129688888788223,
        0.08964194357395172,
        -0.06649231910705566,
        -0.03945067524909973,
        -0.09072902798652649,
        -0.024360038340091705,
        -0.13574065268039703,
        -0.05091431736946106,
        -0.07822345197200775,
        -0.11812128871679306,
        -0.09519238024950027,
        -0.021344736218452454,
        -0.04502711817622185,
        0.07522964477539062,
        0.07161717861890793,
        0.09961318969726562,
        0.05883847177028656,
        0.1316034495830536,
        -0.025603024289011955,
        0.1359899938106537,
        -0.0015825806185603142,
        0.09168439358472824
      ],
      [
        0.1128329187631607,
        -0.04330777749419212,
        -0.0024000455159693956,
        -0.026463190093636513,
        -0.07367641478776932,
        0.05932585150003433,
        -0.08426274359226227,
        -0.10769715905189514,
        0.010434143245220184,
        0.010281066410243511,
        0.02285896986722946,
        -0.07875164598226547,
        -0.0017053387127816677,
        0.040311332792043686,
        -0.057644136250019073,
        0.031657908111810684,
        0.0793883204460144,
        -0.12096424400806427,
        -0.1018449142575264,
        0.04733938351273537,
        -0.1044963151216507,
        -0.014667712152004242,
        -0.04237636923789978,
        -0.028114445507526398,
        0.12199345231056213,
        0.04831579327583313,
        -0.11288458108901978,
        -0.012355512008070946,
        0.0743471160531044,
        0.10976370424032211,
        -0.0471639521420002,
        0.11654632538557053,
        0.09050600230693817,
        -0.11622410267591476,
        -0.06474142521619797,
        -0.0018267788691446185,
        0.1170845702290535,
        -0.10947716981172562,
        -0.10025525838136673,
        -0.12591500580310822,
        0.044527631253004074,
        -0.0035321232862770557,
        -0.12377388030290604,
        -0.09111426025629044,
        0.09611569344997406,
        0.10540739446878433,
        0.08633212000131607,
        -0.05172324180603027,
        -0.08462703227996826,
        -0.10890556871891022,
        -0.08490219712257385,
        0.13180841505527496,
        0.09316451847553253,
        0.12315725535154343,
        -0.10370101034641266,
        -0.03379175066947937,
        0.078761026263237,
        -0.10566134005784988,
        0.031435608863830566,
        -0.06322126090526581,
        -0.09674599766731262,
        0.08980506658554077,
        0.0339973010122776,
        -0.09596670418977737,
        0.06668177247047424,
        -0.08077342063188553,
        -0.06840991973876953,
        0.0902877002954483,
        -0.00822458229959011,
        -0.09085315465927124,
        0.12200748175382614,
        0.07524487376213074
      ],
      [
        -0.06205203756690025,
        -0.12700298428535461,
        0.010164646431803703,
        -0.10438574105501175,
        -0.02776869758963585,
        -0.13739533722400665,
        -0.1271008551120758,
        -0.054379791021347046,
        0.05853511765599251,
        -0.012412333860993385,
        0.025059465318918228,
        -0.019975833594799042,
        -0.1439466029405594,
        -0.10945147275924683,
        0.08449361473321915,
        0.054809167981147766,
        -0.061287831515073776,
        0.0753394216299057,
        -0.11400795727968216,
        0.09446762502193451,
        -0.10088767856359482,
        -0.08629009127616882,
        0.045792315155267715,
        -0.09107502549886703,
        0.032732125371694565,
        -0.12018153816461563,
        -0.14844638109207153,
        -0.15590421855449677,
        -0.11174764484167099,
        0.026383886113762856,
        -0.10451684147119522,
        0.04937629774212837,
        -0.046268511563539505,
        0.05308070033788681,
        0.02178085967898369,
        -0.03915944695472717,
        -0.12535221874713898,
        -0.002165062353014946,
        -0.06967812776565552,
        -0.11011037230491638,
        -0.052706528455019,
        -0.02090364694595337,
        0.09937962889671326,
        0.009067022241652012,
        -0.07935336232185364,
        0.07235123217105865,
        0.04774137958884239,
        -0.14198166131973267,
        -0.005492468364536762,
        -0.14800424873828888,
        -0.02831375226378441,
        0.04220202937722206,
        0.07040204107761383,
        -0.03624694049358368,
        -0.15246285498142242,
        0.012836214154958725,
        0.09606865048408508,
        -0.12363650649785995,
        0.09713973104953766,
        0.09605461359024048,
        -0.11861918866634369,
        -0.019644880667328835,
        0.04578438028693199,
        -0.04311053454875946,
        -0.051737673580646515,
        0.11807945370674133,
        0.01575581543147564,
        -0.01962818019092083,
        -0.06940612196922302,
        0.04940856620669365,
        -0.03210402652621269,
        0.09467123448848724
      ],
      [
        0.1040252074599266,
        0.052836474031209946,
        0.11480890214443207,
        0.09949031472206116,
        -0.0568736232817173,
        -0.09377467632293701,
        0.054488155990839005,
        -0.09815052151679993,
        -0.08995760977268219,
        -0.09520839154720306,
        0.022967061027884483,
        0.002980273449793458,
        0.020754624158143997,
        0.008191503584384918,
        -0.11141230911016464,
        0.045718275010585785,
        -0.04483805596828461,
        -0.14847739040851593,
        -0.1168605163693428,
        -0.1078290045261383,
        -0.0281435064971447,
        0.00888606533408165,
        0.11033711582422256,
        -0.017557762563228607,
        0.10545922815799713,
        0.030372926965355873,
        -0.07940144836902618,
        0.13069966435432434,
        0.04399349167943001,
        -0.015809662640094757,
        -0.026058468967676163,
        0.15263968706130981,
        0.08662281930446625,
        0.11896990239620209,
        0.041380997747182846,
        -0.10493006557226181,
        0.0675775557756424,
        -0.11717301607131958,
        -0.08473949879407883,
        -0.06691459566354752,
        -0.12338512390851974,
        0.007125353440642357,
        0.09254727512598038,
        -0.1116800606250763,
        0.08726892620325089,
        0.041651252657175064,
        -0.10621923208236694,
        0.06888632476329803,
        -0.06747885793447495,
        0.11763060837984085,
        0.04024224355816841,
        0.09768327325582504,
        -0.0186314657330513,
        0.09437103569507599,
        0.07965487241744995,
        -0.02025514282286167,
        0.08051910251379013,
        0.13284675776958466,
        0.10252548009157181,
        0.0022644144482910633,
        0.1082356721162796,
        -0.10459408164024353,
        -0.12472934275865555,
        -0.004664706066250801,
        -0.1087619811296463,
        0.11044999212026596,
        -0.10974154621362686,
        -0.08321736752986908,
        0.1466384381055832,
        0.09212084114551544,
        0.0864812582731247,
        -0.03566395863890648
      ],
      [
        -0.009867360815405846,
        0.02211393229663372,
        0.07510898262262344,
        0.11184635013341904,
        -0.04224981367588043,
        0.10869947820901871,
        0.09668779373168945,
        0.09976661205291748,
        -0.04802751913666725,
        0.08675123006105423,
        -0.08302192389965057,
        0.043426528573036194,
        0.009752949699759483,
        0.08099766820669174,
        0.06241457536816597,
        -0.08949834853410721,
        -0.037770505994558334,
        0.09344482421875,
        -0.024335592985153198,
        0.03052685782313347,
        -0.09442111849784851,
        0.04729278385639191,
        -0.06312277913093567,
        0.013412060216069221,
        -0.032554324716329575,
        0.015896422788500786,
        0.03618280217051506,
        0.08987423032522202,
        -0.03530032932758331,
        0.0874054878950119,
        -0.08890831470489502,
        0.11130421608686447,
        -0.11445993185043335,
        0.09265588223934174,
        -0.08078868687152863,
        0.048634275794029236,
        0.04993247613310814,
        0.05674593150615692,
        0.03573203459382057,
        0.03632745519280434,
        -0.06030411645770073,
        -0.05998529493808746,
        0.10704779624938965,
        0.07122445106506348,
        -0.05076903477311134,
        0.06848438084125519,
        0.10450048744678497,
        0.022449206560850143,
        -0.031159033998847008,
        0.05988335981965065,
        -0.02297341078519821,
        -0.021845681592822075,
        -0.022383958101272583,
        0.16287904977798462,
        -0.06584389507770538,
        0.11523213982582092,
        0.0028725587762892246,
        -0.012611228972673416,
        -0.08958760648965836,
        -0.06690691411495209,
        -0.03301604092121124,
        0.09478989243507385,
        -0.08105818182229996,
        -0.04605691879987717,
        -0.022708633914589882,
        0.09035199135541916,
        -0.028193727135658264,
        -0.05879129841923714,
        -0.07384414225816727,
        0.03153026103973389,
        0.1621689349412918,
        0.10707708448171616
      ],
      [
        -0.0825997143983841,
        -0.05178483948111534,
        -0.008604178205132484,
        0.1279178112745285,
        -0.0681905671954155,
        -0.008633428253233433,
        0.029734747484326363,
        0.06255008280277252,
        -0.10878937691450119,
        -0.11012136191129684,
        0.09879148751497269,
        -0.053021613508462906,
        0.09797722846269608,
        -0.06033991649746895,
        -0.023270349949598312,
        -0.016394099220633507,
        0.07858927547931671,
        0.0488210991024971,
        -0.05238175764679909,
        -0.0023642058949917555,
        0.008900574408471584,
        0.0366702601313591,
        -0.04623987525701523,
        0.058693453669548035,
        0.11637955158948898,
        -0.07697911560535431,
        0.023014046251773834,
        -0.07848873734474182,
        0.1049015000462532,
        -0.010459431447088718,
        0.0063066803850233555,
        0.11452130973339081,
        0.03187358379364014,
        -0.06082938611507416,
        -0.1049753949046135,
        -0.08045095205307007,
        -0.06952711939811707,
        -0.06224127858877182,
        0.05866999179124832,
        0.03939802199602127,
        -0.07855774462223053,
        0.1324511468410492,
        0.14376096427440643,
        -0.09054623544216156,
        -0.07873331755399704,
        0.1046881303191185,
        0.14600808918476105,
        0.04757344350218773,
        -0.019779231399297714,
        -0.07789313793182373,
        0.11458425968885422,
        0.05942844972014427,
        0.04853925481438637,
        0.07211557030677795,
        -0.04094233736395836,
        0.06499406695365906,
        0.03265124559402466,
        0.11651189625263214,
        0.07019587606191635,
        0.11619599163532257,
        0.05469783768057823,
        0.03534054011106491,
        0.07776234298944473,
        0.08814707398414612,
        -0.0011206499766558409,
        0.08401502668857574,
